/**
  ******************************************************************************
  * @file    weights/fc.cc
  * @author  Pierre-Emmanuel Novac <penovac@unice.fr>, LEAT, CNRS, Université Côte d'Azur, France
  * @version 1.0.0
  * @date    24 march 2020
  * @brief   Template generating plain C code for the implementation of Convolutional Neural Networks on MCU
  */

#define INPUT_SAMPLES 200
#define FC_UNITS 200


const int16_t dense_11_bias[FC_UNITS] = {-2, -3, -5, -4, -4, -4, -3, -4, 0, -2, -2, 5, 0, -3, -2, -6, -4, 12, -7, 0, 0, 0, 0, -4, 1, -1, -1, -10, -2, -1, -2, -3, -1, -2, -2, 1, -2, 0, -1, -2, -3, 1, 0, 0, -4, -4, 2, -4, 0, 0, -3, -3, -2, 0, 0, 0, 0, -2, 2, -6, 3, 1, 0, 0, 0, -2, -2, -5, 0, 4, 1, 0, -3, 2, -1, 4, -7, -2, -4, 0, 0, 0, -2, 0, -3, 0, -4, 0, 0, -3, -4, -3, 0, -3, 0, 2, -2, 0, -1, -2, -3, -3, -4, 3, -1, -3, 4, 1, -2, 3, -2, -1, 2, -2, 3, -3, 0, -1, 0, -3, 0, -6, 2, 0, 0, -4, -7, -2, 3, 0, -3, -2, 1, -3, 0, -5, 1, -3, -2, -3, 1, -3, -2, 0, 1, 0, -5, -2, 0, -2, 3, 0, 0, 1, -2, -3, -4, 2, 0, -7, -3, -2, -1, 5, -3, 0, -2, -2, 0, -3, 4, 1, -2, 0, 2, 0, -2, 6, 0, -4, -1, -2, 1, 0, -2, -5, -1, 0, 0, -3, -2, -3, 0, 2, -4, -4, -3, 4, -3, -5}
;

const int16_t dense_11_kernel[FC_UNITS][INPUT_SAMPLES] = {{-35, -52, -42, 32, 26, 25, -10, 2, -27, 8, -38, 26, -45, 58, 50, 39, -39, -35, 35, -22, 53, -48, 11, -57, 1, -15, 1, -58, 19, 25, 23, -7, 54, 34, 2, -30, 14, 54, -53, 27, -57, -4, 20, -50, -4, -32, 15, 56, 15, -23, 35, 38, -27, 59, 42, -43, 60, 28, -26, -57, -32, 18, 55, -44, -29, 38, -43, -55, -42, -57, 6, 1, -40, -47, -36, 22, -54, 52, 44, 57, -47, 15, 52, 4, -7, 32, 10, -31, -54, -9, -6, 9, -23, -46, 41, -34, 6, 52, -27, -5, 10, -43, -40, -49, 29, -18, -23, -11, 6, -35, 4, -20, 18, 29, -25, -61, -43, -11, 24, 28, 0, -55, -26, -20, -11, 38, -41, 9, -57, -58, 41, 0, 27, 18, 2, 28, 56, 30, 30, 27, 4, 39, 10, 41, 20, 58, 0, 10, -46, -43, -60, -2, 18, 34, -46, -2, 4, -45, 38, 42, -19, 54, 13, 30, 59, -49, -44, -32, 34, -51, -52, -24, 16, 39, 59, 35, 11, 43, -8, 16, -6, -10, -61, -13, 44, 59, -42, 29, -13, 4, 48, -29, 52, -33, -47, 57, 42, 28, -42, 44}
, {-17, 22, 33, 51, 21, 60, -63, -66, -27, 48, 43, -9, 13, -56, 0, 45, 50, 32, 2, -36, 22, -47, -58, -48, 1, 44, -25, 34, -51, 50, 48, 40, -28, 41, -43, 35, 2, -3, 60, -54, 33, 25, -9, -32, -37, 29, -47, 58, 7, 32, -38, -38, -24, 34, 47, 34, -13, 51, 3, -34, -53, -23, 43, 41, 51, 41, 4, 51, 52, -17, -14, 9, -18, 7, -43, 50, -56, 48, 41, 52, 3, -38, -2, -48, 14, 33, 44, 27, -54, 4, 58, -50, 0, -14, 24, 16, -9, 42, -57, -38, -41, -67, 13, -30, -45, -40, -37, -20, -36, -41, 15, -4, -58, 56, 8, 35, 11, -44, 24, -64, -5, -13, -31, -61, 11, 12, 57, -8, 10, -32, 11, -17, 42, 53, -63, 28, 2, 53, -39, 12, -23, 6, -53, 49, -53, 34, -12, 66, 15, -57, -26, -5, -1, -8, -16, 16, -35, 15, 58, 19, -24, 59, -20, -50, -54, 5, 36, 27, 43, 35, 23, -15, 5, -30, -59, 8, 31, -1, -42, -33, -46, -17, -21, 45, 61, 52, 0, -30, -39, 51, -52, -21, -56, -48, -48, -24, -61, 54, -35, 13}
, {44, 0, -58, 44, 0, -22, -28, 28, -1, 8, 41, -33, -18, 6, -42, 84, 16, 36, 25, -51, -17, -35, -23, 10, 38, -54, -69, 30, 37, 55, -14, -22, -36, 77, -45, -60, -18, 34, 42, 47, 19, 44, 60, -55, 27, 18, 56, -27, 26, 3, 38, -28, 58, 20, -26, 59, 46, 49, -29, 8, 0, 56, -40, -35, -4, 70, -49, 17, -1, 45, 39, -23, 18, 46, 25, -37, 34, 25, 16, 54, 18, 29, -9, -34, 43, -49, -14, 41, -41, -4, 48, -39, -13, 39, 57, 24, -42, 2, -34, 28, -56, 19, 43, -44, 13, 16, -32, -51, 21, -62, 31, 35, -40, 17, 45, -39, 60, -26, -23, 17, -14, -54, 39, 36, -33, -36, -11, -8, -47, -10, -44, 2, 20, 48, -23, 15, 13, 33, 10, -5, 0, 1, 50, -47, 23, 45, 21, -20, -48, 32, -39, 6, 45, -25, -3, 53, 50, -18, -31, 16, 43, 13, 55, 0, 21, 52, 64, 36, -53, 60, 40, -38, -5, -16, 15, -54, 23, -44, -13, -67, -38, -53, -48, -30, 9, 21, -53, -35, -41, 42, 24, -15, 42, 36, 18, -59, -53, 2, 26, -70}
, {34, -23, -39, -38, -6, -22, 54, 15, -60, 10, -50, -47, -44, -32, -12, -43, 15, -39, 43, -33, 19, 35, 29, 57, 58, -34, -29, -40, -11, -34, -7, 6, 36, 50, -35, -13, -40, -55, -30, -35, -54, 22, 43, -12, -41, 25, 5, -4, -23, 4, 50, -50, 12, 43, 5, -37, -7, -61, 57, -58, -43, 51, 62, 23, 17, -48, -8, 19, -15, -63, 29, -48, -8, -62, 26, 49, 7, 9, -5, -37, 1, -61, -35, -52, -31, -35, 25, -1, -2, -57, -8, 1, 28, -19, 20, 24, 18, -32, 60, -31, -55, -32, 11, 62, 43, -56, 12, -46, 48, 56, 30, 53, -29, -7, 28, 2, -1, 7, 40, -7, 4, -2, -23, 19, -52, -27, -41, 38, -31, 27, -31, -56, -25, 10, -11, 5, -61, 49, -56, -40, 42, 43, -20, -24, -42, -8, -21, 17, 21, -19, -62, 57, 1, -61, 29, -35, -22, -59, -34, 47, -40, 18, -60, 45, 38, 43, -57, -50, -57, -56, 12, -13, -56, 0, 44, 5, 38, -24, 15, -38, -18, 20, 22, -44, 31, -7, -59, -49, -63, -19, -30, -38, -14, -1, -7, 7, 11, 21, 17, -11}
, {26, 49, 23, -35, 57, -48, 27, -44, -64, -36, 33, 13, -15, 55, 25, 50, -28, 36, -27, 16, 32, -55, 58, 9, 9, -28, -40, -38, -15, -41, 17, -26, -8, -10, -40, 53, -3, 39, 83, 26, -23, -21, 39, -60, -38, -2, -49, 9, -16, 18, -20, 25, 30, 51, 52, -60, -47, 23, 23, -4, -33, 57, -25, -49, 1, 51, 44, -45, 10, 2, 18, 35, -20, -34, -13, -39, 12, 57, 24, 52, -2, 15, 45, 29, -96, 44, 15, -17, -15, 30, -33, 16, 50, 27, -28, -35, -18, 47, 57, -37, -5, -15, 0, 18, -24, 11, 24, -42, -8, 45, -56, 41, -1, -51, -22, 14, 23, -55, 11, 6, 24, -62, 8, -41, 50, 7, -6, -13, -66, 36, 22, -3, 23, 58, 12, -1, 61, -17, -63, -30, -19, -37, 53, -53, 2, 46, -52, -2, -2, -27, -56, 13, 31, -25, 22, 53, -58, -50, -6, 56, 20, -17, 25, -3, -27, 49, 32, 36, -41, 15, 0, -1, 23, 40, -47, -43, 16, -39, -43, 52, -48, -45, 10, 27, 11, 2, -49, 0, 40, 3, 32, 30, 55, -16, 25, 43, 33, 8, 35, 9}
, {34, -18, 47, 2, -61, -50, -29, 5, -13, -4, 27, -19, -33, 53, 33, 82, -25, 20, 54, -40, -56, 13, -56, 30, -23, 47, 43, 11, 1, 42, -49, -4, 0, -8, -75, 33, -58, -14, -34, 24, -47, 49, -43, 12, 49, 40, 5, -57, 42, -13, 40, 46, -10, 22, -55, 38, -20, -60, 31, 50, -52, -58, 26, 44, 5, -56, 30, 18, 29, 59, 5, -10, 48, 55, 59, 49, 49, 55, 61, -42, -39, 1, 47, -38, 81, 26, 36, 4, 61, -54, 42, -3, -27, -32, 60, -53, -1, 7, -37, 58, -35, -2, 51, 42, -98, -34, -57, 34, -20, 21, 40, 1, -49, -7, -33, -21, -4, 31, -27, 5, -8, -26, -56, 26, -47, -45, 31, 23, 40, 20, -50, 28, -13, -43, -59, 49, -43, -58, -18, -53, -1, -59, 50, -30, -17, -54, 9, 14, 44, -7, 54, -2, 17, -44, -18, -28, 12, -55, 49, -36, -6, -53, -24, -26, 4, 30, 24, 19, -1, -29, 85, 48, 6, -1, -11, 50, 15, -17, 0, -52, -20, 30, -46, 58, 33, -11, 44, 44, 14, 54, 17, 35, 3, -9, 15, -23, 31, 9, -19, -51}
, {36, -49, -53, 2, 25, 1, 39, 34, -9, -27, 4, 5, 58, 41, -26, -20, -33, -3, 5, 2, 5, -54, 55, -54, -32, 6, 10, 46, -53, -2, -48, 48, -14, -4, 10, 20, 44, 3, 51, 41, 42, -17, -20, 52, -39, -25, 37, -37, 51, 35, -56, -43, -19, -53, 54, -25, 1, 1, 9, 41, 50, 25, 57, 24, 52, 35, -64, -9, 44, -42, -16, 3, 37, -55, 30, -58, -18, 39, -19, 18, 27, -28, -39, -25, -3, 54, -45, 27, -52, 27, -47, -61, -10, -34, -24, 16, 18, -2, 27, -21, 8, -3, -60, -59, 17, -47, 9, -43, 59, -59, 36, -36, -35, -3, -23, 26, -18, -33, -30, 19, 34, 9, -46, 24, 2, -52, 43, -38, 19, 39, 29, -39, -34, -9, 17, -9, -60, -51, 37, 36, 24, -15, -33, 11, 56, 47, -8, 32, -38, -6, 16, -26, -49, 13, 25, 1, -37, 18, -45, 56, 53, -61, -11, 59, 15, -56, -13, -6, 57, -11, -7, 8, 8, 24, -8, 46, -37, 9, 26, -61, -59, 40, -41, 0, 46, -53, 42, -7, -28, -61, 20, 38, -20, 37, -24, 44, -53, -29, -34, -27}
, {25, 33, -58, -44, -3, -20, 59, 22, -7, 17, 24, 22, -1, 32, -24, 0, 36, 41, 33, 43, -8, -64, 24, 13, -65, -1, -63, -58, 18, 20, 61, 45, 37, 15, -63, 33, -64, 35, 45, 53, 38, -61, -48, -32, -60, -57, 5, -1, -22, 32, -13, 6, -40, 14, -2, -25, -47, -5, -27, 59, -15, -41, -12, 26, -47, 42, 4, 15, 20, -12, 12, 1, 27, -30, -26, -37, 55, -47, 8, 6, -22, 52, 68, -52, 108, -33, 41, 58, 34, -52, -21, 43, -50, -7, 31, 46, 29, 69, 38, -45, 35, 37, -52, 62, 34, -53, 42, 50, -24, 23, -4, 27, 17, -4, 68, 2, 51, 2, -21, 47, 31, -13, 47, -27, 53, -33, 56, -16, -64, 1, -49, 7, -52, -35, 16, 47, 57, 25, 12, 25, -41, -62, 20, 48, 51, 12, 42, 23, 45, 43, -8, -27, -18, 9, -34, -59, 73, 14, -27, 37, -31, -32, -47, -49, -35, -14, -16, -26, 20, 8, 32, 9, 34, -1, -46, -38, 52, 5, 11, -3, -33, -38, -10, 21, 32, 1, -42, -44, 47, -46, 2, -14, 8, -7, -52, -52, 55, -18, -33, 54}
, {-2, -2, 13, 53, -39, 30, 44, 0, 7, 60, 36, -47, 61, 12, -6, 27, -41, -41, -49, -42, -45, -9, -21, 23, 11, -41, -5, -57, 3, -28, -9, 9, 32, 33, 53, -10, 14, 23, 31, -26, 20, -14, -37, 10, -26, 55, 37, 57, 4, -10, -51, -57, 40, -64, -24, 43, 31, -46, -32, -7, -28, -4, -32, -30, 45, -38, -3, 34, -26, -26, 39, 24, -20, -13, 40, 59, 37, -37, -21, -47, -2, 17, 41, -42, -40, 24, 68, -27, -35, 14, 11, 56, 22, 54, 6, 27, -18, 65, 17, 53, 20, -9, -33, -16, 32, 57, 2, -14, -38, -47, -55, -34, 30, -2, -38, -39, 34, -56, -46, -6, 0, 17, 34, 33, -44, 49, 57, -40, 51, -62, 19, -63, 22, 52, 14, 32, -58, 23, -36, 57, 56, 52, 28, -53, -26, 45, -14, 13, 19, -15, 48, -22, -16, 30, -8, -53, 28, -51, -40, 40, -4, 44, -56, 49, -33, 1, -23, 18, 26, -30, -52, -50, -58, 50, 52, 20, -21, 27, 50, 52, 47, -36, 18, -3, -14, 27, 36, -4, 42, -38, -18, -23, 4, 34, -2, -58, 3, -62, 40, -30}
, {3, 61, -21, -49, 18, -13, 1, -8, -49, -51, 26, 37, -10, -60, -40, 81, -59, 58, -34, -37, -13, 52, -17, -37, 40, -45, 1, -49, -43, -40, 59, 56, -5, 29, -6, 36, 7, -43, -9, 23, 19, -36, -21, -5, 22, -53, 45, 12, 51, -13, 37, -39, -60, -29, -78, -55, -52, 56, 28, 34, -42, 37, 48, -53, -50, 84, 42, 8, 31, -18, -15, 16, -32, 25, 4, -22, 36, -15, -36, 10, 65, 48, 20, -13, -26, -28, 46, 60, 44, -15, 8, 31, -43, -46, -22, -41, -2, 4, 25, 26, -37, 52, 53, -32, -32, 5, -61, 15, 15, 22, 58, -60, 25, -35, -29, -50, 52, -13, 23, 20, 0, -44, 38, -48, -17, 57, 53, 21, -22, -50, 34, -30, -48, 24, 62, 57, -65, 15, 43, 56, 49, -38, 59, -53, 65, 21, -27, 25, -10, -30, -23, -54, -35, 49, 29, -63, 18, -17, 48, 55, 54, 18, -52, -44, 62, 32, 57, 37, 2, 33, 37, 28, -38, -51, -33, 8, -52, 4, 54, 43, 63, -46, -47, 22, 4, 62, -58, 40, -33, -51, -55, 43, 21, -10, -24, -18, 45, 35, -13, -24}
, {49, -13, -15, -31, -39, -46, -10, 5, 42, -57, 58, 30, -50, 26, 14, -42, -6, 13, 36, 14, 53, -20, -44, 24, -24, -26, -16, 27, -45, -36, -34, 52, -29, -1, 14, 21, 40, -11, -32, 52, -11, 23, 40, -62, 9, 41, 32, 49, -48, 28, -59, -26, -19, -57, 56, 13, 19, 46, 55, -51, 34, 15, -40, 37, -28, 51, 57, -10, 2, 36, -12, 12, -59, 11, 53, 32, 15, -54, 7, -49, -10, 53, 51, 34, 106, 3, -53, -14, -6, -38, 3, -1, -29, 37, 22, -35, -32, 53, 24, 6, 47, 34, 65, 10, 13, 49, 7, -57, -59, -48, -51, 0, 32, 43, 18, 40, -53, 15, -32, 48, 11, -53, -5, -38, 53, 6, -50, -24, -2, -56, -28, -41, 0, 53, 7, -23, 1, 0, 2, 35, -51, -41, -7, 45, 33, -12, -23, -27, 51, -35, -21, 48, -18, 21, -2, 29, 40, -4, 46, -25, -48, -10, -50, -7, -18, -38, 7, -52, 55, -5, -45, -21, -4, 54, -41, -13, -15, 6, -41, 30, -16, -9, 46, 32, -26, 5, -43, 61, 12, -36, 2, -34, 35, -22, 51, 24, -4, -10, -8, -19}
, {44, 57, -68, -44, 47, -12, 31, -43, 34, -46, -32, -33, 0, 60, -54, -32, -45, 49, 8, -33, -45, -21, -18, 57, -59, -39, 31, -37, -36, -38, 39, -47, 43, -10, 50, 3, 27, -30, 25, 33, 47, 36, 29, -39, 4, 45, -47, -56, -17, -35, -15, -37, -54, 50, -60, -52, 14, -53, 36, 27, 56, -40, 13, 18, -60, -40, 52, -47, 17, 66, -11, 43, 18, -10, -39, -17, -12, -45, -17, -4, -47, -21, 22, 3, 2, -13, 0, 42, 25, 9, 35, 16, -50, -7, 17, 58, -41, -45, -58, -35, -59, 24, -17, -60, 14, 56, -7, 9, 7, -56, -46, 8, -36, 19, -9, -35, 29, 39, 24, 14, -16, -2, 52, 50, -12, 41, 20, -11, 20, 2, 37, 18, 53, -49, -6, -17, 35, -51, -56, -8, 13, -10, 46, -19, -62, 36, 43, 61, 35, 48, -52, 13, 46, 47, -33, 56, 46, -47, 54, -49, 39, 36, 66, -25, -37, -10, 64, 6, -16, 13, 25, -1, -62, 38, -28, -46, 38, 54, 41, 3, -38, -12, 24, 36, -20, -53, -17, 15, -54, -5, 12, -27, 62, 23, -57, -43, -30, -47, -13, 52}
, {62, 39, 21, -30, -8, -33, -16, 31, 60, -55, 21, -56, -53, -21, -49, -1, -23, 57, 6, 50, -18, -62, 53, -59, 44, 10, -38, 25, 34, -50, -3, -22, -53, -26, 47, -17, 39, 54, 4, 32, -30, -24, 13, -40, -50, -26, -17, -16, -11, -18, -56, -14, -31, 6, 43, -18, 41, -54, -52, -46, 7, 24, 42, -44, -16, 56, 25, -47, 48, 32, -11, 20, -27, -14, -28, 30, -52, 3, 7, 60, 1, 54, -54, -59, 2, -9, -17, -24, 40, 11, 50, -26, -11, -19, 8, 33, -58, -5, 0, -42, -39, -55, 48, 20, -35, -13, 9, -33, -47, 40, 42, 10, 51, -54, 1, 54, -51, -50, 41, 55, -30, 51, -10, 31, -24, 8, 22, 18, -50, -15, 57, 57, -41, 16, 23, -34, -18, 33, -20, -34, 50, 21, 26, 51, -57, 52, -14, 8, 7, 57, -42, -60, 8, 18, -3, -25, -20, -39, -53, -16, 50, 21, 50, 60, 7, 49, 11, -20, -50, 11, -6, 26, -26, 33, -45, 40, -61, -46, -11, 15, 31, -34, 29, 8, -25, -10, -31, -12, 33, -48, 13, -36, 3, -55, 2, -20, 36, -55, -14, 15}
, {-14, 34, 3, 51, 53, -56, -37, 7, -49, -33, -14, -30, 11, -48, -36, 71, 9, -35, -1, 61, -2, -36, 4, 51, -60, 64, -55, 54, 16, 18, 21, 6, -37, 15, -26, -2, -27, -20, 21, 56, 39, 29, 45, 3, 25, 24, 23, 35, -15, 34, 44, -32, 29, 15, -85, 17, -56, -48, -32, -27, -34, -36, 20, -19, -24, -43, 11, 57, 43, 40, 61, -7, -71, 25, -23, 2, 18, -4, -11, -51, -39, 48, -3, 5, 38, -47, 55, 58, -19, -56, 9, 2, 51, 49, -19, -20, -53, 12, -31, 52, -38, 39, -60, 25, -19, 40, 40, 64, -1, -8, 8, -7, 13, -18, 57, 24, 27, -29, 15, 2, -38, 61, 20, 31, 29, 16, 4, -12, -24, -35, -59, -40, -47, 29, 21, 32, -26, -39, 9, -35, -14, 22, 23, -29, 29, 43, 2, 54, -55, 38, 24, -12, -60, -34, -9, 8, -25, -57, -47, 42, 43, -44, 25, 30, 54, 56, 41, 26, -14, -23, -22, 54, 27, 47, 5, -61, 11, 14, -55, -2, 16, 15, 20, 60, -3, -38, -3, -49, 37, 49, 25, 47, 50, 44, -51, 35, -13, -61, 35, 25}
, {52, -48, -63, 44, -34, -52, 19, -29, 41, 31, -9, -28, -13, -13, 28, 23, -59, -3, -29, 5, -2, -20, 41, 46, -7, 37, 55, 3, 3, -18, -58, 53, 9, 57, -4, -15, -12, 9, 37, 19, -59, -5, -5, -48, -63, -26, 18, 36, 56, -56, 21, 25, -32, -22, -27, -2, -25, 30, 61, 11, -38, -21, 10, 30, -26, 34, -39, -55, 39, -13, 38, 53, -33, -21, -30, -42, 57, 41, -30, -11, -39, 17, 39, 32, 27, -56, 54, -38, 47, 12, -15, -21, 36, -19, -49, -8, -48, 38, -10, -51, -30, 2, -13, 14, -38, 2, -30, -63, -35, 17, -32, -51, -22, 1, -60, 30, -48, -45, 50, -40, 17, -20, 50, -49, -45, 60, -35, 55, -37, 5, -12, 52, 57, 54, -52, -4, 29, -30, 6, 28, 25, -52, 57, -58, -20, 50, -37, 35, -44, 16, 0, -43, 56, 23, 50, -19, 14, 0, -18, 64, 14, 58, -30, -45, -36, -54, 29, -6, -49, -36, 60, -44, -18, 45, -59, 50, -12, -2, 29, -52, 15, -33, -47, -13, -11, 50, 54, -51, 20, 4, -9, 36, -22, 32, -27, -4, 52, -1, -45, -2}
, {57, 43, 6, -25, 54, -32, 36, 63, -37, 42, -42, -22, 3, 52, -19, -22, 2, -53, 0, 50, -12, -47, -32, 59, -10, -49, 14, 58, 30, 23, 56, 48, -26, 44, -115, 27, -45, -62, 20, 38, -19, 22, -46, -13, -36, -45, 29, -25, -4, 58, 4, 15, 23, -20, -12, 19, -41, -39, 27, 36, -48, 14, -13, 26, 15, 30, 5, 25, -54, -10, 32, -46, -67, 51, -41, 49, 35, -25, 45, -42, 9, -49, -55, -60, 82, -13, 22, -26, 15, 10, 44, -26, 18, -17, 47, 59, -16, 58, -10, 55, -33, 58, -13, 55, -73, 31, -59, 48, -66, 24, -42, -12, 19, -48, 13, 29, 31, -30, 20, 31, -25, 58, 45, -62, -13, 51, 54, 0, -20, 52, -11, 9, 17, -62, 18, -9, -8, -58, 54, -1, -19, -5, 44, 54, 50, 26, -24, 24, 1, 18, -71, -3, 30, 49, 34, 34, -1, 56, 8, 37, 38, 43, -10, 44, 52, 58, -36, -29, 2, 30, 99, -65, -7, 3, 37, 18, -42, 32, -12, 34, 48, 56, 11, -12, -11, -12, 31, -17, -8, 49, 56, -50, 47, -32, -35, -11, -46, -58, 13, 43}
, {-56, 35, -5, -13, -62, -41, 56, -41, 43, -19, -24, 45, 47, -8, 30, 21, -10, -40, 0, -44, 20, -24, 32, 48, 0, -38, 50, 30, 44, -25, -31, -64, -40, -6, 12, 41, -4, 13, -69, 19, -2, -24, -53, -54, 54, -37, -32, 41, 51, -22, -62, -29, -52, 11, -56, 57, -29, -19, 49, 7, 31, -28, 14, 33, -9, 65, 5, -43, -34, 36, 36, 20, -58, 38, 3, 21, 57, 44, -34, 27, 29, -19, 47, 48, -27, -13, -29, 30, -20, 43, 23, 51, -62, -62, -47, -37, 29, -8, 22, 49, 22, 53, -64, 0, 3, 59, -5, 39, -39, 57, 19, -42, 25, 41, -19, -13, -5, 9, 21, -13, -32, 44, 5, 52, 51, -2, 40, -16, -47, 57, -45, -21, 1, -6, 51, 51, 24, 37, 29, 33, 40, 9, 50, 26, 26, 48, -55, -60, 0, 27, 30, -50, 4, -39, -26, -31, 67, 5, -32, 3, 10, -19, 36, 5, 28, -51, 51, 23, 39, -31, -21, -38, -62, -10, -6, 1, -6, 7, 31, -19, 38, -38, 60, -9, 14, 59, 48, -25, 44, 50, -53, -45, -14, 33, 12, -32, -3, 7, -41, 0}
, {-3, 12, -24, -8, -28, -27, -21, 43, 35, 53, 44, 21, 51, -55, -11, -25, 18, -11, -39, -13, -10, 35, 10, -56, 15, -51, -32, 63, -4, -44, -51, -32, -7, -43, -29, -14, 25, 5, -95, 51, 42, -34, -21, 26, -21, 61, 61, 41, -30, 1, -42, -16, 28, 37, -3, -23, 67, 13, -60, 60, 2, 13, 27, 35, -32, -28, 40, -53, -15, 30, -50, 34, 79, -32, 26, 13, -37, 65, -70, 42, -55, -23, -60, 50, -33, 51, -34, 27, -57, -53, 70, -26, -6, -18, 64, 9, -36, 39, -15, -3, 19, 29, 0, -49, 85, 30, -53, 51, 25, -9, 9, 22, -43, -1, -48, -24, -47, 4, 43, -23, -40, 56, 58, 0, 26, 12, 0, -33, -54, -54, -25, -1, -55, 64, -28, 24, 24, -25, 0, 60, 29, -44, -34, -19, -3, 0, 4, -10, -4, -51, -1, 6, -5, -9, 67, 46, -26, 1, -51, -55, 32, -61, 66, 3, 9, -13, 14, 3, -14, -44, -26, 36, 6, 21, -27, 67, 50, 64, -25, 74, -7, -25, 36, 7, 65, 20, 44, 76, -4, 0, -31, -37, 65, -44, -51, -45, 49, 3, -6, 56}
, {58, 36, 55, 11, 25, 56, -43, 53, 5, 57, -11, 17, 8, 12, -17, 15, 19, -13, 9, -9, -40, -2, 58, 55, 51, 9, 32, 4, 49, -43, -25, -16, 9, -37, -71, -53, 35, -35, 0, -53, 50, 56, 10, 57, 30, -1, -5, 9, 41, -20, 57, -12, -45, -13, -66, 57, -22, -12, -30, 30, -59, 48, -11, 1, 29, -43, -55, -30, -29, 45, 42, 35, -20, -42, 55, 35, -6, -22, 8, 40, 50, -40, 41, -61, 92, -31, 4, -18, 12, 39, 13, -12, 63, 26, -5, 20, 31, 22, -27, 44, -14, -21, -45, 31, -29, 45, -35, -39, -47, -14, 7, 56, 56, 15, -29, 43, 35, 45, -30, -41, 1, -37, -22, 33, -47, -46, -1, -6, -6, 47, -28, -28, -43, -15, -52, -22, -34, 21, -33, 12, -44, -29, -19, 52, -46, 3, -55, 39, 21, -52, -19, 46, 15, 26, -47, -34, 84, -9, 43, 66, 8, -51, 15, -20, 50, -48, 47, 36, 1, -49, 45, -47, 26, -58, 18, 12, -3, -43, -27, -57, -30, 49, -51, 53, 50, -63, -16, -9, 12, 56, 51, -19, -27, 54, 40, -10, 22, -21, -55, -60}
, {-54, 4, 34, -11, -27, -60, 19, -36, -34, -51, 24, -25, 9, 5, -4, 137, 33, -43, 58, 6, 38, 0, -20, 29, 9, 42, 47, 54, -27, 11, -36, 34, 23, -14, -71, -3, -47, -23, -40, 51, -15, 12, -53, 32, -43, 20, 27, 49, 28, -16, 56, 46, 37, -42, -19, -48, -39, -29, 5, 36, -57, 20, -5, -33, 24, 50, -43, 2, -11, 20, 60, -15, 50, -26, 59, 22, 8, -30, -54, 19, -27, 52, 12, 42, -120, 49, -6, -39, -44, -11, -34, -42, -25, -53, 11, 46, -63, 29, 48, 22, 50, -31, -16, 25, 2, -2, 8, 53, 28, -24, -36, -17, 41, 13, -10, 28, 52, 22, 32, 43, 0, 1, -39, 0, -54, -54, -47, 18, 4, -59, 16, -50, 33, -14, -44, -14, -41, 36, -5, 44, -15, -61, -16, 57, 50, -50, -58, 12, -42, -38, 56, 33, -30, 2, -40, -4, -35, -8, -31, 70, 51, -13, -31, 1, 44, 27, -58, -23, -16, -38, 35, -28, 7, -21, 53, -17, -5, -25, 58, 41, -21, -48, -42, -41, 15, -24, 53, -143, 33, 32, 9, 42, -57, -57, -61, -7, 41, 0, -24, 61}
, {-53, 0, -31, -55, -10, 62, -55, -19, -12, 50, -52, -37, -52, -60, -22, -20, 52, 43, 21, 56, -34, -39, -58, -18, -38, -3, -36, 44, -1, -39, -57, 10, 47, 54, 33, -4, -8, -18, 7, -36, -24, 15, 38, 57, 46, 18, 57, 20, 35, 48, 10, 45, -62, 32, 31, -63, 58, 23, -31, -13, 17, -62, -61, 23, -38, 45, 27, 41, 46, 3, 55, 5, -11, -12, 33, -35, -29, -13, 46, -54, -47, 46, 39, 20, 26, -36, -35, -30, 8, 31, 17, 40, -13, 0, 47, 36, 31, -4, -51, -3, -4, 32, 44, 24, -13, 11, -3, 52, 30, -45, 18, 5, 44, -45, -9, -53, -17, -36, -54, 54, 54, -22, 6, 7, -39, 22, 9, 20, 30, -47, 0, 34, 51, -7, -49, -2, 62, 55, -15, 29, -51, 0, 19, 53, 21, 11, 41, 46, 45, -5, -34, -15, 38, -11, -3, -15, 55, 17, 2, -25, -37, -59, 25, -41, 0, -43, 51, -31, 15, -3, 19, -2, 27, 0, -10, -2, -61, -5, 33, -7, 58, 23, 52, 50, 2, -17, 37, 62, -49, 49, 61, -27, 19, -6, -28, -20, -62, 18, 44, 50}
, {-1, 5, 15, 27, -23, -21, -60, -15, 6, 51, 37, 52, 0, -18, -57, -30, 51, -34, 57, 55, -49, -20, -27, -24, 16, 4, 20, -38, -31, 1, 47, -3, 12, 17, -54, -22, -41, -20, 29, 53, -25, 17, 58, -52, -13, -44, -17, 22, 55, -36, -3, -40, 11, -55, -1, -29, -53, -54, 33, 57, 49, -44, -7, -58, -50, -9, -34, 0, -32, 38, -11, -47, 20, 20, 1, -32, 42, -57, -20, -3, -51, 7, -24, 34, 50, -32, -10, -36, 6, -37, 10, -13, 31, 2, -41, -59, -26, 60, -21, 21, 29, 8, -15, -10, 40, -23, -57, 2, 4, -42, -29, -12, 21, -13, -37, -2, -34, 52, 56, 9, 7, 23, -35, 13, -58, 49, -16, 16, -4, -46, -55, -24, 7, -40, 11, 25, -12, -59, -15, -8, -15, 4, 10, 56, 32, 59, 11, 8, -60, -39, 18, 40, -52, -51, -4, -24, -26, 47, -54, 44, -43, -23, -2, -38, 8, 27, 0, 45, -26, 4, 8, 12, -41, 24, 18, -29, 35, -31, -16, -51, -6, -33, -56, 39, -2, -1, 17, 45, 15, 45, 13, -30, -55, 58, 0, -35, 3, -2, -4, -12}
, {-64, -26, -54, 27, 31, 47, -38, -14, 0, 58, 38, -27, -8, 14, -54, -41, -35, 52, 43, 39, -8, -61, 25, 32, -15, 6, 17, -26, -44, 0, 9, 33, -11, 54, 63, 23, -58, 56, 58, 47, -13, -57, 13, -34, 44, -35, -3, -35, 45, -44, -8, -19, 26, -55, 39, 17, 50, 44, -46, 25, 6, 36, 5, -2, -56, 7, 12, -62, -55, 20, 55, 4, 9, 1, -53, -6, -28, -41, -14, 46, 20, -49, 56, -53, 32, -60, -19, 8, -28, -37, 41, -52, 13, -45, -16, -26, -21, -25, 42, 12, 0, 45, -12, -30, 96, 22, -3, 19, 36, -39, 40, 26, -59, -2, -18, 47, 35, -7, -52, 31, 15, 12, -37, 6, -1, 53, -52, -36, 16, -18, -12, 37, 19, 12, 12, 6, -38, -57, 23, -44, 12, 41, -58, -20, 3, 25, 45, -10, 55, 59, 8, -58, -56, -27, 54, -53, -62, 23, 50, 29, 5, 42, -44, 42, 42, 18, 27, -1, 2, 39, 53, -16, 29, 2, 20, -60, -1, -41, 46, -43, 25, 16, -31, -24, 64, -48, -60, -1, 36, -45, -25, -53, -62, 16, -56, -45, -30, 24, -5, -21}
, {57, 4, 37, 13, -18, -13, 21, 42, 42, 12, -32, 29, -25, -20, -58, -55, -10, -41, -14, -8, 18, 54, -20, -59, 57, 9, 27, 58, -33, 37, 12, 10, -6, -26, 10, -40, 32, -60, 25, -13, 27, -29, -51, -6, -63, 20, 55, 4, 13, 21, -40, -16, -51, -6, -35, -21, 0, 2, -8, -21, -21, -33, 60, -3, -17, -24, -60, -18, 27, 56, -51, 24, 55, 33, -61, 34, -61, 53, -1, -37, -13, -23, -24, -16, -38, 49, -18, 17, 10, -57, -59, -23, 57, 48, -54, -61, -59, 59, -46, 11, 60, -9, -15, -23, 15, -59, 20, 40, 4, -15, 26, -4, 22, -59, -45, -32, -57, 18, -11, 48, 48, 32, -37, -64, 55, 11, -19, 49, -11, 28, 49, 55, 47, -61, 28, -48, -54, -51, -4, -14, 7, -34, -49, -31, 29, 42, -1, -57, -16, 45, -11, 8, 13, 0, -44, -51, -19, 35, 55, 6, -39, -58, -52, -55, -34, -24, -14, 19, -7, 15, 57, 45, -10, 12, -31, -23, -6, 49, -41, 30, 7, 38, 58, -59, 9, -49, 49, -42, -6, -58, 0, 0, 5, 56, 1, -22, 16, -23, -51, -11}
, {2, -23, 19, -55, 21, -54, -62, 39, 49, 31, -2, -35, 27, 32, 35, -29, -57, -57, -18, 22, -24, -20, 5, 3, 20, -35, -42, -30, 2, 34, 30, 25, -35, -41, 24, -48, 52, -63, -35, 35, 12, -4, 47, 15, 6, 1, -40, -14, 26, -8, 18, 2, -42, -10, 13, 54, -18, 11, -46, 46, 10, 0, 15, 0, -39, -11, -44, 55, 39, 17, 43, 6, 8, 30, 27, -27, -41, -27, -67, 16, -36, 45, -53, 43, -60, -36, 45, 47, 6, -18, -40, -13, 4, -41, 45, 50, -2, -58, 33, 15, 11, -12, 53, 13, 65, -23, 25, 43, 29, -30, 59, -66, -47, 21, 1, -12, 26, -7, -10, -31, 11, 29, 53, -57, -6, -38, 11, 58, -6, -47, -32, 28, 56, 34, 1, 12, -34, -22, 2, -20, 33, 55, -11, -17, -1, 15, 6, -53, 59, -47, 62, 10, 34, 14, 1, -38, -83, 56, -22, -41, 43, -45, 39, 53, 10, -10, -61, -7, -40, 45, -66, 36, -30, 25, 65, 29, 12, 14, -44, 56, 52, 49, -35, -44, 63, -21, -52, 68, -42, -38, 2, 35, 40, -18, 49, -5, 49, -9, 21, 19}
, {62, 0, -20, -38, 60, -38, -43, -34, 5, -42, 58, -48, 17, -1, -22, 46, -13, -61, -11, -21, 49, 45, -19, 45, 46, 1, 22, -63, -21, 13, 22, 48, -64, 48, -85, 4, -47, -27, 2, -5, -45, 9, 50, 22, 19, -54, 56, -61, -29, 0, 0, 30, 15, 16, -13, -40, 38, -48, 16, 0, -36, -49, 40, 54, 9, 42, -28, -1, 36, -42, 3, 30, 34, -13, 54, -35, -32, 25, 42, 14, -22, -22, 49, -34, 33, -55, 28, 42, 9, 45, -52, 55, -35, -21, -15, 23, -7, 30, -28, -46, 23, 41, 28, -23, -31, 24, 39, 5, 59, -6, 28, 32, 16, 6, -36, -9, -35, 49, 43, 55, 19, 15, 0, -6, 42, -50, -37, -3, 0, -51, 24, 56, -10, 15, -29, -52, -51, -50, -51, 54, -44, -25, -26, 46, -47, 51, 5, 27, 39, 54, 19, 56, 31, -38, 16, 62, -26, -15, -12, 15, -66, 43, 11, 4, -13, -57, -50, -19, 28, 0, 1, -27, 29, 30, 35, 9, 40, 36, 55, 46, 21, -11, 2, -38, 38, 25, 14, -47, -35, -63, -7, 4, 0, 23, -47, -30, 13, 50, 24, 35}
, {31, -29, -64, -26, -25, -4, 10, 39, -22, -15, 56, -25, 47, -17, -12, 5, 8, 58, 32, -17, -24, -32, 23, 14, 5, 58, 54, 59, 7, -43, 2, 47, 14, 39, 55, 12, -61, -54, 40, -57, -32, -63, 7, -33, -12, 1, -28, -19, 47, -49, 0, 12, -46, -50, 46, -24, -28, 10, 29, 44, 7, -49, -39, -64, -17, 47, 52, -6, -25, 2, 23, -33, 51, -47, 3, 33, 5, -43, 21, 56, -9, 56, -48, 26, -63, 35, 0, -8, 25, 32, -44, 25, -9, 1, -34, 4, -49, -52, -17, 5, -11, 10, 23, -44, -15, -37, -53, 57, 8, -57, 50, -31, -27, -53, 26, 5, -44, 34, -2, 44, 36, -15, -10, 18, 8, 12, 43, -48, 20, 34, -25, -26, 25, 52, 1, 14, -51, -41, 49, 21, 21, 5, -39, -14, -25, -53, 9, -26, 48, 48, 0, -2, -28, -27, -47, 33, 48, -16, -19, -65, 8, 59, -24, -60, -17, 48, -16, 22, 37, -37, 33, -54, 3, 7, -46, 20, -35, 47, 48, -33, -59, 44, -54, 31, 44, 56, 41, 15, 7, -14, -43, -25, 31, -21, -5, 37, 8, -57, -55, -21}
, {46, -45, 4, 3, 8, 22, -39, -47, -1, 50, 38, 55, 0, 33, 51, 9, -1, 23, -31, -34, -12, -60, -50, 6, 11, -7, 57, 18, 37, -24, 56, 0, -5, -37, -69, -9, 44, 1, -33, -56, 2, 44, -39, -29, 28, 13, 61, -31, 30, -11, 5, -4, 47, -34, -5, 34, -27, 56, 60, 49, -9, -48, 43, -35, 10, 48, -26, 50, 11, -46, -53, 43, -5, 34, -40, -54, 25, -62, 60, 50, 21, -15, 30, -52, 158, 24, -4, -11, -47, 32, 37, -18, 59, 9, -38, -48, 14, -59, 14, 46, -15, -21, -37, 28, -35, -60, -15, -36, -7, 2, -46, -24, 6, 28, -6, 0, -9, -49, -51, 9, -11, 53, 22, 29, 35, -43, 0, 3, 34, -35, -38, -80, 31, -19, 9, -7, 6, 20, -5, -64, 27, 49, 48, 24, 48, 13, 14, -29, -65, 20, -15, 20, 56, 58, -37, 59, -72, -63, 40, -39, -52, 51, 14, -54, 15, -36, 65, -62, 2, -31, 18, -12, -38, 34, 19, -66, -4, -33, 17, 26, 62, 44, 6, 36, 17, -56, -54, 17, -8, 10, 21, 15, -67, 56, 36, -1, 21, 10, 7, -26}
, {13, 39, -17, -44, 30, -9, -3, 0, -44, -20, 48, -58, -54, 31, 29, 68, 2, 22, 24, -26, 45, -12, -42, -17, -33, 12, -44, -45, 32, -35, 59, -43, -35, 19, -78, 20, -21, 11, 67, 22, -47, -59, -48, -20, -43, 15, -8, 21, 19, -60, 50, -13, 5, -57, -40, 6, -46, 13, 57, -44, 57, -9, -26, 60, 41, 32, -56, 23, -68, -17, 12, 1, -47, -57, 13, -43, -57, -30, -33, 46, -48, -44, -36, -35, -21, -53, 3, 22, 4, 54, 43, 60, -34, 57, -53, 0, -26, 46, -51, -13, 31, 58, -56, 5, -100, 36, 41, 7, -22, -31, -5, 48, 47, -44, -47, 3, 12, -21, -37, -16, -7, -25, 18, 4, -49, 60, 33, 0, -61, -46, -6, -41, -37, -36, 7, 10, 15, 61, 53, 55, 8, -10, -9, -54, -42, -35, -4, -63, 43, -10, -46, -54, 14, -60, 36, -57, -54, 40, 33, 43, -48, -6, -23, -54, 26, 53, 38, 56, -8, 13, -11, -46, 7, 46, 37, 10, 55, -53, -12, 31, -21, 6, 8, -43, 15, 23, -18, 41, 59, -28, 50, 41, -16, 0, 15, 43, -3, -47, 40, 20}
, {58, 1, 2, 1, 60, -27, -61, -26, 2, -51, 30, 53, -2, 59, 55, -42, -48, 0, -58, -47, 37, 8, -13, 53, -11, 27, -2, -57, -32, 20, -36, 34, 14, 12, 9, 36, -4, 52, -1, 41, -30, -18, 34, -39, 53, 24, -14, -4, 15, 61, -35, -45, 7, 5, -7, -19, -5, 4, 52, 31, 5, -19, 39, 8, -52, -8, -19, 31, -65, 58, 6, 58, 11, 10, -2, 44, -47, 48, 57, -32, 34, -2, 53, 11, -12, 61, -31, -59, -48, 9, -14, -47, 33, 58, 4, -37, 57, 45, 51, -4, -47, 54, -21, 10, 10, -59, -18, -17, -50, -62, -23, 43, -23, 52, 18, -34, -16, -3, 8, -18, 48, 19, -4, -36, -52, 4, 16, 32, -6, -14, -42, 60, 42, 0, -45, 13, -62, 48, 57, -8, 14, 0, -53, 9, 20, 38, 27, -41, -22, 32, 2, 46, -6, 57, -18, 0, 20, 27, -51, 56, -7, -49, -44, 8, -58, -50, -44, 16, 1, -8, 13, -53, 7, -33, 15, -18, -36, -46, 46, 0, -28, 10, 33, 49, 48, 27, -54, -40, 30, -45, 62, 22, 31, -24, 56, 24, 0, 33, 19, 39}
, {-54, -12, -57, 10, -37, 28, 3, 11, -61, 52, 46, 58, -12, 46, 51, -43, 52, 3, 53, -45, 51, 49, -52, -31, -26, 8, -11, -56, -20, -16, 14, -27, -54, 4, -44, -10, -1, 51, -30, -45, -45, -26, -42, 47, -59, -47, 13, 35, -4, -29, -46, -54, -16, 42, -2, -4, -35, 37, 41, -1, -43, -40, -55, 42, -52, -40, 5, 57, -47, 16, 5, -29, 33, 2, -15, 37, 61, 14, 55, -32, -2, -2, 53, 5, 30, -54, 37, -13, 56, -33, -21, 43, 4, 0, -50, -51, 31, 52, -56, -20, 9, -3, -12, 23, -19, 3, -57, 2, 35, -37, -30, 4, -47, -37, -37, -11, -37, -54, 13, 6, 33, 13, -13, 42, -56, -35, 42, -43, -54, -26, -40, -59, -35, 7, -44, -57, 13, -20, 25, -30, 16, -57, 32, -57, -10, -9, -20, 55, 36, 15, -16, 59, -13, -62, -52, -30, -58, 1, -19, 56, -4, 14, -58, -27, 43, -57, -2, -29, -26, -62, 53, -30, 16, 52, 53, -38, 54, -57, 39, -2, -57, -33, -22, 0, 15, -12, 58, 16, -8, -35, -57, -31, -52, -52, -56, -33, 53, -48, -45, -46}
, {-27, -35, 58, -7, -64, -1, 15, -17, 17, -34, 49, 0, -1, -11, 43, -38, -38, 47, -25, 24, 44, 31, 28, -45, -59, -45, 19, -30, -58, -44, 32, 32, 1, 45, 52, -1, 30, 29, 6, 0, -50, 29, -5, 55, -63, -38, -49, 13, -45, -19, -56, -17, -1, 54, 1, 21, 37, 29, 43, -53, 27, -25, 52, 36, 14, -48, -49, 50, 6, -53, -33, -57, -41, 7, 4, -42, -57, 35, 29, -53, -32, 11, 27, -24, -51, -61, 2, -11, -61, 55, 15, -30, -15, 4, 39, -15, -14, -39, -26, -6, 51, 27, -12, 37, -42, -25, -7, -55, 21, 30, -5, 37, 32, -65, 6, -34, 7, 55, 36, 24, -41, -27, 10, 22, -21, 44, 56, 43, 15, 26, -29, 33, 0, -59, -25, 15, 49, -19, 32, -49, 42, -3, 50, 44, 10, 39, -56, -44, 5, 27, 48, 26, -65, -39, 45, -47, -18, -28, 46, 38, -56, -55, 20, -15, 0, 9, 46, 7, -43, 54, -9, 29, -22, 43, 9, 0, -16, -65, 47, -19, -31, 0, -9, -20, 4, 38, 56, 5, -56, 43, -54, -64, -15, -26, -20, 50, 24, 13, -21, -54}
, {26, -2, -42, -29, 42, 9, 43, 55, -9, -42, 19, -32, -5, 38, 40, -74, 9, -61, 56, 47, -30, -19, 46, -28, -42, -48, 41, -21, -42, -62, 46, 43, -51, -22, 40, 58, 40, 27, 41, -13, 6, -29, 37, -13, -47, 40, 1, -32, 28, -5, 28, 65, 58, -18, 30, -42, 61, -27, 47, -62, 24, 43, -3, -17, -17, 39, -46, 39, -36, -28, 10, -5, -57, -1, -47, 47, -61, 20, 48, -55, -63, -10, -12, 34, -67, -16, 23, 43, 34, -42, 11, -39, 28, 1, 30, 14, -28, -29, 13, 5, 29, -52, 44, 0, -12, 49, 16, -62, -44, -65, 28, 36, 53, 0, 7, 20, 17, -58, 7, -57, 53, 7, 21, 46, -25, 16, -13, -52, -40, 28, 30, 11, 15, -2, -25, 38, 61, -39, 54, 8, -40, 3, 0, -35, -2, 29, -45, 23, -28, -13, -1, 24, -56, -36, -49, -56, -6, 23, -47, -3, 51, -46, 19, -26, -1, -62, -48, -29, 0, 28, -84, 53, 60, -22, 58, -26, 8, -22, -56, 60, 33, 12, 16, 0, 30, -41, -24, -8, 0, -26, -17, 32, 5, 39, -42, -25, -2, 0, -8, -19}
, {46, -33, 3, -15, 55, 58, -30, -7, 9, -28, 22, -31, -1, 2, -62, -60, -53, -44, 0, -53, -28, 18, -18, 0, 0, -8, 55, 36, 14, 52, 27, 29, -37, -39, -31, 20, 0, -32, 21, 3, -1, 33, 22, 17, 18, -58, 54, 45, -56, 41, 48, -26, 17, -41, -18, 15, 22, -9, 21, -4, -5, -49, -51, 53, -15, -56, -40, -18, 30, 22, -11, -31, 31, -62, -19, -62, -38, 53, 9, -46, -8, -61, 50, -41, 6, -50, 46, -24, -63, -5, 12, -46, -1, -11, 19, -15, 28, 36, 35, -50, -47, 4, -3, 45, -27, -10, -60, -38, -47, -44, -56, -20, 52, 30, -28, -61, 61, 46, 25, -52, 51, 18, -31, 59, 41, 35, 7, -41, -26, 45, 34, -21, -38, -41, -41, -46, 21, 42, -2, -12, 0, -12, 59, -60, -18, -44, -28, -17, -33, -10, -3, 44, 13, 17, 29, -1, -53, -27, -23, -22, -23, 39, 9, -47, -3, -25, 46, -17, 53, -15, 13, -48, -47, -44, -8, 16, 31, 48, -55, 54, -57, -20, -64, -64, 61, 44, 25, 32, -11, 56, -8, 51, 33, -16, 56, 35, 33, -6, -4, -22}
, {-31, -30, -42, 9, 52, 44, -46, 57, 9, 9, -25, 4, -12, -41, -61, -39, 1, -63, 13, -59, 9, -11, 22, 19, 31, 23, -18, 37, -60, 11, 16, -60, 61, -11, 5, 0, 44, -32, -19, -18, -5, -30, 29, 26, -35, 7, 5, -55, 18, 19, -40, -26, 40, -56, -45, 10, -62, 21, -49, -43, -31, -17, -60, -60, -14, -18, 6, -13, 55, -46, -55, 26, 3, -62, 35, -50, -29, 44, -46, -26, 11, -34, 14, -31, 87, 39, -55, 42, -13, -60, -38, 23, -16, 17, 55, 53, 47, -52, -21, 9, 44, -50, 38, -45, 19, -54, -62, 34, -45, -52, 40, -40, -39, 33, 49, -36, -27, 46, 53, 7, -63, 37, -23, 4, 23, -5, 32, 34, 53, 34, -45, 41, 57, 47, -55, -3, 38, 21, 59, -2, 34, 33, 2, 20, -16, 7, 34, 58, -11, -60, 8, -51, -12, -58, 54, -56, 25, 49, 50, 26, -13, -31, -56, -61, 36, -55, 2, -52, -21, 24, -40, -4, -10, 24, 30, -3, 12, -30, 55, 23, 9, 15, 33, -56, -12, 2, -12, -39, -44, -58, -34, 22, 1, -25, -55, 59, 36, 37, -36, 17}
, {-26, 34, 1, -65, 52, -48, -31, 61, 42, 19, -56, -7, 12, 38, -61, -71, 28, 62, 41, 30, -44, 1, 26, -5, -12, -1, -25, 14, 32, 0, 45, -19, 35, -22, -3, -41, -37, -40, 1, 45, 23, 42, -4, 25, -1, -14, 36, 7, 49, -2, -17, -46, -12, 3, -26, 52, -24, 29, -52, 12, -1, -27, 51, -49, -42, -27, -33, 13, 5, -26, 10, -20, 35, 23, 6, -37, 28, -33, 13, 10, -17, 47, 51, 13, -130, 12, -23, 23, -58, 23, 24, 51, -50, -16, 48, 2, 61, -12, 32, -50, -24, 7, 21, 0, 79, 43, 25, -70, 33, 25, 46, -24, 25, 12, 32, -6, -40, 9, 7, -29, -25, 20, -36, 8, 58, 2, -10, -16, 1, -1, 35, 29, -30, 28, 50, 31, 67, 33, 3, 21, -55, 12, -59, -50, 0, 51, -15, -3, 25, 55, 43, -31, 52, -39, 9, 0, -59, -59, 1, -33, 46, 41, -47, 53, -36, 40, -44, 17, -27, 13, 30, -57, -13, 52, -59, -62, 21, -25, 22, -38, 25, -27, -48, -57, -13, 6, -48, 81, -34, 47, -6, 55, 27, -4, 28, 43, -12, -2, 50, 17}
, {-42, -8, 27, 60, -10, 60, -2, 13, -32, 8, -52, 55, -6, -47, 57, 31, -53, -44, 50, -36, -8, 10, -2, -7, 58, -19, -1, -42, 30, 28, 27, -21, -28, -12, -16, -62, -7, 51, 10, 17, -29, -26, -49, 6, -5, -12, -53, 50, -19, -28, -16, -63, 29, -63, -47, 52, 29, 33, -27, 38, 26, -34, 18, -30, -28, -37, -56, -7, 59, -26, -10, -19, 39, 50, 38, 37, 47, 22, -31, -41, 39, -28, -18, 51, -55, 16, 11, -48, 8, -58, 5, -33, 17, -49, 25, 36, 17, 26, 3, 22, 0, 15, -60, 0, 27, 22, -40, -12, 18, -55, -51, -34, 7, 13, 41, 55, -43, -52, -25, -24, 14, 27, -13, 38, -1, 17, -45, -15, -38, 42, 9, 50, 57, 57, 52, -49, -13, -51, 33, -8, -34, -35, 36, -32, 31, 56, -52, -37, -13, -14, 38, -18, -60, -44, -10, -31, -2, -58, 46, 58, -34, 4, -31, -39, 26, -45, 38, -21, 28, 25, -27, -26, 37, 30, 26, 3, 21, 58, -11, 56, -34, 47, -47, 16, 39, 50, 11, 38, -19, -2, -35, -29, 48, 0, 54, -21, 18, 13, 15, -44}
, {33, 20, 32, -60, -22, -51, 5, -10, -52, 45, 47, -33, -45, 23, 35, 65, 3, -51, 0, -14, -55, -56, 5, -54, 0, 53, 0, 62, 39, -49, -27, 64, 48, -38, 12, 15, -8, -38, 16, 37, -27, 66, -26, -50, -44, -57, 60, 62, -51, -59, 55, -38, 62, 46, -58, 7, -56, 63, -25, 62, -46, 14, 18, -12, -34, -25, 55, -40, -27, -3, -56, 50, -14, 37, -54, -22, 7, 0, 7, -9, 58, -41, -27, -61, 54, -31, 9, -54, -47, -15, -20, 50, 55, -15, 2, 45, -7, -62, -48, 34, 3, -62, 4, -1, 5, 48, -44, -7, -34, 11, 38, 26, -28, 51, 30, -35, 39, 40, -74, 33, 14, -51, 27, -17, -19, -14, -46, -42, 42, -18, 57, 1, 40, 22, -3, -34, -28, -30, 57, -43, -9, 37, -23, -35, 19, -37, -13, -55, 4, 42, -49, -34, -64, -60, -56, 55, 20, 48, -24, 24, -36, 10, 19, -60, -8, 15, 30, 56, -36, -29, -50, -45, -40, -28, 61, -28, 15, -46, 50, -29, -52, -29, 63, 8, -41, -4, 8, -10, 48, 32, -37, -38, 8, -52, -63, -22, 57, -13, 54, -60}
, {-50, 59, 53, -8, 14, 52, -6, 2, -54, 1, -12, -7, -2, -39, 44, -35, 15, 30, 2, 40, -40, 36, 52, 3, 21, -54, -68, 0, -39, -3, -46, -6, 66, -5, 27, -19, -58, -24, 38, -40, 53, 35, -50, -40, 30, 23, -33, 25, -30, -48, 13, 43, -61, 23, 5, -45, -10, 34, -21, 36, 7, -5, 57, -37, -8, -49, 48, -50, 26, 12, -2, 56, 43, -41, 34, 9, 56, -5, 61, 17, -17, 43, -50, -23, -59, 59, 21, -47, 38, -61, -20, 20, 35, -38, 8, 31, -25, 39, 11, 49, 1, -16, -27, 62, -33, -37, 5, -26, 9, 4, -26, 25, 38, -25, -31, 50, -43, -40, -40, -4, 55, -22, 48, 54, -49, -3, -25, -37, -47, -22, 60, -31, -6, -20, -19, 3, 11, -22, -25, -12, -29, 50, -9, 15, 16, 58, 55, 27, 45, 58, 60, -15, 34, 46, 11, -48, -1, 30, -51, 3, 0, 2, -11, -31, 53, 46, 54, 18, -5, 41, 61, 37, 55, -53, 29, -9, 0, -6, 0, 43, 1, -48, 47, 27, -11, -38, -7, 10, -25, -63, 15, 28, -3, 1, 13, -37, 34, -13, 25, -29}
, {37, -8, -40, 39, 44, 0, -19, 33, -28, -38, 38, 2, -60, -49, -34, -32, 32, 26, 15, 44, 16, -53, 29, -47, 14, -22, -55, 41, -5, 9, -23, 3, -71, 3, -75, 11, -55, 48, 37, -60, 36, -8, -19, 0, 25, 34, -61, 3, 19, 45, 53, -40, -6, -61, 5, 44, -23, 39, 2, -14, -21, 35, 56, 5, 20, 32, 22, -28, -24, -20, 38, -8, 42, 44, -16, 40, -43, 2, -2, 1, -31, -30, -74, 32, 72, -11, 27, 0, 32, 47, -5, -59, -49, -7, 26, 40, 18, -60, -59, 61, 10, 62, -12, 24, 21, -54, 34, 48, -16, 17, 26, -28, 25, -7, -17, -24, -1, 29, -49, 42, 21, 4, 7, -17, 46, 34, 13, 55, -15, -7, 18, 27, 21, -39, -29, -38, 41, -34, 59, 62, 60, 60, -53, 29, 38, 20, -10, -4, 50, 48, -51, -60, 41, 34, -5, 13, 29, -27, 18, 39, 60, 23, -26, -32, -22, -23, -70, 3, -33, -30, 36, -56, -52, 44, 30, 58, -54, -20, 60, 9, 34, 18, -47, -65, -49, 21, -22, -62, -52, 29, 62, -8, -29, 17, 4, -52, -24, 53, 56, -59}
, {40, 53, 32, 20, -4, -4, 34, -2, 43, -29, 44, -28, 33, -17, -17, -12, 38, 0, -15, -29, -35, -5, 57, 54, 0, 35, 3, 7, 28, 47, -58, -51, 20, -5, 0, 61, 7, -33, 3, -11, 29, 48, -30, -27, 17, -29, -34, 26, 9, 34, 43, 30, -11, -28, -69, 28, -43, -39, 17, 1, 53, 11, -48, 34, 4, 54, -40, 16, -32, 50, -15, 44, -58, 9, -34, -23, -25, 0, 41, -32, 61, -34, 42, -18, 98, 36, 23, -48, -13, 4, 24, 26, 12, 19, 59, 60, -27, 0, 41, -54, -25, -11, 50, 45, -61, -38, 21, 7, 27, -39, -26, -15, 19, -58, -40, -3, -19, 0, -54, 0, 57, 13, -54, 48, 58, 32, -10, 12, -26, 55, -63, -57, 49, 15, 9, 24, 30, 1, -22, -56, 58, 42, -41, -52, 53, 32, -38, -55, -24, 45, 23, -4, 46, -56, -15, -31, -8, 52, -51, -1, -16, 54, 19, -48, 12, 43, -19, 0, -7, 19, 32, -36, 26, 14, -31, 23, -47, 54, 55, -17, -12, 11, -52, -48, 31, -63, -43, 21, 54, -45, 2, -40, -23, 22, -5, 14, 18, 42, -28, -45}
, {50, 46, -59, 40, -26, 9, -2, -49, -36, -7, 60, -54, -35, 22, 14, -29, -1, 55, -51, 7, 43, 27, -39, 45, -25, 34, -59, -7, -60, 34, 40, -6, -4, -34, 20, 56, -23, -35, -82, -38, 14, 2, 22, 11, -24, -60, 9, 26, -14, -5, -59, 24, 54, 32, -46, -23, -45, 44, 43, 16, 46, 2, -4, -23, -9, -21, -50, 38, 19, 16, 31, -17, 31, 41, -8, 46, 2, 46, -10, 10, -5, 57, 1, 2, -53, 44, -64, 24, -39, 33, 34, 31, -63, 20, -10, -54, 16, -13, 42, 42, 58, 7, -51, 34, 57, -23, 11, 23, 29, -29, -23, 22, -39, -58, -54, 16, 0, 60, -11, 13, -42, 7, 5, 31, 55, -42, -42, 43, -54, -54, 30, 8, 54, 5, 2, 54, 15, 27, 39, 6, 0, -47, -56, -23, -16, -13, -30, -62, 0, -49, 6, -47, 52, 15, 37, 47, -26, 26, -25, -71, -61, 1, -1, 40, 31, -57, -13, -40, -20, -26, -7, 41, 0, 38, -21, 64, 21, 39, -24, -20, -8, -19, -5, 20, 47, 43, 3, 46, -15, 54, 47, -43, -60, -35, 28, 13, -44, -50, -47, 32}
, {17, -48, 50, 4, -20, -32, -52, 4, -39, 43, -34, -26, 0, -54, 38, -11, 10, -7, 10, 16, -3, 37, 1, -35, -58, -59, 44, 31, 20, -6, 26, 53, -20, -57, 33, 26, -40, 60, -44, 39, 39, -30, 49, 24, -42, -2, -34, 2, 40, -31, -59, -58, 49, -59, -34, -4, 53, 37, -39, -6, 13, -26, -19, -44, 53, 1, -30, 16, -9, 37, 0, -13, -49, -2, -8, 30, -41, -5, 25, -5, 30, -7, 49, 29, -27, -37, -34, 14, 18, 51, -27, 20, 51, -42, 10, -3, 26, -30, 25, 16, -43, -48, 7, 43, 7, 32, -34, 46, -36, -21, 9, 30, 37, 13, 5, 46, -49, -52, -48, 15, 52, 18, -58, -11, -12, 45, -40, -10, -41, 23, 34, -37, 50, 28, -39, 41, -10, 59, 43, -29, -32, -8, 4, 61, 0, -51, 36, 12, -26, -60, -20, 23, 22, 35, 15, 1, 8, -11, 32, -37, -2, -50, -39, 18, -30, -56, -57, 60, 57, -6, 43, -42, -4, -12, 57, -41, -34, 14, -10, 1, 26, 12, -60, 34, 46, 28, -8, 4, -35, -27, 57, -34, -33, 17, 24, -37, 29, -60, 54, 31}
, {-48, 58, -39, -7, 7, 2, 51, -11, -36, -19, -39, 17, 37, -27, 48, -23, 28, -20, -44, 36, -7, -31, -7, -22, 53, -39, -26, 21, 53, 29, -34, -23, 28, -31, 7, 43, -44, -57, -49, 33, 53, -61, -13, 40, -24, -62, 0, -40, 34, -54, -19, -52, 31, 60, 6, 3, 37, -60, -62, -11, 38, 35, -28, -15, 42, -43, 2, -10, 16, 17, -40, -22, 8, 13, -6, -17, -41, -25, -17, -31, -46, -22, 45, 62, -5, 8, -53, 21, -13, -59, -8, -14, 60, -28, 40, -4, 41, 18, -5, -30, 7, 1, 4, -11, -25, 24, -12, -61, 59, 43, -12, -48, -24, -22, -1, 58, 59, -37, -55, 2, 0, 50, 3, -51, -22, -51, -10, -32, -59, -11, -35, 38, 60, -33, 28, 40, -42, -22, -24, -58, 19, 25, 18, 40, 24, 7, -61, 6, -19, -27, 7, 16, 5, -44, 23, 58, -10, 18, -43, -19, -24, 45, -61, -50, 51, -24, -48, 25, 6, 16, 23, -8, -37, -45, 27, 55, -17, -23, -41, -7, -26, 1, -36, 54, 51, -42, -10, 25, 2, -25, -23, -6, 4, 58, 22, -34, -27, 49, 29, -51}
, {-45, -42, 56, 25, -19, 44, -12, 52, -20, 33, -61, -16, 19, 13, -29, 12, 47, 17, 32, 36, -6, -18, 12, 7, -40, 39, -21, 21, -27, 7, 6, 9, -62, 24, -21, 20, -27, -58, 43, -47, -16, 27, -5, -1, -25, -42, 10, 45, 34, 31, -40, 8, -54, 51, 15, 37, 20, -18, 43, -59, -56, -47, 33, 33, 24, -42, -16, -9, 29, -41, -56, 7, -20, 21, 7, -32, 32, 27, 9, 15, 58, 10, 43, 10, 117, 13, -1, 19, 34, 20, -31, -34, 53, -17, 51, -40, 58, -54, -49, -33, -67, -32, -36, -31, -31, 35, -14, -47, 28, 24, 17, -22, -56, -23, -30, 20, 21, -53, -2, 37, 22, 52, -58, -6, -6, 26, -39, -51, 23, -11, 47, -24, -22, 13, 57, 47, -28, 25, -20, -19, 57, 16, 19, 33, -21, -48, -5, -20, -6, 44, -17, 56, -16, 40, 26, -4, -23, 16, -50, 25, 10, 22, -19, -26, 32, 5, -42, 28, 54, 2, 40, -11, -28, -49, 8, 8, -14, -40, -46, -57, 7, 10, -63, 0, -53, 5, 8, 45, 54, -40, -7, -30, 31, -57, 19, -28, -47, 36, -23, -33}
, {-59, -23, 47, -36, -57, -36, -34, -4, 13, -33, -31, -7, 14, -30, -49, 39, 53, 4, -31, 55, -45, -13, -25, -15, 57, 50, 2, -16, 17, 26, 48, -31, -12, -38, -31, -60, -15, 32, 63, 54, 33, -43, -45, -59, -29, -47, 6, 40, -23, 14, 23, -16, 41, 32, 1, 44, 18, -37, 12, 18, -34, -67, 18, 11, 14, -41, 35, 19, 29, 27, -53, -60, 32, -66, 40, 23, -49, -53, -20, 14, 37, 36, 57, 46, 126, -29, -21, -37, 37, -58, 39, -61, 2, -18, -47, 45, 55, 41, 33, -23, -43, 21, -19, 50, -35, 1, -20, -32, 55, 9, 0, -27, -61, -38, 71, 39, -39, -19, -62, -49, -3, -17, -35, -45, 52, -25, -58, -25, 44, 55, -5, -32, -3, 16, -45, -19, -54, 56, 38, -9, -34, -10, 38, 48, 20, -19, -66, 56, 45, 47, 18, -46, 15, 41, 28, -38, -48, 50, 13, 39, -42, 35, 33, 3, 44, -62, 48, 45, 27, -59, -1, -61, -62, 55, 35, 2, 31, 7, -24, 15, -35, -21, -27, -31, 48, 52, -48, 63, -36, 33, 49, 0, -2, -59, 51, 40, -27, -38, 36, 26}
, {-50, 39, -48, -37, -44, 23, -13, 46, 18, 35, -47, 42, -2, 18, 21, -51, 55, 45, 13, 52, 9, -42, 24, -17, 62, 39, 59, 61, -24, 3, 2, -17, -11, -63, 96, 0, -21, -20, -3, -56, 27, 6, 13, -53, 12, -22, 0, 59, -16, 39, -58, 19, -49, 54, 44, 34, 6, 26, 38, 48, 48, 42, -28, 53, -9, -4, 42, -9, 14, -26, 5, 52, 53, 1, 9, -50, 23, -42, 33, 9, 16, 25, 28, -39, -13, 62, -32, 13, 28, 1, 26, -35, -27, 27, 12, 59, -36, 53, 61, 44, 16, -45, 58, -2, 27, -48, -61, -28, 9, 23, -1, 0, 6, 34, 24, 13, -37, -12, -14, -54, 14, 50, -4, 4, 21, 57, 30, -5, -17, -47, 36, -30, 53, 42, 18, 20, -48, -55, -21, 0, 53, 6, 25, 41, -48, 1, 48, -42, -20, -35, 20, -60, 43, -53, 20, 56, 29, 40, -5, -79, -28, 32, 49, -14, -54, 47, 12, 0, -61, 39, -5, 8, 43, -42, 16, 0, -63, 37, 51, -49, -18, 54, 4, -55, -38, 61, -7, 80, 14, 51, 42, 23, -36, 47, -23, -51, 37, -21, 52, 15}
, {-38, 39, -16, -49, -64, 22, 20, -22, -41, 56, 55, 16, -48, -10, -65, -45, -27, 12, -34, 53, 37, -9, -53, -49, -50, -35, 52, 8, -62, 22, 13, 0, 57, 32, 35, -24, -2, -52, 36, -19, 17, -23, -7, -5, -64, -1, -51, 27, 53, 22, -37, -39, 50, 18, 41, -26, 9, -21, -14, 26, 38, 39, -6, 25, -10, -29, 41, -27, -14, 40, -33, 46, -23, 39, 46, 40, 43, 10, 15, -16, 10, -9, -45, -25, 111, -60, -16, 52, -47, -58, -10, 22, 35, 18, 15, -14, -35, -12, 40, -7, 46, -15, -54, 7, -32, -10, -55, 0, -38, -55, 7, 54, -56, 33, 59, -38, -19, 40, 55, -23, -1, -7, -57, -12, 27, -4, 53, 8, -25, -17, -65, 43, -26, -13, -37, 8, 23, -63, -27, -20, 50, -1, -35, 32, 18, 44, -44, -21, 41, 8, 6, 14, -24, -36, -13, 29, -36, -40, 22, -61, -2, 9, 11, 50, 11, 30, -14, -38, -20, 30, -45, -3, 55, 56, 32, 4, 22, 44, -32, -19, 11, -62, -49, 3, -60, 30, -58, -24, 47, -36, 27, 0, -41, 47, 38, 22, -16, 41, 54, 54}
, {-10, -28, -60, 54, -10, -13, 23, 24, -27, -7, -30, 4, 2, -2, 7, 5, -56, -45, -44, -64, 9, -51, 62, -55, -40, 18, -24, 15, -27, -39, -53, 59, 30, -13, 59, -40, 15, -9, -36, 15, 46, -55, -43, 52, -5, 26, -15, 59, 36, 50, -47, 40, -59, 20, -1, 24, 57, -57, 14, -32, 31, -15, 39, 0, 2, -57, 49, 11, -14, -48, -26, 42, -17, 22, -11, 43, 24, 2, 22, 18, -15, -39, 18, 38, -60, 59, 43, 1, 7, -63, 51, -32, -5, 1, 6, 27, -31, -1, -18, 51, -3, 0, 46, 39, 59, -14, 23, -40, -36, -56, -10, 39, -28, -14, -11, -25, -53, -48, -19, -46, 16, 12, 49, -5, -48, 20, -57, 42, -24, 51, -18, -26, 46, -53, 1, -43, 0, 53, 45, -21, 42, 39, -24, -14, -65, -43, 0, 10, 47, 7, 41, -25, 58, -30, -47, 25, 10, 49, -12, -54, -49, 21, 31, -51, 16, 15, -17, 41, -43, 38, -49, -50, 5, -35, -38, -20, -35, -11, 50, -49, -61, -25, -29, -58, -32, 49, 28, -58, 25, 27, -41, 60, -34, 58, -61, -40, 24, 26, 41, 24}
, {25, -45, -2, 33, 64, 8, 37, 55, 16, -19, 28, 51, -28, 52, 42, 0, -3, -20, -52, -12, 40, -13, 42, -47, 55, 0, -47, -54, 21, 20, -29, 5, -40, 65, 38, 31, -60, -34, 62, 0, 44, 4, -55, -31, -2, 49, -61, -30, 18, 40, -21, 18, -28, 61, 33, -11, -35, 50, -53, 29, 6, 58, 62, -29, -1, -21, 2, 25, 21, 29, -57, -47, 12, 46, -14, -24, -42, -60, -16, 54, -12, 21, 21, 46, 5, -3, -3, -23, 17, -35, -19, 2, -12, -45, 12, -25, 21, -33, 15, -12, -29, 31, 43, 33, 23, 0, 23, 12, -31, 31, -20, 6, -2, 38, 3, -24, 1, -37, 10, 6, -56, -18, -11, -44, 46, -50, 61, -4, 25, 52, 38, -57, 50, 52, 50, 16, 49, 62, 30, 61, 40, -8, -13, -30, -16, 28, 62, -48, -42, 15, 24, -56, -51, 28, -42, -33, 16, 5, -44, 14, 11, -18, -32, -44, -14, 14, 17, 2, -17, -5, 43, 61, -2, -32, 22, 63, -26, -58, 21, -13, -3, -8, -40, 0, 34, 4, -40, -14, -22, -13, 42, -23, -46, -39, 17, 58, -3, 47, -43, 27}
, {52, -41, -21, 53, -40, -50, 2, 57, 46, 22, -14, 18, 48, 42, -49, -61, -32, 26, 19, -49, 20, -28, -13, -27, 54, 42, -20, 42, 15, 21, 37, 23, 10, 56, 8, -39, 52, 7, -16, 13, 15, 46, -42, -59, -27, -24, 19, -36, 7, 16, 17, 7, -14, 46, 57, 54, 45, -24, -5, -18, 43, 39, -18, -54, 30, -51, 3, -8, 14, -3, -43, 34, 45, -23, -58, -27, -32, -48, 32, 53, -46, 42, 49, -45, -2, -31, -1, 41, -56, -65, -54, 25, 2, -16, -33, 11, -11, 27, -41, -19, -16, 8, -16, 0, -46, -13, 59, 47, 48, 51, 20, 28, -61, 19, -39, 9, -39, -16, -65, 36, 3, -21, -52, 33, -27, -58, 52, -8, 4, -65, 31, -13, 38, 13, -44, 60, 57, -31, -33, 51, -52, -54, -23, -21, 59, 35, -26, 58, -38, -61, 15, 4, 48, 1, -2, 18, -5, -42, -15, -9, -35, 9, -27, -24, 0, 37, 38, 0, -49, -1, -35, 27, 42, -62, 30, -65, 52, -32, 58, -19, -5, 10, 36, -51, -19, 58, -56, 30, 20, -45, 62, -24, -46, 27, -64, 40, -19, -12, 34, -7}
, {11, -2, -16, 26, -65, 33, 36, 15, 22, 24, -46, -17, -6, -53, -61, -20, -52, -2, 23, -44, 12, 9, -34, 0, 34, -13, 44, 36, -50, -20, -1, 32, 43, 48, 21, 32, -26, 38, 35, 28, 9, 15, 39, -47, -19, -35, 30, -36, 40, 4, -50, 22, -11, 34, 53, -12, -45, -60, 7, 49, 21, 25, 42, 24, 43, -57, 24, 39, 14, -28, 10, 46, 2, 35, -46, -33, -51, -24, 28, -11, -44, 52, -16, 54, -4, 17, 4, -35, -64, 23, -34, -27, -59, 4, 29, 50, 40, -15, 10, 0, -53, -10, 38, -55, -23, 36, 51, 24, -48, -54, 57, -8, -31, 50, -56, 42, -3, -15, 0, 55, -11, -30, 36, -47, -62, -60, -37, 40, -52, -66, 55, 45, 15, 42, -3, -24, 9, -65, 37, 37, -30, 58, 60, 9, 50, 31, -5, -44, -32, 15, -42, -58, -17, 8, 14, -16, -57, -46, -23, 37, 50, -45, -2, 14, -3, -66, 38, 53, -14, -7, -9, 1, 54, -35, 54, 56, -52, 36, -47, -53, 22, 6, 58, -48, -54, -56, 24, -14, 56, 37, -8, -58, -31, 15, 47, -49, -2, 26, 8, 40}
, {47, 25, 40, 15, 26, 25, -53, 4, -7, -44, 55, 39, 29, 27, -30, 10, 6, -36, 5, 13, -63, -55, -11, -33, -6, 58, -4, 30, 42, -36, 32, 11, 50, 10, 26, 24, 37, -33, -52, -23, -51, 36, 9, 57, -8, -19, -54, -59, -22, 8, -9, -35, -39, -18, -52, -27, 9, 47, -32, -37, -16, -9, -7, -37, -40, -46, -10, -1, -7, 26, 44, -43, -18, 9, 21, -14, -46, -58, -34, -39, -48, -42, -15, 53, 9, 50, -29, -23, -33, -6, -14, -21, 45, 10, 42, 12, -19, 60, -15, -64, -41, 9, 47, -1, -13, -35, -9, -45, -24, -15, -3, 38, 28, 41, -36, -12, -20, 54, -20, 26, -62, 1, -61, 11, -61, -31, 20, -57, -1, -31, -57, 46, -3, -47, -13, 41, -59, 4, 44, 12, -15, -57, -3, -18, 19, -25, 12, 0, 44, 27, -50, -24, 16, 33, -49, -54, 21, 57, -4, 13, -22, -54, 9, 30, 59, -51, 11, 31, -36, 37, 38, 5, -62, -5, -50, 58, -28, 38, 58, 9, -11, 11, 59, -18, -61, -52, 61, -14, 49, -7, -4, -41, 8, 41, 14, 7, 41, 21, 33, 28}
, {-10, -57, 35, -38, 46, -49, 4, -1, -19, 44, 61, 43, 41, -43, 56, 36, 40, 39, -8, 21, -37, 51, -19, -63, -34, 2, 16, 28, 24, -63, 7, 51, 55, -37, 65, 62, 56, -20, -51, 2, 17, -20, -23, -58, -28, 8, -25, -42, -17, -18, -38, -13, 37, -1, 47, -61, -28, 33, -48, -44, -33, -24, -15, 4, 31, -76, 0, -4, 47, -21, 43, -42, -52, 5, -37, -28, 51, 33, 4, -31, 0, -12, -45, -39, -43, -24, 57, 25, 39, 44, -18, -40, 24, -27, 32, -34, -25, -51, -16, 7, -2, 35, 40, -39, 77, -4, -13, -14, 31, 3, 51, -6, 13, 46, -37, 58, 8, 36, 49, -26, -58, 33, -28, 19, -23, -56, 52, -63, 44, -62, -45, -2, -56, -50, -55, -18, 38, 37, 32, -21, -5, -3, -3, -12, 6, -53, 0, -39, 38, 48, 2, -18, -26, -1, 6, 13, 0, 28, 49, 42, -34, -8, 28, 4, -22, -53, -5, -57, 20, -13, -83, 13, -24, 4, -13, -14, -35, 25, -64, 24, -52, 37, 40, 26, -42, 12, -5, 44, -14, 53, 13, 29, -27, -53, 45, 3, -53, 5, 53, -8}
, {-38, 0, -13, 42, 25, -29, -11, -12, -6, -20, -52, -60, 59, 34, 41, -14, 25, -5, 33, 9, 58, 27, 62, -16, 38, -61, -20, -55, 47, -20, -40, 15, 12, 33, 61, -1, 8, -45, -8, -42, 47, -26, -55, 31, 42, -45, 7, 17, -9, 16, -38, -20, 34, -44, 26, 13, -40, 33, 42, -31, -41, 5, -42, -5, 3, 30, -9, -8, -20, 2, -43, -9, -24, -58, 31, -42, 22, -33, -58, -30, -5, -47, -42, -18, 51, 49, -33, 31, -21, -29, 14, 40, 10, 49, 39, 12, 30, 47, -12, 9, 4, 24, 21, -54, -37, 17, 7, -4, 60, -29, -40, -60, 58, 57, 54, 9, -42, -20, 55, 0, 58, 39, 47, 42, -38, 42, -31, 23, 7, -21, 16, 34, -50, -1, -15, 51, -46, -50, -1, 49, 1, -20, -19, 16, -22, 12, 18, -56, 4, 59, -24, -56, 36, 55, 12, -5, 39, 43, 42, 22, 39, 49, 31, 22, -37, -54, 54, -21, -62, -32, -36, 25, 1, -20, 52, 43, -13, 11, -17, -42, -4, 1, -39, 10, -16, -31, 51, 30, 6, -34, -27, -54, 25, -59, -47, 21, -13, 54, 4, -38}
, {-45, -17, -57, -60, 27, 6, -15, -55, -40, -9, 56, 22, 18, 40, 56, -36, 48, -36, -10, 38, 32, 39, -35, 8, -29, 49, 47, -50, -46, 19, -27, -56, 6, -3, 23, -23, 1, 21, -50, -27, 39, 8, -16, -5, 45, -54, 3, -17, -15, 3, -43, 50, 58, -28, 28, 39, -54, 56, 32, -59, 50, 43, 3, -35, 16, 0, 17, 12, -28, -6, 6, 27, 14, -22, 52, -33, -46, -60, 44, 39, -6, -29, -1, -62, 39, -35, -38, 60, -7, -5, -4, 35, 7, 18, -37, -24, 46, -22, -8, 18, -2, -59, -28, -19, 44, 32, -42, -29, -11, -32, -32, -8, 48, 14, -25, -36, 49, -47, 55, 0, 53, -9, -12, 12, -41, 60, -62, 20, -54, 6, 47, -50, 14, -47, 21, -10, 36, -11, 39, 22, 60, -9, 15, 13, -36, 28, 4, 25, -46, 62, 52, 17, 0, -41, -39, 1, -58, 16, 58, 60, -8, -39, -53, 4, 35, 34, -48, 7, -49, -27, -22, -60, -23, 55, 4, -15, -18, 16, -20, 62, 43, -30, 2, 59, 18, -15, -22, 60, -39, 37, 39, -60, -21, 35, -15, -24, -19, -45, 57, -38}
, {-46, -39, -51, 41, 12, 19, -6, -45, -24, 28, 22, -62, 26, -43, 52, -11, -9, 58, 14, -7, -50, 24, -44, 3, -12, -17, -8, 46, -54, -47, 55, -18, 9, 18, 61, 22, -8, -33, -29, 8, -3, 47, -23, 0, 51, 48, -57, 49, 45, -54, -51, 59, 11, 61, 31, 6, -37, -42, -55, -6, 46, -22, 1, -38, 20, 37, 49, 0, -22, -8, 21, -36, 19, -45, 42, -29, -29, 21, -46, 28, 12, -55, -54, 32, -51, -43, 20, -39, -12, -48, -26, -8, 6, 17, -29, 6, 8, 19, -2, 0, -30, 41, -16, -27, -1, -7, -60, -15, -20, -35, 28, 12, 14, 14, 39, 37, -28, 16, 49, 19, -47, 12, -20, -14, -22, -18, -61, 46, -34, -16, 38, 54, 20, -21, 35, 25, 29, -49, -30, 11, 20, -17, 46, -21, -31, 35, -39, 2, 48, 61, 9, -26, -21, 5, 49, -1, 20, 21, -5, -34, 40, -52, 12, 23, -27, -7, -58, 10, 52, 42, -8, 5, -57, 33, 0, 23, -18, 30, -46, 41, -42, 54, -42, -6, -40, -26, -45, -41, -20, -32, -59, -33, 15, -14, -29, 15, -45, -28, 11, -20}
, {-30, -52, 2, -20, -28, -32, -58, 58, -57, -18, -36, -6, 13, -1, 22, 27, 42, -37, 1, 36, 53, 0, -51, 52, -60, 32, -40, -20, 45, -57, -39, 36, 22, 9, -43, 34, 51, -29, -62, 59, -11, -14, 4, -21, 53, -63, 0, -50, 59, -4, 36, -37, -1, 2, 0, 23, -25, 4, -60, 3, 20, -14, 17, 55, -17, -40, 27, -7, -5, -15, 22, -19, -50, -23, -5, -17, 10, 33, 8, 19, -51, -31, -44, -47, -24, 3, -19, -7, 11, -9, 18, -63, -16, -45, -64, 4, -55, 19, -40, 53, 29, 58, -17, -31, 20, 33, -29, 46, -55, 17, -49, 3, -48, -53, -13, 14, -23, -14, 39, 25, 52, -15, 44, 17, -17, -34, -39, 48, -19, 0, -40, -31, 0, -34, -57, -9, -23, -44, 8, -47, -2, 48, 6, -2, -53, -48, 9, 26, 30, 52, 31, -12, 51, -45, -10, 7, -47, -47, 3, 54, 56, 51, -8, -31, -44, 5, -1, -12, 27, -56, 59, -55, 46, 18, -62, 0, 10, -26, -7, -9, -47, -39, 0, -56, 24, 47, 11, 43, -17, 57, 20, -4, -34, 55, 19, 9, -13, -18, 12, 22}
, {-62, -4, 26, -59, 15, 54, 7, -39, 4, 37, 25, 7, -36, -45, 31, 25, 28, 41, 50, 14, -38, -9, 53, 54, -23, -35, 6, -47, 24, 50, 52, -30, 65, 36, 0, -54, 1, -59, -1, 0, 2, 11, -51, -53, -21, -17, 14, -55, -38, 17, -30, 3, 38, 54, 4, -17, -48, 37, -5, -51, 15, -48, -38, -40, -40, -10, -7, 12, 25, 50, 57, 32, 46, 50, 1, 15, 0, 28, 54, -25, -1, 3, 8, 32, -6, -55, 11, 47, -58, -60, 24, 31, -47, 17, 34, -34, 47, 30, 5, 39, 54, -14, -35, -34, -11, -24, 62, -4, 17, -56, -51, 46, -58, 22, 32, 53, -56, 58, 38, -20, 44, -49, 21, 16, 11, 20, -1, -46, -18, 23, -57, 5, 28, 1, 33, 15, -57, -41, -53, -42, 31, 1, 48, -25, 57, 6, 9, -27, 17, -62, -2, 37, 61, -57, 11, -27, -4, 25, -14, -70, 29, 35, -6, 52, 53, 55, -59, -32, -25, -19, -1, -62, -53, -26, 13, -51, 18, -39, 19, 54, -17, -36, 28, -59, -40, 32, -49, 17, 22, -61, 43, -36, -6, -6, -29, -8, -21, -43, -19, -7}
, {-41, 61, 35, 11, 18, 24, 47, -65, -1, -70, -58, 15, 5, -25, -25, -36, 25, 4, 11, 31, 0, 4, 33, -29, -46, 18, 55, -49, 33, 45, -7, -16, 33, 52, -5, -14, 10, -33, 71, -1, 28, 13, 40, 45, -62, 37, 40, -32, 42, 8, 8, -34, 22, 40, -45, 28, -13, 22, 30, -29, -40, 13, -24, 7, -40, -13, -59, 56, -64, -39, 51, -45, -58, 21, 3, 5, -24, 15, 21, 11, -18, 50, -6, -35, 36, 9, 33, 37, 10, -31, 45, -16, 12, 41, 27, -37, 45, 36, 33, -6, 32, 1, -22, 13, -88, -22, -40, -45, 38, -2, 51, 12, 27, 56, -29, 54, 25, 35, -11, -13, 6, -24, -66, -40, 1, 0, -39, 31, -30, 19, -48, -48, -55, -3, 50, 23, 32, 7, -53, -36, 27, -22, -51, -33, -16, 13, 58, 14, -32, -38, 3, -32, 46, -15, -66, -18, -13, -61, -34, -23, -25, -43, -38, 36, 0, 8, -4, 52, -18, 28, -22, -47, 22, -44, 26, -58, -14, 25, 27, -43, 0, 5, 38, -25, 40, -23, 15, -65, -48, 24, -6, 49, 18, 44, 54, -27, -26, 15, 46, -65}
, {-60, 32, -57, -5, 12, 46, 62, 39, -58, -39, -21, -36, 0, -35, 40, 3, 54, 61, -51, 43, 37, 25, 0, 53, -2, -61, -18, 19, 1, 39, 43, 13, 27, -44, 36, -27, -32, -36, 35, 58, -50, -27, 14, -39, 26, 44, -6, -36, 19, 39, -35, -21, -47, -6, 62, -15, 31, 26, -2, -21, 51, 1, -17, 42, -45, 23, 41, -61, -57, -58, -2, 10, -12, 6, 7, 53, 52, 35, -12, 29, -65, 22, 23, -11, -27, -56, -50, -20, -41, 10, -61, -30, 42, -51, 1, 47, -5, 3, -22, 54, 62, 3, 60, -15, 49, 62, 5, 40, 20, 48, 5, 18, -7, -33, 14, 34, -59, -2, -14, 55, 39, 16, -17, 40, 12, -24, -61, -48, 5, -45, 21, 25, -22, -37, -59, -9, 61, -56, 0, 19, -53, 37, 2, 4, -32, -10, -12, 59, -36, 8, 54, -14, 11, -58, 58, 2, -59, -24, -39, 0, 48, -34, 21, 28, 57, 23, 46, 50, 35, -43, -58, 4, -14, -49, 28, 27, 49, -19, -50, -11, -31, 25, 8, -48, -58, -10, 0, 78, 18, 31, 26, 3, 18, 36, 30, -32, -11, -27, 59, -5}
, {34, 17, -64, 50, 30, 21, -16, -33, -48, 14, -31, -24, 38, 57, -30, 36, -61, 55, -46, -44, 27, 19, -10, 34, -31, -7, -28, -52, -66, -64, -3, -46, -25, 22, 39, 62, 22, -24, -47, 37, 58, 40, 47, -29, -14, 9, 12, 18, 45, 52, -53, -22, 60, -60, -26, -20, -14, -52, 6, 2, 17, 43, 41, 57, 20, -12, -32, -18, -26, 35, 17, -8, -26, 24, 25, -6, 3, -42, 35, 8, -29, 32, 25, 19, -17, 54, -52, -37, 11, -37, -46, 57, -56, 47, 1, 13, 34, 15, -15, -17, 48, -47, 42, 8, 20, 61, 44, 4, 63, 46, 56, -34, -2, 34, -17, -39, -37, 26, -32, -20, 34, 20, -14, -54, -6, -3, -35, 4, -8, 36, 42, 35, 44, 58, 8, -56, 23, 31, -17, 4, 26, 46, 34, -17, 41, 11, 6, -20, 41, 38, -54, 38, 18, -29, 2, 18, 51, -33, 70, 51, -38, 1, -48, 53, 49, 13, 48, 14, -30, 27, 31, 51, 14, 55, -56, 40, 13, 31, -4, -32, -37, 4, 56, 16, 17, -28, -36, 47, -58, -26, 49, -35, -10, -59, 54, -4, -60, -27, -51, -10}
, {32, 2, -51, 7, 2, 56, -5, -35, -33, -51, 57, 22, 48, -22, 26, -30, 22, 61, -52, 46, -53, 51, 30, 14, -46, -1, 47, -53, 12, -26, -61, 21, -23, 0, 31, 48, -28, -62, -16, 18, -50, 24, 23, 0, 50, -43, 0, 54, 26, 46, 1, -37, -2, -36, -47, 43, 41, -3, -10, -17, -6, -21, -15, -24, -18, 52, 1, -32, -23, -13, -32, -31, -47, -57, -28, -51, -51, -24, -30, 25, 9, -17, 10, 40, 62, -10, 13, -42, -30, 35, 48, 27, 8, -22, -29, -49, -61, 19, 3, -57, 59, -24, 1, 40, -60, -20, 46, 2, 43, -34, -2, -18, 0, 44, 17, -33, 19, -24, -4, -33, 25, 6, -16, 31, 25, -35, 56, 8, -59, 10, -37, 58, 0, -15, -32, 3, -22, 55, -24, -14, -15, -34, 4, -43, 44, -51, 45, -12, -51, 49, 54, -9, -14, 0, -2, -61, 53, 40, 27, -49, -17, -49, 13, 26, -40, 36, 5, 6, 25, -24, 27, -22, -43, -20, 61, -23, 11, 1, 59, 32, -4, -7, 31, -9, -5, -55, 25, -42, -12, -4, -13, -47, 52, 52, 32, -52, -57, -40, -23, -12}
, {10, 53, 37, -25, -55, 15, 7, 27, 56, -61, -61, -53, 42, 36, 48, 37, -26, 47, -45, -59, -62, -16, 19, 7, -9, 56, -24, -34, -43, -52, -30, -49, 19, 7, 17, 18, 36, 4, 54, 6, 8, -14, 0, -19, 23, 6, 4, 24, -45, -19, -58, 44, -3, 33, 0, -62, 27, -21, -55, -25, 36, 9, -32, 31, -52, -28, -6, -12, -49, -48, -25, -46, -52, -9, -4, 4, -5, -24, 48, -21, -7, 53, -11, -7, -19, -33, 56, -25, -45, -4, 24, 39, -30, -30, -26, 33, 33, 43, -22, 42, -56, 6, 26, 38, 40, -18, 0, 50, 1, 15, 27, 15, 11, 30, 17, -56, -61, -57, 12, 27, -5, 33, -18, -58, -31, 1, -43, 2, -7, 13, -12, 32, 5, 28, 13, 61, -16, 15, -31, -2, -41, 51, 45, -41, -6, 1, -59, 33, -33, -42, 0, -8, 24, 25, -2, -35, -38, 43, -50, -50, -16, -35, 48, -22, -4, -17, -54, -1, 43, 50, -43, -18, 52, -45, 11, 4, -42, -2, 21, -23, 54, 15, 36, 22, -15, -2, 22, 27, -26, 50, 17, -42, 42, -6, 31, 18, -20, 53, 39, -17}
, {-13, 14, 50, 36, 27, -38, 8, -12, -35, 25, -16, 25, -36, 0, -2, -14, 40, -56, -51, -8, 27, 28, 38, 43, -2, 57, 5, 52, -15, 24, 28, -36, -44, -9, 51, -12, 24, -29, -36, -52, 29, -57, 8, 21, -28, 21, 56, -8, 55, -38, -35, -36, 20, -53, 36, 61, 52, 38, -38, -17, -32, 50, 33, 1, -37, -5, -12, -10, 52, -33, -36, 0, -31, -53, -23, -33, 3, -51, 23, -55, 14, -24, -3, -48, 47, -53, 62, -56, 58, -20, 41, -11, -61, -39, 54, -23, 34, -4, 52, 16, -1, -61, -21, -49, 12, 61, 59, 17, 20, -36, 9, -12, 29, -54, 10, -37, -13, -57, -5, -33, -41, -53, 0, 9, 21, 45, 26, 42, -24, 14, -44, -4, 24, 8, -9, 35, -52, -39, 51, -53, -38, 1, 20, 3, 57, 50, 23, 12, 35, -48, 13, -5, -37, 43, 17, -10, -25, 44, -5, 31, -51, 52, -40, -38, 44, 0, 15, -18, -24, -46, 14, -38, 40, 8, 60, 46, -40, 61, -39, 52, 43, 44, -43, 43, 25, 58, 16, -19, -60, 56, 62, 62, -3, 28, -51, 51, 18, -38, 31, -33}
, {-7, 20, 22, -23, -10, 32, 15, -31, 33, -46, 0, 17, 45, 4, 31, 21, -53, 41, 58, -43, -15, -56, -7, -15, -53, 32, 59, 10, -39, -52, -24, -54, 13, -50, 31, 22, -44, 7, -36, -51, 4, -10, 24, 4, 13, -5, 24, 28, 51, -29, 50, -8, -59, 32, 16, 17, 33, 30, 34, -30, 38, -10, -1, 6, 41, 11, -3, -14, -35, 21, -26, 45, 43, 56, -58, 15, -43, 23, 11, 31, 52, 26, 49, -1, 43, 37, -47, 25, -50, 16, -13, 49, 1, 18, -11, -27, 28, -25, 27, -20, 5, 41, -34, -25, 44, -43, 22, 29, -23, -15, 28, -8, 53, -15, 19, -4, 10, 18, 45, 27, 41, -11, -35, -38, -59, 37, 3, 5, -30, 0, 58, -9, 46, 38, -44, -8, -21, -48, 55, -15, -22, -41, 1, -53, -15, 40, -9, 39, 1, 50, -51, -22, 27, 26, -28, 56, 52, -46, 28, 1, 24, -2, 30, -29, -15, -12, -43, -58, -7, -61, 44, 47, -19, 26, -57, -62, 20, 13, -58, 26, 8, 9, -36, -7, 27, -35, 14, -54, 26, 27, -11, -54, -26, 6, -59, 35, 23, -46, 53, -51}
, {14, 49, 7, -39, 35, -30, -31, -34, 31, 43, -32, -27, -43, 56, 57, 24, -33, -40, -53, 4, -5, -39, 41, 45, -42, -14, 37, -60, -38, -39, 0, 30, -55, -26, -29, 25, -40, -48, -31, -12, 26, -33, -40, -45, -1, 54, 53, 35, -57, -30, -14, -34, -9, 35, 33, -58, 55, 8, -8, 0, 50, 26, 33, 8, 7, 37, 19, 42, 27, 19, -19, 11, 7, 40, -3, -30, 42, -48, -54, -49, 32, 34, 34, 51, 2, 7, -52, -27, -17, 35, -24, -23, 45, -50, -50, 18, 12, 3, 33, 60, -33, 18, -59, 20, -24, -11, -46, -61, -16, 10, -14, 9, -24, -47, 22, 37, -54, -3, 6, 9, 50, 47, 39, 18, 30, -9, -38, 20, -10, -18, 46, 2, 53, -63, -55, -3, 4, -51, 9, 38, -59, -8, 7, 22, -13, 11, 47, 37, 20, 32, -50, -27, -35, 45, -7, 12, 44, -49, 29, 23, -6, -26, 59, -43, -31, 46, 12, 22, 42, 10, 3, -37, 59, -12, -18, 22, -14, -51, 20, -21, -40, -38, -38, 36, -3, 15, -55, -27, -21, 36, -11, 10, 15, -60, 32, -36, 50, -13, 25, 14}
, {17, 8, -17, 30, 27, 46, 2, 10, 54, 4, -38, -57, 0, 10, -3, -28, -16, 54, 52, 43, 51, -31, 19, 55, -16, -29, 38, -31, 29, 57, 10, 54, 32, 64, -40, -8, 1, 26, 0, -24, 11, -17, -39, 31, -49, 13, -19, 14, -57, 31, 26, -39, -20, 49, -12, 40, 48, 31, -31, -9, 41, 58, 26, -52, -2, -27, -8, 51, 36, 26, -16, 49, 44, 19, 8, -18, -55, -44, -39, 9, -47, 58, -14, -2, 75, 6, 23, -38, -14, -15, -39, -47, 3, -15, -55, -25, 14, 29, 14, 58, -9, 37, 49, -48, 27, -7, -24, 44, -46, 0, 18, 3, 0, -48, 28, -61, -22, -16, 52, -61, -35, -11, 38, -45, 19, 54, -15, 0, -37, -11, 2, -26, 43, 18, -63, -14, -59, -19, 56, 49, -59, 7, -7, -59, -38, 1, 35, -32, -16, -4, -22, 37, -59, -32, 23, 40, 56, -18, -18, 67, -56, -57, -18, 39, -32, -25, 53, 40, -25, 33, -4, -62, -17, -13, -25, -24, -7, -38, 24, -17, 66, -56, 35, 9, 47, 26, -26, -62, -14, 16, -23, -58, -19, 19, 5, 55, 60, -58, -39, -52}
, {-59, -8, 34, -1, 12, -1, 48, 21, 15, 40, -12, 14, -39, -28, -16, 13, -22, -17, -17, -15, -33, 5, -19, -10, 13, -12, -9, 39, 23, 48, 28, 3, -50, -5, -20, -36, 61, 34, 6, 60, -57, 21, -35, -18, -58, 38, 36, -14, 35, 6, -50, 48, -44, 2, -15, 55, 8, -60, -29, -36, 5, -38, -4, 7, -52, 34, 11, -7, 42, -44, -29, -22, -36, 18, -39, 45, 49, -1, 10, 7, -3, -47, -47, -17, 52, 18, -8, -23, -25, -12, 49, 24, 60, 37, -1, -6, 15, 59, -55, 59, 0, -30, -57, -47, -43, -17, -59, -52, 56, -43, -1, 48, -21, 51, -3, 0, 44, -58, -39, -2, 37, -7, -41, 29, -56, 56, 31, 27, -32, -61, -52, 16, -33, -30, -8, -21, -49, -11, 36, -27, -56, -35, -5, 56, 53, 15, -18, -53, -47, -55, -17, -20, -54, -10, -12, 39, -7, 12, -3, -29, 0, -17, -59, -33, -12, -1, 11, 15, 45, -14, 35, -9, 31, 20, -39, -54, 11, 36, -31, -13, -29, -10, -35, -9, -8, 22, -29, 0, 23, -55, 24, 3, 6, -15, -33, 58, -59, 28, -58, -57}
, {22, -22, -11, -36, -10, 7, -43, -55, -8, 59, 29, 56, -18, -43, -1, -12, 16, 52, 18, 55, -33, -39, 26, 23, 34, 44, 12, 56, 39, 25, -48, 42, 73, -19, 50, 29, 56, -24, -8, -4, -9, -25, -1, -15, -51, -59, -23, 12, -13, 56, 47, -11, -52, -5, 92, -12, 34, -53, -55, 7, -43, -37, 51, -45, 51, -15, 36, -26, -6, 48, -18, -31, -57, -19, 30, 13, 7, 21, -5, -25, 11, 17, -47, 62, -36, -14, 4, -48, -23, 23, 0, 52, -10, -54, 21, -36, 60, -55, 6, -8, -58, 17, 7, 33, 37, 43, 61, -41, -14, -54, 56, -28, -26, -48, 41, 24, 31, 54, 19, 63, 60, 11, 31, -20, -62, 4, 12, 62, 59, 45, -10, 14, 42, 18, -13, -10, -38, 14, -60, -2, 0, 49, 54, -42, 32, 49, 3, -49, -61, 17, 43, 3, -46, -51, -26, -48, -69, 39, 42, -37, -67, 34, 14, 33, 1, 20, -48, 11, -27, -34, -83, -6, -31, -24, 57, 34, 19, 25, 36, 28, -60, 62, 26, 36, 33, -31, 22, 68, -42, -8, -36, 51, -2, -36, 22, 54, -28, -31, -22, 62}
, {55, -40, -21, -25, 58, 31, 31, 43, 60, 48, -13, -15, -20, -24, 53, -52, 2, -46, -19, 58, -26, 54, -28, -51, 36, 6, -42, -18, 17, -37, 42, -25, 38, -65, 57, 8, 9, -42, -36, -46, -58, -20, -52, -58, 43, 38, 14, -25, -15, 0, -2, -3, 11, 53, -20, 12, 61, 59, 5, -35, 46, -54, 6, 38, -36, -49, 63, -53, 44, 21, -63, 6, -16, -5, 55, 5, 6, 36, 55, -34, -24, -6, -57, -61, -67, 32, 36, 46, -22, -47, 39, -20, -18, 35, 8, -26, -5, 31, 20, 13, 24, 0, -31, -35, 0, 40, -8, -44, 45, -16, -22, -62, -58, 0, 16, 61, 24, -37, 57, -32, -37, 29, -57, 15, -56, -55, -53, 13, -26, 40, 49, 84, -38, -53, -56, -21, -60, -53, 21, -4, -49, -9, 36, 40, -29, -25, 31, -50, 1, -39, 6, -56, -21, -1, 61, -31, -29, 54, -18, -61, 4, -21, -3, 5, 4, 18, 19, -21, 50, 9, 14, -21, 42, -27, -54, 62, -64, 41, 57, 14, 12, -58, -27, 18, -40, 49, 18, -33, 56, 51, -29, 43, -56, 28, 28, 19, -37, 4, -56, -30}
, {-59, 43, 5, 45, 8, 29, 10, 19, 55, 20, 33, -13, -34, -47, -15, -14, 14, -22, -7, 2, 61, -39, 48, -48, -38, 50, 34, -7, -21, 29, 59, -31, 50, -1, -42, 50, -16, -45, -40, -36, 52, -29, 29, -56, -31, -47, -35, 0, 59, -6, -60, -39, 25, -49, 55, -26, -40, 43, 47, -30, 49, -44, -7, -41, 54, 35, -16, 23, -45, -11, -25, -22, -46, -9, -24, 47, -58, -4, -30, -41, -36, 10, 60, 6, 29, -26, -40, -2, -10, -6, -43, -27, 34, -2, -45, 34, -57, 15, -55, -16, 19, -35, 24, -11, -24, -57, -1, -46, -58, 22, -8, -31, 27, -54, 62, 0, 38, 10, 41, 41, 36, -5, 0, 13, -43, 12, 30, -53, -49, 44, -7, -8, 35, -40, 55, -19, 50, 53, 30, -39, -40, -42, 11, 58, 27, -43, 29, -27, -44, -33, 46, -10, 25, -27, -36, 0, 39, -25, 29, -56, -59, -58, 41, 54, -26, -51, 56, -46, -15, 28, -16, 43, -24, 62, 48, 14, -50, -27, 16, 24, -2, 16, 23, 0, 3, 58, 0, -53, 62, -38, -15, 29, -6, -40, -44, 33, 28, 9, -16, -31}
, {-53, -55, -11, -28, -27, 58, 57, -35, 16, -53, -12, -60, 39, -57, 8, 36, -35, 49, 15, 44, 19, -54, -49, 4, 14, 9, 6, -28, 8, 4, -8, 27, 19, 9, 60, 13, 18, 26, -34, -30, -58, 12, -42, 52, -21, -51, 57, -23, 35, -18, -39, -20, -20, 14, 22, -3, 35, -8, -29, -62, -28, -16, 3, -54, 7, -61, -55, -10, -26, 6, -44, 38, -58, 45, -20, -9, -16, -4, -15, 46, -42, 2, 27, 10, 20, 0, 2, 0, 12, 30, 0, -8, -43, -3, -49, 47, 28, 56, 26, -7, -22, -54, 17, -1, -46, -10, 6, -46, -6, -12, 38, 44, -39, 49, -9, 44, -33, -5, 30, -28, -43, -38, 54, -15, 43, 57, -52, -66, -41, 7, -18, 49, -5, -26, 40, -63, -30, -43, 20, 42, -16, 4, 46, -1, 55, -30, 0, -20, -19, 18, -9, 35, -31, 40, 46, 8, 49, -26, -11, 27, 45, -54, -4, 10, -7, -24, -11, -22, -4, 43, 58, -44, -58, -50, 13, 46, 22, 14, -33, 46, -49, -62, 14, -47, -12, 26, 11, 19, -43, 33, 46, -29, -21, -47, -37, -54, -24, -31, 15, -5}
, {19, 49, 5, -35, -30, 44, 55, 57, 43, 1, 39, -27, 2, 61, 51, 5, -41, 27, 41, -39, 24, 15, -52, -14, -46, 13, 68, 40, -29, -29, 2, -43, 48, 42, 36, 38, -27, 9, 31, -55, -12, 46, 0, -5, 15, -24, -27, 36, -46, 3, -4, -42, 44, 38, -52, -17, 9, -36, 27, 29, -6, -55, -54, -5, -62, 42, -8, -39, 58, -15, 0, -49, -4, 52, -4, -30, 8, -55, 44, -34, -7, -2, -61, -53, -2, 20, 4, -4, 15, -46, -18, 7, 25, 23, -53, -1, -38, 17, 9, 8, 50, -39, -23, -31, 11, 66, 20, -24, -44, -29, 53, -16, -56, 31, -18, -31, 22, -55, 1, -25, 3, -32, -44, -32, -28, -15, 0, -19, -41, 45, 30, -26, 25, 44, 54, -16, 53, -35, 47, 29, 39, -27, 56, -36, -50, 8, 0, -6, -21, -67, 37, -57, 41, -24, -6, -12, -35, 60, -69, 5, 49, 1, 46, 13, 42, 40, 52, 41, -12, -10, 51, 2, -31, -49, -27, 13, -17, 11, 59, -22, -40, 14, 0, -33, 54, 67, -57, -6, 0, -58, 1, 43, 24, -46, 56, -31, -37, -9, 33, 24}
, {-11, 23, -40, 28, -29, 5, -45, -34, 40, -48, 36, -3, 20, 38, -53, -12, -50, 26, 25, -58, 26, 37, -61, 16, -23, -30, 27, -9, 8, -52, -37, 21, 1, 59, -29, -2, 21, 5, 48, 4, 25, -41, -30, 59, -51, 52, 22, -33, -35, -49, -52, 29, 41, 4, 24, -20, -18, -24, 27, -8, -54, -31, -32, -7, 32, 44, -25, -56, 57, 52, -3, 5, -53, 19, 0, -6, 22, 0, 37, 56, 4, 50, -51, -23, -28, -57, -14, -12, 12, -14, 9, -57, 12, -5, -25, -51, 30, -28, -53, -5, 46, 3, 24, 49, -11, 41, 45, -47, 50, 26, -17, -19, 48, 28, 18, -8, 34, -29, -1, 58, 0, -11, 49, -9, -63, -57, -58, 33, -4, 60, 46, -57, -50, 48, 12, -19, 54, -27, 63, 17, 0, 18, -20, -31, -54, 24, -51, -20, -3, -41, 13, 54, -41, -30, 0, -51, 13, 41, -18, -40, 9, -46, 0, 27, 39, -10, 59, -5, -56, 40, 61, -18, 23, -12, -62, -46, 52, 61, 52, 55, -59, -19, -29, -38, -3, 59, 16, -38, 20, 60, 2, -31, 0, 1, 53, 19, -28, -40, -36, 39}
, {-49, 38, 57, -7, -29, 32, 27, 11, 34, 25, -17, -16, 60, 51, -31, -38, 26, -1, 38, 12, 22, 7, 27, -60, -5, 42, 63, -34, -33, -24, 34, -8, 13, -38, 66, 42, 16, -17, -2, 61, -4, 10, 36, -53, -1, -53, 61, -24, 26, 60, 24, 37, -44, 21, 38, 11, -22, 53, 47, 34, -17, -14, -8, -12, 58, -64, 11, -18, 50, 7, -59, -2, 1, 13, -46, 34, -16, 59, -38, 53, 9, -47, -55, -5, 8, -1, -7, -38, -59, 32, 19, -31, -15, 21, 40, 32, -11, 21, -10, -50, -35, 25, 40, 6, 18, -8, -55, -12, -40, 41, -4, 14, 25, 2, -23, -38, -36, 49, -35, -33, -5, 40, -26, -24, 20, -21, -20, 15, -56, -4, -2, 29, -45, -5, -1, 56, -25, -53, 5, -58, 22, -21, 5, 42, 8, -56, -33, 66, -22, 25, 37, 35, -38, 17, -42, 48, -18, 61, 57, 10, -28, 14, 29, 25, 59, -19, -57, -31, 25, -7, 36, 27, -1, -30, 27, 8, -62, -36, -12, 52, -23, -55, 44, 42, 20, 20, 54, -18, -13, 50, 6, -23, 4, -22, 30, 29, 12, -29, -57, 25}
, {38, 7, 22, -53, -57, -6, -38, -37, 2, -29, -1, -51, 1, 10, 1, -19, 37, 44, 21, -18, 38, -63, -35, -21, 13, 38, -56, -4, 27, 3, 39, 35, 8, 61, 24, -58, -46, 42, 25, 1, -53, -3, -39, -19, 43, -27, -6, -12, -66, -59, 25, 32, 47, -66, 36, -24, 42, -44, 56, 38, -38, -68, -44, 38, 9, -24, 14, -3, 30, 2, 31, -23, -8, -36, 31, 27, 37, -41, -32, -33, 35, 55, 63, 14, -53, 59, -3, -45, 54, 19, -9, 36, 26, -2, -21, 41, 12, 42, -21, 41, 23, 50, 4, 6, -58, 8, -15, -37, 51, -41, -65, -63, 12, -10, -66, 7, -46, -23, 49, 55, 42, 25, 23, -43, -5, -51, 47, -38, 11, 26, 44, -1, 33, 16, -15, 13, -15, -5, -30, -45, -32, -7, -2, -21, 50, -60, -28, 35, -6, 48, -53, 4, 18, -27, -20, 58, -45, -37, 36, 51, -61, 3, 5, 28, -54, 12, 56, -36, 4, 45, 62, -7, 52, 62, 1, -4, 20, -23, 8, 13, -65, -55, -36, 7, 9, -3, -11, -59, 41, 19, -17, 14, 11, 0, 19, -13, -22, 1, -4, 4}
, {41, 48, 34, 23, -10, 28, 23, 13, -10, -30, 13, -20, -55, 48, 48, 48, 2, 11, -63, 12, -31, 34, -38, 0, 5, 36, 29, 39, -42, 37, 48, 31, 0, 32, -53, 17, -18, -24, 70, 60, -24, -59, 35, -15, 18, -10, 11, -2, 15, 36, 53, -34, -57, 9, 23, -30, 6, 12, 16, 0, 6, 37, -61, -59, -26, -1, 35, -20, -43, 56, -11, 41, -4, -22, -13, -50, 3, 31, -26, 56, -19, 6, -14, 51, 11, 13, 5, 50, 24, -27, -24, 51, 38, -24, -36, -13, -3, -28, 16, 19, 60, 16, -57, 26, 0, -49, -51, 7, 39, 12, -28, -6, 35, 31, 80, 42, 37, -7, -6, 38, -48, -62, -47, 29, -56, -3, 42, -46, 6, 11, 11, -4, 44, 5, 3, 1, -19, 20, -37, 27, 59, -13, -7, 7, -22, -6, 60, 43, -38, 54, -53, -43, -1, -5, -9, 12, -21, 15, -42, 40, 39, -16, 31, -9, 16, -56, -20, 25, 42, 33, 28, -26, -45, -53, 32, -18, -48, 2, -42, 17, 50, -2, -46, -41, -37, -8, 45, 19, -7, 11, 13, 31, 48, -41, 46, 15, 44, 8, 9, 13}
, {-46, 25, 11, 43, -62, -59, 23, -18, 16, 31, -19, 48, -62, 56, -21, -30, -14, -17, -22, 3, -38, -42, -60, 59, 6, 19, 20, 42, -5, 31, -39, -16, 13, 32, -93, -13, 25, 57, -31, 16, 17, -57, 34, 31, -37, -20, -50, -29, 13, 2, -39, 50, -39, 23, -42, 24, -60, 44, 30, -54, -26, -57, 11, -16, 21, 6, 36, 6, -28, -6, -16, -53, -41, 55, -34, 55, 2, 49, 40, 18, -54, -24, 45, -31, 63, 26, -33, -51, 53, -2, 53, -12, -7, -38, -49, 20, -13, -14, 41, 36, -26, -46, -56, 36, -57, 39, -11, 27, 60, 36, -33, 29, 12, 43, -57, -31, -27, 14, 2, 9, 25, 13, -5, 23, -55, 12, 55, 21, 55, 42, 49, -31, -58, 28, -46, -5, -35, 55, 34, 58, 58, -50, 55, -6, 4, 8, 49, -24, 20, 57, -15, -11, 46, 39, -13, 21, 42, 38, -49, 39, 63, 47, 0, 13, -33, 12, 18, -8, 58, 14, 61, 1, -36, 51, -44, 44, -33, -59, 15, 33, 21, 65, -11, 17, -55, -16, -43, 31, 42, -21, -53, -59, 21, -9, 25, -57, -53, 4, 13, -18}
, {10, 10, -1, -24, 33, 19, 34, -18, 9, -7, 35, 10, 1, 60, -57, 1, -22, -40, -21, 41, -26, -61, -25, -16, 43, -15, 26, -31, -32, 35, 58, -45, 63, 19, -30, -16, 35, -52, 56, -27, -34, 48, -23, -12, 21, 44, -12, 52, -51, 27, 48, -54, -51, 11, -39, 26, -43, -40, -7, 19, -10, -4, 6, 55, 25, -52, -35, -50, 0, -6, -49, 46, -40, -46, -3, 25, -39, -20, -61, -13, -19, 51, -12, -33, -59, 54, -19, -8, -20, -27, -15, 47, 49, -21, -5, -43, 34, -22, -28, 13, -38, 16, -13, 15, 3, -58, -20, -45, 48, -23, 9, 37, 2, 5, 67, 40, -29, 58, 36, 0, -43, 14, -58, 28, 58, -42, 0, -45, 4, -34, 26, -29, 0, 32, -56, -23, 25, -39, 16, -12, -4, 32, -52, -22, -21, -8, -10, 54, 12, -17, -18, -45, 42, 37, 19, 3, -1, -6, -56, 22, -51, -39, 49, 8, -11, 26, -25, 60, -13, -46, 47, 17, 4, 22, -1, 48, 4, -40, -49, -33, 31, -53, -26, 1, -14, 11, -34, 22, 16, 26, -22, 58, 60, 19, -12, 6, -16, 58, 0, -54}
, {22, -1, -8, 5, -36, -49, -54, -50, -35, 35, -12, 16, -20, 12, 23, 11, -7, -58, 53, -15, 4, -24, -33, 36, -58, -20, 6, -46, -2, -31, 9, 11, -40, -21, -53, 24, -26, -49, 2, -18, -16, 39, -8, 34, -47, 46, 62, -19, -60, -30, -60, -59, 54, -12, 30, -35, 48, 18, -21, -49, -2, 9, 52, 17, -6, -37, -50, -17, 27, -31, -39, 35, -17, -56, 39, -42, -4, -50, 35, 48, 56, -20, -8, 38, 19, -41, -54, -30, -37, 12, -28, -51, -27, 0, 13, 8, -31, -27, 33, 35, -14, 59, -23, -13, -32, -37, 54, 59, 44, 57, 50, -19, 0, -48, 37, -30, 36, 40, 18, 37, -44, -58, 55, 40, -61, 34, -30, -6, 0, 0, -32, -40, 53, 36, 23, 42, -22, -36, 33, -45, 41, 13, -19, -23, -10, 46, 15, 5, 15, -31, 59, -46, 31, -55, -51, -57, 42, 61, 25, -42, -48, -13, 45, -31, 14, -8, -46, -26, -1, -50, 11, -30, 9, 6, 50, -61, 14, 20, -30, -25, -40, -52, -31, -21, 54, 51, -52, -59, -1, -3, -27, -13, 56, -11, -32, 47, 20, -48, -42, -59}
, {-14, -11, -17, -52, -32, 6, -58, -43, -6, -24, -35, 26, -56, -43, -53, 50, 29, -1, -54, 20, 15, 40, 47, -48, -16, 54, -22, -14, -60, 34, 34, -45, 31, 49, 5, -45, -8, -2, 39, -25, 9, -35, 60, -56, 50, 15, -49, -40, -47, -15, -25, 15, -18, 21, 35, 1, -23, -30, 48, -35, 10, -55, 39, 8, 56, -53, -62, 50, -1, -47, -52, 37, -8, 36, 56, -32, -5, -22, 49, 22, -34, -5, 10, -22, -42, 28, -18, -30, -25, -7, 17, -47, 33, 39, 32, 3, -54, -23, 3, -3, -41, 36, -54, 16, -52, -24, -27, 32, -10, -49, 18, -42, 4, 47, 23, -14, -1, 19, -56, 21, 5, -5, 49, 27, -25, 13, 31, -51, -2, 35, -31, -17, -56, 47, -28, -18, 0, 28, 58, 17, -39, -24, -58, 0, -13, 15, -32, 16, 13, -54, 30, 41, 22, 50, -1, 20, -11, -26, -52, -17, -18, 0, -49, -14, 10, -46, 56, -4, 6, 47, 40, 38, 30, -34, 40, -51, 32, -51, -61, 60, 54, -29, 13, 45, -57, 20, -29, -53, -56, 27, 32, -6, -55, -26, -39, 55, 41, -28, 58, -57}
, {5, 2, 15, -37, -25, 42, 48, -13, -44, -21, 53, -48, -60, 29, -7, -39, -16, -63, -2, -4, 54, 0, -14, -30, 7, -10, -60, 21, 18, -19, -2, -43, -27, -29, -6, -36, -1, 3, -21, -13, 13, -14, 29, -55, -5, 48, 46, 4, 59, 47, -58, 13, -36, -60, 10, 2, -48, 45, -10, -43, -28, 13, -41, 59, -20, -59, 11, 45, 0, 40, -63, 2, -12, 21, -24, -47, -49, -18, 21, -17, -17, 32, -45, 23, -21, 56, -1, -63, 35, 17, 46, 12, 12, -63, 47, -11, 12, 35, 15, 14, -17, -61, 57, -7, 37, 53, 13, -8, -14, -4, 52, -55, 7, 21, -51, 40, 41, 30, -26, -39, -21, -53, -45, 33, -64, 30, -13, 5, 16, -9, -10, 54, -5, 16, -55, 11, -8, 7, -57, -37, -29, 8, -40, 58, 30, -26, -64, -47, -15, 32, -9, 24, 27, -39, -22, -24, -48, -22, 24, -24, 9, 32, 51, -42, 37, -65, -18, 52, -17, -29, 0, -22, 28, 53, -7, -20, 60, -61, 12, 5, -46, 48, 30, 3, -18, 8, -53, 31, 41, -22, -17, -32, -54, 27, 0, -50, 5, -43, 0, 30}
, {-5, -10, -6, 42, -9, -57, -36, -35, -22, -30, -15, 43, -24, 45, 27, -13, 9, 34, -1, -19, -24, -9, 54, 12, -11, 27, 54, -49, -59, -35, -27, 50, -39, -50, 56, 8, -46, -16, -42, 0, 62, -43, -20, -45, -25, 45, 3, 19, -52, 57, 11, -55, 21, 19, 53, -31, 51, -7, -59, 44, 36, 60, -58, 14, 43, 7, -52, 41, 1, -32, 2, -60, -62, 38, -18, 38, -11, 41, 60, -4, -1, -42, -24, 20, -14, -16, 23, -6, -55, 21, -49, -60, 18, -36, 31, 28, 20, 29, -11, -1, -58, 6, 8, 60, 49, 26, -40, -24, 30, -31, 32, 55, 27, -37, 32, -57, 40, 1, 54, 10, -20, -46, 23, 46, -1, 35, -13, 41, -2, -32, 27, 17, 0, -58, -41, 56, 14, -41, 19, 21, 25, 16, -9, -4, -39, -54, -36, -36, -29, -56, -44, 57, 10, -17, 45, 58, -20, 7, 30, 47, -4, 34, -24, 51, 0, -39, -17, -15, -30, -5, 21, 59, -45, -20, 16, -25, -32, 57, -61, -45, -39, 39, -60, -16, 0, -49, 22, -15, -51, -10, -51, -52, -40, -29, 7, -43, 7, 60, -1, -12}
, {54, -19, -13, -51, 61, 44, 50, 22, 55, 28, 23, 37, -34, -22, 54, 5, 52, 33, 4, -15, 32, -64, -2, -11, -26, -7, 40, -28, -30, 48, 50, -21, 20, 58, -73, -17, -31, 9, 83, 33, -36, -46, -4, 7, -18, 31, -29, -19, -46, -55, 2, 38, -49, -3, -59, 24, 5, -57, 25, 28, 31, 11, 34, 5, 49, -12, -50, -4, -4, 2, -35, 56, -44, 23, 1, 54, 62, -3, -19, -50, 53, -40, -27, 50, 4, -15, -12, -27, -2, 50, 0, 24, 61, -46, 44, 36, -16, 42, 18, 2, -24, 11, -1, 54, -69, 53, 36, 49, 46, 32, 6, -9, -37, 64, -58, -21, -22, 50, -23, 28, 45, 31, 18, 38, -19, -22, 11, 0, -25, 57, 5, -43, -40, -18, 39, 48, 0, -40, 32, -47, 57, -38, 41, 51, -54, 18, 10, -63, -30, -36, -35, -16, -43, 6, 35, 31, 71, -51, -45, -25, -21, 32, -27, -21, 29, 45, -3, -44, -62, -8, -10, 12, 31, -19, 59, 59, -26, -42, -4, -14, -18, 51, -1, -58, 40, -42, 33, -37, 8, -57, 47, 52, -53, 50, -2, -41, -56, -8, -31, 29}
, {15, -4, 10, 45, -53, 42, -27, 61, 47, 44, -1, 35, -53, -61, 16, 15, -20, -58, 2, 3, -11, 38, 33, -59, 51, -51, 45, -37, -5, -6, -62, -61, 21, 1, 50, 26, -31, 8, -4, -9, -56, 57, 65, -61, 23, -36, -47, -54, -25, 54, 23, 41, -20, -41, 97, 53, -36, -49, -42, 49, 57, 39, -5, 31, -42, -58, 54, 7, 45, -43, 53, -36, 39, 2, -43, 8, -56, 36, -45, 0, 40, 33, 19, 25, 4, -31, 11, 29, 58, -11, -42, 45, -54, 41, 31, 21, 6, 46, 59, -52, -35, 17, -68, -59, 107, -55, 0, -51, 1, 30, 11, 6, 44, 6, -19, 7, -18, -51, -24, 12, -56, -47, -2, 30, 49, -23, 39, 42, 1, 22, -48, 53, -16, 36, -49, 61, 1, -19, 21, 6, -62, 5, 18, 34, 45, -14, 0, -25, -14, -42, 0, -12, 27, 28, 45, -50, -29, -12, 15, 10, -45, 39, 53, -22, 40, 36, -16, -44, -2, 45, 28, -20, 33, 31, -35, -24, -55, -30, 6, -50, 21, 7, 18, 44, 47, -12, -54, 70, 57, 2, -19, 2, -68, 55, -42, -5, -57, 10, 19, 42}
, {-7, -37, -48, -26, -50, -11, -56, 17, -39, 8, -50, -16, 43, -50, -50, 54, -12, -47, -24, 0, 51, 6, -60, 46, 13, -59, -30, -10, -30, 40, -26, 45, -13, -6, 21, -20, -49, 3, -61, 57, 42, 0, 0, -53, -44, 11, 46, -35, 41, 33, 3, -5, -56, -60, -60, 22, -2, -38, -37, 42, -42, 29, -2, 19, 26, 15, -23, -62, 45, 26, 15, -23, 51, -9, 26, -14, -37, 11, 1, 24, 37, 7, 11, 54, -39, 11, 3, 12, 6, -52, -2, -32, -1, -15, 55, -27, 57, 59, 15, -10, 19, 1, 43, 38, 51, -39, 5, -16, 21, -31, -36, -3, -46, -53, 50, -29, -24, 23, 38, 22, -16, 17, -60, 35, -13, 53, -43, -53, 57, 42, -16, 55, -43, -37, -55, 54, 56, -42, 14, -6, 33, 50, 0, -25, 45, -42, -21, -10, 47, -17, -32, -36, 48, 7, -16, -37, -42, 16, -52, 58, 6, 3, 32, 0, 0, -54, 51, 27, -53, -43, -31, 56, 58, 18, -1, -54, -56, -57, 1, -18, -45, -49, 43, 17, -50, -17, -13, 35, -45, 14, -41, -4, 38, -20, 45, 53, 24, -42, 49, 56}
, {-28, -57, -20, -6, -51, -55, 10, 36, 42, -30, -43, 31, 33, -60, 0, -46, -5, 39, -10, 15, 41, -9, -58, 4, 44, 42, -46, -47, -28, 52, -53, -32, 25, -22, 51, -6, -4, 10, -44, 49, -4, -55, 38, 35, 55, 47, 12, 56, -22, 17, 5, -51, 40, -26, 45, -51, -20, -44, 11, -37, -14, -49, -20, 56, -26, -32, 57, 49, -9, -5, -2, -45, 65, 46, 4, -54, 3, 52, 10, -47, 50, 6, 57, 16, -11, 29, 39, -59, -12, -14, -44, 16, 12, 53, -53, 47, -29, 3, -16, 41, -1, 51, -35, 25, 44, -14, -25, 16, -29, 55, 11, -10, -58, -60, 35, 54, 36, 59, 37, 1, 0, 31, 10, 58, -43, -28, 19, 54, 48, -17, -64, -53, 50, -56, -32, -19, -52, 33, -35, 29, -41, 44, -7, 19, -6, -41, -32, 17, -42, -24, 18, -3, 32, 37, -29, -45, 18, 31, 5, -45, -39, 42, -45, 11, 39, 25, -50, -62, -24, 53, -56, -31, 53, -41, 11, 54, -62, -48, -39, 46, -31, -45, 49, -14, -30, -23, 19, 62, 32, 0, -21, -35, -17, -43, 8, 43, -56, -10, -10, -46}
, {45, 8, 45, -14, -2, 59, -30, 20, -19, -37, -50, 28, -61, 50, 26, -67, -23, 36, -63, -56, 5, -7, 47, 52, -31, -56, -12, 42, -1, 52, -34, 7, 69, -77, 22, 41, -38, -48, -67, 28, 23, -46, 34, -58, 46, -5, -46, 49, 57, 38, -19, 57, -56, 1, 19, 16, -36, 6, -50, -57, 24, -25, 6, 3, 38, -38, 5, 23, -54, 38, -3, 51, -23, 8, -58, -21, 15, 47, 43, -44, -41, -59, -21, -57, 3, -58, -32, -17, 29, -63, -54, 33, -39, -55, 51, 2, -10, 14, -26, -36, 6, 12, 7, 9, 71, -14, 27, -41, 43, 52, 21, -48, 22, -64, 50, 52, 26, -8, 67, 17, 16, 1, 27, 22, -48, -38, -21, 7, 18, 37, -45, 28, -54, -54, -29, -54, -9, -9, 35, 20, 57, 11, -38, -47, -34, -39, 8, -4, 55, 57, -40, 39, 34, -8, -23, -32, 44, 33, 56, -64, -3, 45, 53, 49, 58, 18, -50, 47, 29, -14, -14, -8, 12, -25, 61, 48, -46, 23, -60, -41, -4, 37, 31, -26, -49, 55, 43, -53, 48, -28, -16, 17, -46, -27, -48, 26, 58, 44, 20, -5}
, {-62, 4, -14, -53, 1, -5, -61, -15, 41, -31, -5, 10, -50, 55, -36, -21, 2, 35, 12, 32, 54, -46, 4, 33, 10, -59, -41, -3, -12, -58, 36, 43, -5, 1, 28, -35, -10, 6, -20, -57, 26, 25, -34, 31, 43, 48, 4, 17, -50, -58, 28, -6, -43, -63, -59, 50, 54, 45, -48, 44, -66, -65, -52, -35, -1, 58, -5, -57, 57, -46, -37, -56, 12, -64, -52, 27, -37, 53, -35, -24, -39, -25, -28, -19, 59, 6, 14, 6, 8, -10, -24, -18, -1, -23, 38, 35, 33, 49, -23, -13, 9, 19, 57, -41, 2, 41, 13, 24, -41, 4, 34, 8, 11, -25, 21, -62, -46, 14, 58, 55, 54, 2, -10, -4, -21, -7, 1, -39, 15, 57, 53, 56, 42, 55, 0, -49, 45, 57, -34, 27, -48, 37, 43, -12, 55, -55, -7, 45, -41, 28, 19, -1, -45, -59, 37, 23, 28, -48, 40, 4, 34, 24, 2, 14, 38, -56, 20, -39, -10, -27, -33, 6, 48, -60, 34, -3, 42, 20, 3, -2, -66, -41, -26, -40, -6, -52, 15, 18, -16, -4, 4, -26, 40, -13, -41, -2, 12, -61, -59, 34}
, {-29, -50, 32, 26, -8, -22, -12, -57, 40, 2, -18, -57, -55, -43, -53, 35, -36, -55, -52, -59, -7, 7, -25, -35, -2, -27, -40, -57, -54, 56, 47, -31, 27, -13, 48, -58, -3, 42, -12, -27, 20, -67, -60, 24, -35, -38, -26, -59, -34, -52, -48, -23, 11, 0, -24, 32, -43, 57, 4, 8, 8, 46, -51, 13, 5, 35, -59, 29, 10, -23, -21, -14, 31, -62, 20, -29, 49, -16, -35, -13, 8, -22, -48, -19, -7, 56, 13, -56, 54, -25, 48, 1, -50, 6, -32, -50, 4, -32, -35, -57, -40, -63, 65, 12, -48, -21, -23, -16, -43, 17, 39, 59, 15, 26, -51, -30, 15, 21, 15, 15, -22, 4, 50, 3, -25, 36, 40, 10, 56, 12, -2, -1, -38, 38, 41, 21, -31, 15, 7, 49, -19, 34, 10, 19, -37, 39, 14, -50, 6, 41, -46, -61, -45, 3, 33, 24, -27, 20, -36, -42, 39, -29, -16, 13, -42, 9, 37, 52, -53, 46, -43, 30, -42, -50, 58, -36, 20, -9, -66, -32, -15, 17, 55, 32, -48, -28, -23, -22, -40, 10, 2, 50, -12, 38, 3, 25, 25, 13, 0, -19}
, {-24, 19, 37, 55, 0, -28, -20, 30, 37, -46, 44, 29, -11, 33, 9, 56, 20, 3, 30, 44, 27, 18, 48, -14, -58, -52, 51, 58, -1, -38, -34, -40, 27, 54, -51, 10, -45, -31, -7, 33, 6, -4, 2, -15, -15, -57, -2, 14, -65, -41, -8, 49, -25, 42, 62, -42, 31, 35, 39, -34, 55, -21, 61, -38, -28, -38, -37, 40, -46, 36, 14, 11, -52, 24, 22, -56, -37, 49, 36, 51, -16, -19, -7, -2, 29, 50, -2, -16, -46, 9, 10, -22, 0, 4, 39, 29, 54, 42, -51, -27, 20, -39, 49, 60, 24, -58, -4, 60, -15, -60, 7, -11, -47, 7, 3, -29, 25, 7, -26, 17, 8, -26, -7, 51, -15, -50, 47, -37, 40, 31, 24, 11, 47, -42, 37, 2, -47, 0, 2, 42, -31, -37, 52, -23, -54, 0, 44, -51, -55, -26, 15, -49, 2, 37, 50, -6, 0, -6, 25, 43, -7, 45, -30, -43, 9, -26, -57, -58, 31, 10, 58, -29, 51, -55, -46, 19, -42, -47, -54, 40, 59, -38, -59, -20, 35, -24, -54, 3, 19, 20, -30, -2, -43, -21, -41, -19, 51, -64, -52, -18}
, {-37, -11, 24, -36, -18, -49, 28, -16, 35, -44, -51, 52, 0, -2, -23, 25, -57, 8, 2, 13, 19, -57, 6, -60, -22, -60, -34, -40, 48, 0, -53, 24, 29, -54, -35, 1, 12, 44, -58, -54, 3, 8, 28, 0, -55, -5, 36, -56, 25, 32, 0, -37, -39, -29, -12, -61, 44, -4, -46, 59, -47, -16, -39, 53, 29, -19, 44, -47, -53, 0, -54, 57, 4, -18, -50, 48, -45, -58, 22, -3, 6, -8, -5, -17, 16, -27, -56, -58, 52, -51, -9, 42, 36, -38, 37, -61, 6, -60, -62, 61, 45, 33, 62, -53, -6, -26, 20, 1, -14, 33, -60, -14, -36, 15, 16, 32, -56, -46, -12, 25, -40, 5, -44, -26, 50, -24, 60, -55, -42, -58, 21, 26, -49, -33, -54, -2, 35, -3, 44, -38, 32, 20, 21, -40, -28, 59, 60, -2, -11, 1, 15, -40, 21, -34, -61, 36, 6, 34, 30, 53, 39, 27, -35, 21, 20, 61, 56, -35, -23, -61, 35, -49, 44, 38, -32, -30, -47, -34, -35, -56, -41, -57, 50, -31, 52, 52, -45, -5, -22, 15, -29, -3, -46, 42, 19, 41, -23, 58, 39, -33}
, {35, -19, -52, 28, 51, 56, 44, 32, -7, -27, -54, 51, 55, -57, 60, 42, -60, -8, -15, 0, -23, 51, -17, -40, -60, 23, -29, 28, -31, -45, -45, 46, 40, -13, -7, -22, 47, 28, -18, 62, 60, -6, 8, -29, -26, 18, -36, 50, -43, 11, 45, 18, -48, -25, -45, -39, -53, -28, -31, -20, -20, 45, 30, -22, 1, 45, -49, 45, -20, 25, 20, -6, 3, 1, 16, -60, -48, 40, 16, -60, 32, 45, -53, 51, 56, -62, -32, -31, 1, -18, 0, -12, 29, 14, 58, 41, 21, -37, -14, 31, -16, 52, 49, -57, -89, 20, 59, 11, -55, 26, -11, 54, -52, 21, -3, 37, 58, -26, 40, -7, 38, -33, 59, 3, 17, 48, -25, -19, -15, 0, -42, 31, 40, 17, 7, -34, -18, 39, -27, 45, -42, -14, 0, -46, -18, 47, 28, -42, 47, -5, 42, -62, -46, 18, 34, 11, 63, -27, 59, 1, -1, -28, 48, -20, 24, -25, 53, 23, 16, -58, 29, -15, 51, 26, 45, -46, 24, -66, -2, -39, 63, 0, 56, 45, -2, 39, 17, 18, -7, 60, 38, 6, 35, -39, -37, -41, 19, 53, 57, 50}
, {24, -12, -41, -65, -53, -3, 2, 49, -17, -6, -17, 10, 3, 21, 7, -65, -7, -14, 7, 44, 25, 68, 12, -15, -17, -33, 3, -23, -28, 46, -39, -7, -48, 12, 82, -8, -50, -4, -31, -54, 14, 31, 34, 62, -4, 48, 4, 41, 62, -12, 39, -23, -26, -26, 54, -12, -60, 28, -17, -56, 31, 41, 8, 41, -19, -70, 36, -32, 9, 17, -14, 32, -27, 31, -57, -43, -51, -41, 9, 16, -46, 41, 7, 20, -84, -1, 47, -12, -21, 27, 29, -9, 48, -55, 26, -12, 17, 18, -57, 26, 36, -23, -6, -8, -11, -20, -12, -6, -61, 34, -61, -25, -1, -3, -61, -62, -54, 44, -33, 59, 27, 22, -59, 53, 11, -3, -64, 45, -33, -57, 55, 44, 16, -11, 23, -58, -59, 12, 27, 27, 23, 42, 33, 0, 17, 33, -41, 44, -13, -38, -37, -1, 13, 44, 17, 28, -42, 19, -16, 20, -55, -6, 36, -44, -27, 45, 51, 15, -17, -57, -21, 21, -53, 7, -41, -19, 46, 56, -31, -35, 26, 27, -49, -30, 6, 20, 30, -35, -61, 28, 34, -20, 58, -23, -8, -10, -5, 31, 36, 17}
, {-5, 47, -52, -14, -16, 39, 21, -43, -30, -57, 2, 20, -51, 18, -59, -1, 55, -3, -6, 15, -5, -6, 39, -14, 46, 59, -37, -43, 0, 51, -7, 22, -16, -19, -18, 0, -36, 1, -6, -13, 51, -46, 44, -45, 8, 48, -48, 41, 23, -10, 61, 38, 53, 30, -41, 46, -37, -36, -56, -35, 19, -35, 39, 41, 29, -45, -48, 22, 55, 15, -18, 0, -56, 46, 14, 43, 44, -22, 30, -49, 26, -45, -59, -28, -12, 10, 35, 36, -48, -33, 57, -68, 5, 27, 63, -54, 8, -24, 4, -2, -56, 57, 48, -47, 16, 17, 15, -1, -5, -11, 0, 43, -49, -44, -15, 11, 28, 3, 19, 35, -57, 62, -16, -18, 63, -13, -38, 49, -54, -27, 24, 21, -29, -6, -49, -10, -61, 29, -19, 33, 6, -29, 56, -52, 61, 34, -55, -8, -56, -19, 12, -8, 36, 13, 42, 17, -19, 34, 30, 19, 24, 18, 50, -22, -11, 27, -68, -58, 33, -35, -38, -13, 34, 37, -32, -14, 0, 3, 38, 47, -14, -59, 6, 33, 2, 6, -50, -6, 6, 42, -21, 43, -33, -20, -45, -65, -14, -21, -21, 43}
, {15, -58, 22, -35, -3, 41, -42, -50, -2, 47, 14, 42, -40, 49, -61, -21, 45, -12, -13, 1, 2, 27, 37, -57, -24, -19, -56, 18, -34, 28, -5, 46, -45, 41, 15, -54, 13, 33, 2, 31, -11, 0, -61, -57, 17, -4, -48, -6, 50, 43, 45, 51, -65, 0, 50, -53, 53, -65, 60, 42, -3, 10, 49, 34, 4, 15, -45, 53, 1, -11, 26, -24, -37, 55, 0, -33, 36, 38, 2, 38, 4, 58, -9, -36, -10, 10, -39, 54, -24, 34, 4, -45, -29, 40, -64, -6, -2, 14, 31, 48, -38, -30, 37, -37, 15, -66, 53, 33, -51, -25, 53, 59, -53, -11, -34, -62, 11, -36, -31, 15, 1, 53, 30, 47, 45, -2, 29, 7, 57, -61, -45, -29, 45, 46, 46, -46, 0, -40, -28, -53, -18, -10, 27, 54, -46, -43, -8, -25, -29, 18, 46, -32, 56, 7, 26, 19, 22, -37, 55, 6, 1, 2, 5, -26, -4, 18, -28, 53, 20, -40, 66, -56, 25, -43, 36, 22, -2, 42, -38, 10, 40, -59, -29, 59, 25, 28, 8, 14, 7, -41, -54, 19, -62, 24, -19, -15, 50, -65, -28, -21}
, {-10, -5, 10, 2, -13, -1, 47, 45, -31, 16, -19, 37, -40, 22, 52, 32, 24, 31, 60, -26, 10, 17, -61, 1, 40, 22, 21, 13, -34, -59, -13, -18, 17, -31, -41, -9, -17, 30, 58, -62, 57, -12, 36, -27, -54, 51, 4, 50, -30, -53, 2, -3, -35, 23, -5, 21, -2, -56, -13, -53, -53, 56, -41, 3, 49, -19, 54, -3, 24, 13, 60, 48, 20, -26, -47, 2, 43, -5, 60, -50, 61, -41, 5, -59, -4, 42, -23, 25, 0, 1, 34, 1, 25, 53, -6, -10, -16, -14, -26, -32, -31, 61, -22, 0, -11, -43, -40, 10, 4, 39, 9, -33, 39, -14, -49, 40, 56, -17, 54, 56, 58, -9, -36, 32, -26, 32, 46, 14, -3, -41, -40, 19, -23, -50, -39, -35, 12, 31, 37, -23, -27, 58, -7, 48, -37, 59, 20, 59, -43, -8, 7, -57, -51, 16, 25, -45, 44, 39, 56, 15, -5, 30, -14, -2, 3, -43, -62, -17, -55, -51, 45, 9, 57, -56, -33, -3, -37, 43, 52, 43, -13, 45, -44, -55, -9, 3, 48, -14, -53, -42, -44, 60, -18, -59, -41, -34, -60, 1, -49, 14}
, {-55, 12, -19, 51, 35, -50, 26, 32, 10, 20, -2, 36, 47, -18, 33, 36, 45, -54, 44, 46, -53, 4, 7, -2, 14, -18, 33, 41, 1, -30, -20, -11, 57, 32, -26, -41, -52, -67, 1, -47, 33, 37, -13, 53, 35, 30, 21, 12, -56, 50, 42, 29, 39, -52, -46, -37, 34, 49, -46, 7, 33, -54, 16, 46, 60, -24, 25, -34, 29, -3, 11, -37, 0, -14, -21, -46, 13, 13, -43, -57, 21, 0, -46, -12, -56, 6, -50, 42, 32, 36, 38, -10, -34, -6, -42, -28, 46, 23, -47, -11, -3, -23, -55, 7, 30, -1, -15, -26, 39, -7, -56, 38, -51, 51, -26, -21, -57, -30, 60, -48, 50, -29, -42, -39, -51, -30, -47, -66, 1, 4, 44, -20, 18, -30, 42, 12, 36, -19, 35, -38, -30, -13, 37, 25, -17, 2, 5, -17, -27, -48, 61, 43, 36, 36, 30, 18, 3, -53, -51, -2, -23, 24, -50, -26, 55, -55, -21, -42, -17, 43, -10, -4, -61, 57, -5, -28, -10, -43, -56, 0, 32, -32, 10, 13, -48, 38, 51, 22, 44, 62, -29, -5, 28, 18, 27, 41, -41, -60, 15, -29}
, {11, 8, -31, 26, 23, 3, 44, 48, -49, 7, -22, -9, -13, 34, -54, -38, 13, 20, -12, -52, -13, -47, -2, -61, 54, 43, -49, -32, 7, -38, -19, 46, -49, 46, 17, -58, -31, 4, 39, 19, 5, 56, 19, 41, -19, 15, 53, -17, -29, -55, -11, -8, -60, 0, -25, 37, -40, 59, -6, -29, -6, -60, -1, 8, -11, 27, 51, -17, -8, 31, 51, -53, 55, 9, 14, -56, 38, -50, -10, 58, 0, -62, 45, -30, 29, -62, 52, 19, -59, -36, 30, -23, 31, -24, 22, -57, 31, 63, 58, -23, -57, -44, -4, -6, 35, 16, -2, 30, 43, 10, -16, 47, -2, -34, 51, -4, 0, 16, 50, -41, 11, 42, -35, 32, 51, 57, 17, -35, 42, 31, 41, -62, 27, 29, 50, 55, -4, -58, 33, 38, 16, -2, -44, 33, 0, 44, 56, -59, -46, 13, -20, 43, -13, -3, -64, 60, 33, 6, -41, -60, -2, -30, 30, -6, -58, -30, 56, 8, -11, 21, -9, -26, -24, 41, 20, -13, 28, -61, 26, -47, -45, -39, 35, -59, -38, 25, -57, -5, 14, 52, -5, -52, 53, -49, 49, 30, -20, -26, -59, 41}
, {45, -59, 30, 59, 5, -7, -19, -52, -18, 16, -49, -58, 28, -2, 29, -22, 13, -20, 58, 39, -5, -17, 52, -51, -5, 25, 36, 28, -47, 51, 14, -15, -24, 7, -36, -19, -37, 35, 16, 39, 42, 22, -56, -18, 56, 0, -50, 55, -2, 19, -29, 33, -35, -18, -65, -36, 36, 27, 15, -20, 4, 0, 21, 48, -50, 5, 40, 39, 50, 17, 61, -61, 20, -8, -8, 5, -2, -5, -10, -32, -38, 38, 33, 21, 3, 27, 27, 60, 48, 28, 4, -1, -35, 41, 13, 43, 10, 8, -35, 41, -41, 20, 41, 4, -91, -34, -38, 30, 49, 7, -51, 15, -64, 14, -16, 35, -60, 50, 48, -27, -51, -26, -58, -30, 51, -6, 33, 11, 20, -51, -24, -13, 59, 9, -19, 17, 51, -10, 35, -62, -38, 58, -30, 39, -51, 24, 22, -59, -47, 39, -39, -26, -42, -57, 8, -6, 45, 12, -23, -41, -61, -60, -50, 16, -42, 45, -33, 38, -54, 0, 73, -27, -21, -33, 31, -41, -35, -3, 7, -25, 58, -49, 53, 4, 28, 51, -21, -16, 1, 17, -5, 12, 44, -39, -45, -24, 51, -29, -26, 47}
, {18, -56, 22, 23, -24, 38, -25, 30, -36, -58, 2, -29, -35, 1, 0, -11, -59, 38, 2, 12, -45, -22, -58, 13, 52, -7, 38, 21, 0, -13, -47, -59, -58, 42, -39, 23, 1, 53, 48, 16, 58, 41, -20, 25, -38, 41, 18, -30, 6, 43, 12, 15, -64, -57, -17, 22, -52, -32, 47, -17, 19, 38, 28, -9, 54, 44, 43, -57, 13, -27, 41, -41, 53, -12, -42, 37, 60, -10, 7, -53, 37, 30, -22, -17, 39, 23, 22, 36, 13, 5, -51, 64, -31, -36, -36, 2, -23, 43, 17, -10, -1, 21, 60, 40, 9, 18, -42, -58, 17, -1, -33, -39, 13, 41, -6, 57, 0, -3, 41, 30, 13, -21, 10, -3, 26, -23, 46, 58, -11, -13, 11, 2, -28, 57, 3, -51, 47, 39, -23, 35, -29, 8, -48, -25, 6, -48, -2, -58, 10, 6, -54, -31, -50, 15, 29, -16, -51, -14, -23, -37, -18, -7, -38, 16, -65, 50, 54, 60, 17, -4, -47, -34, -12, -42, 52, -23, 59, 24, -28, 1, -48, 1, -46, 22, 43, -10, 45, 39, 5, -65, 59, -50, -14, 58, -50, -22, -64, -64, -40, 6}
, {-33, -55, -27, -28, 35, 28, -22, 26, 56, -63, -15, 17, -49, -34, 35, 66, -63, 25, 32, 57, -35, 44, -12, -31, 23, -38, 23, 11, -42, 54, 48, -44, -50, -20, 41, -53, 46, -63, 0, 41, 55, -17, 26, -42, 30, 32, 9, 41, -49, -14, 12, 43, -41, 0, -12, -58, 8, -30, 34, 2, 59, -57, -40, -37, -34, -37, 0, -44, 39, 19, -46, -53, 36, -34, -18, -53, -36, 36, 0, 34, 28, -60, -33, -40, 41, -47, 53, 21, 54, 24, -34, 34, 24, 49, -60, -14, -40, -43, -35, -11, -34, -55, 14, -22, -30, 20, -8, 4, 12, -55, 0, 19, 47, -36, 60, 3, -60, -4, -19, -53, -27, -29, 14, -16, -63, 41, 50, 42, 18, 33, 48, 41, -21, 46, 51, -44, 1, 13, -55, 17, 51, -7, -49, -46, -57, -18, 30, 40, -53, 45, -39, 57, 13, -9, -65, -40, -32, -49, -7, -8, 17, 26, -6, 57, -28, 55, 0, 2, -46, -16, 34, -5, -61, 41, 37, 35, 62, 6, 3, -39, 11, 35, -30, -31, 7, -13, 13, 44, -49, -64, 40, 34, 14, 42, 4, 53, 1, -10, -20, -5}
, {3, -35, 58, -35, -60, 42, 59, 10, 49, -22, -63, 47, 43, 60, -10, 21, 31, 58, 56, -43, -12, 82, -5, 25, 40, 3, -45, -63, -9, 23, -57, -21, 31, 48, 85, -49, -57, 36, 103, -38, -39, 41, 55, 22, -68, 44, -51, -43, -11, -9, -53, 60, -4, 6, -10, -21, 50, -50, -8, -49, -39, 45, -28, -38, 10, 53, 4, -35, 22, 17, -27, 33, 0, 42, 23, -35, 71, -33, -34, 48, 13, 28, -22, -48, 101, 48, 6, -13, 14, -21, -2, 29, 58, -37, 23, 43, 18, 2, -15, -41, 25, -4, 23, 42, 97, -155, -3, 102, 29, -22, 30, 73, -43, -48, -52, -51, 6, -23, 17, 20, 60, -51, 59, -38, 4, 12, 41, 39, -20, -44, -53, 38, 56, 39, -13, 0, 67, -31, -3, -59, 30, -60, -2, -12, 0, -12, 39, 57, 25, -34, 48, -48, 12, 56, -58, -16, -17, 10, -8, -33, 57, -51, 30, 53, 25, 54, -61, 28, -28, 35, -62, -22, 49, 36, -43, -16, 2, 13, 30, 56, 66, 4, -20, -47, 24, -21, 61, 13, -16, 44, -18, 47, -64, -3, -2, 54, -15, -37, 14, 25}
, {28, 40, 6, 5, 45, 49, -16, -36, -59, 17, -36, 24, -53, -32, 26, -36, -41, -39, -37, -26, -43, 43, 27, 7, -44, -34, -24, 41, 31, 59, 11, -59, 39, 3, -34, -45, -17, 58, 11, -25, 6, -33, -2, 11, -49, 16, 39, 32, 14, -37, -39, -12, 49, 9, -53, 15, 23, -15, 1, 31, -40, -40, -1, -4, 17, 27, -2, -11, -39, 36, -52, -48, -2, 7, -22, -52, 33, -23, 10, 27, 21, -45, 0, -13, 120, -10, 56, 25, -34, -64, 8, -59, -34, -14, -2, 46, -32, 25, 32, -41, -66, -18, 33, -26, 67, -25, -10, -29, 24, 8, -47, 65, 29, 52, 7, -32, -53, 55, 4, -11, 9, 55, 15, 22, -1, 35, -47, -9, -58, 14, 58, -36, -27, -2, -6, 0, 59, 26, 7, 19, -17, -52, -11, 12, 47, -21, -14, -42, 16, -6, -45, 34, -9, -30, -37, -7, -63, -41, 50, -21, 57, 21, 3, 42, 32, 44, -29, 43, -8, -45, 10, 32, 23, 18, 60, 14, 37, 1, -8, -8, 31, -37, -59, -4, 36, 18, 6, -40, -2, -18, 34, -31, -30, -12, 59, 14, -3, 20, -7, 68}
, {-14, -25, -52, 28, 6, -2, 43, 69, -31, 38, 59, -6, -50, 42, 12, 82, 39, 59, 58, -2, 62, -47, 25, -45, 48, 35, -40, 43, -16, 59, 28, 55, 38, -7, -110, 7, 14, -55, -21, 28, 4, -49, 19, -23, -9, -32, -55, 38, 1, -27, -34, 0, 44, 58, -75, 48, 54, -56, -45, 7, -33, 13, -46, -26, 4, 8, -28, -27, 9, -40, 21, -27, -11, -2, -32, -38, -55, -12, -4, 38, 1, 53, -24, 55, 198, -46, 60, -50, -30, -1, 49, 42, -25, -32, -36, -18, -32, 45, -4, 41, -1, 13, 12, -48, -50, -13, 35, -23, 19, -57, 42, 55, 25, -54, 28, 6, -32, 41, 52, 31, -54, -31, 23, -17, 36, -53, -62, 0, -26, 51, -43, -22, -7, -21, -38, 15, 29, 56, 12, 44, 27, -14, -5, -55, -48, -34, 53, 55, -10, 42, 1, 17, 33, -55, 55, 34, 25, -35, -24, 67, -8, 8, 39, 6, -36, 6, 33, 24, 29, -6, 22, 24, -57, 47, 54, -25, -23, -49, 43, -61, -38, 42, 39, -45, -7, -29, -15, 20, -9, 36, 41, -44, 2, -14, -10, -21, 3, 10, -8, -61}
, {21, 34, 19, -39, -43, 12, -41, 28, -49, 42, -27, -23, -27, -49, 41, -4, -57, 6, -28, -7, -15, 3, 14, -16, 60, -22, 63, 30, 35, -4, 56, 6, -43, -31, -7, -13, -35, -50, 31, 7, -10, -42, 24, 55, -15, -6, 27, -35, -52, 60, -24, -51, 58, -28, -58, 5, -12, -19, -41, -44, 39, 6, -16, -10, 44, -45, 12, -49, 29, 25, -6, 31, -26, 11, -7, 43, 21, -26, 3, -20, 0, -2, 53, 60, 201, -31, 11, -56, 24, -28, 25, -35, -11, -6, 5, 14, -28, -3, 23, 61, -60, 65, 37, -23, -10, -36, 42, 34, -41, 63, -1, -14, -18, -40, 63, 15, -29, -43, -37, -23, -9, 2, -29, 43, 22, 0, -14, 10, -54, -28, -43, 12, -61, -8, -36, 0, -39, -21, 49, 28, -13, 38, 35, -15, -7, 13, 24, 40, -45, -61, -8, 21, 39, -32, 47, -26, -52, -22, -48, -24, -26, -49, 62, -50, 17, -57, -32, -49, -12, 19, 110, -22, -51, 31, -54, -38, -9, -38, 7, -60, 48, -10, 18, 28, 17, 23, -9, 12, -12, 38, 44, -16, -17, 0, 59, -53, 12, 46, 54, 21}
, {-5, -17, 50, -36, -6, 19, -18, -13, 1, -51, 11, -43, 21, -2, -34, -62, -14, 21, 48, -49, -66, -58, 57, 61, -4, 56, -27, -21, 45, -5, -9, -17, -36, 41, 24, 54, -63, -32, 71, 22, 12, 53, 0, -49, -38, -58, 58, 51, -60, 35, 29, 17, 56, 21, -36, -9, -2, -61, -56, -9, 37, -47, 23, 22, 15, -51, 36, -59, 24, 36, -26, 17, 1, -30, 33, -50, -40, 44, 22, 39, 32, -8, 37, 19, 172, 62, 61, 5, 31, 21, -24, -14, -3, -8, 44, 60, 16, -22, 45, -9, 33, 0, 32, -59, 76, -57, 44, 12, -15, 20, -15, -19, 46, -15, 49, 57, -58, -37, -7, -14, 49, 1, 16, -25, -37, -14, -11, -2, 34, -11, -36, -7, 51, 62, -51, -48, -56, 20, 47, -40, 59, 14, 21, -3, -39, 12, -4, 39, -20, -43, 21, 14, -41, 3, -42, 51, -68, 14, 46, 41, 59, 14, 10, 62, 59, -38, 60, -1, 13, -50, -17, -27, 61, -8, 7, -47, -11, -2, -2, 46, -42, 28, -44, -2, -17, -46, 15, 30, -41, 14, 31, 23, -31, 22, 22, 4, -62, 48, 37, -22}
, {-39, 53, -4, -43, 43, -42, 57, -32, -4, -17, 38, -20, 35, -24, 27, 38, -39, -37, 58, 48, 9, 0, -26, 13, 42, -31, -9, -5, 19, -4, -56, 53, 29, 11, 3, 27, 33, 8, 3, -11, 10, 4, -34, -52, -18, 27, 59, 42, -12, -13, -22, 31, 55, -29, 15, -59, 9, 47, -23, -29, -8, -55, -31, 36, -37, -33, -48, -64, -18, 12, -11, -49, -55, 47, 54, -16, 59, 9, 49, -24, -40, -43, -39, -28, 66, 55, -49, -50, -44, 16, -38, -46, 29, 8, 37, -14, -9, 25, -48, -15, 50, 40, 25, 23, 72, -23, 2, -45, 17, -16, -25, 18, 0, -31, -51, 27, 11, -7, -50, -63, -7, 16, -2, 0, -26, -7, -23, -21, 39, 26, -59, -37, 3, 32, 23, -36, -44, -17, -32, -33, -15, 6, -50, -58, -44, -40, 13, 22, -24, 2, 29, 35, -54, -25, 34, -35, 41, 3, -42, 57, 0, -24, -1, 31, -58, -54, -56, -47, -17, 60, -35, 7, 27, 36, 19, -18, -19, -35, 46, -15, 52, 49, -28, 48, 7, 12, 3, 12, -17, -13, 35, -34, -14, 17, 27, 22, -1, -26, -59, -59}
, {38, -20, 32, 7, 44, 24, 23, -53, -21, 11, 24, 40, -9, 19, -60, -6, 58, 11, -37, -19, -55, -22, -19, -37, -12, 16, -62, 15, -58, -7, -2, -48, 60, -55, -66, -60, -16, 12, -17, 43, 35, -12, -51, -34, 20, -63, 23, 10, 0, 49, -31, -10, -42, -2, 4, 40, -32, 57, -56, -72, 43, 6, -37, 34, -12, 66, -37, -30, 37, -47, 27, 49, 47, -65, 50, -44, 3, 13, 44, -2, -41, 3, -45, -1, -41, -50, 49, 48, -42, -18, -38, 48, 10, 58, -52, -1, -37, 25, 40, -58, 30, 32, -52, 7, -86, 50, -27, 43, -39, 46, 0, -38, -33, -49, -54, 44, -35, 21, 56, 56, -69, 27, -61, 63, -23, -38, 20, 51, -23, -18, -2, -59, 16, 24, -42, -54, -29, -10, -49, -62, 55, 60, -61, 32, 42, 21, -38, 4, 28, 49, 6, 1, 12, -40, -12, 53, 48, -23, -1, -22, 40, -23, 22, 8, 58, -12, -18, -58, -96, 32, 65, 16, -34, 36, -23, -2, 58, -55, -4, -46, 20, -54, 28, -54, -34, -49, 4, -54, -46, -50, 46, 36, 39, 51, 4, -4, -24, -28, 39, 61}
, {59, 15, 26, 42, -36, 47, -41, -37, 24, 36, -49, -54, -38, 59, -47, 15, -23, -51, -40, 6, 10, -58, -17, -16, -32, 47, -46, 47, -53, -29, 0, -30, -21, -49, 35, -31, -17, -29, 23, 9, 21, 31, 10, -25, -4, 33, -32, 25, -4, 40, 34, -1, 11, 11, 58, 48, 2, 7, -20, 59, 5, -22, 59, 25, -34, 49, -28, -20, 36, 27, -17, -55, -45, 40, -42, -60, 32, -6, 31, 40, 28, 0, 19, -33, -23, -5, -57, 41, 51, -17, -42, 56, 10, 46, 45, -16, 33, -35, 6, -44, -7, 43, -48, 31, -13, 27, -18, -46, 46, 22, 31, -35, -8, -54, 16, -51, 17, -19, 15, -61, 58, -24, 18, 28, 3, 13, 5, 46, -63, -55, 38, -5, -23, -64, -37, -55, -20, -25, -58, -60, 58, -50, 59, -62, -60, -32, 51, -47, 6, -1, 51, 55, 10, -38, -46, -9, 16, -11, 3, 33, -24, -23, -53, -38, -17, -48, 21, 52, -59, -38, -1, 0, 50, -57, -8, -56, 12, 45, 15, -45, -62, -41, 14, -48, -37, -55, 59, -42, 40, 43, 52, -59, 30, -7, -43, -46, 49, 46, -11, -57}
, {-13, -47, 58, -54, 57, -5, 28, 55, 58, -16, -50, 36, -55, 36, 2, 71, -22, -55, -28, -10, 28, 46, 19, 41, -27, -19, 35, 8, 10, 49, -4, -1, -60, -40, -98, -47, -24, 7, -19, -31, -42, 18, 3, 0, 49, 21, -12, -30, 14, -57, 30, 4, 42, 24, 35, -60, -52, 23, -55, 0, -3, -51, -4, -42, -47, 52, 46, -19, 26, 59, -24, -17, 41, 62, 48, -19, -21, 7, -38, -13, 21, 28, 38, -54, 60, 59, -10, 59, 2, 19, 42, -23, -31, 27, -18, 31, 22, -49, -37, 30, 55, 25, -13, -14, 9, 5, -51, 58, 61, 30, -57, -43, 43, 45, -11, 6, -45, 51, -11, -14, -24, -5, 10, -3, 51, 55, -11, 58, -10, 6, -37, -2, 22, 46, 1, 5, -18, 54, 13, 22, 47, 58, 45, -10, 38, -38, -38, 42, 0, 0, -36, 27, 55, 39, 57, 34, 29, -17, 23, -38, 2, -35, 0, 24, 22, -35, 30, -29, -70, 25, 5, 59, -56, 50, 15, 34, 36, -30, -41, 31, -43, -40, -12, -18, -32, 34, -55, -31, 47, 2, 20, 7, 8, -17, 56, 37, 46, 28, -66, -32}
, {35, 29, -31, 45, 40, -36, 16, 36, 62, 4, 27, 48, -23, -21, 50, -43, -5, -5, 56, 58, -52, -34, -29, -51, -47, -28, -47, 0, 48, 21, -17, 24, -38, -32, 37, 36, 49, 43, -11, 16, -62, 28, -66, -60, -39, -38, 28, -53, -3, 50, -57, -53, -30, 1, 56, -47, -30, 59, -22, -30, -3, -20, -1, 10, -9, 18, 51, -13, 23, -4, -30, -21, -27, 29, -19, 63, -19, 4, -29, 35, -24, 27, 2, 33, -56, 10, -44, 52, 22, 31, -43, -8, -58, 45, -4, 21, -24, -28, -23, 17, 22, 27, 18, -40, -18, -50, 27, -69, -38, 34, 57, -18, 43, -9, -56, 18, -57, 0, 13, -16, -31, 34, 18, 38, 44, -18, -51, 3, 45, 5, -45, 53, 57, 39, 32, 61, 28, -19, -15, -18, -43, -37, 17, 42, 59, 24, 8, -9, -3, -65, -17, -6, 58, -34, 15, -47, -62, 27, -5, -68, 14, -9, -46, 48, 52, 39, -32, 3, 45, 4, 22, -16, -62, -6, 41, 58, 45, 36, 28, 26, 23, 43, -8, -11, 46, 42, -24, 63, 23, 57, 22, 12, -25, 23, 28, -21, -34, -16, 45, -4}
