/**
  ******************************************************************************
  * @file    weights/fc.cc
  * @author  Pierre-Emmanuel Novac <penovac@unice.fr>, LEAT, CNRS, Université Côte d'Azur, France
  * @version 1.0.0
  * @date    24 march 2020
  * @brief   Template generating plain C code for the implementation of Convolutional Neural Networks on MCU
  */

#define INPUT_SAMPLES 100
#define FC_UNITS 200


const int16_t dense_10_bias[FC_UNITS] = {-6, 0, 0, 1, -6, 0, -4, -3, 1, 1, -5, 0, 6, 0, -2, 6, -4, -2, -4, 1, -3, -3, 0, -6, -2, 2, -3, -1, 2, -9, -14, -9, 4, 15, 9, 0, 5, -2, 5, 0, 0, -3, -1, 0, -4, -1, 0, 1, 1, -5, -6, 3, 0, 0, 5, -6, 6, 1, 0, 0, -1, -6, 7, 0, 0, 4, 5, -7, 0, -8, -9, 0, 7, -11, 1, 2, 5, 1, -8, 2, 1, 0, 7, 7, -5, 0, -2, 0, -11, -7, -1, 8, -7, -9, 0, 1, -11, 3, 0, -12, 4, -4, 5, 0, 26, -4, 0, 7, 1, 1, -2, 1, -7, -12, 7, -4, 0, 1, 2, 0, 1, 3, -3, -3, 0, 0, -6, -2, -1, -6, 0, -2, 0, -3, -5, -4, 0, -6, -3, -2, 0, -2, -1, -3, -3, 5, -5, 6, -1, -2, 3, -5, 11, -7, 0, -2, 8, 2, 5, 4, 5, -1, 0, -6, 1, 0, 0, -2, 5, 0, 1, 5, 0, 2, -3, 9, 0, 4, 0, 6, -4, -6, 0, -3, -3, 2, 4, 14, -5, -5, 0, -3, 5, -4, -1, -3, -3, -4, -2, 7}
;

const int16_t dense_10_kernel[FC_UNITS][INPUT_SAMPLES] = {{-21, 2, 31, -66, -40, -64, 72, -73, -37, 54, 63, -38, 61, -6, -49, -49, 50, 0, 57, -38, -56, 64, -36, 33, -48, 6, 43, -19, -64, -40, -34, -65, -35, 21, -9, -23, -40, 22, 81, -36, -51, 40, 59, -44, 42, -6, 45, 67, 60, 1, -54, 48, -6, -53, -29, 37, 0, -17, -65, 58, 46, -46, 44, -30, 62, 5, -43, 37, 33, -43, -16, 63, -21, 20, 10, 49, 4, 4, -67, -22, -38, 55, 64, -22, 45, -14, -14, 49, -37, 72, -26, 6, -60, -10, 38, 34, -78, -9, -74, 50}
, {28, -44, 70, 35, 37, 48, 1, -4, 14, -15, -33, 64, -29, 66, -34, -25, 63, 0, -42, 22, 23, 55, 7, -9, -33, -35, -30, -67, 61, -13, 0, 69, 24, 31, 61, 28, 55, 58, -21, 12, 7, 56, 65, -66, 5, -53, -17, -50, 59, 63, 56, 1, 30, 67, 50, -41, -35, -52, 24, 0, 1, -48, 43, -39, -34, -41, 50, -7, 71, 1, -26, 4, -43, -67, -25, 48, -4, 2, -31, 53, -72, 24, -30, -3, 46, -52, 5, -19, -11, 44, -71, 27, 38, 59, -65, 39, 16, 22, 33, 29}
, {-48, -42, -1, -52, 30, 66, -58, -56, 0, 49, 59, -62, -66, 6, 68, -8, 28, 26, -50, -65, -57, -35, 4, 59, -34, 53, -52, -51, 21, 60, 27, -9, -55, 78, -55, -7, -69, 65, 60, 10, -8, 18, -4, 50, 22, 57, 26, 39, 33, 70, -13, -55, 45, 26, -18, -41, -24, 39, 34, 48, 52, 42, -4, -45, -34, -62, -67, -74, -16, -4, -70, -28, 37, 27, 53, 26, -28, -27, -55, 36, -15, 24, -65, -1, -41, -26, 8, 54, 45, -41, -65, 3, -68, 41, 37, 65, -51, 8, 48, -22}
, {18, -22, 19, 22, -50, -48, 72, 30, -25, 65, 32, -70, 71, 32, -33, 19, -57, -27, -43, -67, -60, -69, -16, -48, 68, 58, 42, -45, -49, -43, -59, 30, -16, -16, 42, 69, -60, 1, 41, 55, 15, -7, -26, -18, -36, -48, 69, 13, 47, -7, 33, -15, 21, 42, -33, -39, 14, -17, -63, 47, -56, 6, 52, -14, 42, 50, -50, 12, -68, 34, 67, -22, 52, -14, 55, -59, 43, 22, -31, 41, -1, 71, 68, 59, 17, -22, 41, -6, 48, 22, -66, -59, -64, 9, 46, -61, -11, -1, 11, -22}
, {-37, 43, -36, 9, 56, 10, -17, 51, 38, 75, 39, 61, 60, -49, -29, 1, -56, -23, 66, -3, 76, 5, 70, -12, -3, -16, 11, -42, 0, -48, 71, -21, 67, -51, -51, 64, 60, -20, -12, 66, -56, 44, 77, 68, -29, 22, 0, 56, 7, 35, 58, -30, 24, 46, 7, -22, 8, 40, -63, 22, 32, -10, 56, 67, -22, 13, -42, 25, 35, -17, -11, 23, -73, -76, 66, -17, -35, -66, -21, -77, 33, 48, 56, 86, -55, -49, 48, -19, 39, -30, -9, -16, -18, 3, 10, -2, -16, -36, -12, 77}
, {33, -39, -37, 21, 37, -8, 38, -51, 12, -8, -33, -40, -27, 32, 35, -52, -25, 57, 37, 63, 70, -22, -34, 6, -69, 16, -36, -29, -10, -36, -18, -53, -24, 43, -66, 7, 21, 50, -19, 51, -53, -26, -17, -1, 44, 55, 6, -43, -65, 33, -62, -64, -26, 24, -58, 28, 24, -25, -67, 37, -64, 18, 10, -52, 71, -27, -24, 49, -58, -44, 64, -24, -52, -8, -60, -33, 23, -12, -51, -8, 41, -34, 18, 16, 25, -70, 44, 69, 8, 34, 54, -9, -24, -10, -72, 30, 13, -3, 26, -4}
, {-64, 31, 29, -12, 22, 44, -30, 67, -46, 2, -11, 61, 58, -54, -71, 48, 14, 0, -31, -7, -23, -20, -33, 13, -22, 23, -27, 44, -14, -64, 11, -39, 73, -48, 55, 44, -23, -44, 8, 67, 8, 27, 21, -31, -8, 18, -12, -66, -16, -77, 60, -39, 10, 45, -47, 12, -36, 6, -32, -48, -50, -49, 0, 39, 27, -68, -84, 30, 4, -35, 3, 32, -17, -49, 62, 6, -36, -52, -30, -11, 62, -22, 10, -63, 59, -4, -9, -32, 57, 60, -67, 57, -16, -45, 3, 47, -62, 44, -9, 19}
, {18, 15, 18, -19, -46, 54, 73, 35, 19, 54, -47, -64, -21, -39, -34, -37, 63, 16, -15, 24, 21, 0, 9, -40, 50, -41, -35, 16, 36, 10, 41, -54, 69, 56, -49, -36, 10, -43, -65, -56, 41, -52, -77, -20, 18, -70, 46, 70, 45, -29, 63, 8, -49, 42, -14, 12, -69, 20, 41, 39, 59, 20, -21, 16, -45, 7, -20, -15, 17, 8, 46, -69, 39, -23, -2, 23, -5, -49, -12, -28, 70, 38, 18, -40, 11, -55, 54, 56, 33, 0, 65, -3, 30, 15, 53, -16, -8, 4, -40, -10}
, {-45, -13, 32, 53, 3, -30, 43, 40, 58, -3, -12, -11, 0, -11, 12, 3, 62, 48, -63, 38, -33, -39, 38, 4, -63, -7, 18, -28, -58, 39, -49, -20, 32, 71, 17, 62, -45, -39, -2, 30, 61, 54, 49, 12, 23, -48, -70, -49, -62, 40, -23, 49, -36, 4, -18, 4, -4, -13, 45, -7, -21, 17, 38, -81, -22, 33, -64, 29, 48, -40, 20, 51, -18, 25, 26, 5, 37, -29, -25, 41, -45, -33, -70, -33, -84, -45, -89, -61, -19, 18, -35, 83, -31, -69, 24, -17, 24, 57, 40, -35}
, {41, 52, -16, 9, 23, -3, -40, 22, 57, -56, 7, -51, -43, -45, 4, -59, 10, -14, 22, -54, -25, 4, -73, -58, 22, -15, -10, -2, -37, 19, -56, -31, -33, 26, 20, -22, -7, -40, 40, -66, 14, 68, -39, 45, 18, 16, 5, 42, -28, 9, 20, -27, 70, 53, -23, -36, 77, 23, -31, -28, 55, -46, 41, 29, 23, -40, 50, 57, -14, 71, 68, -14, 66, -19, 48, 7, 40, -7, -1, -18, -67, -8, -3, 2, 59, 0, 41, 28, 40, -71, -2, -61, 52, -38, 3, -67, -8, -15, 34, -32}
, {-21, 15, -34, 36, 0, 30, 37, 50, 26, -17, 55, -68, -30, -35, 20, 30, -28, 28, -72, 50, 0, 26, 54, 16, -11, 24, 0, -49, 16, 21, 2, 39, 4, 9, -6, -10, 29, -46, 39, -35, 50, 33, -65, 8, -52, -38, 64, -23, -42, -51, 14, 38, -48, 14, 24, 2, 54, -81, -76, -74, -59, -75, 29, -21, -68, 21, -10, -25, -5, 48, -24, -31, 7, 16, 42, 10, -31, -12, -31, 0, -20, 18, -42, 67, -38, 9, 21, 66, 69, 10, 0, -2, 15, -43, 9, 30, 48, -32, -56, 19}
, {-12, 0, 1, -42, 21, -48, 74, 55, -7, 43, 9, 2, 45, -34, 56, -29, -55, 53, 32, 57, 26, 26, 0, -34, -63, 37, -35, 55, -7, -48, 27, 13, 32, -17, -20, -55, -58, 55, 35, 59, -45, -37, -27, -52, 27, 55, -18, 55, -36, 16, -29, 20, 46, -32, -21, 53, -70, -10, -55, -21, 51, -75, -11, 0, 2, 76, 53, -16, 24, 5, -25, -12, 25, 65, -55, -52, -13, 23, 57, -70, 64, 37, -76, -38, 6, -65, 9, -8, -12, 48, 54, -7, 34, 60, 45, -18, 12, -63, 69, -62}
, {17, 61, -45, 44, -32, 56, 9, -23, 45, 10, -55, -2, 9, -5, 27, -40, 13, -32, 49, 19, 32, 55, -38, 1, 32, -38, 56, -36, -36, 67, -73, 2, -10, 48, 50, -18, -18, 41, -34, 57, 20, -70, -39, 14, -10, 33, -62, -6, 45, -28, 69, -12, -60, -25, 34, 49, -38, -73, -82, 2, 71, -26, -86, -71, 90, -16, 64, -4, 10, -47, -16, 63, -25, 80, 68, 78, -30, 36, -38, -49, 59, -32, -20, 57, 57, -53, -50, 26, -53, -43, 55, -10, -62, 35, 46, 85, 59, -3, -25, -23}
, {69, -52, 66, -29, -14, 60, 54, 11, 7, -26, 68, -67, -38, 48, -19, 14, -1, 2, -71, -68, 36, 31, -54, -5, -45, -37, 24, 21, 71, 11, -22, -9, -70, -30, 28, 2, 54, 49, 71, 24, -50, -32, -71, 43, -63, -45, 31, 68, -60, 27, -6, 59, -71, 51, -60, -61, 0, 63, -50, -29, -47, 72, 29, 26, -10, 22, -6, 23, -22, 7, -49, 8, 64, 60, 4, -60, 8, -4, -32, -66, 19, -41, 63, 57, -52, -68, -9, 12, 26, -26, 37, -7, 61, -18, -45, -34, 54, -61, 15, -65}
, {-25, -15, 14, 16, -68, 19, -80, 8, -73, -13, 22, 49, -24, -69, -53, -12, -79, -27, -52, 39, 0, 3, -23, 62, -24, 54, 68, -1, -9, 35, 25, 36, -74, -48, 49, -23, -82, -67, -66, -20, 34, -5, -8, 0, 58, -15, -54, -57, -4, -5, -40, -5, 68, -8, -15, 61, 59, -107, 46, 72, -29, 53, -68, -27, 9, 15, -66, -43, 36, -65, -36, -7, 52, -10, 25, 27, -65, 35, 63, 45, 54, -21, -6, 16, 39, 34, -3, 36, -69, -4, -71, 9, -31, -1, -53, -54, 11, 65, 80, -30}
, {15, 34, 45, 5, 10, -10, -23, -14, -8, -52, 85, -65, -28, -34, -71, 39, -28, 14, 40, 67, 73, 23, -57, -54, 72, -19, -45, 6, 36, -52, -46, 23, 55, -29, 15, 31, 1, -52, -70, 47, 77, -41, 0, -6, 56, -78, 65, 47, 19, -1, 39, 12, 54, 22, -82, 40, 6, 44, 72, 5, 11, 13, 64, -26, 2, 95, 104, -48, -32, 67, -14, 18, -34, -58, 19, 61, 81, 24, -8, 24, 34, 6, 39, 73, -16, 28, 82, 39, 50, -39, 33, 25, 4, 80, 83, 58, 24, 62, -41, 71}
, {52, -67, -63, 32, 31, -48, -22, -35, -38, -2, 7, -29, -33, -4, -38, 12, 52, -9, 1, 5, -12, 37, 14, 37, -16, 66, 28, 29, 47, -76, -6, 41, 58, -38, 7, -2, -11, -12, -68, 33, -71, -9, 20, -63, 36, 0, -23, -36, -12, 50, -40, 74, -23, 43, 56, -26, -39, 23, 3, -37, -68, -56, 59, -42, 64, -6, -4, 55, -10, 68, 59, 39, -6, -34, -65, 35, 39, -47, 70, 15, 50, -43, -33, -72, 15, 53, -32, 27, -2, 20, -6, -38, -43, -72, 67, 26, -16, -9, -30, -34}
, {-14, 0, 38, -30, 9, 52, -37, 31, -30, -23, 63, -4, 35, -1, 36, 14, 32, -42, -35, -11, -12, -52, -79, 8, -24, -6, -53, -26, 67, 32, -69, 24, -58, 37, -41, 59, 54, -14, 24, -42, 40, 48, -11, -11, -23, 36, 20, 3, -1, -41, 6, -7, -36, -37, -44, 42, -60, -74, -60, -53, -67, 71, 2, -28, 6, -52, -2, -34, -45, 27, -43, -44, -9, 37, -58, -59, 33, -78, 5, -4, -30, -32, -2, 10, -40, -74, 6, 56, 15, 8, 41, 74, 40, -27, 69, 36, -46, 64, 39, 36}
, {-68, 25, 72, 33, -29, -31, 52, 18, -51, 74, 9, -31, 82, 58, -1, -52, -11, 15, 48, 72, -18, 58, 5, -34, -27, 60, 57, -24, 57, -21, 80, 12, 65, -47, 55, -57, 16, 37, 51, 16, 53, 68, 52, -20, 67, -63, -24, -1, 61, -43, -49, 46, 34, 63, 48, -22, 42, 27, -33, -51, 62, -62, 71, 7, -20, 61, -69, -60, -64, -44, 19, -19, 28, -68, 53, 48, 66, 63, -31, 26, -16, 33, 38, 3, 25, 53, 21, -66, 34, -54, -5, -5, -43, -44, -44, -33, -55, 24, 37, -29}
, {-56, -12, 2, 16, 48, -3, -4, 58, -30, 41, -67, 41, -7, -59, -71, 56, -9, 14, 54, 6, -83, -83, -77, -69, 33, 16, 24, -44, 52, 82, 24, -58, 7, 71, -80, -14, 6, 49, -4, -22, 21, -21, -12, -64, 67, 10, 16, 12, -11, 27, 47, -46, -23, -15, -51, 66, 1, 38, 30, -63, 0, -55, 9, -48, 52, -13, 16, -57, 13, -72, -27, 41, 26, 24, 33, 49, -32, -8, -13, 23, -36, 0, -4, -37, -72, -33, -53, 42, -34, -71, -12, 0, -47, 40, 48, -37, -24, -12, -30, 7}
, {31, 52, 15, 0, -33, -20, 41, -63, -1, -43, 15, -63, 45, -33, -18, -25, 10, 52, 39, -29, -6, -4, 52, 40, -35, 7, -16, -68, 3, -25, -37, 32, -37, 15, 58, 65, 65, -2, 20, 14, -33, -66, 5, 32, 49, -4, 14, -18, 62, -19, -22, -45, 24, 51, -30, 5, -22, 49, -9, -63, 13, 21, 13, 60, 15, 41, 0, -59, -38, 4, 29, -55, 74, 45, 10, -40, -21, -62, -63, -51, -51, -27, -12, 36, 6, -30, -71, 57, 66, 12, 33, 36, -24, -26, -70, 33, -2, -49, 63, 26}
, {-9, -48, 48, -17, 0, -15, 34, 53, -2, -21, 54, 74, 37, -44, -32, 71, 85, 71, -18, 73, 34, -13, 28, 49, -3, 59, 52, 43, 66, 94, -30, -19, -14, 49, 10, -39, -65, 10, -41, 32, 63, -58, 38, -59, 35, 55, 38, -41, 25, -31, 30, -36, 56, 68, 72, -45, -9, 43, 59, -5, -39, -63, 17, 47, -16, 38, 33, 17, 0, -39, 53, -62, -86, 8, -19, -2, -28, -35, 51, -53, -52, -85, 30, -21, -26, -65, -87, -41, 14, -53, -19, 46, -32, -73, -44, -28, 41, -55, -45, -66}
, {44, -53, 8, -63, 34, -57, 61, 31, 61, 33, 34, 4, 8, 3, 34, 26, 57, 21, -38, -65, -67, 67, -32, 0, 35, 47, -51, -63, 72, -21, 54, -27, -66, 47, 51, 40, 65, -38, -45, 34, -23, 37, -3, 26, -3, 13, -65, 33, 60, -22, 30, 16, -64, 15, -66, -26, 19, 14, -23, -30, -14, 0, 24, 47, -23, -20, -6, 44, 47, -55, 12, -14, 53, -30, 64, -55, -54, -27, -14, -37, -26, -37, 6, 15, -28, -3, 37, -50, 35, 40, -21, -1, 19, -3, -14, 23, 38, 3, 67, 41}
, {-30, 70, 45, -72, 1, -55, 38, 39, -40, 40, -41, 23, -9, -41, -1, 8, 54, -96, 19, -19, 10, -40, 5, 24, -8, -72, 60, 17, 35, -5, 2, -49, -49, -34, 21, 52, -53, -72, 63, 3, -8, -61, 70, -9, -25, -21, 51, 19, 20, -38, -52, -63, 32, 73, -54, -20, 34, 22, -17, 32, 71, -63, 91, 43, 20, -57, 30, 72, 12, -26, 10, 3, 64, 22, -49, -42, 1, 3, 48, -26, -15, 27, 15, 62, 39, 75, 45, -24, -9, 12, -17, -25, -42, 64, -70, -19, 52, 26, -101, 64}
, {71, -14, -47, -73, -48, -38, 45, 15, 57, 12, 62, -16, 19, 4, 24, -20, -30, 67, 62, 17, 13, -38, -15, 46, 48, 57, 43, 9, 71, -18, -26, -15, -65, -62, 12, 75, 6, 39, 22, 42, -40, -5, -59, 36, -69, 0, -33, -54, 23, 30, -50, 60, 41, -1, -71, 63, -49, 3, 11, -22, 53, 49, 31, -44, 67, 17, -48, -22, 60, -40, 46, 33, -25, -5, -61, 68, 11, -24, -44, 66, 10, -22, -42, -39, 58, -46, -29, -69, 0, -52, 56, 51, 1, -3, 0, -11, 39, -63, 67, -13}
, {32, 6, 60, -37, -62, 30, -70, -35, 57, -6, -15, -37, 15, -50, -22, -48, 5, -65, 47, 51, 19, 51, -53, -44, 12, -58, -68, 49, -1, 17, -8, -73, 29, 3, -16, 71, 65, 48, 8, 27, 62, -2, 45, -44, 0, -8, 66, 4, 14, 34, -47, -28, 39, 34, -58, 5, -13, 48, 41, -54, -58, 63, 55, 46, -27, -43, -25, -10, -70, -58, 41, 49, 43, 67, -51, -39, 71, -9, 67, 30, -4, -62, 70, -23, -7, 38, -34, -66, 70, 63, 56, -65, 62, -46, -73, 75, -64, 21, -73, 53}
, {37, -20, -64, 11, -44, -56, -8, 55, 7, 9, 51, -2, -48, 47, -41, -28, -33, 24, -57, -9, -3, -58, 2, -28, 71, -64, -37, 68, 13, -3, 4, -61, -30, 53, -14, -36, 52, -38, -1, -49, -43, -4, -8, 31, 53, -44, -34, 44, 13, -68, 37, -55, 43, -59, -13, 52, 10, -39, 11, -64, -26, -71, 10, -49, -45, -44, 45, -51, -34, 55, 4, -50, 9, -17, -16, -44, -33, -44, 9, -65, 17, 72, 48, 75, -4, 71, 29, -33, -62, 2, -18, 4, -60, 19, 72, -56, 64, -44, 28, 65}
, {-32, 12, -17, 75, -42, -5, 42, 30, 29, 6, 52, -61, 7, 23, -18, 9, 7, 37, -36, 26, 31, -23, 47, 4, 10, 4, -72, -59, 2, 0, -14, -68, 10, -47, -31, -5, -64, 44, -48, -23, 33, -35, 48, -6, 36, -84, 40, -23, 62, -9, -53, -78, -8, 51, 28, -1, -12, 64, -4, -40, -35, -45, 16, 79, 8, 19, 52, -52, -6, 74, 19, 30, -38, -16, 71, 1, 4, 10, 6, 42, -19, 38, 61, 0, 0, 0, 81, 44, -43, 39, 37, 45, 37, -16, -30, -33, -76, -11, -39, -18}
, {-65, -17, 51, 7, -10, -19, -20, -61, 60, -40, -78, -3, 61, -10, 51, 9, 34, 30, -43, 52, -33, -8, -3, 30, -32, 47, -6, 30, -6, 19, -39, 13, -26, -25, -19, 54, -46, 50, -6, 32, 18, 0, -23, 46, -35, 68, 39, -68, -43, -62, -26, 26, -43, -11, 62, 35, -4, 65, 15, 33, 43, -45, -22, -44, -7, -2, -24, -7, -68, -4, 33, 26, 55, -44, -29, 15, -76, 63, -17, 55, 39, -40, -50, 45, 10, -60, -16, -16, -49, 40, 64, -40, -2, -68, -11, -74, 14, -8, -40, -26}
, {-54, -20, -24, 49, 84, -40, 4, 62, 11, 10, 40, -41, 5, 74, -46, 0, 0, 44, -29, -50, -9, 52, -54, -16, 0, 51, 40, -7, -20, 48, -26, 30, 21, 71, 63, -65, 10, 44, 27, -65, 13, 43, -52, 22, 39, 3, 12, -21, -62, -17, -35, 41, -72, -59, 25, 10, 4, -2, -41, -4, -51, -9, 39, -20, -18, -42, 22, -32, 17, -33, -51, -39, 36, -34, -35, 9, -42, 58, 8, -74, 50, 29, 0, 39, -40, -45, 12, -19, -46, -16, -64, 16, -40, -46, -6, 41, 2, -71, -4, 65}
, {-47, 26, 20, -22, 14, 2, 64, 12, 72, 56, -20, -75, 39, 8, 26, 1, -14, -26, -5, 12, -12, 50, 52, -63, 16, 14, 48, 20, -62, -22, 49, -37, 41, 59, -13, 56, -4, 66, 42, -17, -58, -66, 28, 53, 36, 2, -17, 24, 10, 67, -18, 0, 43, -3, -77, 3, -64, -27, 8, -67, -56, 14, 39, -19, -16, -77, 19, 26, 27, -36, -46, -11, 9, -3, -50, 15, 12, -56, 21, 12, 29, -39, -57, -4, -41, -1, 75, -79, 60, -41, 48, -75, -59, -51, -64, -40, 2, 33, 41, 72}
, {-37, -41, -32, -62, 2, -48, -57, 9, -49, -6, 64, 75, -18, 7, 32, -43, 61, 41, 30, -32, 31, -38, -22, -42, -42, -30, -70, 40, -45, -3, 5, -57, 19, 32, 11, -45, -28, -63, -44, 22, -47, -46, 14, -47, 59, -33, 18, 35, 11, -40, -50, 26, -35, 66, 58, 9, 29, 34, 43, 42, -55, 17, -15, 31, 28, 3, -75, -5, 45, -49, -26, 65, 24, -75, 25, 0, -14, -40, -11, -58, 39, 33, 15, 1, -23, 13, -51, 32, 60, 48, -15, -8, -32, 60, 35, -29, 7, -1, 31, 10}
, {1, -1, -36, 51, 39, 1, -50, 59, 24, -25, -5, -25, 35, 71, 2, 0, -48, -59, 2, 64, -36, -88, -21, 53, 48, 64, 55, 4, 34, 10, -37, -42, -57, 15, -55, 24, 39, 98, -25, 103, 23, 99, -4, -33, -63, 37, 22, 3, 47, -60, 36, 1, 6, -9, 98, 80, -30, 6, 49, 26, 1, 6, -12, 45, 62, 25, 69, 12, 52, 34, 1, 57, 82, -31, 63, 31, 13, 107, 92, 72, 106, 92, 24, -31, 77, 85, 77, 46, 4, 32, 15, 92, 78, 14, -22, 102, -37, 108, 41, 60}
, {46, 67, 36, 27, -9, 6, -89, 41, 49, -48, -23, 83, 36, -82, -67, 78, -99, 7, -68, -37, 22, -45, -17, -35, 4, -44, -103, -39, -50, -7, -26, -34, 13, -24, 7, 46, 43, 14, 75, 45, 45, 1, 4, 82, 74, 20, 66, -15, 64, -5, -53, -10, -65, -8, 46, -42, -64, 59, -37, -24, -16, -66, 85, -45, -57, 16, -7, 46, 74, -75, -89, -19, 77, 15, -60, -27, 10, -32, -49, -75, -41, 18, -57, -32, -2, 77, 44, -59, -63, -11, -13, 43, -64, 59, 56, 45, 44, 11, 10, 20}
, {6, 3, 97, -4, 44, 30, -21, 86, 53, 14, 47, -27, -34, 56, 101, 23, 43, 35, -44, 55, 67, 30, 69, 10, 4, -19, 31, 6, 19, 121, 12, 1, -9, -61, -10, 70, 92, 6, 32, 97, 13, -20, 26, -30, 44, 22, 28, 63, -25, 49, 29, 11, -3, -44, 57, -54, -15, 24, 71, -3, 42, -2, 17, -33, -28, 52, 54, 31, -36, 35, 34, -10, 45, 2, -16, 9, -5, -92, -55, -127, -53, -121, -87, 4, 11, -93, -76, 9, 16, -19, 53, 22, -86, -15, -41, -29, -34, 14, 47, 3}
, {62, -57, -5, -58, -29, 17, -62, -8, -58, -71, 46, 56, -62, -2, -40, 68, -41, 52, 13, -4, -68, 43, -10, 46, 30, -68, 71, -41, 1, 44, 57, -57, -16, 27, -11, -15, 40, -16, 28, 4, -45, 10, 58, 21, -23, -34, 52, -16, -49, 40, 34, 1, -71, -30, 62, -1, 48, -17, 39, 40, -20, 62, 50, 60, -64, 43, -1, 56, 30, 55, -2, -22, 16, -66, 51, 8, -47, 50, -12, 60, -3, -26, -56, -46, -70, -10, -20, -46, 61, -33, 0, -14, 58, -15, 71, 18, -47, 28, -64, -12}
, {59, 52, -58, -40, -9, -63, -59, 29, -29, 64, -67, 9, -39, 40, -5, -40, 59, -24, -19, -60, -21, -31, 57, 69, 13, 16, 3, 40, 10, 54, -9, -15, -6, 0, 65, 50, 55, -43, -57, 31, -60, -44, 71, -49, -45, -7, 62, 31, -63, -30, -26, -73, 2, 17, -10, -50, 11, -54, 59, -17, 46, 36, 6, -12, -13, 37, 53, 60, 23, -44, 49, 34, 51, 19, 41, -46, -38, 29, 29, 48, 80, 45, -17, 55, -18, -70, -23, 7, 59, 64, 68, 13, -3, 26, 12, 46, -33, 22, 20, -26}
, {-22, 60, 55, -86, 29, -70, 23, 18, 24, 17, -40, -63, 46, -40, 48, -42, -53, 45, -18, 9, 16, 59, -13, -67, -51, -74, -16, 49, 36, -33, -15, 59, -18, -12, -49, 53, -1, -60, 48, 39, -60, -33, 48, 22, 73, 27, -66, -66, 4, -72, -13, -64, 5, 67, -66, 26, 62, 75, 12, -43, 38, 29, -13, -28, 53, 41, -60, 32, -26, -20, 67, 42, 50, 31, 27, 80, 57, 82, 29, 60, 53, -49, -54, 52, 32, 25, -2, 4, 37, -72, 48, -58, -49, 7, -5, -23, 11, 22, -33, 40}
, {-12, -33, 42, -79, -92, -67, 5, 3, 74, -51, 75, 101, -67, 10, -81, -98, -19, -80, -45, -57, 0, -6, -97, 47, 23, -28, 73, 59, 47, 61, -59, 27, -44, -8, 1, 15, 71, 86, 61, -11, 84, 1, -7, 62, 26, 58, 41, 58, 30, -31, 82, 53, -1, -42, 25, 38, -46, 27, 24, 93, -37, 45, 52, 73, 17, 1, 47, -79, -144, -43, -115, -128, 18, 52, 41, -95, 3, 72, -70, 26, -28, 25, 18, -25, 5, 38, 50, -101, -19, 51, 68, 34, 91, 103, -45, 63, -69, -46, -30, -33}
, {49, 16, 48, -60, 31, -44, 44, 21, 26, 4, 62, 0, 63, -20, -45, 48, 40, -64, 0, 31, 66, 24, -48, 45, 44, -4, -16, -60, 8, -33, -47, -9, 22, -28, 59, -43, -17, 31, 63, -18, -65, -17, -33, 1, 68, 57, -23, -33, 39, 61, -16, -52, 71, -62, 60, 59, -41, 5, 42, 2, -15, -29, 61, -47, -7, 31, 25, 17, 49, -5, -25, -56, 20, -57, -19, -68, -66, -34, -69, 64, -28, -60, 20, 9, 63, 13, 37, -65, -15, 52, -29, -38, -60, -17, 46, -3, 16, -50, 25, 31}
, {64, -2, 25, -45, 44, -31, -16, -67, 52, 12, 7, -38, 7, 69, 24, 7, 62, -68, -49, -55, -28, -26, 25, -21, -44, 6, -20, -41, 10, 1, 10, -22, 52, -29, -1, 12, -63, -33, -41, 20, -48, 51, 50, -54, -65, -15, -14, 17, -61, 65, -67, -68, 56, -42, -60, -39, 20, 32, 58, 67, -33, -20, -62, 12, 46, 21, 49, 69, 58, -63, 62, 55, -39, 23, -12, -37, 19, 71, 27, 67, 8, -36, 49, -71, -17, 36, -2, 20, 1, -42, 4, -54, 58, -44, 12, 34, 62, 63, 36, -36}
, {-12, 37, 7, -18, 53, -26, -1, -40, -50, -17, 19, 61, -36, 45, 14, -37, -43, -54, -53, -2, 34, 20, 31, -75, -9, 17, 64, -29, 15, 36, 4, 8, -65, -48, 61, -63, -3, -2, -12, -30, -16, -56, 5, 28, -33, -44, -22, -28, 21, -12, -34, 59, -59, 31, 50, -1, 66, 20, 4, -22, 44, -13, 6, 48, -67, 33, 4, 91, -18, 65, 60, 53, -6, -40, -18, -59, 82, -24, 14, -53, -37, 43, -7, -26, 9, 46, 47, -9, 56, -29, 42, 57, 5, 61, -11, 64, 42, 17, -57, -16}
, {49, 26, -1, -68, 64, 54, 2, 22, -64, -39, -4, -56, 6, 34, 67, 59, -41, -48, 11, 57, -13, 49, -41, 61, -26, 48, 48, 23, 10, -25, 25, -24, -51, 42, -3, 44, -1, -12, -27, -34, -26, 53, -25, -69, -44, 64, -13, -44, 42, 72, -9, 6, -17, -17, -49, -8, -47, -20, -55, -46, 19, 31, 47, 69, -22, 0, 14, -33, -20, 48, 73, 24, -2, 14, 61, 34, 4, -12, -4, 58, -6, -10, 56, 60, -42, 51, 63, -26, 62, -58, -30, -6, 2, 64, -44, -44, -36, -15, -56, -44}
, {40, -16, -5, -24, 26, 17, 32, 17, -8, 0, -48, 46, 17, -50, -31, 27, -31, -26, -58, 15, 57, -9, 9, 52, -55, -34, 68, -8, 69, -61, -58, 36, 25, 20, -4, 26, -15, 32, -68, -62, 29, 12, 22, 0, 65, 21, 55, -9, 21, 1, -34, -9, -14, 4, -48, 42, -31, 0, -63, -71, 51, 29, 29, 7, -43, -32, -33, 29, -69, 8, 71, -12, -3, 40, -63, -18, 51, -28, -5, 60, 4, 56, -62, 33, 69, 54, -10, 11, -8, 31, 22, 4, 50, -21, 49, 44, -37, -38, -13, 54}
, {-26, -59, -33, -35, 69, -3, -51, -22, 37, 7, -27, 12, -17, -58, 26, 11, 38, -74, 35, -37, -41, 22, 20, -22, -5, 61, 40, -60, 35, 26, 53, 43, 35, -22, -1, 0, 2, 56, 7, 31, 46, -13, -75, -44, -64, -19, -32, 20, -39, 69, 55, -6, 0, 53, -50, 63, 16, -24, 4, -7, 20, -25, 17, 74, 19, 27, 60, -15, 10, 69, 80, -34, -73, -1, 19, 7, 42, -34, -73, -38, 70, 45, -31, -49, -59, 62, 48, 71, 31, -66, 51, -65, -13, -65, -70, 0, -48, -9, -20, 22}
, {-13, 34, -24, 13, -66, -50, -51, -40, -50, 39, -4, -5, -67, -2, 34, 42, 0, 34, 38, -3, -22, 54, 12, -73, 3, -7, -54, -14, 17, 3, 0, 13, -41, -48, 32, -62, 21, 58, -30, 63, 30, -65, 38, -46, 20, 14, 67, -57, 38, -38, -52, 15, -55, -70, 31, 34, 10, 29, 15, -24, 31, 51, -23, -19, -35, -38, 20, 63, 69, -4, 0, -3, 14, -2, 67, -26, -2, -5, 77, 74, -11, 36, -63, 62, 26, -46, 41, -20, -54, -49, 10, -36, -11, -46, 5, -61, -9, 52, 8, 52}
, {25, -60, 51, -13, -19, -28, 35, 0, -56, -51, -65, 0, -41, 59, 7, 47, 14, 63, -54, -16, 52, -43, 41, 24, -12, 24, -36, 24, -43, -6, -26, 52, 8, 57, -18, -12, 5, 22, -10, 11, -22, 56, -61, 21, 56, 12, -37, -7, -26, -28, -12, 3, 29, -66, 6, -53, 18, -61, -14, -21, -72, 52, -16, 7, 16, 57, 35, 46, 20, -66, 26, 51, 59, 18, 64, -58, -48, 48, 41, -71, -53, 46, -20, -15, -71, -50, 45, 5, -21, -1, -14, -54, 48, 11, -16, -53, 33, 9, 33, -26}
, {-33, -12, -3, -53, -51, -28, -3, 2, 26, 27, 16, 28, -27, -59, 56, 68, -25, -19, -68, 23, -42, -72, 34, 18, 59, -65, 23, 68, -37, 43, 40, 20, 36, -35, 55, 44, -34, -78, -16, -58, -38, -12, 26, -13, 0, -42, -78, -55, -11, -67, -54, 47, -33, -37, 5, 24, -35, 31, 0, 15, 55, -5, -78, -31, 13, 10, 52, -69, -47, -1, 38, -36, -35, -11, -50, -9, -21, -40, 44, -51, -64, 23, -10, -61, -30, 0, 8, -47, 16, -23, 27, 56, 43, -9, 27, -16, -12, 6, 33, 39}
, {-38, -24, 26, 44, 73, 46, -53, 23, 37, -57, 20, 0, -39, -6, 77, 78, -74, 27, -73, -45, 34, -52, 17, -62, -41, -44, -51, -1, 27, 63, 45, 57, 6, 38, 9, -25, -24, -69, 8, -27, 51, -16, -74, 44, 18, -26, 35, -13, 30, -17, -44, 3, 41, -64, 73, 62, 18, -21, -5, 59, -66, 9, -85, -64, -1, -71, 51, -56, 36, -29, 26, 17, 50, 0, -64, 36, 17, 7, -7, -12, -81, -75, -35, -28, -40, -31, -27, -21, 60, -66, 26, -18, 47, -71, 69, 2, -9, -30, -62, 5}
, {21, -36, -55, -19, -22, 28, -52, 62, -20, -40, -31, 8, -63, -31, 45, 11, 42, 22, 35, -20, 26, -11, 33, 67, 51, -14, 41, -6, -28, 33, -33, -29, -56, 49, -24, 52, -71, -25, 3, 30, 7, 43, -6, -33, 34, -26, 25, 0, -23, 69, 70, -58, 41, 22, 65, 58, -58, 17, 63, -30, 16, 0, -1, 69, 58, -10, 55, 50, 19, 17, -3, 7, 4, -50, -56, -7, -58, -4, 11, 13, -38, -36, 49, 9, 6, 13, -36, 25, -16, 61, -1, 58, 16, 61, 14, -29, 9, 11, -67, 33}
, {-40, 53, 8, -47, 62, -75, -63, -68, -1, 0, 18, -48, -31, -40, -26, -64, -4, -78, 70, 5, -10, -21, -50, -20, -18, 7, -53, -11, -14, -83, 12, -64, 29, -16, -60, 0, 44, 62, -61, -68, 73, 13, -7, 30, -15, -47, 36, 22, 33, 15, 41, -13, 57, 91, -13, -63, 18, 79, -49, 46, -18, 67, -13, -30, -63, 54, 41, -11, 6, -5, 12, 8, 51, -78, -39, 55, 13, -5, 46, 33, 27, 0, -2, 39, 33, -20, 81, 53, -45, -30, 32, -72, -10, -31, 26, -39, 5, -53, 22, -43}
, {63, 19, -11, -57, -64, 26, 63, -32, 4, -47, -51, 60, -9, 22, -39, -25, 50, 0, 59, -30, 56, -7, -61, -26, 58, -29, -65, -39, -17, 63, -17, -5, -33, -3, -16, 34, -13, -35, -26, 70, -30, -6, 33, -32, -14, -1, -7, 13, 61, 13, 1, -67, -62, -27, 32, -44, -4, -37, -36, -58, 64, 0, 1, -13, 53, -31, 68, -25, -42, 19, -4, 60, -79, -8, -22, -72, 44, -51, -25, -74, -17, -13, -55, -42, -56, 32, -53, 28, 21, -66, 17, -60, 58, -39, 29, -47, -75, 33, -22, -10}
, {-32, 55, -60, -15, 41, -7, -51, 44, -7, -55, 64, 30, 5, 41, -37, 76, 64, -7, 41, 51, 26, -37, -15, -41, -27, -21, 13, -25, -6, 12, 56, 55, 69, 81, -27, 41, 61, 71, -39, 28, 59, -26, 61, 61, -53, 80, 50, -14, 47, 23, -60, -54, 7, 5, 69, -60, -19, -31, -4, 49, -13, 36, 19, -29, 54, 2, -84, 18, -38, -28, -12, -80, 61, -43, -14, -76, -26, 25, 51, 23, 18, 27, -53, 10, 34, -59, 5, -68, 12, 53, 33, 12, -60, 33, 6, 50, 58, -36, -3, -58}
, {-38, 16, -34, -41, 21, -83, -43, -35, -41, 43, -34, -34, -53, 72, 12, -1, -14, -31, -15, 43, -70, 39, -27, -29, -48, 40, 15, -45, 48, -24, -58, 0, -21, -52, 44, 44, -58, -64, 31, -42, 66, 54, 48, 19, -7, -50, 40, 52, -66, 26, -19, -63, 19, 15, -9, 39, -66, -5, -29, -11, -65, 35, 13, 57, -6, -57, -54, -32, -19, 10, -65, 56, -39, 37, -82, 45, 8, 47, -41, 50, -25, 56, 18, 51, -63, -40, 79, 51, 64, -17, 47, 57, 10, 69, 67, -28, -40, 52, 70, 7}
, {7, 4, -19, -78, 51, 78, -86, -64, -1, -87, -98, -8, 11, -37, 39, -27, 47, -13, 10, -65, -60, -53, 12, -44, -10, 2, 22, -10, 23, 45, -35, -86, -31, 13, -9, -83, -22, -89, -25, -56, -43, -18, -77, 29, -25, 45, 54, -32, 35, 22, 57, 20, 54, -50, 35, -15, 55, -49, 8, -1, -2, -17, 10, -18, 62, 88, 72, -31, -4, -11, -33, 86, -16, -25, -58, -3, 1, -37, 57, 11, -14, -30, -37, -44, -24, 5, 1, 73, -17, 10, -33, 43, 35, -18, 53, 0, -45, -59, 60, 71}
, {-12, 31, 47, -22, -54, -46, 6, -35, 82, -57, 14, -42, -44, 16, 58, 70, 41, 22, -7, 49, 76, 31, -47, -7, -8, 30, 44, -70, 41, 4, 39, -69, -53, -60, 5, -49, -55, 59, 21, 27, 6, 20, 78, 29, -54, -87, -43, -4, 6, 54, -64, -84, -54, -20, -30, 72, -58, 43, -27, -60, -47, 69, 85, 18, -10, -33, 18, -24, 43, -15, 6, 21, -43, 21, 65, -63, -18, 1, -65, 48, -44, -55, -38, 87, -46, 102, 50, 32, 57, 51, -34, 37, -14, -14, -39, -7, 24, -35, -56, 67}
, {-34, -43, 32, 86, 0, -12, -4, 35, -37, -56, -3, -12, 21, -67, 36, -6, -18, -19, -85, 2, -84, 23, -41, 46, -83, 0, 2, 78, -17, 3, -46, 57, 36, -7, -13, -30, -58, -52, 37, 56, -73, 9, -5, 24, 18, 68, 61, -37, 48, 20, 63, 40, 30, 53, 25, -61, 48, 2, 50, -80, -65, 62, -58, -56, -60, 45, 46, -8, 42, 71, -17, -48, 10, 56, 25, 14, 3, -45, -27, -60, -69, -51, -34, -63, -56, 3, -85, 64, 48, 56, -17, -18, -68, 72, -48, -42, 9, 84, 15, -3}
, {-59, 56, -23, 81, 68, -12, 1, -5, 20, -60, 60, 18, -41, -65, -38, -42, 11, -15, -76, -15, -30, -76, -36, 44, 48, 74, 31, 5, 24, -54, -49, -24, -18, -50, -23, -24, -29, -17, 2, 46, 19, -63, -37, -37, 15, 11, 14, 10, -28, -57, -13, -61, 1, 24, 65, 33, 23, -62, 11, -46, 27, 58, 14, 31, 86, 74, -12, -21, -11, 52, -27, -76, -58, -38, 10, -12, -49, 42, -22, 51, 42, 70, -29, 27, 55, -41, -78, -59, -48, -23, -46, 27, -25, -21, 65, -52, 75, 87, 39, -38}
, {35, -53, -44, 67, 53, -51, -39, 21, 8, -58, 50, -32, -12, -30, 46, -59, -18, 13, -8, -41, 66, 69, 25, -29, 17, -64, -17, 29, 65, 31, 64, -16, 28, 46, 23, 11, -71, 42, 23, 6, -68, 7, 27, 57, -35, 57, -1, 64, 9, -61, -30, 4, -45, 23, -22, -10, -21, -65, 39, 30, -59, 5, -39, 31, -46, -12, 15, 25, 26, 69, -38, 6, -47, 25, 39, -10, -37, 4, -4, 3, -11, 34, 4, 50, 60, 12, -70, -2, 39, -13, -43, -27, -23, 7, 45, -5, -8, 52, -45, -29}
, {-4, 67, -12, 25, 47, -83, -44, 64, 6, 49, -29, 9, 1, 25, -75, -24, -74, -18, -40, 29, -22, -31, -44, 28, -19, 66, -44, 4, 80, -35, 80, -46, -6, 63, 20, -54, 17, 9, -9, 18, -44, 31, 44, 70, -35, 10, -53, 19, 46, 21, 61, 7, -13, -16, 8, -37, -58, -63, 55, -43, 31, -73, -47, -69, 8, 20, 59, 47, 61, -37, 43, -18, -51, -40, -69, 49, 31, 75, 37, -28, 1, 0, 78, -5, 33, -20, 48, 20, 30, -15, -63, -7, -5, -28, -41, 69, 61, -39, -12, -15}
, {59, 3, -38, 51, 7, -60, 24, -9, -18, -33, 62, -19, 29, 12, 24, -61, 21, 4, -45, -25, 66, -15, -47, 23, -45, -59, 42, 29, 66, -23, 1, 72, -29, 33, -33, 23, 31, 8, -14, -12, -27, -40, 36, -47, -48, 2, -41, -57, -34, -61, 64, -71, 47, 47, 38, -55, -7, -70, 39, 19, -5, 54, 21, -12, 36, 17, -70, -45, 42, 43, -34, 26, -29, 33, 65, 16, -8, 47, 57, -2, 9, 63, -8, -2, -6, 37, 20, 53, -53, -25, 59, 24, 13, -56, 37, 37, 10, 66, -30, 75}
, {-63, 8, -67, -47, 49, -48, -16, -39, 51, 35, 52, 6, -16, -14, -5, -62, 76, -53, 58, 3, -34, -13, -1, -41, -31, 22, -6, -82, 60, -38, 54, -57, 32, -72, 33, 73, 12, 10, -52, -26, 34, -18, -37, -61, -17, -37, 62, 14, 59, 39, 18, 23, -46, 42, -31, -24, 1, 67, -50, -42, -51, -68, 32, 0, -2, 35, -62, 10, -21, 7, -33, -58, 38, 9, 26, -44, 87, 27, -53, 49, 38, 31, 77, 61, 84, 81, -35, 73, 66, 70, -61, -12, -11, 59, -19, 21, 28, -11, -27, 40}
, {63, 10, 16, 48, -38, 61, 63, -43, -40, 56, 13, 5, -71, 60, -58, -57, 39, -4, 8, -38, -79, -24, -44, 13, -30, 14, 27, 4, -23, -73, 18, 24, -20, -61, 40, -15, 5, 46, 18, 52, 2, -40, 23, 76, 46, 46, 58, -31, 0, 18, -9, -40, 30, -73, -2, 56, 63, 79, -20, -67, -11, 54, 64, -31, 15, 62, 45, -22, 65, -35, -14, -16, -52, -27, -68, -15, 55, 2, -29, 37, -50, -14, 42, 66, -79, 17, 12, -52, -9, -4, 38, 31, -41, 48, 58, -5, 5, -4, 45, -14}
, {-14, 40, 32, 43, -67, -37, -8, -2, 50, 27, -24, 44, -74, -26, 47, 47, -12, 50, -28, -10, -61, -2, 23, -19, 18, 37, -28, 73, -50, 4, -28, 28, -62, 0, 55, -68, 52, -20, -37, -21, -63, -18, -17, -48, 31, 80, -77, -51, 44, -30, 22, 15, -68, -53, 17, -8, 25, -20, -5, -27, -31, -53, -94, 0, -6, -12, -29, -9, -31, -33, 46, -16, 5, -32, 51, -4, -52, 31, 19, -7, -2, 44, -18, -20, -57, -71, -41, 63, 5, 70, 65, -10, 40, -68, -20, 2, 63, -48, 80, -49}
, {70, -3, 22, -56, -53, 17, -51, -3, -68, -67, -57, -36, 62, 72, -60, -35, 0, 33, 34, -48, 62, -42, -37, 32, 8, -39, 53, -26, -15, 26, 41, 25, -25, 32, 14, 54, 10, -24, 58, -25, 50, 28, -11, 37, -58, -53, -14, 26, 66, 36, 47, 68, 39, 69, 68, 50, -35, -27, -22, -51, 38, -34, 5, 32, 29, -51, -1, -28, -11, 37, -49, -41, 3, -4, 9, -14, -59, -52, 58, 13, -24, -56, -51, -17, -24, 49, -49, 42, -25, 27, 38, 27, -54, -61, -14, -25, 54, 39, -52, -55}
, {0, -25, 59, 37, 36, -29, -48, 59, 11, 50, -35, -20, -20, -43, -31, -39, -65, -22, 26, -90, -85, -6, -26, -34, -36, -13, 39, -50, -29, -9, 11, 24, 6, -11, -5, -15, -51, -78, 4, 57, -61, -64, -24, 34, 3, 16, 62, -57, -53, -81, 59, -29, -22, -50, 54, -17, -60, -71, -12, 13, 53, -30, 64, 1, 45, 45, 29, -52, 47, 67, 26, -7, 76, 21, -46, 40, -34, 33, -6, -11, 10, -55, 6, -25, -35, -31, 69, -21, -31, -44, 45, -6, 69, -7, -57, 3, -13, 0, 38, -35}
, {-2, 30, 15, 89, -17, -48, 46, -33, 5, -53, 0, -48, 21, 72, -64, -33, -2, 51, -84, 13, -88, -34, 59, 81, -35, -7, -55, 47, -29, -60, -6, 40, 66, 83, -35, -38, 56, -13, -58, -10, 0, 0, 23, -31, -13, 66, -36, -9, 35, -41, -11, 51, 67, -75, 35, -50, 6, -60, -59, 68, 5, -42, 24, 44, 39, 16, 20, -39, 15, 10, 39, -78, 49, -11, -48, -34, -99, -73, -27, -56, -2, 14, 48, -53, -74, -84, 14, -38, 3, 63, -41, 18, -30, -58, -38, -58, -4, 70, 34, 46}
, {-42, 54, -48, 34, -67, -67, -55, 70, 55, 55, -17, 74, -6, 61, -26, -1, 54, -45, -38, 47, 18, 39, 47, -14, 70, -15, 36, 4, -69, -3, -48, -17, 65, 39, 76, 22, 59, -45, -48, 43, -61, -58, 32, -30, 72, 49, 31, -6, -41, 59, 6, 53, -50, 30, 35, -26, 13, 69, 49, 72, 47, -70, -25, -47, 62, -64, -53, 46, 9, 24, 4, 65, 68, -44, 21, 56, 53, 37, 57, -53, 26, 64, 57, 7, -41, 88, 22, 6, 13, 14, -45, 5, -61, -60, 26, -17, -1, -65, -3, 57}
, {-7, -37, -36, 35, -41, 25, 18, 15, -40, -25, 58, 60, -1, 22, 69, -19, 59, -9, -56, 18, 65, 46, 34, 0, -14, -50, -9, 21, 53, -43, 2, 55, 9, -10, 8, 28, -22, -3, -22, 56, 55, 64, -30, -65, -66, 42, 25, 51, 11, -37, 6, -39, -4, -33, 82, -7, 64, -28, 70, -22, 24, -75, -33, -41, -54, -54, 7, -2, 61, -70, -34, 34, 0, 71, 24, -67, 40, -54, -27, 27, -48, 37, -49, -47, -3, -34, -95, -64, 6, 42, -53, 2, -37, -35, -16, -28, 38, 22, 36, 38}
, {21, 60, -48, -13, -19, 3, 29, 53, -5, -15, 53, 66, -34, -30, -25, 24, 48, -54, 0, 49, 16, 54, 26, -63, -13, -51, 12, 54, -12, 79, 20, -4, 64, 47, 14, 27, -17, 11, 55, -29, -51, -23, 44, -50, -33, 70, 48, -55, 48, -79, -46, -38, 26, -49, -21, 63, 54, 16, 11, 69, 21, -56, -29, 71, -52, 60, 21, 66, -28, 47, 58, -2, -47, 12, -29, -4, -49, -22, -45, -2, 63, 13, -63, 25, 80, 46, 50, 1, 12, -39, -12, 9, 73, -12, -70, -16, 28, 4, -42, 33}
, {-49, 23, 38, -39, 40, -34, 26, -49, 75, 13, -67, -21, 39, 43, 37, 19, 71, -53, -34, -54, 80, -52, -39, 2, -42, 24, -11, -73, -36, -3, -9, -39, -33, 8, 43, -65, 24, 45, 37, 50, 27, 70, -50, -34, 45, 44, -40, 55, -8, -9, 62, 43, 12, 49, 7, -27, 46, -35, 4, -63, -13, 39, 62, -52, 6, 1, 61, -47, -27, 5, 32, -25, 57, -43, 77, -32, -34, 56, -33, 54, -35, -24, 34, 4, -24, 92, 90, 23, 25, -65, 1, -28, -50, -17, -24, 58, 33, 12, 36, 17}
, {-42, 21, 39, -32, -32, 23, -4, 26, -83, -61, -20, -41, 64, 30, 18, -19, -79, 22, 5, 55, 5, -58, -44, -59, -45, -50, -18, 5, -39, -60, 7, -48, 59, -26, -7, -15, -60, -60, 1, 4, 14, 49, 35, -46, -53, 26, -44, 5, -40, 12, -7, 63, 46, -42, 39, -29, 8, -19, 53, 24, -56, -44, 41, -41, -23, -39, -2, 51, -49, 30, -19, -29, -33, -62, -38, -60, -69, 30, -50, 77, 35, 33, 31, -47, -10, -11, 24, 58, 85, -23, -11, -56, -20, -16, -23, -73, -75, 65, -36, -12}
, {-17, -28, 5, 16, 20, 65, -8, 8, -73, 56, -72, 1, -52, -70, -107, -73, -61, 86, -39, -38, -82, -21, -61, -19, -17, -47, 33, 76, -27, -27, 0, -4, 75, 46, 31, 42, -53, -6, 3, 6, -63, -89, -76, -61, -62, -38, 36, 56, -19, -69, -44, 73, 2, -23, 26, 55, 73, -47, -40, 5, 10, -63, -92, -17, -7, 63, 83, 52, -12, 68, 30, 74, 7, 28, 10, 36, -79, -23, 55, -77, 30, 33, -44, 24, 11, 17, 40, 19, 28, 72, 21, 60, -56, 31, 11, 41, -1, 60, 83, -1}
, {-17, 64, 56, 19, -46, 7, 18, -57, 12, -26, 28, 4, -30, -5, 32, 81, 71, 14, 18, -1, 16, -19, 13, 54, -54, -1, 65, -32, -71, -11, 74, 6, -13, -10, -43, 73, 64, -17, 3, -28, 6, 45, 63, 57, -31, 21, -48, 22, -19, 26, -51, 65, 73, 40, -61, 55, -69, -12, 61, 44, -35, 33, 64, -22, -83, 7, -69, -61, -41, 28, -19, -48, 28, 4, -10, -4, -22, 17, 42, 70, -37, -40, 14, -36, 46, 72, 18, -42, -83, -23, -5, 59, 48, -39, -29, 68, 11, -50, 29, -22}
, {33, 29, 26, -26, 6, -62, 64, 44, 30, 20, 12, -11, -13, -52, -64, 3, 51, 63, -36, 37, -76, -38, -17, -20, -1, 44, 61, -26, 28, -24, -25, -38, -71, 10, -71, 55, -46, 41, -58, -54, -41, -58, -58, 64, -66, 21, 16, 38, 7, 41, -36, -55, 56, 51, -18, -39, 49, 46, -21, 12, -70, -5, -13, -42, -58, -5, -21, 75, 62, -57, -43, 49, 1, -7, -22, 1, 14, 50, -21, -48, 18, -57, -9, 62, -15, -29, 16, 52, 41, 0, -72, 30, 13, 25, 66, 64, 55, -16, 38, 31}
, {-50, -3, -51, 79, -26, 74, 33, 35, -25, -71, 1, 47, 21, -70, -65, -61, 66, 15, 22, -9, 30, -70, -21, 17, -29, 54, -49, 15, 43, -42, -18, 21, 12, -48, -52, -23, 15, -33, 13, 45, -46, 23, -38, 10, 27, -48, 31, -41, 53, 44, -32, -61, -39, 16, -29, -21, 42, -16, -30, 35, 27, -34, -84, -79, 1, 0, 32, -83, 23, -36, -27, 29, 32, 43, -5, -45, -82, -56, -17, -85, 38, -15, -58, 16, -66, 2, -28, -68, -22, -54, -68, -16, 20, 20, -32, 55, -45, -67, 13, -62}
, {5, -30, -40, -3, 50, 51, -63, -36, 19, 18, 66, -30, 66, 67, -57, 71, -13, -46, -6, 20, 6, 50, 26, 53, -43, -73, 27, -30, -15, 12, 12, -37, -38, -63, -41, 6, 63, -61, 45, 70, -66, -65, -55, -43, 24, -49, 44, 18, 34, -54, -28, -43, -51, 8, -52, -48, 37, 43, -39, 4, 6, 46, 41, -61, -77, 6, -59, -68, 3, 21, -26, 49, 35, -54, -9, -36, -40, -39, -75, 0, 36, -62, -19, 54, 4, 13, -19, 34, -61, -73, 39, -69, 25, 49, 33, 32, -48, -24, 25, -60}
, {-65, 48, -38, 33, 14, 69, 46, 24, -37, 28, 50, 22, -73, 60, 25, 15, -47, 66, -57, -58, 37, -74, -35, 2, -7, 27, -14, -28, -58, -56, -82, 2, -44, 31, -50, -9, 27, -69, -34, -20, 24, 43, 57, 61, 6, -9, 25, -1, 1, -11, -22, -55, 31, -25, -30, -8, 61, -7, 42, 34, -33, -39, -91, -74, -58, -27, -32, -35, -61, -3, 47, 4, -5, 60, 18, -9, 12, 26, -51, 32, -62, 63, -62, -28, -85, 26, -79, -64, 38, 21, -63, -34, -39, -5, -14, 64, -6, 32, 66, -51}
, {-30, -72, 80, -41, 82, -6, 53, -48, 9, 30, 17, 43, 23, 23, -52, -17, -54, 55, 26, 63, -11, -30, 39, -14, -2, -73, 26, 23, -76, 36, -3, -38, 52, -30, 27, -23, 51, 31, 70, -2, 44, -43, -40, -41, 38, -83, -36, 21, 43, 0, 54, 34, 14, 2, 33, -10, 31, 54, -20, -43, 57, -18, 58, 54, 14, -21, -47, -64, -40, 22, 55, 71, 52, 1, 30, 47, -18, 36, -12, -17, -13, 12, -42, 25, 32, -42, -62, 9, -52, 43, -64, -98, -20, -45, 30, 7, 17, -49, 23, -15}
, {-35, 30, 37, 7, -14, 30, 28, -21, 3, 15, -39, 26, -56, -56, -29, 62, 14, 28, -42, -49, -17, 63, 63, 29, 47, 30, 10, -47, 39, -10, -78, -40, 10, 36, -44, 17, -1, 27, -18, 35, -32, 48, -73, 4, -58, -9, 8, -10, -30, 72, -71, 16, 13, -46, 59, -38, -13, 11, -42, -12, 3, 15, -67, 46, 52, -46, 56, -66, -76, 27, 41, -3, 23, 70, 41, -77, -81, 42, -26, 4, 21, -1, 45, 1, -62, 25, -7, 40, -44, 6, -57, 19, -78, 50, 1, 59, 5, -23, 29, 26}
, {-3, -13, -64, -29, -20, 37, 35, 1, 96, -20, 34, 101, 44, 30, 79, 70, 45, -59, 63, -18, 30, -34, 52, -1, -3, -65, -6, -14, 30, -5, -47, -57, -20, -62, -1, 39, 23, -50, 39, -55, -9, -22, -18, -57, 62, -58, -98, -68, -54, 18, 12, 3, 47, 33, 51, 67, -8, -44, -29, -35, -33, -18, 19, 20, 32, 30, 4, -32, 53, 2, -71, 53, -89, 0, 18, 3, 65, 14, 44, -55, -80, -81, 8, -69, 36, 5, -53, 46, -69, -10, -46, -71, 5, -74, -40, 31, -46, -38, -92, -49}
, {50, -59, 16, 4, -69, -71, -4, -62, 51, -58, 40, 66, 28, 16, 37, -16, -36, -72, 55, 55, 26, 51, 40, -61, 6, 35, 30, -68, 66, 8, 46, -35, -39, 3, 15, -25, 61, 41, 37, -58, -72, 35, -37, -50, -8, 17, -27, 55, -21, 69, 50, -59, -34, 15, 5, -51, 22, 66, -10, 52, -50, 22, 37, -40, -21, -55, -33, -40, 70, 17, -29, 38, -42, -38, 43, -43, 34, 5, -54, -20, 26, -8, 1, 39, -31, 58, 11, -22, -15, 25, -71, -53, -44, -58, -41, 22, -21, -48, -62, 40}
, {52, 43, -20, -29, -23, 31, 36, 9, 43, -76, 30, -25, -57, -25, 17, 6, 30, 16, 46, 17, 1, 22, -78, -62, 42, 41, 51, -5, -78, 28, -75, -16, -59, 3, -59, 30, -18, 49, -47, 52, 7, 55, -33, 53, -36, -1, -36, -56, 50, -11, -8, -36, 62, -42, 6, -63, 36, 72, 28, -78, 52, 15, 44, -19, 22, -49, -4, -22, -48, 56, -52, 14, -80, -40, -29, 47, 16, -47, -58, 41, -51, -81, -54, 24, 50, 10, -25, -20, -31, 37, 12, -78, 60, -57, -17, 10, -59, 63, 41, 52}
, {-18, -50, 6, 32, 72, -32, -44, 62, 89, 42, -17, -16, 33, -76, 26, 6, -71, 67, -9, -1, -80, -54, 5, -53, -9, 43, 33, -12, 9, -49, -72, -56, -52, -25, -47, -22, 29, -43, 15, 34, 8, -3, 7, 55, -36, 64, 1, -1, -56, -63, -31, -2, -109, -52, 34, 40, -19, -14, -12, 34, 25, -68, 6, -73, 75, 54, -78, 5, -22, 30, -3, -72, -31, -40, 49, -32, -79, -21, 3, -81, -73, 22, -45, -31, -5, 2, -61, 42, -31, 74, 91, 0, -39, -49, 23, -36, -55, -41, 76, -36}
, {3, 19, 38, -78, -87, -54, -59, -24, 65, 21, 13, -25, 7, -139, 36, -96, 10, 82, -69, -4, 118, -66, 75, -55, -6, 74, -43, 60, 10, 40, 73, -74, -55, -32, -42, 35, -30, 62, 115, 37, 27, -24, -13, -67, 57, 57, 27, 14, -66, -32, -12, -81, 19, 65, -51, 24, -11, 7, 35, -12, 14, -24, 99, 25, 0, 12, 3, 41, -95, -12, -79, -78, -15, 32, -16, 68, 30, -78, -114, -40, -45, 72, -38, 4, 20, 15, 64, 36, 86, -51, 88, 57, 60, -1, -4, 31, 34, -61, 21, 0}
, {54, 14, 48, -63, 62, 57, 52, 3, -42, 33, 12, -14, -28, -23, 27, -10, 64, 22, 44, -1, 24, 23, -50, -29, 65, -43, 39, 35, 1, 9, -29, 0, -32, 31, -12, 33, -57, -32, 51, -44, 6, 14, -43, -42, 47, 34, 7, -28, 61, -41, -37, -59, -49, 54, 14, -10, -26, -50, 28, 1, -55, -56, -70, -58, -27, 29, -42, -71, -47, -63, -20, 67, 50, -11, -38, -60, -17, 15, -2, -45, 23, 55, -64, -7, 10, -35, -57, -44, -43, 44, -38, 7, -36, 7, -9, 13, 13, 56, 47, 28}
, {59, 49, 27, 26, 2, -34, 27, 44, 29, -33, -57, -49, -13, -30, -59, -12, -58, -43, 14, -21, -14, 35, 62, 36, 32, 77, -70, 42, -66, 12, -65, 37, -7, -49, -31, 5, -63, -67, 51, 63, -59, -48, -64, 38, 73, -55, 42, -60, -40, -55, -63, 62, -62, 18, -29, 10, 47, 26, 78, 24, -45, 25, 10, -9, 11, -9, 1, -38, -38, 46, 42, 26, 53, 61, 5, 24, 33, 35, 24, 47, -70, 60, -15, 71, -65, -67, -23, -3, 65, -26, 27, 55, -19, 4, -35, 28, -20, -61, 19, 13}
, {-55, 55, 42, -15, -65, 25, 28, -15, -42, -25, -20, -14, -37, -77, 58, -53, -9, 45, 59, -63, -78, 41, -21, 50, -71, -24, -1, 47, 20, -38, 42, 38, 24, -66, 35, 40, 24, -3, -31, 18, 0, 6, -65, -58, 28, -68, -16, -50, 0, 65, 8, -14, 2, -33, -62, 5, -1, 27, -27, -33, 44, 63, -50, -74, 70, -30, -40, 52, 25, 41, -12, -80, 60, 84, -1, -73, 49, -15, 57, -9, 9, -51, -21, 36, -17, -19, -56, -40, 7, 56, -7, -17, 68, -81, -4, 17, -27, 27, -28, -57}
, {-51, 52, -17, -30, 21, -13, -30, -42, 72, -50, 42, 20, -30, -26, -30, 64, 79, -87, 9, 34, 39, 0, -14, 53, -76, -75, -49, 40, -74, 15, -37, -67, -62, -43, 12, -14, -37, -31, 35, 33, -65, -31, 36, 53, -65, 31, 14, -53, -55, -40, 9, -20, 52, 72, 14, 61, 39, -6, -37, 56, -35, 25, 86, -49, 31, -2, 39, 75, 72, -24, -41, -59, 22, -70, -51, 0, 87, 0, -80, 17, 54, -56, 48, 35, -38, 55, -6, 50, 46, -106, -1, -64, -16, 55, -54, -62, 25, 42, -36, 30}
, {-56, 2, -2, 55, 21, -4, -27, 31, 50, -67, -81, 41, -57, -10, -37, -16, -5, 1, 81, 60, 43, -9, 45, 32, 21, 4, 48, 19, -76, -40, 7, 16, -58, -32, -10, -64, -8, 34, -69, -56, 55, -10, -52, 33, 9, -35, -41, -48, 45, -54, -36, -33, -29, -16, 62, 21, 41, 48, 22, 10, -33, -63, -70, -65, -52, 57, 37, 48, -59, -68, 38, -30, -20, -33, -14, 42, 36, 44, -22, -53, 52, 30, -47, -2, -5, -2, 43, 40, 53, -38, 20, -74, -16, 25, -10, -22, 0, -26, 14, -37}
, {-24, -12, -33, 50, -52, -76, -3, -12, -65, -11, 22, -56, -8, -26, 20, 47, 62, -56, 54, -46, -41, -2, 15, -19, 47, 17, -15, -30, 56, -60, 55, 61, 43, -6, 2, 11, 53, -51, -36, -19, 35, 39, 56, -36, 37, -79, 22, 27, -49, 16, -32, -2, -67, -6, -66, 60, 2, -14, 60, -42, -7, -33, -59, 66, -14, -6, 35, 59, 4, -32, -9, 72, 22, -33, -33, 35, 16, 27, 8, 8, 68, 7, -54, 52, 25, 6, 70, 21, 38, 66, 17, -18, -8, -48, -9, 67, -51, -55, -24, 21}
, {49, 66, 67, 31, -54, 60, 33, -4, 53, 49, -78, 37, -29, -26, -66, 26, -17, 10, 62, 53, -8, 18, -55, -2, 23, 59, 56, -11, -7, 58, 53, 30, -20, -19, -26, 31, -80, 34, 28, -16, 32, 29, -55, 75, -13, -50, -67, 19, -24, 74, 62, -33, 35, -28, 29, 1, 57, -2, -76, -48, -24, -70, -16, 32, -2, 68, 65, -11, 21, 29, -57, -7, -73, -37, 10, 45, 20, 52, 11, -12, 52, 28, 69, -11, -22, 3, 36, -21, 44, -58, 3, -52, -49, 58, -16, -73, -41, 36, -26, 19}
, {-21, -22, 22, 12, -42, -19, 45, 4, 10, 17, 57, 10, 32, -58, 57, 0, 0, -43, 3, -54, 15, 12, 20, 21, 85, -27, -34, 61, -9, 47, 21, -19, 70, -54, -54, 49, 1, -3, 13, 57, 48, -68, -22, 44, 16, -74, -30, 31, -58, -51, 7, 5, -13, 59, 61, -10, 35, 63, 58, -54, -36, 32, 6, 6, -47, -31, -34, -16, -32, 73, -49, -27, -58, 5, 28, -75, 66, 20, -57, 20, -14, 52, 15, 26, -40, -24, 8, 53, 27, 39, 71, -38, 6, 43, 52, -24, -73, -43, -47, 53}
, {39, 39, -61, 36, -58, 62, -59, 0, -28, -6, 53, 37, 31, -46, -68, -57, 46, -51, 2, -61, 67, -2, -3, -24, 28, -6, -46, -11, -11, 16, -63, -56, 24, -83, 30, -34, 42, -44, -9, 49, -26, 60, 50, 34, -23, 41, 62, 46, -59, 23, 53, -27, -27, 41, -72, 12, -10, -60, 47, -10, 44, -13, -39, -48, 19, -15, -12, 10, 71, 49, 42, 65, 6, 45, -12, 49, -53, -2, 62, 7, 18, 19, -71, -14, 40, 41, 4, 38, -21, -20, -26, -59, -21, -27, -60, -14, 37, 5, 12, -61}
, {-21, 25, -20, -21, -41, -74, -33, -7, -8, 5, -6, 55, -30, -7, -76, -37, 29, -60, -77, -4, 19, -41, 61, -73, 45, 48, 54, -49, 8, -35, -42, -44, -39, 11, -10, -36, -19, 53, -17, 32, -45, -37, 0, -50, -71, 4, -53, -40, -22, 54, -66, -32, -1, 13, 23, -12, -46, -52, -24, 26, -36, 53, 37, -57, 67, -72, 47, -64, 54, 70, -78, 29, -53, -58, 22, -31, -55, -33, 55, -78, -34, -61, -10, 20, -6, -8, 1, -34, -47, 47, 54, 25, -1, -34, 57, -56, 58, 15, -21, 4}
, {-31, 24, -12, 44, 47, 23, -53, -3, 36, -53, 52, 28, 52, -3, -56, 37, 66, 5, 12, -21, -52, 32, -15, 10, -59, -4, -2, -49, -66, 12, -74, 3, 36, 50, 13, -32, 4, 16, -73, 69, -56, -43, -71, -5, 38, 42, -2, 44, 23, 15, -15, -51, 34, -14, 66, -24, -27, -78, 39, -21, 50, 7, 2, 30, -18, -35, -29, -29, 60, 40, -41, 28, 53, 36, 37, 17, -27, 21, 7, -28, -45, -28, -16, 38, -27, -20, -81, 23, 33, -8, 47, 9, 68, 26, -62, 63, 61, -19, 43, -70}
, {-51, -50, 74, -74, 19, -42, 9, 30, 67, 41, -33, -21, 26, -63, 59, 62, 0, -12, 4, -48, 1, 5, -31, -22, 57, 32, 57, -46, 36, -9, -32, -81, -18, 7, -73, -6, -20, -2, -35, -41, -38, 12, 25, -32, -31, -61, 58, -13, 63, -22, -2, 65, 49, -31, 46, 34, 25, -27, 65, 13, -18, -47, -30, -38, -86, -6, -76, 63, -16, -72, 6, -50, -67, -81, -49, -42, -19, 58, 11, 33, 60, 53, 68, 76, 49, 64, -66, 41, 50, -77, -13, -53, -49, -50, 53, 27, 51, 29, -27, 24}
, {45, 5, 7, 5, 3, 39, 17, 43, 51, -54, -66, -65, 33, -26, -58, -4, -69, 28, -56, -57, 57, 24, 10, -18, -38, -5, -41, 50, -32, 25, -34, -58, 25, 33, 48, -43, -45, -13, 56, -45, -14, -28, 46, -63, -16, 26, -67, 0, 4, -75, -44, -49, 2, 62, -74, 46, 4, -68, 15, 3, -28, 57, 10, -40, 50, 10, -61, 7, -9, -4, 31, 2, -72, 23, -10, -28, 45, 60, 38, -27, 5, 1, -33, 49, 36, -27, 64, 52, -9, -44, 44, -38, -55, -24, 30, 0, 39, 37, -29, -48}
, {61, -38, 36, 63, -42, -66, -1, 53, 42, 13, 40, 18, -14, 70, -50, 62, -50, 21, 4, 23, -40, -54, 36, 14, -15, 52, -27, 42, 23, 38, 17, -1, 35, -21, -22, -61, -6, -29, -23, 49, 71, 23, 35, 55, -62, 69, -34, 66, 67, -54, 68, 36, 67, 67, -22, 12, 9, -69, 66, 15, -65, 69, 45, -69, -37, 30, 69, 58, -43, 0, 67, 2, -35, -17, 47, 0, -18, -25, 3, -2, -48, -44, -4, -10, -34, 60, 52, 53, 0, 1, 35, 39, -8, 27, -47, -70, -41, -36, -72, -10}
, {-51, -15, -17, -28, 6, -65, -11, -45, 66, 7, 52, -11, 34, 30, 21, -55, -47, -13, -35, 62, 75, -42, 15, -58, 40, 19, -43, 37, -48, -39, -4, 14, -77, -61, -26, 3, -51, -54, 27, -33, 31, 36, 3, 54, 25, 0, -68, 3, 2, -17, 21, -68, 6, 88, -59, 59, 11, -47, 50, 88, -3, -44, 0, -21, 54, -54, -85, 2, 14, 3, 44, 2, 7, -22, 7, -15, 50, 58, -65, -36, -63, -45, -4, -67, -43, -66, 65, -65, -67, -88, 25, -47, -54, 37, 17, 59, -10, 40, 50, -62}
, {-52, -41, 47, -50, 64, 76, -34, -55, -36, -30, 39, -78, 14, -23, 21, 36, 44, -7, -21, -44, -55, 29, -57, 49, -47, -36, -22, -26, -2, 40, -18, -34, -61, -64, 3, -6, -5, -39, -2, -34, 62, 27, 4, -21, -30, 7, 57, 28, -57, -31, -14, -5, -24, -68, 74, -11, -2, -44, -31, 67, -44, 16, 33, -61, 9, 73, 47, 30, -55, -53, 45, -54, -26, 84, -41, 12, -18, -75, -35, -20, -33, -46, -52, -52, -17, 0, 27, -50, 16, 41, 40, -38, 25, -81, -42, -56, 71, 70, 23, -30}
, {-67, -66, -22, -52, 34, -25, 28, -49, 62, -16, -56, 69, -39, 1, 9, -20, -34, -7, 60, 27, -39, -38, 79, -53, 78, -34, 48, -36, 6, -22, 19, 25, -39, 53, -47, 70, 28, 10, 65, -79, 57, -14, -20, -55, -2, -9, -17, -32, 2, 46, 22, -1, 4, 80, 15, -12, 28, -31, -2, 35, 66, -23, -34, 81, -57, 4, 3, -16, -54, 45, -57, -17, 3, -45, 83, -54, 34, -56, 22, -27, 37, 39, -39, -30, -29, -13, 53, -46, -46, -47, 22, -47, -36, 36, -46, 63, 41, -78, 35, 30}
, {29, -30, -59, 17, 0, -54, 39, -36, -64, -64, -69, 2, -51, 49, -65, -55, -31, -16, 6, -60, -16, 15, -4, 58, -56, -34, -3, 34, 39, -29, -35, -46, -74, 72, 22, -29, -9, -76, -19, -5, -5, 8, 23, 32, 3, 5, -11, -46, -63, 60, -1, 5, 51, 12, 66, -2, 34, 17, 51, 81, -63, -65, 36, -62, 65, -40, 62, 42, -61, 62, -81, -8, 37, 29, 44, -67, -40, 18, 42, 42, -13, 0, -48, -16, 75, 38, 15, 28, -37, -55, -16, -27, -7, -38, 23, -11, -36, 63, 82, -60}
, {25, -51, 63, 35, -39, -58, 6, -25, 27, 37, -45, 50, 17, 28, -55, 42, 63, -66, -51, -45, -44, 34, 47, 61, -10, 6, -69, 41, 55, 37, 0, -41, -11, 45, -37, -64, 31, -64, -38, -6, 35, -54, -49, 30, 63, -62, 41, -16, -62, 61, -55, 3, -33, 34, 1, -1, -3, -63, 20, -8, -60, 55, -54, 9, -37, 23, 54, 32, 19, 41, -64, -10, -71, 31, -46, 50, 56, -15, 50, 1, 30, -53, 22, 47, 12, 37, 46, 59, -24, -48, 13, -5, -12, 2, -23, 30, -4, -38, 22, -26}
, {4, -4, 23, -1, 10, 8, -14, -83, -102, -71, -3, 99, 37, -42, 11, 41, -10, -78, 11, 50, 21, 74, 51, 19, -62, 62, 88, -46, 0, 99, 37, -5, -41, -57, -23, 103, 56, -18, 54, 18, 49, 122, 22, -61, -28, -6, -22, 44, 87, 20, -45, 84, -33, -7, -36, 69, 45, -80, 61, -1, 104, -27, 56, 52, -54, 7, -26, 90, -81, 41, 3, -83, 48, -27, 52, 3, 26, -11, 12, 120, -25, -69, -30, -34, -115, -45, -91, -111, -129, 21, -102, 73, 13, 1, 107, -53, -25, -37, -30, -105}
, {26, 40, -34, -31, -64, 24, 38, -12, 31, -24, -56, -61, -14, -53, 39, 7, 72, -27, 34, 49, -15, -44, 29, -21, 65, 10, 42, 59, -40, -50, 48, 7, 60, -25, 57, -34, -59, -2, 4, 28, 45, -3, 29, -17, -7, -35, -58, 58, 69, -63, 17, -25, 57, -63, -35, 37, -61, 5, -40, 51, 28, 41, 36, 8, 71, -8, -18, 15, -23, -27, 51, -51, 12, 71, 44, 2, -7, -45, 15, 73, 67, 17, 31, 23, -35, -65, -34, -66, -54, 61, 30, 60, -52, 63, -27, 63, -33, 31, 60, -4}
, {71, -23, 0, -42, -16, 28, 5, -57, -9, -32, -62, -62, 9, -56, 58, -20, 68, -32, 64, 1, 55, 71, -36, -20, 26, 6, -40, -71, -38, 19, -26, 7, 42, 43, -14, 8, -48, 18, -43, 16, 48, 71, 62, 0, 25, -66, -63, -34, -10, -47, -69, 31, -14, 65, 41, -48, 4, 11, -52, 68, 13, -10, -71, -27, -32, -12, 37, 64, 32, 18, -11, 63, -64, -5, 46, -58, 22, -68, -49, 67, 27, 54, -7, -37, -31, -10, 33, 18, -51, 68, -6, 59, -44, -25, 72, 21, 41, 42, -9, 18}
, {36, 75, -74, -52, 54, -51, -27, 1, 33, -27, 68, 59, -17, 57, -62, 57, -29, 2, -9, -57, 19, -40, 77, 10, 79, 20, 41, 73, 3, 43, 56, -12, -23, -31, -44, 75, 22, 37, 58, -47, -48, 22, 28, 62, -50, 79, 36, -39, 54, -23, -18, -69, -55, 68, -32, 7, -61, -52, -12, 29, 70, 67, 30, -52, -56, 4, -10, 52, 55, -34, -35, -32, -72, 7, -24, 45, -16, 34, -51, -50, -28, 50, -59, 43, 45, -11, -20, -62, 22, -5, -36, -6, -19, 29, -63, -49, -9, 73, 42, -14}
, {0, 35, 66, 54, -51, -15, 77, 50, -3, 15, -18, -9, 35, 57, 50, -46, 37, 25, 25, 51, -59, 24, 67, 18, -33, -2, -20, 16, 24, -10, -32, 36, -25, 59, -15, -10, 35, -59, 0, -20, 19, -17, -4, -52, -43, 16, 73, 72, 41, -20, 43, -44, -76, 54, 71, -19, 67, 1, 50, -41, -33, 80, 52, 7, 12, -9, -37, 28, -22, -37, 46, -83, 74, -9, -26, 16, 14, 53, 29, -14, -45, -66, 52, 0, -67, -86, -27, -19, 58, 21, 70, 22, -15, 41, 0, 40, -20, 1, 80, -38}
, {-16, 8, -26, -12, 64, -32, 54, 13, 46, -23, 66, 29, 78, 9, 25, -64, 60, -19, 18, -27, 24, 65, -21, -2, 45, -10, 6, 50, -50, -25, -47, -30, 10, -27, 0, 28, 1, -60, 0, 59, 56, 36, -65, -19, -21, 26, -44, -73, 13, -30, -5, -76, -30, -32, 40, -1, -44, 6, 22, 32, 71, -33, 29, 48, -62, -37, -4, 34, 8, -8, 44, 28, -28, 4, -8, -22, 68, 23, -26, -22, -68, 53, 40, 47, 93, 108, -63, -2, -50, 43, 45, -48, -40, 13, -3, 52, 53, 19, 42, -5}
, {-59, 28, 31, -56, 36, -65, -60, -36, -1, 59, -55, 39, 15, -69, -29, -10, -26, 76, 5, 0, -47, 61, 21, 69, -45, 38, 22, -18, -56, 4, 20, -20, 5, -43, -76, 25, -59, 23, -61, 23, -75, -23, 52, 0, 8, 75, -12, -69, -69, -45, 61, 64, 16, 23, -26, -30, -52, 42, 23, 37, -57, 3, -51, 31, -26, 42, -59, -34, -37, 36, -42, 4, -65, 78, -35, -75, -40, -79, 11, 33, -48, -58, -80, -20, 28, -10, 16, 10, -88, -30, 30, -19, -67, -70, -49, -13, 10, 32, 59, -50}
, {22, 54, -73, 13, -63, -61, 7, 37, -45, 1, -30, -20, -65, 18, 68, -19, -52, -67, 79, -62, -4, 75, -24, 34, -28, -38, 34, 31, -5, -26, -59, 23, 60, -35, -10, 65, -32, 42, 4, 5, 2, -68, 43, -57, 22, -42, 22, 39, -13, -27, -68, 30, -41, -9, 53, -57, 1, 6, 66, -31, 32, 17, 31, 45, -27, 11, -65, 20, 10, -16, -28, 10, 0, 44, -31, -42, 11, 53, -7, 34, 34, 64, -42, -10, -46, -25, -17, -46, 56, 20, -25, -51, -31, 70, 16, 40, 41, 52, -24, 26}
, {-16, -9, 34, -31, 30, -27, 73, 45, 2, 43, 3, 16, -46, -44, 4, 14, -66, 12, 7, -21, 81, -16, -57, 58, 56, 34, -1, -38, 16, 0, -50, -61, -32, 58, 6, 38, 65, 46, 35, 27, -31, -20, 45, 75, -71, -26, 46, -67, -39, -3, 60, 2, 5, 70, 40, 53, 47, 96, 83, 4, 13, 71, -34, -19, -33, -16, -47, -13, -48, 51, -5, -51, -30, -44, 27, 58, -44, 40, -22, 16, -35, -18, 46, 65, 14, 11, -13, 34, -15, 23, -10, 6, 24, -43, -10, -61, 60, 46, -47, 38}
, {-10, 0, 7, -43, -53, -60, -53, 70, -6, -78, 8, 11, -13, 63, -48, -4, 14, -32, -17, -59, 38, -20, -27, -21, 14, -75, -20, -48, 40, -73, -38, -53, -39, -78, -15, -27, 0, 27, 27, -25, -29, 49, 13, 15, 37, -6, 67, 20, -12, -2, -24, -38, -29, 15, 1, -53, 4, 50, -54, -72, 54, 2, -11, 36, -66, -47, 2, -46, -3, 1, -52, -16, 6, -14, 0, 53, -32, -21, -29, 20, 0, -15, 21, 29, -55, 78, 32, -73, -28, 0, 19, 40, 67, 3, 32, 56, 4, 13, -42, 34}
, {12, -26, -52, -65, -2, -71, 34, -19, 32, 63, -42, -33, -49, -31, 36, -16, 23, 3, 59, 53, -64, -2, 53, -52, -20, -20, -59, -2, 28, -20, 24, 44, 51, -72, 26, 71, 61, -44, 56, -52, -43, -74, 64, -36, 2, -41, -63, 22, -52, 32, 57, -33, 54, 0, 50, 53, 56, 46, -10, 19, -59, -1, -25, -31, -39, -29, -7, -76, 30, -44, 7, 60, -37, -18, -30, 22, 31, 58, -28, -57, 60, -8, -66, -23, -50, 19, 19, 0, 61, -3, 25, -51, -33, -50, 65, -35, 26, -71, 45, 49}
, {-56, -33, 42, 31, -25, -35, 19, 35, 66, -26, 2, -58, -47, -40, 2, -7, 32, -34, 21, -69, 15, -68, 61, -64, 15, -41, 23, -2, -65, -6, -74, -68, -17, 67, -35, 42, -26, 7, -47, 28, 2, 24, 56, 36, 8, -22, 36, -33, -5, 20, -17, -10, -15, 40, 50, 41, -52, -13, 42, -49, -63, 16, 46, 4, 56, 43, -22, -28, -19, -56, -29, 12, 3, 44, -71, 14, 26, -41, -47, -23, 46, -43, 0, 50, -72, -35, -33, 8, -41, -33, -51, 11, 16, -72, -11, -24, 10, 17, -48, 42}
, {57, 14, 39, -36, 0, -15, -51, -5, 34, -10, -26, 43, 8, 24, -32, 72, 4, -17, -53, 22, -18, -3, 17, -59, 35, 13, 58, -69, -27, 52, -35, 5, -65, 13, 8, 54, -64, -61, 9, -45, 60, 58, -33, 22, 12, -35, -44, 12, -53, 32, -49, 43, -66, 43, -36, -26, -32, -67, 22, 70, -70, -53, 17, -44, -28, -69, -53, 42, 0, -59, 25, -71, 20, 11, -30, -65, 59, -71, 62, -19, -48, -9, -29, 21, 70, -13, 2, -32, 23, -20, -50, -70, 53, 12, -13, 51, 59, 13, -43, 15}
, {-56, 53, 22, 55, 48, 0, 74, 43, 10, -2, 55, -21, -68, 48, 46, -43, 13, 85, -78, 26, -69, 4, 46, 26, -66, -33, -48, -16, 75, 85, 1, -29, -73, 76, 41, -25, -26, 61, -29, 17, -61, 46, 23, -21, -9, -14, -31, -46, 66, 64, 28, -17, -78, 52, -50, 6, 42, 40, -28, 40, 61, -37, 46, 49, -27, -49, 25, 1, 21, -45, -9, 49, -52, 19, 38, 13, -6, 39, 45, 12, -2, 18, 58, -28, 25, 27, -60, 28, -3, -16, 55, 29, -25, -53, -27, -37, -53, 61, 63, 9}
, {33, 36, -59, -14, -9, 58, 55, -38, -3, -76, -56, 66, 53, -20, -20, 24, 42, -58, -36, 63, -71, 56, 0, -61, 0, 10, 18, 52, 56, 61, 33, 0, -67, -30, 4, -38, -37, 34, -57, -50, 37, 1, -57, 42, -48, -11, -14, 30, 79, 52, 45, 65, -35, -25, -19, 2, 0, -46, -48, 52, 30, 30, 65, -16, -54, 73, 26, -38, -61, 14, 33, 30, -60, 34, 53, 48, -66, -29, -35, -13, 23, 70, -34, -22, 31, 36, 68, -77, 16, -4, -60, -15, 66, -29, -44, -27, 69, 68, 38, 44}
, {-19, -66, -42, 11, 45, 45, -19, 64, -28, -10, 73, -45, 10, -58, -6, 76, -24, 64, 11, -5, -38, -10, 46, -16, -7, -10, -44, -26, 0, 80, -71, -61, 17, -6, 25, -63, 69, 70, -49, 23, -63, -60, 8, 38, 48, 17, 34, 62, 36, -37, 33, -26, -58, -22, 50, -46, 57, 4, 61, 60, 11, -42, 48, -70, 32, 58, -66, -10, 51, -79, 14, -34, 0, 23, 47, 72, -32, -17, -50, -20, 48, 21, -57, 51, 34, -39, 13, 22, -41, -49, -32, 13, 68, -38, 35, 21, -30, 37, 2, 0}
, {0, 6, 60, 54, 26, -13, 18, 60, -17, 17, 53, 58, 48, -60, 67, 62, -40, -45, -71, -1, 53, -49, -50, -21, 33, -16, 81, 78, -26, -40, -39, 73, 12, -39, -54, 52, -43, -13, -58, -11, 72, 7, -36, 73, 42, -28, 73, -7, 66, -65, 5, 26, 9, -60, 81, 5, -60, -8, 67, 0, -5, -56, 60, -15, 6, -69, 3, 25, 12, 16, 56, -6, 54, 4, -48, -10, 44, 13, -60, -64, -34, -23, 0, 1, -10, -65, -74, 0, 13, 59, 17, -32, -27, 26, -40, -61, -35, -34, 6, -33}
, {-33, 34, -41, 7, -38, 24, -9, 32, -79, -70, -12, -15, -68, -18, 12, 20, 33, 80, -30, 9, -49, 49, -69, -21, -15, 22, -11, -9, -15, -17, 57, 8, 51, 79, 45, -27, 49, 28, -1, 31, -63, 13, -37, -46, -81, 18, -8, 20, -56, 17, -46, 30, 43, -3, -26, -49, 41, 37, 45, 47, 61, 55, -41, 22, 69, 29, 3, -6, -33, -29, 1, 44, 0, -43, 29, 34, -18, -76, -46, -5, 25, 5, -68, -88, -48, -72, -61, -66, -54, -50, 17, 64, 32, 62, 56, 11, -63, 22, 12, -17}
, {-28, 70, 48, 47, -22, -15, -81, -67, -67, 64, 11, -71, 73, 58, -48, -73, 12, 33, 68, 48, 15, -28, 50, -45, 8, 14, 1, -65, -35, 45, 5, 61, -7, -16, 62, 66, -41, -47, -28, -32, 31, -55, 30, 65, 50, -58, 13, -62, -4, -22, -4, 10, 45, 34, 12, -24, 2, -41, 27, 7, -57, -9, -49, -36, 38, 57, -31, 65, -48, -6, 15, -4, -27, 62, 45, 58, 58, 41, 58, 37, -50, 76, 58, -4, 31, -49, 17, -65, 19, -18, -71, -58, -30, 41, -31, 5, -74, 35, 55, -23}
, {-65, -21, 21, -45, 23, 79, -32, 67, -28, 59, -35, 46, 52, 63, 19, -72, 20, 54, 49, 18, -7, -66, 26, -38, -23, -12, -25, 34, -68, -26, 66, -7, 18, -24, -25, 62, -4, 51, -60, 18, -66, -30, -56, 40, -14, -1, 16, -40, 11, -36, -46, -68, 0, 48, -4, -64, 19, -25, 31, 40, -66, -63, 2, 74, 16, -19, 15, -22, -24, 73, 10, 23, 76, -24, -4, -31, -42, -17, 24, 17, -43, 95, 0, 48, 56, 17, 16, -22, 16, 2, 38, -26, 0, 0, 20, -31, 29, -40, 82, 43}
, {-60, -1, -54, -31, -51, -43, 38, 28, 18, -67, 20, 42, 38, -50, -40, 15, 0, -17, -46, 69, 30, -36, 36, 56, -7, 63, 51, -45, 10, -41, -1, 21, 36, 12, -2, 42, -20, 38, -19, -64, -11, -36, 61, 46, -5, 35, -49, 20, -48, 53, 5, 40, 22, -16, -39, -53, -14, 12, -48, 56, 0, -1, -17, -40, -59, 20, 37, -29, -63, -4, -76, 53, -45, 55, -66, 23, -12, -58, -36, 17, -16, 52, 40, 38, 2, -93, 5, 43, -43, -16, -23, -25, -79, 16, 59, -33, 2, -7, 64, -46}
, {53, -53, -4, 38, -32, 0, -30, 61, 34, -23, 56, 19, -62, 28, 33, -29, -30, 64, -55, -13, -60, 68, -62, 51, -43, 44, -30, 55, 8, 66, -2, -19, 15, 28, -66, 30, 8, 71, 14, -39, -49, -63, 45, 37, 18, 21, -5, -42, 53, 47, -46, 59, -70, -69, -33, 2, -69, 40, -44, -4, -11, -23, -68, 43, 40, 67, -34, 71, 17, -50, -2, -19, -40, 67, 0, -33, 52, -33, 6, -50, -62, -28, 52, -12, -5, -15, 65, 37, 20, -50, -59, 17, 28, -36, -64, -22, -34, 64, 21, 34}
, {-42, 11, 36, -16, 4, -25, 54, 39, 58, 27, -58, -17, -27, -34, -51, -57, 68, -40, 65, 3, -21, 0, -11, -30, 79, 37, -47, 48, 2, 29, -47, 1, -59, -67, -25, 44, -28, 78, 9, 58, 27, -36, 62, 38, -59, -85, 7, 46, -3, 15, -28, -46, 67, -55, 66, 59, -2, 44, -47, -64, 23, 24, 73, 25, 13, -17, 22, -46, 35, 47, -51, 73, -1, 6, 40, 29, 5, -49, -79, -20, -56, -31, 44, 25, 26, 36, 71, -18, 77, 34, -68, 11, -5, -50, 1, 58, -5, -66, -31, 31}
, {-43, 51, 64, -49, 89, 72, 9, 37, 62, -18, -12, 11, -4, 20, 50, 42, 38, -61, 32, -50, 13, -84, -16, -67, 48, 41, -94, -53, -59, -41, -51, 21, 1, 63, 13, -9, 58, -43, 11, -43, -31, -44, -76, 29, -46, 56, 8, -58, -35, -62, -10, -38, -59, -25, -6, -19, -6, -54, -31, 10, -20, 4, 27, 34, -17, 69, -19, -37, 20, -55, -1, -40, 54, 48, 60, 66, 9, -44, -6, -34, -32, 60, 50, 43, 19, 6, 59, 21, 73, 38, -11, -11, -24, -68, -23, -51, -66, 5, -31, 15}
, {-25, 67, 12, 38, 31, 76, 12, 24, 12, -9, 21, 78, 3, -32, -2, 81, 71, 17, -41, -49, 0, -45, 57, -37, 49, -29, -43, -45, -26, 13, 24, -43, -68, 5, -70, -53, -22, -38, -34, 45, 22, 6, -24, 44, 64, -69, -32, -28, 26, 5, 67, 14, 50, -65, -30, 15, 47, -3, -57, -52, 73, 23, -17, 25, 6, -80, -24, 60, -5, -12, 22, 31, 15, 9, -56, -23, -31, -51, -36, 13, 3, -45, -7, -52, -32, 2, 10, 31, 31, -12, -49, -50, -44, -21, -20, -45, 2, -41, 40, -38}
, {-16, 63, -34, -26, -39, -11, -54, 28, -1, -34, 2, 66, -27, -41, 12, 41, 78, -26, 71, 47, -10, 15, 65, 22, 78, 56, 0, 24, 19, -17, 62, -48, 0, -11, 78, 21, -46, 72, -60, -4, 23, -43, -45, -10, 8, -25, 2, -21, -59, 17, -60, 49, 56, -17, -12, 24, 39, -13, 33, -63, 60, -36, 76, 50, -70, 31, 67, -47, 0, -12, -39, -44, -17, -52, 8, 69, -14, 17, -4, -49, 41, -50, 64, -44, 10, 11, 65, -11, 69, -42, 35, -28, -72, 16, -20, -35, 49, -26, 25, 2}
, {-4, 16, -58, 59, 48, -3, -37, -11, -68, -4, -26, -57, 43, 24, 63, -29, -17, -8, -82, -73, 26, 48, 54, 20, 50, 12, -11, -46, -53, 18, 35, 68, -4, -13, -48, 23, 68, -52, -26, 71, 8, 36, -44, -4, -38, -5, 54, 32, -24, -10, -15, -71, -20, 41, -52, -61, -44, -4, 4, -77, -3, -13, 24, -16, -37, 62, -11, -47, -41, -43, -15, 13, 59, -16, -20, -19, 54, 53, 58, -47, -18, -41, 14, 14, -68, 30, 56, 40, 63, -10, 38, 56, -19, 21, 63, -22, 2, -52, -48, 18}
, {8, 0, 63, -2, 3, 32, 41, -26, 11, -50, -45, 44, -46, 40, 58, -13, -14, 44, 17, 45, 43, 52, -80, 9, 48, -4, -40, 40, 61, 64, -52, -17, 24, 38, -9, -58, 19, 62, -16, 12, -51, 74, -37, -9, -58, -26, 26, 59, 56, -70, -12, -11, 9, 29, -59, -18, 10, 49, 11, -39, 45, 42, 43, -80, 11, 39, -51, 64, 0, -34, 40, -41, -76, -61, -56, -42, -27, 50, -57, 28, -42, -33, -61, 14, -50, 24, 12, 45, 47, 50, -43, 9, 35, -44, 19, 63, 0, -39, -46, -62}
, {59, -58, 30, -52, -60, 12, 47, -57, 56, 43, 21, 41, 33, 33, 64, 31, 14, -44, 26, 15, 72, -46, 66, -69, 37, -54, 65, -26, 58, 1, -29, 35, -67, 67, 19, -39, 59, 0, -3, -29, 33, -72, -24, -47, -14, -56, 27, 67, -31, 1, -3, 28, -60, -23, 26, 29, -35, 42, -56, -48, -51, -40, 69, -67, 38, 17, 59, 34, 40, 20, -4, -7, -8, 11, -15, -10, -45, -20, -36, 0, 61, 39, -28, 3, 61, -1, -37, -52, 35, 29, 53, -42, -12, 0, 18, -72, 58, -31, -38, -54}
, {-46, -11, 49, 22, -34, -64, 50, 22, 47, -42, 62, 16, 0, 19, -86, 25, -40, -56, 20, -4, -17, -66, -14, 13, -20, -43, 22, -50, 38, -60, -41, -54, -50, 53, 57, -41, -36, 25, -22, -13, 26, -10, -73, -78, 14, 66, 16, -25, 52, -34, -27, 11, 30, -38, 3, -13, 13, 33, -84, 33, 9, -50, -16, -29, 65, -36, 36, -67, 59, -16, -20, 55, -47, 53, 36, 6, 8, -63, -30, 4, 62, 57, -15, -21, -27, -60, -30, 50, -59, -54, 62, 76, 12, -71, -45, 0, 31, 71, 9, 40}
, {-21, -3, -62, -35, -46, 11, -52, 75, 64, -1, -21, -10, 37, 42, 25, 75, 31, -42, 3, -12, -40, -9, -21, 21, -3, -74, 15, 60, 57, -60, 19, -65, 10, 2, 52, -44, -70, -17, -29, -14, 12, -3, -18, -33, -27, 7, 22, -32, -1, -11, -50, 15, -5, 19, 12, -6, -15, -28, -34, -74, 20, -57, 42, 0, 58, 77, -25, 78, 19, -43, 17, 49, -8, 31, -7, 61, -31, 55, 45, 55, -46, -58, 3, -22, 20, 38, -52, -11, 49, -71, -39, -31, -38, 64, 61, -2, -29, -26, 11, -50}
, {62, -37, -50, -58, -46, 21, -22, 50, -34, 67, -7, 3, 67, 9, -30, 19, -30, 34, 56, -70, 47, -51, -49, -44, 34, 20, -60, 7, 8, -5, 70, 31, 28, 36, -27, -47, 50, -4, -42, -24, 15, 49, 61, -46, 44, 24, -16, -11, 65, -6, -63, 32, -55, 29, -44, 42, -56, -69, -24, 46, 53, 13, 17, 21, 25, -15, -11, -56, -4, -67, -26, 64, -18, 53, -60, 67, 44, 10, 6, 0, 53, -19, -63, -33, 59, -3, -57, -17, 72, 40, -51, 53, 29, 61, -52, 12, -22, -51, 65, 62}
, {37, 39, 7, 51, -60, 8, -11, 66, -6, 58, -36, 59, 2, 30, -55, -24, 38, -51, -3, 56, 78, -11, -6, -38, 42, -6, 66, 6, 28, -13, 20, -12, -23, 55, -21, 28, 29, 9, 46, 13, 12, -66, -72, -53, 41, -67, 60, 22, -3, 37, -23, 7, 24, -2, 31, -61, 20, 64, 32, -29, 22, -42, -22, -38, -49, 67, 22, -70, -66, 60, 0, 85, 25, -13, -22, -22, -8, 72, 41, 76, -57, 41, 10, 37, -57, -24, -46, -8, 20, 36, -18, -12, -18, -32, -48, 10, 66, -18, 37, -22}
, {-56, 51, -40, -74, -47, -50, 74, -19, 79, 20, 64, 46, 78, -37, -32, 31, -57, -32, 83, 50, 38, -29, 32, 41, 79, -52, 60, -43, 4, 14, 29, 57, 5, -4, 71, 49, -13, 38, 52, -21, 54, 63, -34, 4, -19, 0, 27, -30, 45, -58, -57, 47, 5, 0, 24, -34, -67, 14, -24, 67, 25, -7, -38, -3, 2, 18, -25, 77, 39, 63, 40, 26, 25, -43, 81, -13, 1, 27, 53, -48, -64, -48, -51, -2, 6, -6, -14, -36, 62, 37, -50, 50, -24, 70, -33, -17, -43, 50, 18, 24}
, {44, -65, -19, -3, -64, -22, 52, 36, -27, -60, -60, 60, -53, 10, 26, 68, 3, -12, 6, -32, -16, 52, -8, 35, -24, 19, 17, 56, -40, 62, -35, -8, 0, -34, -7, 1, -20, 0, 0, -20, 25, -67, -73, 42, 58, 74, -24, -18, -1, -65, -41, -27, 8, -20, 51, -67, 8, -31, 56, 57, 31, 48, -6, -43, 51, -64, -68, -59, 53, 7, 35, -30, -25, 30, 49, -32, 41, 13, 40, -67, 55, 33, 2, -22, 66, 18, 61, -50, -34, -37, -68, 11, 55, -1, -12, 13, 62, -21, 35, 47}
, {-47, 49, -59, 0, -5, -48, -23, -51, 58, -46, 50, -13, 40, -11, -2, -17, -63, 34, 81, 56, -14, 26, -48, -43, -62, 7, -51, -23, 4, 39, 18, -55, 18, 44, 62, -35, -5, 64, -21, -18, -37, -55, -29, 16, 0, 57, 78, -60, -46, -45, -37, -59, 72, -7, 64, -52, -24, 73, -3, -20, 30, 6, 46, -25, 1, 0, -52, 89, -34, -24, 56, 6, 6, -42, 48, -12, -25, -5, -61, 30, -43, 78, -49, 43, -29, 40, 53, 68, -4, -36, 63, -28, 40, -58, -24, -7, -30, -51, 13, 46}
, {-41, -50, 18, -55, -2, 15, 67, 19, -63, 35, -49, -2, 33, 32, 52, 39, 20, 1, -48, -2, -37, -60, 72, -61, 33, 14, 41, -30, 27, -42, -54, -58, -53, -67, 59, -39, -22, -20, -36, 25, 48, -7, 6, 69, 17, 44, 36, 18, 1, -65, 36, 41, 45, -69, -24, -27, 60, 5, 19, -81, -12, -26, 46, -53, -5, 62, -53, -33, -50, -2, 9, 53, 32, -44, -53, 37, -29, -69, -30, 69, 25, -16, -69, 15, 22, 49, 31, -18, -21, -51, 48, -56, 4, -72, 58, -54, -25, -39, 11, -52}
, {-32, 0, 62, -61, 48, 68, -6, 66, -45, 43, 4, 5, -74, 58, -33, -5, -17, -52, -48, 39, 13, -69, -32, -16, 55, 18, -74, 45, -76, 38, 29, -15, -76, 22, 55, 3, -45, 15, -47, -6, 38, -43, -15, 14, 11, -77, -45, -79, -32, -18, -7, -28, 17, 40, -51, 16, -25, 0, 0, -69, -42, 33, -77, 0, -55, 35, -21, -62, 54, 33, -10, -60, 69, 59, 6, -67, -20, -13, -42, 36, -38, 18, -44, -24, 28, 68, 71, -42, 11, 45, -4, 15, 56, -24, -68, -16, 32, -49, 6, 69}
, {73, 57, -34, 63, 34, 8, 32, 10, -66, -68, -54, 45, -43, 22, 18, 40, -37, -50, 0, 62, 33, -8, -24, 25, 62, -63, 63, -58, 8, -77, -14, 46, 40, -30, 67, -15, -1, 46, 26, 8, -9, -63, 57, -65, 9, 22, -31, -73, -33, -32, -39, 11, 64, -56, -2, -33, -45, -45, -47, 49, -62, -59, -55, 33, -15, 70, 67, 66, 40, -13, 2, 37, -26, -2, -8, -40, 47, -16, 6, -73, 22, -57, -15, -52, 36, -10, -5, 77, -58, -28, -2, -60, -61, -46, -18, -40, 63, -33, 14, 9}
, {10, 11, 51, -21, 23, -52, 72, -1, -61, 50, -51, -23, -18, 17, 38, 38, -42, -30, -50, -6, 57, -46, 35, 9, -54, -79, -60, -40, -64, 6, -32, 44, 23, -15, -61, -49, -43, -28, -41, -9, 19, -53, 32, -20, -20, -58, 1, 16, -13, 5, -65, -31, -41, -36, -7, 7, 36, 15, 58, 15, -42, 76, 32, 6, 59, -11, -13, -18, 17, 50, -88, -38, 17, 22, -80, 41, -79, -17, -22, 17, -6, -40, -29, -76, -53, 7, -81, -56, 17, 0, -34, 17, -11, -77, -22, -34, -21, 27, -45, -70}
, {-56, -74, -59, -63, 53, 18, 39, 51, 17, -81, -56, 76, -18, 61, -23, -48, -11, 23, -15, -68, -10, 12, -62, -35, 34, -12, -6, 3, 0, 54, -78, -16, 28, 55, -18, 45, 35, 44, -43, -69, -20, 45, 25, -48, 20, 11, 32, 6, -1, -71, 34, -56, 3, 49, 35, -67, -46, 67, -21, 47, 9, 41, 74, 21, -10, 18, 68, 31, -50, 76, 33, 23, -24, -71, -43, -2, 54, 65, 40, -18, -14, 68, 19, 53, -6, 5, 50, 14, 47, 56, -75, 10, 10, 51, -4, 43, 44, 29, -83, -40}
, {66, 44, -2, 59, 44, 7, 19, 36, -39, -14, -65, 21, -46, -59, 58, 61, 61, 1, 36, -6, 23, -71, -35, 12, 63, -9, -58, -15, -52, 3, -61, -73, 63, 33, -32, -27, -24, 25, 49, 28, -3, 37, 17, 5, -52, 31, -43, -29, -42, 12, 44, -12, 59, 68, 51, -66, -33, -32, -39, 37, 24, 43, 0, 46, -55, -52, 17, -43, 19, 38, -18, 60, 54, -1, 42, 38, -31, -56, -5, 41, 21, 33, 52, -39, 65, 58, 2, -22, 27, -11, 39, 20, -69, -25, -36, 54, -57, 26, -18, 4}
, {-14, 7, 32, -46, -35, -45, 22, 10, 26, 52, 85, -59, -45, -60, -51, 16, -67, -61, 16, -34, 56, -12, 76, -21, 31, 36, 65, -14, 68, 40, 59, -49, -18, 27, 20, 28, 49, -40, -14, 0, 18, -47, 56, 46, -18, -40, 69, 34, 53, 33, -61, 31, 2, 29, -61, 66, -9, 27, -7, -32, -44, 52, -36, -9, -26, -83, 49, -66, 8, -19, -16, 22, 62, -32, 54, -62, 23, -81, -46, -50, 63, 59, -47, 8, -38, -15, -50, 16, 8, 43, 13, 0, -81, -76, 16, -78, -79, 29, -87, 20}
, {34, 9, -40, 12, 2, -66, -45, 0, -27, -27, -47, 1, -19, -22, -79, 44, -45, -35, -34, 21, 7, 12, 25, 45, 25, 7, -51, 7, -28, 14, -48, 56, -41, -72, 1, -2, 60, -4, 62, -10, -60, 21, 8, -21, 37, 6, 27, 49, -46, 40, 6, 11, 67, 58, -48, 34, -29, 60, 58, -7, -70, 62, -42, 34, 59, -5, -24, -60, 57, 45, 40, 15, 6, -14, -62, 39, 34, 55, 21, 6, -57, 54, -61, -40, -48, 54, -41, 26, -19, 76, -55, 67, 58, -22, -65, 23, -17, -62, 20, 27}
, {-42, -21, 46, -16, -35, 22, 32, 1, -46, -34, 38, -42, -30, -36, 72, -36, -36, 44, -17, 34, 15, 58, 63, -4, 41, 0, 51, 7, 32, -43, 37, -41, 20, 56, -24, 1, -15, -29, 25, -35, 0, 50, 71, -26, 40, -22, 53, 65, -60, -45, -74, 12, -45, 64, 31, -58, 43, -22, -15, -50, 31, 37, -51, -43, -66, -17, -2, 91, -36, 49, -4, 70, -50, -43, 86, -37, -7, -51, 29, -49, 39, -43, 47, 1, -36, 51, -50, -37, -40, 36, 38, -61, 12, -41, 32, 33, -56, 22, 51, 81}
, {8, 0, 18, 36, 48, 40, -32, 63, 38, -41, -39, 10, -12, 0, -55, -51, 53, -20, -54, -66, -75, 35, 23, 18, 5, -53, -12, -62, -53, 21, 15, -57, -60, -63, 0, -10, -16, -61, -66, -56, 18, -11, 51, 31, 31, -43, -52, -66, -45, -27, -12, 40, -17, 39, -66, 7, 21, -15, 1, 42, -17, 72, -24, -13, 48, 41, 69, 65, 4, -20, 18, -14, -20, 71, 33, 84, -24, -2, -5, 12, -41, -3, -54, 81, -37, 59, 4, 63, 62, -1, 45, 0, -43, 55, -53, -13, -14, -62, -14, -7}
, {11, -43, 14, -31, -5, -66, -32, -18, 78, 71, -10, -60, 5, 13, -62, -20, 42, -40, 45, -66, 11, 7, 6, 19, 56, -56, -4, 39, 32, 0, -13, -31, -56, 68, -49, 27, 43, 17, -6, 7, 4, 30, -62, -18, 1, -1, 62, -25, -74, -21, -33, 17, 67, 50, 47, -42, 7, 52, -41, -22, -59, 51, -47, 76, 29, -18, 29, -71, -65, -25, -36, 73, 29, -38, 65, 32, -29, -49, -20, -43, 39, 2, 51, -31, -51, -48, -13, 40, 15, -49, 64, 16, -28, -41, 4, -33, -42, -61, 64, 10}
, {-13, -33, 20, 1, -61, -35, -31, 62, 28, 54, 52, 20, -14, 49, -1, -68, 62, -30, -34, 45, 11, -29, -31, -49, -14, 46, 8, 39, -46, 40, 66, 47, 57, -77, -61, -45, -48, -49, 0, -34, -68, -9, -54, -15, 58, -14, -62, -46, 64, -29, 19, -7, 32, 85, -4, -46, -85, 45, 54, 33, -4, -17, 64, 56, -39, -61, -17, -17, -41, 15, -35, -7, -32, -23, 62, -5, 18, 10, 57, 66, -51, -56, -39, 62, -7, -33, -48, 31, 0, -31, 2, -96, 53, -40, -8, -49, 53, -28, -10, 47}
, {47, 53, -47, 8, -33, -60, 52, 14, -55, -24, -25, 33, -65, -2, -15, 22, -30, 31, -35, 17, -25, -50, 35, -11, 2, -19, 44, -26, 72, 7, -17, 2, -41, 66, -22, -27, -44, 39, 64, 60, -72, -48, 55, -58, -10, -13, 4, -2, 20, -42, -62, -8, -32, 31, 73, 10, -23, -28, -69, -29, -17, 60, 60, -30, 33, 23, -31, -48, 13, -32, -21, -18, 26, 50, 4, -55, -23, -42, -15, 44, -42, 4, 72, 68, 11, 0, 5, 28, -41, 0, -45, 50, -47, 35, 38, 10, 61, -24, -2, -59}
, {-65, -38, -18, -80, 57, -62, 45, 51, -31, 35, 18, 20, 4, -48, 34, 13, 56, 25, -13, 65, 39, 69, -59, 60, 23, 29, -7, -73, -17, -58, 69, 64, 26, 7, -17, 19, -47, -12, 4, 19, 62, 5, 39, 10, -25, 0, -6, 10, 5, -27, -13, 65, 45, 34, -18, 5, 22, 68, -13, -15, 57, 4, 64, -32, -23, 51, 38, 7, -61, 40, 21, -36, 34, -53, 36, -25, -39, -19, -52, 6, 70, 6, -32, 64, -54, -13, -42, 56, -39, -68, -42, 41, -49, 13, 28, 35, -23, 47, -7, -40}
, {-45, -18, -45, 1, 34, 13, -30, -67, 54, 1, 44, -97, -56, -62, 39, -30, -62, 19, -87, -41, -48, -11, -29, 52, -60, 31, 58, 63, -25, -51, -78, 20, -57, -17, 23, -11, 60, 36, -17, 73, -82, 53, -60, -64, -65, 7, -44, 14, -33, 43, 11, 64, -52, 24, -58, -66, -43, 20, 28, 50, 34, -20, -16, -25, -1, -46, 26, 0, -18, 5, 19, 50, 5, -4, -47, 51, -60, -20, -43, -9, 25, 69, -11, 54, 57, -66, -72, 41, 61, 60, -54, 4, -24, -1, 30, -50, 66, 50, 91, -66}
, {20, -58, 21, -69, 22, 63, -55, 13, 64, -43, -69, -28, -49, 36, -13, 18, -46, -36, -11, -35, 5, -45, 12, -18, 25, -54, -40, 17, 14, 37, -37, -68, -11, 24, 56, 28, 24, -8, 43, 31, -47, 43, 27, 68, -57, -21, -63, -50, -5, 62, -60, -3, 60, 8, -43, -72, -57, 20, 24, -26, 65, -14, 57, -21, 7, 39, -36, -41, 15, -18, -47, 61, -42, 38, 10, -44, -37, -8, 24, -3, -40, 67, -36, -50, -67, -55, -44, -55, 42, -23, 71, -54, -33, -22, 17, -19, -8, -44, 35, 11}
, {-7, -59, -13, -20, 49, 82, -9, -4, -4, 44, 62, 57, -34, 97, -37, -71, 19, -60, -72, -84, -54, 36, 11, 5, 31, -37, -16, 88, 59, -28, 31, -26, 48, 5, -55, -51, 17, 12, -22, 61, -55, 24, -19, 74, -68, 40, -41, 8, 37, -56, 4, -51, 33, 22, 34, 33, 59, 74, -8, -31, -11, -49, -24, -29, 35, 29, 4, 46, 9, -53, 58, 59, -35, -67, 11, -6, 50, -65, -58, -6, 28, 23, 47, 29, 92, -11, 74, -10, 4, 101, 52, -41, 67, 2, -12, 59, -30, -27, 28, 78}
, {-64, -12, -59, 78, -31, 17, -33, -26, -73, 60, -52, -16, -13, 35, -39, -38, 40, 69, -53, -47, -45, -52, -6, 28, -23, 9, 41, -57, 44, 39, 5, 59, -20, -52, -53, 17, 11, 59, -63, 66, -52, -25, -79, 38, 45, -37, -41, 12, 49, 62, -62, 37, -52, -18, -38, -29, -22, -55, -42, 0, 57, -62, -24, -82, -63, 57, -42, 31, 62, -78, 43, 3, 47, 9, -35, -35, 0, -49, -41, 44, -41, 45, -35, -7, -14, -66, -67, 56, -41, -22, 21, 47, -66, -48, -39, 53, -18, 19, 76, -35}
, {49, 19, 9, 71, 8, 65, 44, -2, -1, -28, 44, -72, -65, -11, 25, 41, 30, 68, -54, -34, -50, -48, 51, -5, 13, -73, 54, 4, -17, -69, 22, -8, 13, 56, -55, 19, -44, -45, 4, -45, -14, -60, 7, -60, -15, 74, 26, 22, 56, 27, 8, -3, -68, -54, -23, 65, 51, 21, 2, -8, 31, 12, 56, -45, -4, 50, -56, -58, -62, -64, -26, 3, 32, -56, 19, -5, 8, -58, -16, -45, -40, -2, -30, 11, -4, -29, 7, 29, 3, 28, 31, -32, -48, -36, 15, -58, -76, -75, -5, -66}
, {32, 79, 40, 13, 39, -60, 36, -57, 35, -24, 62, -31, 4, 55, 51, -12, -53, -54, -22, 31, 2, 67, -3, 34, -69, -40, -44, 10, 50, -76, 82, 3, -42, 71, 24, -60, 35, -4, 41, 16, 18, -71, 12, 72, -2, -37, 10, 21, -38, -38, -7, 11, 63, 89, -26, -49, 43, 82, 31, 1, 27, 42, 14, -7, 45, 6, 84, -10, 68, -18, 0, -15, -7, -78, 21, 108, 85, 3, 11, -14, 68, 0, 12, 45, 44, 91, 67, 46, 11, -29, 80, -14, 44, 24, 28, 45, 4, 68, 17, -84}
, {-14, -17, 50, -20, -4, 58, 87, -36, -39, -81, -59, 60, 12, 46, 57, -11, 61, -72, 53, 24, -92, 16, 0, 51, 37, -71, -48, -30, -32, -18, 52, 27, -14, -38, 64, 41, -65, -44, -39, 65, 40, 8, 29, -20, 28, 0, -72, 26, 2, -35, -7, 64, -19, -25, -77, 42, 27, -25, 32, 68, 31, -54, -58, 37, 9, 14, 41, 74, -43, 69, 62, 38, -38, -11, 75, -19, 42, -37, 6, -44, 9, 38, 35, 49, -34, 64, 47, 35, -37, -19, 49, -89, -63, 17, -51, 41, 59, -64, 35, 47}
, {50, 27, 1, -63, -33, -43, -4, 11, 11, -4, -51, -31, -29, -26, 15, 33, 49, -56, 10, 44, -60, 57, 7, -6, 22, -45, 44, 32, 68, -51, -63, -37, 56, -49, -33, -31, -2, 9, 44, 39, -34, 6, -44, 36, -22, -70, 60, -21, 10, 75, -70, -61, -77, 43, -47, 49, -18, 53, 55, -12, 50, -36, -18, -56, -46, -9, 50, 54, -17, -60, 37, 27, 21, 15, 44, -26, -7, -55, -31, -53, 19, -9, -44, 62, 27, -10, 22, 64, 44, -29, 12, 29, 14, 0, -34, 15, 42, 20, -51, 34}
, {-11, 63, -65, 68, 34, -42, 12, 28, 3, -15, -34, 50, -67, -83, 33, -78, -36, 92, 7, 10, -84, 60, 54, 62, -56, -50, -20, 88, 45, 16, -59, 72, -40, 11, 3, 0, -22, 51, 6, 0, -31, 63, -22, -24, -64, 60, 31, -34, -29, -60, 9, 80, -93, -68, 58, 31, -22, -108, 21, -19, 44, 73, -25, -18, -33, -43, 24, 40, 36, -23, 53, -53, -56, 86, 0, 25, 24, -62, -27, -36, 6, -65, 5, -56, -81, -99, -89, 14, 29, -33, 81, 53, 1, 8, 2, -22, -45, -39, 25, 7}
, {46, 8, 55, 20, 27, -17, -19, 60, -58, 47, -55, -63, 6, -5, -30, 3, -61, -14, -71, 5, 49, -19, 23, -47, -18, -34, -58, -39, 46, -20, 71, -3, -63, 4, -20, -14, -58, 23, 21, -51, -32, 14, -55, -30, -59, -6, 1, -21, -13, -58, -4, -15, 42, -53, 27, 51, -30, -35, 41, -51, -44, -23, -24, 56, -9, 28, 2, -29, -78, 3, -14, 40, 55, -13, 49, -47, -61, 60, -3, -47, 56, -54, 57, -17, -47, -61, -52, 30, 36, 33, -64, -62, -23, 40, -40, 54, -48, 1, -27, 32}
, {-49, -31, -45, -26, -49, 23, 62, 49, 60, 38, 56, -15, -50, 24, -23, -73, 26, 0, 23, 14, 3, -21, -47, -26, -50, 64, 24, -29, -34, 59, -75, -45, -56, -26, 56, 73, 13, -3, 27, -1, 56, 29, 61, -21, 73, -25, 55, 26, 2, 48, -16, 45, 29, -6, 38, -71, 33, 1, -47, 17, 29, 12, -62, -38, -18, -25, 13, -50, 41, 18, 30, 20, -11, 45, 40, 17, 6, 3, 43, 12, -3, 33, -12, 25, 2, 18, -60, 46, -52, -26, 27, -59, -5, 51, -29, -76, -53, 46, 38, 5}
, {-34, 53, -39, 60, -7, 54, -75, 5, 42, 39, 39, 52, 56, 24, 46, 50, -52, -65, 42, 59, -22, 18, -58, -20, -24, 28, 44, -10, 77, 42, 56, 24, -57, 32, -52, -76, -32, 0, 49, 13, -53, -37, -3, 12, -33, -5, 56, -66, 56, -12, -39, 36, 1, 16, -6, -16, -50, -38, 61, -23, -65, -62, -58, -67, 1, 1, -33, 41, 72, -8, -7, 19, 37, 50, 7, 1, 33, -48, -30, -59, 54, -42, -58, 30, 52, -50, 58, -23, -33, -30, -67, 57, 0, -15, -10, 3, -41, -2, 66, -22}
, {76, 37, -40, 44, -31, -54, 6, 81, 16, 40, -37, 63, 50, -22, 59, -25, -61, 27, -12, -7, -41, -35, -14, 3, -42, -56, 0, -28, -65, 2, -35, -66, 24, -34, 12, 42, 63, 20, -36, 75, 70, -60, 67, -29, -52, -26, -20, 47, -37, 34, -38, -11, -4, 37, -78, 11, 72, -7, -54, -42, 58, -75, -65, 0, -5, 43, 0, 29, -58, -39, 28, -4, -65, 18, -21, -62, 1, -40, 66, -1, 16, -67, -35, -40, 44, -32, -11, 18, 37, 21, 0, 27, 9, -28, -36, -51, 52, 22, -14, -30}
, {49, 22, 63, -49, -40, -40, -53, 11, 17, 4, -25, -4, 41, -31, 68, -66, -46, -35, -11, -39, -56, -49, -6, -16, -7, 0, 62, -7, 23, -39, 28, 45, -2, 24, -16, 34, 58, -22, -53, -33, -51, -58, 35, 52, -32, -57, -68, -17, -59, -14, 27, 26, -69, 31, -37, 53, 54, 47, -41, 37, 30, 3, 28, 13, -15, 65, -44, 60, -4, 62, 25, -16, 44, -34, 0, -63, 67, 34, -18, 20, 45, -58, -30, -46, -57, 50, -48, -53, 11, -61, 18, -16, -56, 52, -20, -46, 49, 17, -62, -11}
, {15, 48, -43, 20, 29, 47, 56, 90, -38, 75, 15, 62, 53, 10, -61, -9, -12, -6, 70, 41, 73, -47, -46, 20, 58, 39, -39, -62, -13, 21, -64, -16, 20, -61, 56, 13, 36, 27, -6, 72, -51, 4, -69, 59, -10, 62, -21, 56, 3, 20, 54, -2, -79, -58, -9, -15, 44, 67, -63, -2, 73, 74, -29, 30, -24, 49, -57, 38, 8, -58, -59, -10, 72, 53, 15, 18, -41, -35, -13, 42, 13, -30, -50, 33, -39, -88, 41, -45, 24, -33, -33, 95, -72, -65, -25, 3, 51, -11, 26, 66}
, {17, -69, 42, -52, 52, -69, 26, -59, -10, 15, 66, -70, -21, -55, -35, 49, 52, 24, 3, 61, -18, 19, -51, 62, -52, 24, 12, -23, 6, -61, -61, 22, 16, 53, 70, -43, -2, -40, -71, 47, 38, -48, 19, -6, 4, -1, 47, 57, -68, 12, -6, -59, -49, 32, 20, -47, 8, -56, -61, 54, 28, 22, 63, 45, 68, 68, 47, 27, -2, -38, 23, -10, 45, -54, -33, 38, 38, -69, -25, -23, -37, -5, 0, 56, 62, 5, 64, 20, -2, -15, 59, -32, 40, -42, 50, 56, 31, 34, -7, -42}
, {0, -10, 78, 39, -36, -89, -78, 8, 62, 35, 28, -76, -11, -62, -34, -69, -11, -6, 5, -55, 54, -27, 40, 5, -41, 49, -74, 54, -70, -31, -20, 34, -13, -54, -50, -27, 49, -1, -77, -8, -76, 6, -1, 27, 52, -79, -8, -63, -18, 31, -49, -55, 27, -3, -6, -22, -55, -9, 21, -66, -24, -7, 27, 19, -59, 84, -11, 24, 55, 20, 85, -2, -9, 30, -16, 78, -17, -2, -23, 30, 20, 28, 36, 31, 23, 70, 67, -18, 65, -17, 51, -30, 20, -61, -59, 7, -82, -6, 39, -42}
, {-30, -1, -73, 12, 64, 34, -10, 52, -35, 5, -46, 3, -7, -4, -56, -31, -49, 72, -46, 62, -31, -66, -21, -13, -14, -10, 14, 12, 10, 69, 44, 62, 50, 30, -50, 45, -6, -54, 3, 18, 31, -36, 63, 48, -28, 15, 40, -15, -59, -80, 46, 46, 25, -64, -60, -38, -58, -8, -5, -2, 20, 37, -57, -63, 21, 61, 73, -37, 46, -19, -22, 65, -40, 116, -69, 29, -18, 25, -4, -69, 66, 15, 14, 16, 0, 0, 18, 79, 45, -10, 98, 33, 16, -30, 40, -45, -48, 8, 108, -60}
, {38, -21, 41, 44, -49, 48, -34, -13, 10, -64, -32, -11, 36, 35, 14, -2, -31, 28, -44, 45, 4, -27, -25, 21, 8, -45, -15, -45, -62, 58, -30, 45, 63, 65, -58, -17, -49, 12, -14, 53, 31, 13, -1, 39, -47, 11, -66, -53, 24, -71, -59, 3, 28, 71, -47, -71, -20, 6, 12, 67, 3, 7, 19, 39, -47, -2, 26, 35, -60, -39, 17, -45, 41, -41, 33, 53, 66, -17, -8, -36, -29, -30, 12, -23, -51, -38, -51, 59, 66, 4, -38, 52, 35, 48, 16, 66, -19, -36, -19, -4}
, {46, 35, 6, -34, -51, 56, -33, 24, 58, 62, 13, -77, -64, 47, -10, -47, 51, 3, 25, 15, -64, -74, 16, -54, 22, -76, -50, 16, -4, 50, -6, -69, -1, 3, -20, -73, -18, 7, -70, -10, 31, 47, -18, 79, -4, 49, 64, 17, -1, 49, 44, -48, 3, -49, -57, -32, -36, 24, -47, -62, -28, 0, -6, -2, -63, 69, -68, -4, -58, -38, -39, -16, 14, -70, 55, -63, -14, -39, 10, 64, -73, 18, -9, 45, 19, -9, -66, -40, 19, -29, -18, 47, -19, 50, 60, 0, 30, 42, -17, 31}
, {20, -21, 39, -39, -7, 9, 2, -67, 72, -67, -40, 14, -38, -31, 48, 33, 41, 12, -56, 29, 32, 0, 70, 57, -18, -14, -56, -17, -4, 40, -19, 62, 41, -38, -38, 45, -29, 12, 60, -48, 17, 30, 26, 16, -65, -29, 61, 14, 57, -47, -40, -58, 4, 56, 0, 65, 17, -41, -59, 8, 31, -7, 46, 17, 2, 28, 31, 36, -17, 64, -7, -33, -54, 62, 7, 0, -61, -11, 45, 58, 16, -9, 62, -56, -39, 42, -43, -49, -39, -58, 19, -32, -37, 67, -69, 41, -40, -67, -62, 40}
, {4, 47, -61, 38, 0, -26, -72, -66, 7, -51, 20, -54, -16, 54, -6, -25, -2, 17, 18, -47, -79, -71, -36, 9, -70, 41, -47, 42, 24, 14, -39, -22, 38, 84, -80, -43, -45, -43, 37, 26, -66, -45, -62, 42, -76, 84, -45, -52, 26, -62, 43, 33, -48, -12, 65, -56, 19, -83, 43, -67, 45, 70, -39, -87, 86, 64, 15, 22, -11, 49, 28, -14, -24, 51, -32, 13, 43, -57, 81, 45, 79, 19, -70, 8, -33, -56, 20, 46, 27, 66, 26, 26, 53, 65, 47, -7, -63, 2, 66, -23}
, {55, 8, -32, -16, 62, 33, 54, 24, 49, -70, 54, 57, -32, -65, -14, -11, 48, -14, -10, 8, 65, -23, -26, -15, -9, 45, -50, 32, -17, 7, -13, 45, 31, -23, 24, -14, -70, 29, -44, 9, 50, -63, -16, -68, 47, -4, -17, 48, 67, 34, 63, 63, 32, 62, -1, -47, -35, -47, 15, 3, -47, 43, -56, -33, 6, 34, 59, 16, -64, 19, 8, 62, -39, 60, 44, -19, 3, -11, -64, -64, 31, 36, -54, -12, 45, -63, -8, -24, 42, -35, -43, -3, 37, -23, 64, -25, 51, -32, -61, 71}
, {6, 36, -14, 53, 70, 19, -1, 21, 13, 85, 81, 47, -27, -4, -2, -32, -48, 81, 44, -47, -22, -39, 31, 29, 17, 74, 79, -26, 10, -44, 25, -18, -25, -49, -18, 41, -24, 27, -29, 23, 30, -57, -31, 53, 38, 64, 0, -6, 57, -22, 3, 59, -72, -41, -24, -21, -36, -64, 56, -65, -61, 3, -86, -55, 65, -51, 15, -12, -4, -96, -18, 9, 67, 100, -66, 36, -68, 30, -71, -16, 22, -48, 51, 3, -65, -33, 37, 3, -52, -54, -3, 46, 54, 21, -66, -23, -34, -52, -23, 41}
, {-56, -68, -53, 13, 27, -55, 7, 2, -48, 50, -5, -4, 19, 40, -19, 54, -2, 56, -3, 41, 12, -51, -15, 20, 46, 44, 47, 64, 49, -60, 74, -32, 37, 73, -10, -69, -68, 27, -1, -26, 12, 2, 55, 54, 70, -38, 20, 0, 53, -54, -4, -13, -16, 59, 40, -39, -43, -40, -38, 25, -5, -64, 0, -4, -11, -68, 30, 53, -56, 34, 32, -63, -53, -4, -8, -48, 14, 60, 34, 62, -23, -41, -54, -26, -16, 10, -74, -30, 30, 21, 29, -13, 69, -59, 74, 45, -30, -17, 70, 62}
, {-3, 14, -24, 16, 38, 55, 41, 75, -87, 72, 55, -6, -53, -60, -73, -24, -39, -5, -8, 66, -75, 25, -6, -58, 6, 81, 13, 12, -55, 21, -63, 20, 46, -11, -16, -22, -50, 43, 40, 41, -58, 38, -84, 10, 48, 62, -47, 59, -37, -48, 1, 38, -59, -19, 36, 5, 56, -66, -49, 22, 19, -29, -40, -96, -31, 0, 45, -53, -75, -17, -86, -59, -58, 71, -60, -30, -12, -12, -59, -70, 39, -41, -84, -30, -11, -20, -31, 14, -73, -5, 55, 63, 12, -59, -43, 54, 19, -29, 70, -6}
, {-12, -3, 75, 3, -76, -24, 25, -46, 40, -47, -12, 35, 75, 4, -54, 2, 50, -21, -38, 52, 68, 64, 7, -3, 65, 47, 20, 16, 63, 9, -32, -22, -60, -66, 40, 25, 39, -23, -22, 26, 62, -1, 25, 43, 69, -55, -60, 63, 13, -17, 17, -30, 62, -24, 29, -28, 47, -8, -27, 34, 32, 8, 78, 39, 15, -17, 50, -22, -58, -12, -41, 87, 52, 20, -42, 16, 19, -3, 76, 72, 56, -36, 65, -39, 45, 101, 22, 34, -1, 29, -39, 8, 3, -42, -12, 1, -7, -68, -30, 23}
, {76, 40, 58, 44, -61, -43, 25, -68, 26, -17, 32, -2, -8, 2, -7, 65, 69, 47, 9, -19, 5, -44, -40, -39, 29, -58, 55, -14, -16, -32, -42, -13, -40, 46, -24, 5, -21, 59, 7, -30, -27, -57, -13, -10, 61, -29, 6, 7, 14, 46, 9, -19, 60, -22, -20, 61, 39, 15, -3, 7, 48, -54, 54, 55, 16, -9, 12, -24, -42, -7, 77, 36, 48, 61, -30, 35, -36, -58, 16, 64, 41, 49, -59, 6, -40, 11, 41, 62, 46, 29, -12, 41, 14, 48, 40, -51, -20, 23, -33, 8}
, {-53, 14, -61, 48, 39, -12, 1, 53, 7, 76, 11, -52, 37, 53, -73, 53, -20, 48, -47, -2, -38, 57, -50, 82, 24, -39, 31, 80, -6, 19, -10, 0, -16, -47, -31, -21, 23, 21, 22, -35, 53, 22, 14, -46, -13, -17, 17, 9, -55, -48, 3, 9, -4, -2, -73, -75, -26, 11, -67, 34, -30, -63, -85, -77, 27, -33, 15, 41, 76, 59, 0, 27, -24, 94, -67, -8, -29, -31, 69, -14, 22, 17, -33, 56, -48, -25, 0, 46, 77, -4, 81, 26, 1, 24, -50, 23, 30, 17, -32, 21}
, {-5, 32, 19, 49, -49, -2, -1, 46, 3, 22, 11, -6, 46, 6, -55, -4, 59, 62, 47, 42, 53, -21, 40, -12, -50, -17, -28, -63, -30, -14, 14, 56, -17, -45, 5, -49, -11, 24, -58, 39, -7, 27, 21, -9, 42, 4, 69, 6, 33, 52, -9, -16, 18, 65, -49, 53, -4, -24, 29, 81, -25, 1, -8, -12, -59, -56, 5, 44, -34, -37, 0, 85, -19, 45, 85, 61, -37, 4, -16, 13, -11, -57, -22, 47, -48, -7, -29, -29, -39, 19, 7, -27, -43, 16, -80, -39, -17, -17, -80, -43}
, {8, -9, 42, 18, 0, -35, -39, 3, 0, -3, 4, 35, 1, 18, -11, 34, 35, -33, -17, 26, -50, -69, 44, 40, -25, 34, -10, -45, -69, -12, 42, 32, -57, 60, -51, -18, -8, -14, 59, -67, 15, -52, 24, 66, 59, 59, -51, 39, -61, 6, 51, 34, -51, 52, 35, 75, 36, 43, 28, -43, -59, -56, -6, -26, 6, -43, 3, -24, -20, -21, 12, -65, -30, 44, 43, 56, 67, -40, -65, -27, 30, 26, -32, 40, -30, -64, 32, -30, -69, -39, 36, 45, -39, 10, -56, -33, 27, -22, 35, 25}
, {5, 53, -73, 68, 43, 14, -39, -68, 36, -40, 26, -37, -3, 27, 46, 17, 45, 80, 42, 58, 21, -45, -26, -13, -38, 0, 71, 7, -71, 34, -51, -66, -69, -18, -13, -40, -3, -68, -73, -27, 8, -16, -43, -5, -73, -61, 11, 53, 61, -32, 64, -70, 17, -78, 31, 12, 54, 45, -7, 49, -69, -60, 17, -77, -26, 14, -12, -48, -56, -29, 19, -71, 35, 100, 1, -37, -50, 39, 86, -15, 4, -61, 30, -37, 24, -5, 4, 18, -60, -44, 38, 91, -53, 6, 73, -61, 59, 15, 78, 9}
, {10, 65, 23, 13, -8, -12, -50, -56, -69, 0, 11, -20, -90, 62, 60, 53, -45, 25, 41, -74, 31, -61, 37, 42, -27, 0, -51, -26, 10, -52, 10, -16, 23, 3, 22, 8, -41, 63, -4, -49, -11, -29, -30, -29, 47, 2, 21, -24, -43, -63, 28, 48, -31, -49, 51, -64, -11, -83, 9, -72, -30, -55, 1, -14, 7, 4, -28, -78, 55, -75, -23, 17, -50, 8, 29, 29, -99, 27, -7, -105, 11, 24, 7, -26, -8, -101, -61, -26, 69, 48, 11, 20, -67, 62, -19, -8, -54, 63, 20, 39}
, {-1, -51, -53, 4, 2, 19, -3, -70, 45, -56, 90, 18, 60, -11, 21, 22, -23, -60, 65, 40, 25, 28, -49, -58, -74, 62, 3, -59, -27, 85, -1, -38, -3, -58, 38, -72, -22, 52, -28, 47, 48, -37, -43, -10, 41, 50, -28, -26, 37, 37, 28, -33, -50, 55, 59, 42, 28, 26, 31, 0, -59, -92, -13, 39, -7, 61, -3, -70, -45, -80, -29, 24, -49, -35, -48, -3, 17, -60, 28, 35, 44, -71, 20, 4, -66, -82, -60, -61, -51, 28, 33, 15, 6, -92, 24, -15, -46, -78, -37, -23}
, {-26, 70, -13, 0, 49, -77, -23, -27, -27, -35, 19, -72, 51, 5, -46, -47, 58, 48, 75, 27, 9, -20, 54, 47, 60, 26, 22, 39, -32, 33, -43, 45, 61, 51, -67, -67, 68, -78, 38, 29, -14, -63, 78, -28, -34, -18, -42, -59, -25, -14, -53, -56, -14, 53, -74, -35, -67, 3, -37, 59, -19, -14, 29, 51, 38, 38, 53, 49, 17, 4, 12, -43, -56, -21, 50, 44, -52, 1, 66, 79, -11, -26, 3, 39, 45, 68, -45, -37, -50, 32, -66, -68, 11, 47, -34, 41, -32, -29, 1, -12}
, {-51, 4, -14, -24, -35, 8, -50, 38, -27, -11, 56, 0, 87, -9, 52, 33, 0, 36, -18, 30, -43, 80, 45, -41, -11, 56, 48, -61, -24, -77, 74, -13, 44, -67, -52, -39, 58, -23, 3, -69, 0, -18, 56, -51, 55, 4, -25, 7, -6, -51, 72, 11, -35, 41, -36, 49, -36, 5, -54, 22, -65, 2, 19, 87, 32, -67, -46, 30, 63, 10, -5, -1, -68, -60, 58, -32, -8, 67, 43, -4, -25, -57, -64, -49, 1, 36, 55, -48, 71, 39, 8, -81, 1, -47, -73, -23, -48, -46, -12, 32}
, {46, 4, 42, 60, -22, 58, -47, -12, -63, -6, 71, 8, 8, -27, -20, -10, -2, -15, -68, -13, 52, -72, -34, 30, -45, -26, 57, 48, 2, -64, 1, 24, 3, 1, 5, -35, -26, 15, -47, -62, -58, 2, -7, -40, 43, 58, -65, -42, -14, -37, -25, -50, -62, 60, -42, -57, -46, 10, -35, -58, -13, 24, 12, 9, 9, -66, 26, -33, -9, 68, -52, -58, -8, 20, 32, 5, 35, -55, -13, 39, 59, -68, 71, -12, 16, -40, -56, -11, 67, -38, -60, 58, 4, 33, 70, -66, -45, -45, -48, -66}
, {-51, 18, 10, 61, -39, -46, 18, 74, 63, 18, 51, 15, 49, 11, -30, 38, 15, -52, -63, 18, -76, -19, -66, -23, 6, -63, -4, -40, -28, -2, -27, -6, -37, -42, -72, 15, 45, 37, -31, -56, -23, 58, -59, -72, 52, -81, -29, 11, -78, 31, 17, -33, -43, -42, 13, 26, -1, 0, -1, 40, 3, -64, 34, -56, -10, 22, 26, -82, -74, -17, 1, 31, -32, -78, -40, 5, -29, -51, -39, -31, -22, 6, -69, 2, -37, 21, 41, 25, -10, -76, 43, 46, 23, 38, -19, -23, -17, -74, -21, 25}
, {-31, -51, -41, -6, 55, 39, 60, 52, 60, 67, 62, 44, 62, -96, 30, -64, -20, 2, -7, 16, -90, 23, -31, 63, -75, -55, 37, 2, -26, 39, -43, 42, 68, -62, -15, -13, -78, -70, -82, -55, -52, -30, -26, 56, -32, 46, -72, -35, -26, -18, 47, 10, -49, -20, 2, 7, 61, 0, 37, -74, 4, -75, 33, -61, 30, 63, 26, -44, -29, 44, 52, 72, 9, 57, -11, -20, -69, -35, 35, -29, 2, 66, -9, -9, -2, -5, 46, 40, -5, 10, -21, 2, 37, 17, -33, 27, 5, 11, 57, -35}
, {-58, -38, 43, -62, 49, -50, 82, 40, -51, -12, -35, -2, 23, -60, 33, -35, -30, 49, 66, 76, 50, -4, 4, 13, -36, -79, -55, -53, -60, -68, -16, 57, -38, -28, -3, 30, 19, 62, -70, 61, 31, 36, -56, -3, 46, 39, 5, 52, 65, 40, -59, 21, 15, -44, -45, 39, -8, -50, 18, -37, -22, 57, -23, -12, -15, -71, -18, -35, 13, -29, -1, 57, -36, 53, 34, -54, -13, 9, 6, 11, 62, -30, -30, -19, -65, 61, -62, -20, -55, 6, 34, -82, -39, -27, -41, 9, 36, -16, -58, -9}
, {-52, -28, -44, -15, -46, -13, 54, -31, 48, -11, 28, 8, -15, -75, 73, 64, 44, 44, 62, -39, -46, 27, 64, -50, -62, -52, -35, -55, 8, 79, 23, -10, 18, 50, 40, 31, 46, 46, 49, 30, 54, 43, -14, 1, -58, -47, -38, 8, 56, 30, -16, -49, -8, -49, -5, -46, 19, -13, -66, 1, 0, 0, -36, -5, -53, -5, -58, 20, 0, -65, 30, 13, 5, -59, -4, 66, -31, -6, 21, 69, 1, -14, -18, 38, -5, 51, -69, -8, -10, 47, -27, -12, 26, 21, 58, -65, 33, 12, 67, -64}
, {60, -57, -55, 31, -1, 45, 39, 42, 39, -53, -58, 34, 43, 61, -43, -65, 59, 51, 39, 29, 68, -37, 67, -72, 64, -66, -25, -36, 64, -69, -42, 48, 44, 46, 37, -25, -39, 26, 58, 52, -15, -4, -61, -23, -48, -63, 14, 44, -62, 32, 65, 73, 33, 7, 8, -39, 29, 43, 32, -19, 55, -57, -16, 57, 8, -36, -55, -28, 54, -13, -29, -61, 0, -22, 46, 70, 56, 56, 56, 11, 6, -17, -55, 52, -56, -44, 9, 42, -66, 73, 23, 60, 54, 44, 58, -16, -31, 3, -75, 3}
, {-11, 46, 38, -20, -30, 5, -39, -43, -12, 8, 62, 27, -4, 39, -54, 11, 11, -59, -55, 26, 14, 35, -10, -50, 16, 9, 61, 51, 35, -72, -57, -39, 69, 25, 45, 65, -56, -18, -50, 44, 0, -61, 67, 39, 38, 45, -25, -43, 11, 46, -48, 68, -21, 75, -16, -29, 19, -50, -71, -26, -49, -60, -54, 49, 25, -42, -60, 12, 41, -8, -31, 63, 49, -20, 31, -49, 11, -55, 24, -19, 72, -34, -21, 56, 16, 24, -15, 48, 0, -43, -40, 48, -34, 44, 14, -57, -73, 40, 52, 40}
, {-53, 46, 20, -19, -2, 47, 25, 48, 49, -65, 61, -38, 3, -22, 61, -41, 25, 20, -3, -37, 25, -42, -26, 59, 71, 58, -20, 12, 38, -50, 43, 50, 54, 61, 19, 73, -3, 44, 51, -6, 63, 39, 57, 20, 75, 47, -23, 27, 52, -33, -10, -82, 74, 10, -71, 47, 25, -45, 64, 39, 27, -49, 65, 73, 35, -9, 0, 10, 7, -45, -13, 46, 26, -2, -26, 2, 61, -51, -77, -13, 23, -32, -57, -22, 74, 42, 15, -44, 34, -7, -10, -45, 75, 15, -61, -13, 50, -67, -17, 9}
, {36, -38, 37, -37, -22, 38, 2, -34, 33, 24, 69, -65, 50, -67, -58, -62, 36, -27, -8, -22, 11, -65, -2, -68, 14, -15, 21, -27, -64, -36, -53, -23, -34, -35, -23, -16, 41, -43, -67, -60, -8, -3, 10, -5, 45, -21, 68, 29, 49, -41, -8, -62, -59, -49, -24, 43, -40, 3, 53, 65, -8, -66, 59, -57, -19, -58, -36, 3, -46, -45, -20, 33, 3, -44, -58, -11, -25, 70, -25, 14, 59, -25, -41, 17, 58, 52, -2, 2, 7, 8, -62, -38, 17, -54, 26, 55, -62, 61, 18, -70}
, {-17, -32, -74, 85, -69, 68, 31, 75, 33, 30, 25, 42, -20, 33, 57, 61, -4, 102, -71, 27, -6, -52, 51, -36, 42, 38, 72, -28, 60, 71, 41, -43, 33, 64, -4, 19, 28, -21, -50, -57, 0, -40, -88, -24, 39, -6, 11, -46, -43, 44, -20, 6, -3, 1, 19, 61, -41, -50, 36, -45, -51, 9, 6, -68, 75, 38, -10, -42, -30, -13, 62, 32, 23, 74, 1, -23, 33, 49, -49, 9, 58, 64, -15, 7, -30, -72, 42, 22, 59, 47, 37, 105, 18, -32, 56, 52, 80, 26, 57, 11}
}
;

#undef INPUT_SAMPLES
#undef FC_UNITS