/**
  ******************************************************************************
  * @file    weights/fc.cc
  * @author  Pierre-Emmanuel Novac <penovac@unice.fr>, LEAT, CNRS, Université Côte d'Azur, France
  * @version 1.0.0
  * @date    24 march 2020
  * @brief   Template generating plain C code for the implementation of Convolutional Neural Networks on MCU
  */

#define INPUT_SAMPLES 512
#define FC_UNITS 8


const int16_t dense_bias[FC_UNITS] = {-73, 73, 75, -74, 74, 73, 73, 73}
;

const int16_t dense_kernel[FC_UNITS][INPUT_SAMPLES] = {{-42, -17, -19, -5, 21, -51, 47, -41, 49, 32, -44, -36, -24, 17, 42, 33, -19, 37, 36, -51, 19, 26, -35, 6, -37, 22, -22, 31, 45, -59, -8, -49, 40, 3, -17, -53, -50, -17, -17, 35, -46, 42, 39, -12, 15, -2, 44, -29, -47, -25, -2, -28, 37, 40, -45, -2, 8, -9, 12, 1, -45, 28, 0, 34, -18, -27, -43, 9, 25, 24, -10, 8, 10, 42, 2, 24, -39, -44, -42, -41, 33, 22, 35, 18, -45, 36, 0, -43, -42, -47, -44, -30, 2, -34, -1, -20, 35, 21, -22, 14, -54, -51, 47, 40, 16, 7, -23, -17, -16, 40, 10, -52, -24, 10, -36, -32, 18, 28, -23, -4, 47, 27, -52, -25, -17, 13, 3, -37, 42, -33, -27, 26, -40, 49, 9, 47, 6, -27, 25, 21, -52, -32, -17, 0, 19, -49, -12, 16, -52, -12, -2, -44, 15, -3, 25, -16, 0, -28, -46, 20, 11, 10, 2, 24, 44, -44, -22, 0, -45, -25, 15, 38, 46, -6, -4, 39, -4, -11, -22, -27, -56, 44, 29, 5, 42, 21, 45, -12, -10, 22, -48, -24, -11, 53, 3, 31, 29, 56, 8, -2, 11, 23, -16, 13, -44, -55, -22, 26, -12, -26, -6, -9, -5, 35, -49, -37, 41, 23, 14, -26, 20, -56, -42, 48, -9, 32, 34, -4, 30, -19, 22, -47, 47, -25, -1, 11, 40, -7, -46, -43, 34, 11, -6, 3, 37, 15, 14, -47, 30, -4, 21, 25, 42, -23, -27, -43, 25, 45, 15, 59, -21, 12, 38, 45, 17, -37, -10, -28, -6, -36, -30, 28, 22, 40, -5, 40, 36, -57, -43, 19, -2, 10, 31, 21, 22, 17, 1, 10, -25, 40, 34, -33, -20, 17, 1, 7, 27, -12, -6, -13, 33, -48, -44, -6, -19, -34, -46, -7, -17, 51, -25, 39, -25, -48, 15, 16, 19, 3, 42, -32, 18, 45, 2, -3, 51, -5, 12, 48, 6, -52, 37, -24, 33, -35, 12, -22, 3, -13, 42, -49, 0, 15, -39, -51, 4, 35, -16, 13, -41, -22, -36, -50, -32, -2, -40, -31, 30, 33, -34, 46, -7, 14, 31, 16, -14, -39, 36, -55, 22, 44, -8, -34, -6, -48, 27, 44, 0, -11, 18, -12, 32, -10, -27, -7, -3, 13, 25, 0, -33, -35, 42, 39, 46, -12, -38, -33, 25, -37, -20, 20, 6, 24, -44, 38, -18, -47, 47, -25, 1, -2, 30, 26, -6, 46, -28, -10, -47, -54, -4, 0, 40, 30, -49, 43, 48, -55, 18, 45, -39, 19, -16, -15, -15, -15, 38, -27, -4, 31, -3, -18, -56, 26, -28, 38, -1, 10, 5, -56, -55, -49, -43, 53, -39, 42, 20, 31, 19, -22, -19, -3, 20, -54, -13, 14, -39, 6, 13, -31, 35, -64, -12, 26, -57, -19, -2, 22, -58, 40, 30, 47, 11, 12, -20, 22, -34, -46, -28, 29, 14, -41, -8, 0, -26, -27, 24, 59, -42, -51, 61, -7, -17, 7, -33, 38, 1, 32, 36, -46, 2, -1, -6, -13}
, {-40, 37, -29, 20, 39, 42, 23, -9, -48, 43, -55, 14, -3, 41, -5, 0, 44, 12, 4, -14, -48, -29, -46, -14, 23, 30, 48, 39, 4, 31, 35, 1, -47, 13, -48, -6, -23, -21, -3, -39, 44, 13, -24, -48, -33, -21, -30, -26, -5, 38, 50, -39, -22, 46, 31, 7, 3, 7, 51, 19, 8, 11, -2, 0, -50, 14, 37, 4, 44, 1, 44, 52, 0, 23, 55, -42, 12, 30, 26, 0, -6, 38, 28, 2, -25, -44, -37, -16, -5, -24, -15, -35, -14, -3, -43, -18, 4, -8, 53, -43, -45, 34, 13, 34, 41, 12, -44, 40, 38, -17, 30, 12, 10, -35, 51, -10, 38, -43, 18, 16, -5, 9, 5, 50, 33, 58, 22, 13, 36, 12, 44, 43, -41, 10, 22, 48, 3, 16, -13, -6, -35, 4, 38, -39, 2, 42, 58, 52, 37, 13, -39, -22, 36, 27, 42, 31, 55, 1, 33, -44, 48, -11, 43, 10, 16, 47, 15, 14, 33, 45, 14, -9, -22, -8, 42, -11, -14, -21, -27, -32, 57, 48, 46, 20, 17, 47, 8, 40, 28, -27, 19, -24, -21, 51, 34, 55, -24, -44, 28, 1, 39, 44, -47, -44, -20, -28, -16, 0, 29, 44, 41, 23, 47, 0, 34, -47, 44, 28, 32, -43, -28, 11, 0, 18, 53, -4, -21, -6, 21, 7, -10, -22, 38, -19, -4, 56, -13, -14, 29, 21, -22, -4, 54, 30, -49, 28, 20, 15, 26, 1, -10, 2, -44, 17, 3, 44, -24, 14, -22, -42, 23, 20, 12, 39, -36, 42, 33, -16, -24, -4, -10, -33, -8, 14, -22, 20, 31, 36, 48, -43, -29, 18, -33, 44, 53, 25, 54, 14, -10, 1, 45, 31, -13, -13, -2, -47, -41, -35, 52, 43, -45, 37, 26, 3, -40, -3, 24, 16, -2, -25, 45, 5, -15, 5, 26, -22, -8, 49, -15, -37, -5, -33, -6, 31, -14, 45, 50, 7, -46, -6, 19, 57, -2, -24, 45, 34, -28, 51, 4, -8, 36, -5, -2, 28, -25, 4, 61, 3, 16, -46, 46, 31, -3, 18, -36, -28, 7, 24, -2, -31, 20, 49, 49, 26, 48, -38, 22, 54, -19, 40, -24, -31, 49, 56, 51, 27, -39, -4, 61, 56, -3, -7, 22, -38, 45, 3, 52, 35, 25, 0, -13, -8, -49, -12, 9, 22, 9, -31, 29, 38, 34, 11, 48, 0, 13, 35, 40, 2, 47, 57, -40, 11, -17, 56, -4, -23, -29, 20, -36, 7, 0, 27, -1, -17, -20, -3, -10, -16, -20, 7, 28, -42, -18, 44, -37, -36, 22, -17, 47, -42, 4, 6, -25, 40, 6, 53, -31, 6, 51, -45, -29, -4, 3, -46, -9, 23, 56, 14, -18, -48, 33, -35, -8, 41, 57, -7, 24, 4, 5, 4, 32, 9, -11, -25, 40, 39, 14, -3, -35, 21, 15, 28, -28, 1, 39, -33, 63, 7, -28, -57, 29, -15, -36, 5, 47, 24, -1, 29, 28, -24, -58, 39, -7, 28, -15, -35, -35, -15, -41, 0, 7, -5}
, {-7, -25, -26, -43, -30, 11, 4, -32, -20, -21, -41, 22, -31, 58, 7, 35, -10, 42, -21, -29, -33, 42, 34, -23, 14, 32, -37, -39, 28, -48, -29, 48, 32, 1, -36, 37, 22, -33, 21, -33, 43, -12, 44, 12, -37, -40, 32, 37, -37, 35, -18, 48, 11, 17, 31, -17, -26, -17, 26, -16, 0, -16, 16, -31, -21, 50, -9, -42, 26, 0, 28, -26, -38, 37, -44, 5, 29, 0, -44, -33, -3, -30, 19, -47, -30, 27, 5, -11, -25, -21, 46, 54, 2, 6, 32, 2, 49, 11, 36, -20, -14, -4, -30, -50, 12, 3, 56, 4, 3, -17, 30, 9, 29, 6, -27, -28, 4, 53, 49, 36, 30, 7, -21, 37, 5, 34, 13, 17, -22, 46, 12, -50, -7, 46, -33, 58, -32, -42, -5, 35, 18, -4, 9, -42, -47, 38, -22, 59, 15, 39, -14, 21, -34, -15, 57, 45, -35, -22, 21, -31, -22, -28, 10, 35, 30, 58, -18, -5, 51, -40, -35, 1, 8, 4, 13, -17, -35, 21, 20, 36, -44, -12, -26, -3, -30, 27, 4, 30, -31, -26, -12, 18, -45, 29, -16, -43, 14, 26, 21, 32, 19, -19, 48, -29, 36, -27, 32, 15, 41, 14, 40, 30, -46, -46, -12, -48, -21, -41, -30, 35, 52, 32, 21, 24, 15, -6, -8, 30, -11, 18, -19, -24, 41, -38, 17, 1, 1, 1, -5, 7, -34, 7, -17, -46, 53, 2, -31, 42, 56, 41, -48, 8, -46, 41, -17, -49, 20, -21, -7, -57, 1, 6, -43, 20, -18, 6, 33, 48, -46, -14, 58, 54, -52, 8, 11, -13, -2, 37, -17, 47, 19, 17, 17, 32, 53, 52, 36, 3, 9, 13, -23, -41, -42, -45, 50, -5, -22, -47, 55, -11, -2, 41, -17, 23, 53, -44, 26, 26, -19, -35, 48, -18, -16, -24, -46, 44, -45, 27, 44, -32, 53, -37, 40, -17, -20, 17, 47, 45, -31, 30, 19, 14, 22, 22, -30, -45, -46, -37, 53, 7, 39, 31, 19, 11, -43, -11, 63, -30, 23, -1, 2, -44, -16, 9, 17, 27, 38, -33, -16, 8, -25, -32, -43, 24, 11, 38, 39, 56, 6, 47, -11, 61, -25, -28, 44, 28, -12, 53, 52, 48, -7, 15, 21, -9, -9, 45, 18, -33, -6, 27, 28, -2, 39, -21, -48, 0, 12, 51, 19, 54, 44, -18, 3, 47, 37, -35, -9, 45, -39, -11, -43, -12, 47, -48, 50, 33, 48, -30, 53, -18, 56, -2, -7, 38, 36, 54, 3, 36, -22, -38, -28, 51, 45, -30, -3, 4, -9, 40, 33, -16, 21, -13, 43, -42, 25, 42, -22, 49, -49, 26, -36, 40, -31, 19, 30, 37, -44, -41, 0, 47, 50, 47, 34, -19, 33, -1, -35, -17, -27, -42, 37, -3, 13, -40, 28, 50, -2, -7, 55, 16, -48, -27, -1, -13, 4, -13, 22, 42, -34, 28, -20, 48, -6, -38, 21, 24, 18, 23, 30, -36, 20, -16, 43, -37, 38, -37, -46, 43, -7, -36, -37, 29}
, {-5, 51, -6, -24, 26, -23, 0, -9, 52, -3, -39, 33, 7, -57, 10, 38, -32, 33, -26, -49, -12, 14, 10, 30, -2, 17, 27, -38, -10, 1, -50, -40, 28, 7, 46, 27, -3, -41, -43, 24, 1, 29, -3, -7, 22, -52, 7, -25, -40, 35, 8, -27, -5, -24, -12, -26, -13, -29, 0, 0, 48, -41, -5, 2, -35, -46, 24, 32, 27, 39, -15, -30, 23, 49, -11, -10, -9, 1, 24, 41, -19, 18, -30, 30, -50, 21, -30, -42, -1, 5, 46, -43, 22, -2, -15, -31, -60, -30, 46, -19, 38, -46, 20, -36, 14, 5, -55, -39, 37, -5, -5, 45, 32, -55, 15, 43, -1, -39, -12, 22, 12, 23, -17, -56, -20, 16, 28, -39, 1, 6, 51, 1, 41, -46, -42, 30, 20, -12, -64, 35, 21, -24, -11, 15, -29, -6, -26, -14, 12, 26, -45, 39, -35, 20, 28, -18, 16, 14, -19, 15, -20, 13, -46, -15, -7, -16, 36, -13, -27, -20, 35, 25, 34, 36, 2, -39, -18, -41, -42, 20, -20, 19, 42, -5, 31, -10, 27, -21, 28, 26, -28, -21, 48, 37, -7, -37, -25, 4, -24, -33, -18, 4, -19, -47, -12, -40, -27, -3, 16, 0, 15, 14, 0, 8, -17, -17, -41, -29, 21, -33, 8, -1, -41, -39, 11, 34, -47, -33, 24, 30, 8, -19, 31, 36, 6, -30, 18, -11, -43, 35, 26, -3, -9, 26, 7, 25, 39, -17, 11, 10, 22, 4, -27, -42, -33, -12, -42, 0, 20, 54, 31, 5, 0, 29, -49, 33, -30, -51, -5, -55, 15, 37, -51, 30, -26, -13, 50, 43, 31, 12, -33, -27, -40, 48, 12, -14, -3, 6, -15, -6, -7, 49, -41, -45, -2, -28, 32, -40, -52, -40, 6, -2, 44, -8, 18, 45, 34, 34, -18, 50, 19, -53, 24, 25, -23, 46, -46, 2, -39, 20, -55, 13, 27, 52, 32, -20, 43, 32, -29, -35, 28, 25, -47, -34, -42, -30, 10, -4, 20, -1, 25, 0, 44, 33, -37, -44, 18, -53, -40, 26, -41, 4, -63, -37, 26, 2, -39, -22, 16, -41, 39, -25, -53, -29, -41, -40, -18, -10, -33, 18, -16, -20, -8, -35, -21, -48, -5, -54, -15, -55, 36, 0, 38, -50, -36, 1, 31, 33, -27, 42, 10, 4, -48, -35, -6, 4, -29, 33, 6, -8, -18, 6, -10, 26, 33, -38, 39, -55, 45, 40, -15, 41, -34, 48, 16, -52, 5, -15, -54, 21, 2, 17, 9, 26, 43, 7, 42, -14, -56, -33, 24, -46, -5, -8, -3, 38, 4, -47, 38, -26, -3, 40, -34, -41, -29, 18, 26, 33, -54, -45, -41, -28, 42, -26, 21, -18, 32, 59, 19, -39, -16, -46, 25, -7, -15, -27, 32, -59, -21, -3, 11, 10, 4, 48, -4, -30, -43, 2, -57, -51, 18, -31, 18, 23, 8, -65, 29, -12, 13, 13, -43, -47, 20, -4, -49, 51, -16, 23, 26, 12, 31, 63, -20, -24, -21, -32, 39, -47, -32, 38, 30, -38}
, {-28, -15, -30, -27, 32, 34, -8, 18, -21, -16, -14, -10, 3, 11, 27, -39, -30, -12, -42, 38, 49, 43, 1, 15, 57, -43, -48, 37, -26, 50, 20, 44, -51, 55, -24, -45, -6, -40, 6, -33, 42, 2, -15, 47, 15, 25, 35, -26, 37, 18, 41, -19, -33, 18, -8, -34, 38, -44, -45, -7, -30, -14, 3, 35, -17, 31, 8, 1, -47, -19, -46, -13, -44, 19, -16, -21, 37, 35, 23, 44, -12, 41, 5, 7, 27, 36, -49, -3, -37, -36, 55, -11, 6, -18, -38, 19, 22, -13, -24, -39, -42, 4, -20, -1, -33, -47, -6, 7, -24, -11, 52, 22, -6, 6, 9, -42, 0, 0, -22, 16, -41, 12, -42, 1, -18, 10, 8, -39, -14, -28, -42, 42, 13, 8, 37, -25, 48, 59, 55, -33, 18, -20, 2, -45, 11, -1, -33, -38, 30, 37, -37, -13, -42, -26, 21, -45, 8, 38, -35, -43, 21, -25, 43, 45, 52, -3, -37, 44, -24, 4, 39, 11, -15, -17, 42, 29, -43, 40, 41, -28, -25, -36, 19, 43, 4, -1, 40, -36, -21, 34, -15, -2, 0, 0, 34, 50, 32, 22, 3, -30, 9, 45, 13, 10, -26, -3, -16, -53, 24, 16, 4, -27, -1, 0, 16, -35, 22, 23, -30, -45, 63, -8, -22, -17, 13, -38, -13, 43, 9, 42, 11, -7, 31, 51, -9, 2, 27, -29, -17, 8, 15, 42, 29, -43, 20, -30, 47, 56, 55, 10, 24, 5, -11, 9, 1, 49, 12, 30, 26, 24, 17, 40, 6, -33, -11, 12, 40, 20, 56, -15, 18, 14, -16, 19, -26, -20, -45, -3, -45, 8, 30, -28, -30, 52, -31, -49, 32, 48, 0, 54, 30, -10, -46, 8, -24, -22, 54, 55, 28, -23, 48, 10, -28, -20, -42, 30, -27, 32, 52, 27, -41, 19, -44, 21, -1, 32, -18, -19, -35, 28, 1, 10, 56, 33, -26, 14, 14, -21, 54, -7, -17, 40, 3, -9, -19, -4, -12, 13, 29, 18, -8, 26, 14, -46, -46, -31, 45, 25, -32, 17, 31, 42, 34, -8, 11, -2, -48, 26, 37, -26, 10, 15, -53, -30, 3, 14, -55, -2, 40, 17, 14, 21, 28, 44, -40, 55, 59, -46, -5, 52, 38, -27, -33, -26, 27, 50, -48, -38, -3, 45, 6, -15, 52, 55, 50, 53, 32, 3, 41, 4, -6, 17, 54, 15, -4, 21, -22, 18, 14, 18, 12, -28, -36, 50, -4, 44, 20, 33, -39, -38, -29, -33, 18, 27, -12, -28, 15, -39, -26, 25, -7, -22, 30, 48, 5, 22, 29, 42, 16, -34, 45, 52, 45, 30, 29, -30, 9, -43, 48, 11, -4, -54, -7, -41, -16, 14, 49, -51, -27, -28, 24, -14, -18, 1, 43, 39, -44, 27, -4, 29, 40, 10, 8, 11, 48, 25, 33, -37, -36, 30, -20, 45, -42, 3, 6, -33, -1, 38, -12, 21, -34, 0, 41, -25, -29, 15, -3, -10, -21, 35, 34, -14, 43, 3, 60, -4, -59, -53, -38, 37, -29, 2}
, {21, -40, 45, -22, 41, 0, 48, -49, 12, -41, -31, -29, 27, -25, 41, -2, -26, 54, 47, 56, -42, -18, 31, 31, 3, 19, 7, 3, 51, 37, -11, 57, -39, 8, -39, -17, -14, 42, -10, 4, 41, -24, 34, -6, -36, 48, -45, 24, 48, 38, 54, 16, 30, -37, 34, -33, -18, -33, 48, 42, 51, 2, -6, 37, 10, 26, -53, 1, 32, -32, -4, -9, 30, -17, 13, 7, 33, 37, 0, 29, 55, 19, 24, 42, 39, -14, 58, -5, 43, 53, 9, 19, -46, -46, 31, 32, -30, 4, 44, 8, 47, 24, -37, 36, 21, 33, -37, -33, -23, 55, 17, -43, 42, -50, -41, 0, 7, 12, 27, -7, -28, -35, -47, 50, 57, 50, 20, -32, 31, 16, 43, -2, 25, 23, -30, 57, 19, 41, 58, 63, -8, 8, -30, -27, 29, -12, 40, 16, -46, 0, 31, -21, 5, -19, 49, 19, 32, -20, 9, -30, -6, 8, 48, 42, 10, -45, -9, -11, 53, -24, 56, 45, 25, 11, 59, -22, 27, 1, 12, 25, -38, 7, -40, 41, -40, -40, -2, 50, 54, -32, 15, -43, -9, 43, -7, -22, -21, 47, -26, -27, 29, 50, -55, 47, -43, 12, -32, -22, -29, 23, 43, 32, -11, -44, -33, 51, -22, 18, -16, -40, 37, 7, 54, -7, 10, -39, 29, -42, -19, -2, 34, 35, 21, -25, -1, -41, 9, 46, 6, 12, 25, -19, -41, 0, 18, 11, 49, -28, -17, 7, -10, 42, 4, -42, -23, -33, 49, 32, -55, -9, -22, 2, -35, 5, 21, 4, -1, 22, -50, -25, -33, 5, -31, -49, 38, -43, 3, 7, 24, -9, -44, -39, 48, 41, 28, -49, 8, -41, 54, -17, 40, 15, 3, 14, -3, 26, -30, -10, 26, -25, 22, 33, -25, -25, -3, -41, -10, 46, -1, -38, -11, 48, -33, 6, 53, 36, 7, -31, 44, 43, -25, 9, -9, -41, -16, 13, -3, 52, 58, 10, 4, 13, 36, 13, 51, -17, -20, 21, 61, -24, 61, 51, -23, -14, -31, -42, -3, 59, 43, 52, 46, 54, 4, -5, -41, 14, -43, -38, 57, 0, -31, 10, 49, 59, -49, -22, 33, 8, -6, 5, 13, 54, 59, -1, 22, 57, -35, 4, -7, 2, -35, 55, -30, 22, 10, -41, -25, 41, 34, -3, -13, -4, 18, 37, 0, -28, 52, -45, 3, -28, -47, -32, 43, 53, 45, 45, 34, -42, 45, 31, -5, -43, 0, -49, -44, 18, -14, -8, 16, -18, -44, -11, -41, 38, 10, -49, 24, 11, 43, 31, 8, 16, 7, 23, -28, 32, -7, -37, 12, 25, -22, 48, -32, -43, -12, 45, -23, -6, 1, 35, 39, 52, 42, -8, -40, -18, -44, 0, 0, 9, 17, -5, -24, -7, -27, -24, 6, -23, 35, 54, -31, -44, 15, -42, -17, -38, 56, 43, 45, -44, -17, 4, 19, -2, -17, -7, 44, -11, 34, 34, 7, -11, -10, 40, -4, 29, 14, 26, -59, -23, -47, 41, -12, -25, -43, 24, 28, -1, 0, 16, 43, 23}
, {-20, -51, -21, -8, -36, -42, 50, 14, 44, 8, -22, -30, 42, -25, -23, 44, 19, 13, 2, 39, 39, -30, -4, 39, 41, -2, 46, -17, 25, -15, 38, 35, -4, 49, -41, 34, 26, 27, 3, 22, 28, 6, 6, 22, -6, 47, -40, 12, -18, 20, -13, 46, -21, -24, -12, 22, 32, -4, 48, -29, -5, 34, 14, 24, -41, 26, -50, 15, -37, 39, -3, 59, 23, 22, 0, -43, 33, -45, -34, 28, -21, -11, -16, -22, 20, -35, 38, 56, -31, -29, 54, -41, -39, 18, -12, 7, -25, -36, 17, 53, -37, -30, 34, -12, -11, 49, -19, 25, 15, 39, 43, -36, 5, -30, 1, -24, -17, 15, 47, -14, 9, 26, 27, 24, -34, 13, -12, 5, 45, -16, -7, 16, 27, -20, 10, 17, -35, -39, -18, -21, 0, -32, 33, -48, 50, -10, 10, -12, 45, 37, 8, 14, -47, 42, -50, -6, 19, -34, -2, -11, 50, -39, 8, 5, 20, 0, -5, -2, -15, 34, 57, -11, 15, -28, -12, -41, 0, 37, -14, -4, -9, -35, -29, -32, -27, 6, 48, -7, -25, -27, -3, 15, -20, 41, -44, 13, -31, 8, 11, 22, 28, -9, -40, -48, -34, 22, 39, -30, 29, 33, 45, 15, 7, 46, 29, 11, 9, 19, 36, -12, 38, 32, -46, -26, 53, 12, -41, -15, 8, -7, -8, 27, 8, -29, 32, 51, 10, 16, 9, 22, -21, 43, 35, -12, 6, 40, 38, 51, 12, -16, 51, 42, -11, 20, 43, -42, -9, 47, 26, -4, 11, 13, 13, 38, -2, -31, -8, 29, 21, -27, -2, -12, -49, -29, 47, 7, 4, 47, 54, 17, -1, 54, -44, -25, -47, 49, 17, -32, -5, -36, 28, 37, -5, 39, -27, -52, 13, -46, 50, 42, -42, -2, 34, 6, 44, -35, 45, 48, -10, -18, -1, -38, -3, 44, -36, 38, 3, -30, -37, -14, -38, 46, 53, -44, -7, 5, -34, 27, 31, 26, 4, 9, 45, 16, -47, -49, -43, 21, 11, 65, -2, -3, -19, 10, -12, 59, 44, 47, -33, 1, 50, 31, -2, -40, 33, -15, 39, 15, 40, 7, 9, 24, 3, 50, 29, -17, -48, 44, 37, 12, -33, -16, -29, -17, -36, -45, 35, 32, 58, 40, 21, 11, 15, -20, 6, -28, -3, -32, -6, -13, -49, 28, -38, -50, -8, 23, -48, -8, -26, 14, -35, -8, 22, -40, 3, -6, -9, 12, 9, -43, -43, 29, -27, 5, 39, -45, 17, 36, 27, -35, 48, 43, -19, -43, 28, 3, -5, -1, -23, 26, 10, 36, 49, -39, 24, -26, -5, 24, -22, -15, -30, -47, -4, 9, -2, -19, -21, -25, -35, 51, -13, -18, -36, -5, -39, 39, 18, -19, -1, 2, -18, -45, 45, 50, 16, 37, 16, -41, -6, 0, -22, 13, 15, -21, -1, -16, 9, 11, 51, 12, 39, -51, 34, -42, 5, -24, 16, -17, 47, 31, 31, -5, 42, 22, -26, -14, -18, 15, -6, 51, -19, -61, -21, -13, 42, 50, 10, 28, -23, -9, 2, -36}
, {-34, 24, -41, -47, 46, -46, -20, -32, -8, -32, 37, 1, -7, -1, 41, 36, -37, 52, -34, -18, -19, 45, -28, 19, 52, 34, -43, -1, -34, 46, -43, 41, 45, 25, 11, 49, 36, -18, -13, -31, -4, 28, -35, 51, 33, -27, 54, 20, -13, 38, -19, -31, -5, 49, 20, -32, 37, 45, 15, 0, 16, -14, -17, -13, -3, 4, 23, -16, 41, -26, 22, -23, -9, 20, 23, 48, -7, 5, 30, 18, 24, -29, 42, -16, 16, -41, -21, 50, 10, -13, 54, 25, 25, -4, 15, -39, 6, 13, 0, -8, 6, -31, -11, -25, 11, 44, 30, 14, 47, 9, 4, 52, -19, 34, 50, 58, -19, -16, -40, -20, 5, -25, 32, 47, -43, -14, -29, 6, 28, -40, 0, 13, 15, 5, -24, 26, 0, 29, 60, -11, -1, -40, -32, 27, -30, 35, -43, -29, 22, 1, -45, -44, -30, 10, -20, 51, 52, 17, -27, 39, 30, 53, 50, -13, -41, 6, 14, 35, -2, 47, -18, -35, 18, -40, -27, 46, -11, 3, 43, -23, 5, 46, 36, 23, 22, 34, -40, 0, -7, -18, -39, 35, 6, -40, -26, 7, -26, 5, 52, 42, 21, -47, -34, 47, 4, -6, 44, -46, 37, 4, -1, -40, 46, 13, -35, 27, -1, -50, -15, -40, -7, -41, 7, 20, -22, -33, -33, -40, 0, -31, 57, -2, -32, -32, -26, -2, -19, 41, -3, -9, -15, -29, -24, -3, 1, -31, -18, 37, -31, -13, 0, 49, -39, -38, 12, 35, 31, -37, 23, -24, -56, -53, 43, -16, -44, 0, -31, -35, -45, -7, -46, 23, 28, 19, 3, 27, -41, -22, -37, 38, -9, 9, -17, 6, -10, 57, 55, 63, -43, 8, 28, -3, -30, 52, 58, 49, 58, 5, 50, -48, 42, -12, -42, 20, -41, 45, -16, -2, 0, 49, -33, 39, 29, -39, -10, -14, 51, 48, 10, 30, 16, -31, -2, -11, 38, 32, 0, 11, 1, -26, 31, 2, 19, -1, 35, 16, 57, 57, 20, 41, -38, 22, -9, 26, 32, -11, 6, -27, -12, 18, -42, 23, 48, 13, 11, 61, -23, -1, 56, -51, 23, 12, 52, 34, 29, 40, 51, 38, -19, 4, 53, 25, 65, -40, 34, 9, -22, -4, 25, -1, 35, 9, 18, -25, 24, -31, 3, -19, 27, 22, 6, 26, 14, 38, 24, -9, -20, -36, -15, 33, 24, 50, -42, -43, -21, 27, 47, 44, -13, -19, -22, -36, -47, -23, 48, 28, 5, -48, 29, 43, 29, 54, -27, 4, 14, -46, -48, -17, -17, 30, -40, 29, 11, -4, 42, 10, -30, 29, 1, -30, -16, 30, -20, -28, -21, 23, 34, 19, 43, -27, -1, 44, 1, -1, 27, -39, 31, 27, -49, 40, -37, -33, 46, 33, -38, 22, 9, 27, -28, -31, -26, -34, 66, -42, -30, -12, 10, 55, 3, 43, -43, -53, 54, 0, 46, 15, 61, 33, 51, 29, -22, -55, 38, -8, -32, 32, 8, 31, -21, 9, 29, -36, -9, 9, 39, 32, -24, 16, 42, -34, 15, 40}
}
;

#undef INPUT_SAMPLES
#undef FC_UNITS