/**
  ******************************************************************************
  * @file    weights/fc.cc
  * @author  Pierre-Emmanuel Novac <penovac@unice.fr>, LEAT, CNRS, Université Côte d'Azur, France
  * @version 1.0.0
  * @date    24 march 2020
  * @brief   Template generating plain C code for the implementation of Convolutional Neural Networks on MCU
  */

#define INPUT_SAMPLES 200
#define FC_UNITS 200


const int16_t dense_8_bias[FC_UNITS] = {-3, 2, -3, -2, -3, -3, -2, 0, -2, -3, 0, 3, -2, 3, 4, -3, -3, 0, -3, -2, -4, -4, -3, 0, 0, 2, 3, -2, 10, -2, -3, -3, 2, -3, -3, 0, -3, -3, 3, 0, -2, 0, -2, -1, 8, -1, 3, 0, 9, 0, -3, -2, 0, 2, 3, 0, -1, 12, 3, 0, -3, 0, 0, 5, 1, -3, -2, 7, 3, -3, 2, 3, -2, -2, 0, -2, -2, 0, -4, -3, 0, 2, -3, 0, 0, -3, -2, 3, -2, 3, 3, -2, -4, 1, -2, -3, 3, 2, -4, 0, -1, -3, -2, 3, -1, 4, 0, -4, -2, -3, -3, 3, 3, 4, -2, -1, 0, 0, 0, 10, 0, -3, 0, 2, -3, -1, -3, 0, -2, -5, 1, 1, -2, -2, 0, 3, -3, -4, 7, 0, -3, -2, 0, 0, 5, 6, -2, -3, 0, -1, -3, 7, 2, 4, -1, -5, -3, -1, 3, -2, -3, -3, -3, -1, -3, -1, 2, -2, -2, 3, 6, -3, -3, -3, -2, -3, -4, 2, -3, -2, 0, 0, 3, -4, 3, 0, -3, -2, -4, -3, 1, -2, 0, -4, 1, -2, 1, -1, 3, -3}
;

const int16_t dense_8_kernel[FC_UNITS][INPUT_SAMPLES] = {{-27, -39, 59, 59, 34, 44, -61, 58, -56, 40, 14, -42, -18, -51, 40, -47, 17, -40, 55, 37, 19, 16, -22, 15, 17, 0, -12, 16, 1, 42, -5, 63, 30, 58, 0, 16, 52, -29, 45, 46, 16, -18, 60, 9, -15, -20, -32, -38, -5, 10, -54, -53, 38, 34, -15, -68, -13, -43, -16, -34, -30, -62, -27, 44, -25, 27, -6, -16, -62, 9, 34, -1, -4, -22, 7, -19, 52, -12, -41, -46, -40, 11, 39, -30, -41, 60, 56, -9, -37, -2, 35, -24, 14, 45, -47, -52, -16, -47, -19, 34, 6, -47, -66, -30, -55, -13, 18, 60, 4, -2, 49, 7, 0, 33, -7, 43, -60, -43, 52, 5, -20, -14, -19, 2, 34, 8, -79, -30, 24, 23, 32, -11, 21, -8, 39, -35, 14, -43, -18, -61, -25, 15, 10, 59, -32, 30, -28, 42, -59, -12, -6, 46, 62, 7, -3, 40, 36, -54, -18, 20, 27, 2, 58, -36, -26, -51, 37, 48, 17, 2, -59, 42, -20, 21, -24, -48, -5, -32, 35, 17, -62, 62, 60, 38, 22, 18, 18, 62, -31, -41, -9, 26, 5, 50, -27, -12, -61, -49, -26, 1}
, {-45, -35, -45, 18, 1, 28, 51, 51, 39, -58, -54, 27, -2, 33, 1, -24, -4, 15, -55, -9, -31, 60, 10, 10, 62, -18, -12, -59, 19, -41, -7, 46, 50, 27, -41, -1, -51, 50, -3, -27, 47, 4, -42, -42, -60, -57, -21, 28, -57, 6, -48, 21, -61, -51, 49, 56, 10, -28, 52, -32, -39, 37, -54, 15, -28, 53, 50, 47, -60, -13, -10, -60, 22, -11, 10, 30, -58, 55, 18, 26, 30, 47, 18, -24, -4, 43, 46, 52, -13, -41, -20, -36, -3, 4, -7, -30, 12, 38, 29, 13, 3, 38, 21, 25, 46, -22, 13, -46, 23, 39, 0, 6, -27, 55, -26, -4, 41, 39, -40, 3, 52, -62, 25, -16, -7, -26, 21, -41, -31, 41, -7, 11, 5, -46, 14, 1, 48, 60, -16, 53, 33, 7, 0, -57, -41, 41, 0, -27, -57, -7, -29, 51, 37, -22, -44, 19, 18, -23, 0, -5, 18, 32, -41, 14, 25, -31, -7, -27, 28, -49, -63, -30, 56, 60, -11, 7, 19, 44, -20, -58, 29, -12, -35, -54, -1, 10, 30, 8, -31, 43, -50, -37, -5, 14, -11, -19, 36, -28, 28, 56}
, {40, -31, -35, -59, -61, -43, -25, -58, -59, 60, 46, -41, 10, -47, -16, -46, 6, 20, 12, -23, -15, 37, -18, -19, -13, -2, 2, -56, -22, -48, -14, 40, 33, 14, -33, 26, -60, 49, 9, -57, 36, -20, 23, 12, 25, 58, 1, 52, -41, 42, 22, -22, 33, 7, -38, -10, 0, 43, -39, 6, -50, 34, -42, 7, -36, -15, 48, -29, -61, -31, -62, -44, 20, -47, 7, 21, 45, 15, 46, 41, 8, 22, 60, 49, 46, 28, 34, -9, -5, -62, -3, 58, -47, 51, 34, 33, -12, 51, 45, 38, -27, -61, -32, -24, -4, -35, 15, 28, -18, -5, -46, -17, -20, -21, 41, 49, 18, 54, -56, -53, -47, -55, -56, 20, -41, -41, 55, -52, 28, -33, 36, -43, 46, 21, 3, 29, -42, 17, 3, 61, -54, -43, 29, 21, -62, -47, 24, 53, 1, -44, 17, 33, -60, 28, -23, 55, -57, 24, -48, -45, -29, 26, -50, -55, 13, -5, 4, -1, 61, -61, -36, -53, 35, -17, 48, 37, 45, 36, 34, -9, 0, 0, 32, -64, 55, -6, 37, -62, -40, 21, 22, 16, 25, -15, 22, -26, 18, 45, -21, 47}
, {5, -46, 54, -52, -41, 6, -9, -61, -42, -29, 57, -20, -28, -42, -9, -43, 41, 18, -51, -4, 56, -19, -32, 58, -3, -50, 48, -30, 28, -53, -29, -17, -46, 14, -52, -53, 2, 18, 5, -12, 41, -59, -18, 43, -15, 53, 13, -4, 0, 56, -22, 34, -38, -8, 28, 32, -38, -32, 34, -59, -15, -7, 0, 55, 0, -63, -57, 3, 2, 48, 12, -24, -13, 61, -4, 50, 32, 0, 15, 30, 20, -10, -24, -54, -37, 54, -34, -11, 42, -13, -49, 33, -25, -11, -30, 53, 31, -8, 17, 31, -49, -57, 49, -22, -44, -46, -32, -50, 57, -46, -62, -14, 18, -24, 34, 53, -64, 57, 31, -26, 26, -56, -32, -31, -31, -4, -32, 59, 5, -22, -16, -8, 30, -8, -2, -47, -12, 55, 40, 39, -47, -6, -55, 12, 55, -19, -4, 7, 14, 52, -25, -23, -7, 58, -30, -15, -23, 38, -39, -32, -8, -18, 38, 51, -54, -46, 58, 25, 0, 1, 15, -16, 55, 20, -45, 0, 48, -30, 32, 11, -35, -63, 38, 56, 22, 40, -23, -65, -30, -60, 6, 60, 57, 10, 57, -6, -63, -44, 22, 22}
, {57, -23, -35, 47, -26, 61, 19, 12, 18, -20, -39, -23, 17, -39, -12, 19, -37, 41, 25, 18, 53, -52, 39, -27, -46, -51, 22, 9, -41, -28, 46, 33, 47, 62, 26, 60, -24, 14, -52, 26, 14, -11, 25, -17, 58, -38, 61, -22, -11, 35, 7, -14, 56, 22, 34, 44, -36, 16, 10, 7, -32, -15, -52, 8, -56, 32, -50, -53, 41, 31, 29, 27, 24, 9, -32, -26, -58, -30, -15, 50, -62, 7, -27, 16, -2, -59, -2, 13, -43, -32, -59, 27, -68, 62, 34, -55, -57, 52, -61, -48, -29, -56, 44, 57, 15, -36, -23, 17, -2, 40, 35, -3, 46, 22, 56, 13, 4, 21, -12, -38, 24, -43, 60, 22, 0, 19, -2, -15, -45, 30, 41, 22, -5, -12, 16, -13, 34, 18, -32, -41, 54, -15, 60, -27, -35, -63, -29, -32, 3, 51, 53, -48, 63, 2, 49, -30, 60, -17, -48, -40, 3, 18, 60, -19, -31, -53, 11, 18, 7, 34, -50, 0, -12, -14, 17, -29, -53, 20, 50, 21, 48, -32, 22, 15, 53, -22, -48, 41, 44, -44, -58, -42, 44, -61, -46, -24, 42, -46, 1, 3}
, {13, 51, 29, -58, -13, -8, 53, 21, -19, 64, 5, 62, -35, 25, 64, -40, -39, -49, 52, -6, 0, -28, 52, 41, 52, 43, 31, -50, -25, 4, -15, -2, -55, 11, -55, 12, 4, 12, -35, -20, 23, 27, -21, -27, 1, 3, -59, 16, 46, 26, -15, 29, -10, 49, -20, -49, 38, 22, -12, -14, 12, 41, 40, -6, -24, -40, -27, 38, 33, 45, -17, 7, -21, -16, -7, 10, 22, -36, 7, 7, 43, 5, -28, -31, -13, -26, 52, -46, 36, 37, 24, 8, -29, 43, -21, -53, 8, 64, 50, -25, 6, -4, 53, 48, -50, -40, 19, -28, 5, 24, -16, 7, 7, 62, 11, 32, 54, -16, -12, -28, -10, -8, -24, 31, -40, 33, -59, -48, 59, 59, 36, 4, 43, -51, 28, -26, 53, -14, 28, 38, 13, -23, -44, -34, 59, -48, 46, -31, 12, -43, 57, 14, 46, -5, -36, 43, 54, -10, -4, 10, -6, -56, 51, -12, -33, -35, 54, -36, 36, 38, -51, 14, -41, -60, 26, -6, -31, 48, -34, -57, -63, -57, -35, 32, 48, -52, -12, -34, 18, -29, -12, 34, -7, -13, -32, -60, 38, -13, -41, 38}
, {-24, -14, -35, 40, 24, -55, -36, -34, 59, 49, -2, 15, -10, 27, 44, 13, 26, -4, 46, 64, -4, -57, -52, 46, 57, 62, -47, -44, 79, 26, -35, 30, 13, 3, -6, 16, -4, -45, 27, 52, 11, -4, 16, 26, -29, 29, 26, -60, 16, 15, 25, -31, -13, -64, 37, 39, -10, 16, 3, -5, 52, 16, 12, 52, -22, 42, 40, 31, 27, 54, -5, 21, -53, -47, 9, 23, 11, 56, 8, -59, -21, 37, 19, 60, -8, 0, -22, 59, -45, 49, -54, 57, 54, -60, -13, -56, -45, 31, 37, 26, -14, 45, 35, -4, 39, -17, -33, 12, 41, -2, -43, -14, 36, -42, -57, -38, 28, -43, -21, -39, -1, 4, -16, -21, -40, -34, -92, 23, -61, 50, -7, -6, -31, 7, 11, 10, -34, 43, -61, -46, -31, 2, 18, -53, 2, 1, -38, -9, 37, -4, 10, -25, -34, -58, -18, 21, 38, 16, 7, -37, 0, -49, 8, -28, -46, 4, 24, 20, 13, 54, -60, 41, -16, -50, -46, -6, -27, -10, 34, -24, -30, 48, 55, 56, 33, -19, -50, -30, 60, 46, -53, 42, -3, -22, 64, 1, -53, 53, -61, -16}
, {-32, -45, 33, -2, -4, 51, 29, -28, 26, -56, -18, -39, -44, 17, -28, -20, 44, 45, 17, -37, 46, -53, -3, -13, -8, 25, 34, -54, -39, -11, 30, -56, -50, -48, -53, 52, -22, 20, -21, -8, -40, -51, -39, 0, -20, -4, -36, -15, -46, -56, -11, 11, 60, 62, -27, 0, 11, 55, -20, -36, -4, 34, -35, -35, -24, -4, 26, -58, -27, -21, 40, 50, 39, -34, 59, -57, 21, -37, 20, -5, -15, -26, -33, -44, 32, -24, -37, -27, 2, -8, -1, 25, 23, 16, 31, -32, 58, 3, 53, 47, -27, -13, -34, 30, 34, 32, -45, -17, 58, -55, 23, -55, 48, -59, 4, -54, -53, -10, 54, -31, 1, 13, 45, -47, 49, -3, 32, 17, -22, -19, 50, -38, 53, -53, 40, -10, 7, 27, -9, 11, -48, -18, 1, -37, -50, 37, -47, -32, 44, 62, -41, 51, 4, -46, -20, 43, -1, 62, 35, -34, -7, 15, -45, -35, 8, -28, -4, -49, 51, 42, 5, -57, 31, 38, 62, 9, 23, -52, -57, 38, -45, 57, -28, 23, 57, -19, -57, 2, 44, -10, -23, -1, -55, -9, 5, 31, 1, 4, -19, 14}
, {-11, 56, 47, 3, 49, 8, -69, -24, -10, 15, -20, 10, -9, 108, -32, 18, -1, -5, 11, 0, 13, -17, -48, 62, 39, -7, -21, 8, 36, -24, -1, -30, 51, 23, 41, -70, -58, -84, 89, -44, -39, 14, -30, -64, 49, -51, 10, -165, 29, 13, 25, 21, -32, -27, 47, -45, 10, -42, -60, -50, 18, 25, 52, -31, -14, 67, -66, 55, 36, -3, -46, 18, -5, -14, 44, -49, 19, -42, 18, 52, 14, -5, 1, 21, -1, -51, -2, -59, 54, 77, 10, 57, -53, -7, 7, 50, -11, 50, -11, 45, 40, 36, 33, -43, 76, -50, 18, 9, 102, 4, 21, -60, 12, -24, 16, 116, 40, -35, -70, 26, 30, -16, 34, 1, -41, 21, -3, -18, 25, 1, -16, 31, -6, 0, 168, 72, 129, -74, -124, -53, -29, 46, 43, 8, 35, -136, 11, 55, -14, 24, -10, -57, -39, 19, 51, -46, 3, 24, -51, -25, -13, 14, 16, 35, 91, 26, 42, 0, -44, 134, -8, 20, -59, -56, 42, 11, -59, -56, 37, 10, 17, -62, 51, 25, -36, 51, 11, 165, -62, -89, 10, 87, -41, -56, 104, -58, 43, 67, -4, 28}
, {-36, 51, -25, 28, -26, -26, 39, 52, 23, 50, -60, 1, 44, -25, 12, 53, -42, -28, 11, 6, 55, -44, 51, 19, 2, -57, 0, 44, -30, 19, 40, -41, -35, 27, -56, 10, -24, -9, 1, -52, 4, -42, -25, -7, -17, -44, 9, 10, -51, -38, 27, 45, -52, 35, 46, -19, -55, -27, 8, -1, -45, 2, 9, 16, 35, 3, -12, -62, 11, -31, 47, 39, 31, -1, -44, -12, -2, 5, 19, 12, -56, 20, -23, 53, -24, -39, -49, 53, 28, -41, -2, 24, -53, 48, 25, 1, 11, 31, -51, 53, 12, 16, 6, 5, -27, -8, 37, 9, -25, 49, -60, 60, -5, 49, 32, -22, -64, -27, -23, 39, -58, -20, -57, -57, 54, 38, -13, -55, -54, 30, -49, -41, 49, -11, 41, -48, 52, -58, -5, 53, 58, -49, -41, -15, -6, 35, -41, -21, 5, -33, -33, -5, 28, 54, 14, 3, -15, -11, 19, -61, 19, 45, -31, 19, 46, -6, -11, -17, -51, -18, -45, 39, -24, 55, -9, -44, -31, -21, -54, 20, -44, 11, -61, 34, -35, -62, 39, 45, -35, -11, -26, -34, -8, -40, 27, 32, -26, 54, -26, 9}
, {26, 55, 32, -20, -62, 0, 17, -27, -1, -59, -55, -34, 12, 54, -40, -20, -42, 9, -4, -5, 26, 10, -60, -37, 26, 15, -23, -15, 36, -9, -33, -3, 20, -4, 60, -36, -54, 26, 24, -27, 3, 41, 17, -3, -25, -51, 37, -6, -12, 62, -31, 46, 1, 36, -62, 36, 62, 28, 15, -50, -43, 13, 49, 37, -32, -40, -1, 59, 36, 0, -34, 53, -33, 47, 52, 45, 55, 22, -49, -11, -45, 25, 34, 34, -56, -23, -46, -42, -12, 5, -35, 21, -60, 18, -51, 31, -62, -48, -25, -45, 41, -20, 12, -10, 37, 46, 9, 45, -42, -39, -36, -2, 37, 32, -45, 1, 21, 33, 57, 52, 54, 53, 24, -36, -13, -31, 12, -9, -10, -19, 24, 61, -45, 59, 44, 51, -55, -55, -43, -31, 31, -50, -13, -61, 11, -34, -20, -19, -34, 31, -47, -47, 27, 51, -60, 55, -41, -59, -2, -2, 16, -5, -49, 50, -62, 2, -33, -4, 58, 13, -35, 30, -51, 50, -37, 11, 10, 11, 4, -44, -17, -5, 20, 50, 53, -37, -42, -63, 9, 39, 35, 53, -21, -13, 10, -49, 50, -8, -61, -49}
, {-51, -44, 54, 47, -25, -20, -22, 20, 23, -25, -29, -3, 6, -65, -33, 36, -12, -44, 2, -2, 47, 9, 55, -16, 60, -22, -47, -21, 26, 0, 59, -43, -59, -41, -4, -57, 39, 4, -20, 32, -31, 62, 7, 38, 6, 35, -47, 17, -53, 29, 51, -49, 17, 0, -21, -57, 4, -15, -58, 22, -64, 29, 17, -15, 0, -33, 47, 16, 23, -3, -8, 3, -53, -58, -37, 24, 23, 21, -30, 62, 7, 54, 52, 26, 20, 58, 27, -19, 37, 36, -60, 17, -43, 30, 8, -20, 41, -24, -24, 41, 25, 24, 39, 53, -48, 20, 30, 16, 28, -12, 9, 57, -4, -17, 21, -48, 49, 36, 53, 31, -7, -33, 32, -12, 42, 45, 10, -21, 13, 32, 37, 8, 56, -1, 0, 56, 22, -58, 16, 22, -19, 49, -39, 57, 29, -29, -62, 55, 15, -13, -33, -6, 37, -47, 29, 3, -37, -34, 13, 43, 9, 48, -15, 6, 8, 12, -11, -43, -57, 21, 32, -35, 56, -22, -17, 14, 20, -17, -28, -29, -34, 30, -58, -3, -30, -62, 21, -62, 28, 0, -5, 5, -45, 45, 3, -45, -5, 46, -61, 47}
, {-37, 9, 56, -48, -16, 5, 42, -11, -54, 2, 7, 4, 5, -48, 47, 24, 50, 22, -28, 15, 51, 1, 37, 10, -41, 23, -4, 23, -52, 19, 6, 44, 44, 51, 13, 59, 55, 46, -17, 14, -54, 27, -2, -55, -28, -8, -25, -29, 21, -59, -57, -7, 12, 3, 17, 34, -15, 4, -52, 61, -15, 32, 41, -44, 16, -58, -57, 55, -50, 29, 35, 54, 0, -26, 4, 21, -33, -7, -38, 58, -16, -31, 52, -3, 31, -43, 54, -57, -16, -45, 9, -21, 11, -36, -52, 2, -9, 43, -31, 0, -15, 47, 39, 40, 53, -28, 26, -42, 2, 38, -42, -59, 12, -52, -33, -59, -50, -34, 57, -14, -64, 40, -41, -60, 39, 0, -48, -58, -34, -2, 7, -13, 32, 11, 20, -32, -32, 42, 3, -19, -43, -23, 28, -18, -29, 7, 2, -17, 52, 42, -55, 20, 27, 36, 0, -2, -19, 13, -42, 56, -42, -31, 38, -1, 16, -3, 18, 32, 60, -34, -9, 58, 6, 54, 45, 22, -59, -21, -49, 8, 12, -39, -50, -48, 55, -64, 15, -16, -20, 1, 52, -55, -57, 58, -45, 7, -14, 46, -6, -40}
, {32, -41, -9, -36, 64, -46, -18, -33, -6, 45, 54, -5, 44, -38, -38, -26, -17, 40, 50, 28, 25, -35, -33, -38, -19, 53, 2, 28, 0, -2, -25, 1, 44, 24, -32, -7, 7, 17, -59, -6, -61, 1, 34, 50, 53, 40, 47, -36, -55, -3, -52, 8, 17, -51, 59, 46, -30, 9, -25, 29, -53, 28, -21, 4, -62, 11, -29, -46, 7, 37, 15, 28, -37, -24, -56, -27, 46, -7, 30, -45, -12, 0, -55, -22, 63, 17, -11, -51, -42, 39, 55, -46, 23, -11, 54, 43, 59, 45, -4, -41, -12, -3, 50, -7, 60, 39, 40, -51, 45, -60, -62, -24, 38, 15, -28, -37, 25, 59, 57, 45, -45, 21, 61, 36, 62, -54, 39, 29, -4, 23, 26, 34, 29, -32, -24, -49, -25, 0, -21, 31, 61, 34, 34, 36, -43, 6, -17, -19, -11, -28, -60, 51, 44, -49, -9, -26, 7, 7, -27, 22, 52, 48, 45, 38, -38, -41, 1, 50, -49, -59, 36, -6, 7, -12, 14, -59, -36, 2, 13, 20, -24, -33, -32, 8, -22, 5, 4, 19, -38, 26, 62, -41, 39, 7, -1, -2, 10, 40, 34, 0}
, {1, 12, -65, 59, 9, -20, -37, -9, -61, 54, -56, 49, -48, -20, -42, -54, -35, -5, -37, -5, -41, 51, 18, 25, 64, -45, -47, 51, -15, -24, -14, 31, 21, 30, 40, 9, -18, 16, 1, 13, -12, -15, 13, -55, 57, 20, 50, -28, -22, -21, 54, 4, -31, -17, 23, 39, -27, 12, 22, -32, 8, 11, -29, -20, 34, -4, 15, 29, -56, -37, 23, -11, 39, -15, -18, 22, -48, 44, 11, 23, -57, 9, 57, 21, -3, 46, -37, 12, 56, -28, -52, -58, 20, 2, 32, 23, 30, -69, 59, -46, -53, 23, 54, -3, -42, -38, 7, 54, -31, -18, 4, 4, -31, -20, -11, 48, 59, 27, 38, -47, -10, 61, -5, 52, 6, 22, 7, 6, -11, 48, 59, 28, -13, 59, 27, 36, -59, -52, 29, 41, -43, 16, 22, 46, 15, 34, 15, 32, 55, 56, 25, 57, -36, 5, 46, -52, 52, 47, -56, -13, 11, 37, -29, -27, 48, 54, 50, 8, 2, -40, -8, -27, -37, 59, 12, -58, 49, 13, -2, 23, 41, -15, -55, 0, 23, 18, -23, 29, -56, 14, -53, -50, -1, -26, 6, 43, -57, 10, -5, -10}
, {7, -22, 16, -44, 2, -33, 0, 46, -50, 28, -56, 42, -29, -13, 60, -20, -38, 13, 0, 46, -9, 52, -11, -41, -62, 7, -63, 24, 11, -29, -46, 1, 39, 33, 58, -8, -46, 45, 25, -60, -31, 38, -53, -29, 54, 48, 6, -57, -44, 32, -1, -24, -48, 34, -59, 22, -38, -64, 40, 37, 1, -39, -32, -42, 18, -24, 29, -47, 35, 39, 28, -61, -53, 37, 15, 9, -31, 46, 24, 31, 58, 24, -59, -24, -42, -46, 29, 6, -10, 34, 0, 3, 13, 15, -23, 45, 57, 41, 48, -2, -10, 54, -55, -49, -36, 44, -21, 29, -24, -21, 55, -50, -41, 12, -57, 10, 28, -6, -10, -37, -29, 2, 7, -18, -30, 49, 35, 16, 40, -24, 5, -26, -6, -25, 11, 42, 33, -21, -53, 6, 7, -48, 27, 17, -63, 53, 0, -1, -49, 51, 6, 57, -54, -42, -51, -57, -58, 54, 18, 40, -16, 54, 18, -16, 34, -2, -34, -47, -21, -48, 41, -49, 15, -38, 48, 33, 2, 30, 21, 58, 40, -47, -48, -62, 21, -9, -37, -46, 48, -14, 43, -49, -59, -42, -1, -2, 12, -44, -40, 60}
, {0, -21, 14, -47, -4, 36, 30, 60, 2, 34, -26, 35, 0, 19, 32, 53, -30, -47, -13, -7, 74, 42, -53, 16, -11, 6, -46, -54, -28, -21, 19, 49, 19, 59, 11, 39, -10, 20, 28, 40, -21, -44, 39, -32, 28, -32, 40, 45, 0, 20, -9, 30, -8, 6, 53, 5, 16, -16, -4, -45, 52, 16, -35, -4, -26, -34, 19, -35, -56, 56, 36, -58, -39, 60, 34, 8, 47, 16, 7, 9, -3, -19, -1, -11, 35, 61, 29, 0, 0, -37, -44, 32, -45, -34, 50, 55, -12, -20, 10, -42, -24, 52, 68, -32, -24, -28, -57, 58, -57, 10, 22, -10, 3, 8, -41, 4, 19, -20, 46, -36, 58, 33, -46, -10, -35, 59, -78, -44, 2, -28, 22, -10, 57, 54, 49, 34, 40, -25, 5, -56, 25, 7, 2, 15, 24, 10, 36, -15, 32, -41, -25, -8, -52, -53, 29, -34, 45, 47, -47, -11, 56, 35, 40, 0, -34, 60, -3, -16, -26, -23, -21, 22, 35, -21, 5, -11, -27, 24, -59, 22, 40, 58, 41, 44, 17, -4, -20, 34, -19, -52, 60, -36, -59, -60, 6, -20, 32, 31, 18, 53}
, {6, -64, -44, -34, 0, -25, -56, 33, 41, -11, 52, -55, -60, -56, 65, -9, 0, 3, 31, -19, -23, -54, -26, 30, 46, 53, -58, 23, 6, -37, 38, 5, 24, 47, 14, 8, 12, 19, 13, -52, 20, -43, 15, 4, 36, -45, -10, -61, 62, 22, -39, 16, 23, -43, 0, -35, -54, -20, 14, 44, 43, -24, 17, -56, 39, -37, -35, 12, 1, 30, -23, 27, -59, 28, 10, -31, -3, -22, 40, 52, 46, 61, -11, 28, -18, 39, -20, 50, -46, 42, 25, -45, -12, 23, -29, 34, 58, 49, -44, 22, -49, 21, -55, -5, -12, -37, -39, -47, -20, -42, 5, -9, -44, -28, 40, -54, -15, -62, -40, -1, -42, 28, 19, 35, 16, 17, 44, 54, 1, 44, 54, -7, 11, 51, 3, -57, 13, 28, -52, 41, 39, -27, 55, 18, -60, 41, 43, 7, -9, -10, 33, 22, -33, -2, -62, -52, -61, -3, 0, -41, -27, 7, -28, -61, -22, 11, -57, 52, -21, 54, -26, -54, -17, 57, -19, 41, 25, -11, 28, -19, -55, 55, 36, 49, -37, 18, -11, 15, 41, -62, -8, -13, 57, -20, 43, -15, -25, 56, 25, 29}
, {-25, 54, -35, 23, 59, 54, 11, 28, -48, 23, 46, -19, 0, 42, -16, 37, -32, -15, -19, 8, 5, 23, 37, -25, 5, 44, 47, 3, 7, 30, 62, 14, 52, 35, 12, 35, -1, -57, -51, -8, -29, 28, -10, 51, -42, -61, -47, -59, 0, -24, 14, -29, -50, -7, 24, 47, 9, 52, -24, -22, -37, -68, -25, -33, 23, -37, 23, 54, -44, -62, -34, -2, -29, 52, 34, -59, -40, 32, -13, 30, -6, -33, 1, -38, -7, -54, 36, 7, 0, 32, -40, -23, -29, 14, -59, 16, -29, 38, 44, -12, 29, 10, 15, 52, 41, -39, 30, 18, -48, -40, -50, 7, 28, 24, -43, -33, 19, 1, 51, 53, 35, 16, -31, 14, 53, 11, -37, -17, 20, -51, 20, -60, -41, 49, -10, -15, 15, -62, 22, 57, 45, 35, -3, -61, -33, 14, 29, -7, -41, -14, 50, 45, -54, -40, 4, 2, -8, 7, -59, -7, -17, 46, 28, -14, -32, 18, -4, 4, -9, 19, 14, 30, 51, -14, 48, 26, 60, -2, 35, -50, -34, -60, 10, -31, 64, -21, 58, 0, 1, 36, 41, -6, 29, 26, -42, 35, -55, -55, 31, 16}
, {-38, -63, 55, 47, 59, 27, -64, 42, -25, 17, 17, 53, 15, 52, 21, -5, 7, -57, -17, 44, -7, 44, 35, 18, -14, 6, -64, 54, -7, -34, -27, 23, -35, -41, -44, 17, 20, 62, -5, -35, 47, -1, 20, 39, 14, 43, 21, 12, 35, 10, -16, -40, -49, -16, 25, 7, -37, -18, 51, 5, -40, 48, -33, -58, 39, -56, -36, -8, 25, 51, -44, -46, 37, -50, -26, 60, 30, 31, 23, -19, 29, -24, -30, -3, -53, -63, -32, 41, 59, -31, 6, -42, 14, 45, -45, 20, -22, 39, -55, 27, 9, 15, -51, 28, 54, 25, 3, -57, 13, -48, -20, 36, 24, -5, -39, 34, -6, -36, 45, -30, 8, -33, 56, -31, 24, -65, -18, 52, -33, 18, 33, -39, -4, 31, 21, -17, 47, 13, -21, 49, -3, -59, 52, 51, -25, -26, 51, -4, -10, -29, -35, 30, 41, 30, 33, -52, -50, 5, 55, 42, -20, 5, -52, -49, -2, 24, 45, -47, -51, 16, 57, -45, -33, 43, -25, 3, -37, -37, -18, 56, -54, 45, 40, 56, 56, -53, -45, 53, -29, 11, 27, 34, -7, -62, 20, -16, -10, -32, -31, 54}
, {-54, -26, -62, -6, -36, -29, 29, -16, 23, -4, 38, -23, -3, -26, 61, -32, -57, -35, -17, 25, 39, 51, -54, 31, 36, -1, 18, -43, -11, -32, 9, -48, 11, 16, -51, 0, -48, 16, 7, -18, -37, -48, 7, -12, -37, 17, -29, -34, -10, 46, 11, 9, 11, -13, -41, 49, -56, 59, 38, 10, 48, -3, 60, -55, 56, -16, 26, -48, -7, 53, -50, -47, -2, -50, -12, 54, -19, 21, 54, 42, 32, -14, -23, 50, -44, -10, -37, -2, 32, -59, 9, -44, -1, 38, -47, -11, -57, -54, -7, -53, -61, -25, 61, 9, 19, -48, -21, -57, -22, 5, 27, 37, -1, -18, 34, -54, 43, -61, 7, -47, -56, -16, -58, -30, -12, 0, 17, -55, 8, 10, -43, 22, -35, 43, -30, -27, 13, 6, 32, -32, -22, -49, 13, 48, 35, -6, -22, 54, 58, 46, -31, 0, -11, 46, -28, 32, -62, 47, 11, 59, -61, -42, 23, 20, -6, -3, -53, -19, -8, -46, 11, 27, 65, -29, 9, 17, 33, 18, 31, 39, -16, 28, 26, -8, -65, -61, -59, -1, 35, -50, -21, 40, -41, 29, 32, 12, 20, 0, -45, -61}
, {31, 48, -6, 61, 5, -18, -44, 29, 21, -20, 54, 3, 0, 61, 8, 20, 58, 50, -38, -26, -25, 7, -16, -33, -44, -64, 9, -15, -9, 14, -57, -32, -35, 20, -25, -51, -7, 40, -33, 29, -43, -50, -61, -61, -3, 51, -39, 3, 38, -45, 46, 0, 15, -36, 5, 57, 58, 55, -13, 25, -27, -36, -23, 23, 56, 46, 43, -23, 42, 2, -10, -32, -24, -31, -30, 27, -25, -63, 32, 6, 25, -17, -38, -18, 33, 53, -57, -44, 43, -12, 39, 39, -43, -22, -8, -52, -9, 21, 24, -24, 49, -7, 18, -61, 24, -55, -25, 2, 24, 30, 44, -52, -2, -45, 33, 32, -43, -26, 17, -37, -10, -15, 5, 24, -45, -37, 36, -48, 59, 35, 5, 46, -13, 44, -36, 56, -20, 16, -10, 39, -16, 52, 18, -34, 51, -20, 12, 4, -51, -32, 9, 53, -54, -16, 21, 17, -39, -25, -14, 14, -18, 55, -57, -61, -53, -59, 56, -34, -16, -67, -13, 13, 61, 36, -48, 40, 25, 26, -33, -11, -23, -23, 0, -58, 37, -51, -53, 7, 28, -37, 26, 4, -35, 5, 8, -59, 0, -20, -34, -26}
, {17, -38, -41, -7, 14, 37, -50, -28, 53, 27, 50, -27, -52, -35, -7, -50, -10, 38, 15, -54, 27, 21, -5, 25, -52, 1, -49, -4, 23, 48, 42, 27, 17, -10, -11, 41, -1, -29, 32, -39, -7, 4, -49, 41, -30, 0, -18, -35, 22, 27, -11, -8, 60, -11, -33, 19, 45, 7, 18, -3, 63, -7, -17, 6, -22, 36, 19, -63, -50, 46, 50, -26, -12, 4, 58, -59, 41, -18, -7, -41, -46, -24, -44, -52, -29, -9, 34, -56, -43, 42, 24, 51, 53, 34, 37, 13, -34, 35, 45, 25, -59, -33, 12, 14, -31, -57, 6, -31, 48, 13, -39, -28, 23, -28, 0, -7, -47, 16, -58, -44, 36, 8, -62, 59, 25, -59, -65, 55, 2, 26, 49, 7, -32, 47, -5, -1, 8, 4, 14, -40, -2, -51, 12, 33, 37, 44, 9, -7, -62, -27, 53, -43, -45, 18, 39, 31, -34, -13, -9, -2, -20, 46, 58, 59, 24, 17, 46, -40, -12, -17, -16, -24, -4, 57, -16, -49, 16, 42, -8, 48, 36, -51, 32, -6, 56, -45, -41, -17, -9, -11, -35, 21, 26, 7, 27, 50, -33, 67, -55, 12}
, {-47, 5, -12, -60, -41, 0, 20, 13, 32, -30, 7, 13, -37, -19, -39, 16, 17, 24, 10, 17, -65, -17, 10, 49, 19, -3, 59, -18, 58, -43, 43, 49, 45, -5, 10, 6, 12, -21, -1, 37, 50, -53, -7, -21, 23, 6, 41, -13, -60, -50, -12, 52, 30, 55, 57, 20, -17, -21, -41, 55, 0, -41, 18, -57, -29, -32, 10, -6, -40, -58, 1, -57, -1, 51, -4, 54, -27, -17, -18, 42, 28, -43, 48, 14, 49, 22, 4, 22, 1, -6, 51, -30, -41, -60, -39, -59, 15, -18, -62, -17, 43, -17, -44, 25, -59, 48, 13, -30, -46, 8, 55, -43, 2, 0, -22, -44, -35, 20, 34, -4, -57, 50, 34, -43, 45, -21, 43, 32, 49, 36, 26, 10, 7, -61, 5, -19, -52, 39, 18, -43, 34, -8, -56, 51, 29, 21, 3, 56, 57, -45, -37, 11, 36, 17, -15, -13, 52, -54, -24, 14, -60, -51, -12, -36, -44, -7, 51, 7, 20, -1, -33, -1, -48, 27, -32, -31, 43, 42, 13, 9, -30, 18, 18, 10, 53, -47, 44, 27, 4, 43, 45, -46, 46, 37, -42, -61, -27, -50, 5, 38}
, {53, -5, 21, -52, 35, -25, -19, -18, -61, 0, 33, -29, -62, 2, -10, 44, 14, -39, 2, -24, -44, -53, 61, -51, -44, 13, 42, -5, 54, 11, 36, 16, -15, 33, -52, -52, -13, -12, -56, 56, -4, -53, 18, 30, -44, -40, 8, 22, -48, 56, 52, -3, 5, -53, 59, -7, 57, 23, -34, -35, -24, 1, -27, 0, 50, 56, -28, 21, 51, 54, 25, -58, -24, -24, 50, -19, 21, 32, -50, 31, -47, -29, 30, 40, -15, 55, 43, 55, 25, 48, 60, 44, -39, 50, 16, 38, 18, -54, -32, -46, 50, -12, -1, 55, 17, -22, -50, -36, 30, 40, 13, 51, 24, 5, -16, -28, -10, -63, -5, 3, -37, 5, -2, -4, 53, -24, -26, -19, -8, -30, 43, -6, 10, 41, -28, -17, 34, -46, -26, -7, -49, -55, 53, 2, 25, -11, 60, 46, 57, -33, 8, 8, 27, -11, 28, 46, 1, -48, 7, 4, 19, -53, 2, -4, 18, -42, -54, -47, 19, -2, -60, 0, -56, 60, -53, 41, -31, -14, -47, 12, 28, -12, -50, -49, -57, 23, 28, 24, 31, -19, 62, 12, -60, -27, 21, -1, 51, -22, 0, 27}
, {21, -63, -48, -17, -23, -59, 56, -42, 43, -46, -1, 12, -29, -1, 8, -16, 26, -30, 45, -1, -69, -47, -17, -14, 9, 16, -54, -31, 34, -18, -24, -20, 34, 8, -14, -16, -11, 46, -22, 56, -21, 47, 29, -59, -17, -29, -28, 58, -2, 31, -23, 22, -2, 63, -30, 76, -36, 47, -35, -43, 35, -24, -16, 48, -64, 22, -51, 54, -61, -57, -6, -61, 45, 43, 37, 50, -53, 51, -60, -54, 44, 27, 59, -24, 34, 27, 4, 24, -27, 39, 20, 55, -38, -51, -55, -64, -36, 31, -22, -11, -36, 24, 46, 20, 29, -3, -6, -35, 51, 47, -47, -23, 20, -43, -24, -13, -54, 52, 34, 14, 13, -25, 10, 55, -23, 50, 43, 28, -15, -29, 24, -51, -53, -62, 43, -42, 46, -30, 45, -32, -34, 19, 44, 6, 13, -36, -55, 19, -35, -13, 9, -47, 48, -59, 46, -60, 10, -54, -9, 60, 15, 40, 44, 42, -8, 50, 0, 18, -60, -28, -2, 0, -14, 26, -55, 24, -1, -3, -40, 37, 58, -27, -31, -64, -43, 30, 10, 46, -3, 30, 0, -52, -30, 8, -55, -17, 45, -45, -37, -21}
, {34, -12, -33, 40, 53, 29, 35, 24, 49, 17, 50, 54, 54, -3, -32, -22, 14, 5, 46, 56, -24, -36, 30, 20, 23, 49, -14, 7, -41, 54, 9, 23, 48, 5, -13, -61, -4, 33, -42, -3, -5, -4, 50, 57, 23, -11, 41, 26, 5, 2, 46, 27, 1, 21, -14, 59, -40, -53, 45, 59, -39, 58, -21, 15, -45, -12, -59, -49, 3, 52, 31, 32, -3, 1, 23, -1, -34, 26, 28, -48, 1, -52, -8, 16, 26, -35, -14, 63, 0, -61, 5, -54, -23, -23, -48, -55, 28, 38, 46, 4, -60, -33, 11, -6, -46, 19, -39, 46, 12, 41, 26, 62, -48, 49, 7, -45, -4, 14, -54, -51, 15, -36, 50, -58, 6, 25, 3, -27, -23, 44, 30, -63, 15, 2, 24, -62, -63, 37, 22, 51, -31, 35, -31, -5, -7, 38, 14, 15, 8, -44, 27, 42, -6, 17, 24, 0, -39, 30, 6, -9, 44, 57, 39, -18, -6, -8, 22, -24, 54, 44, -6, 31, -51, 13, 22, -8, 23, 26, 0, 7, 7, 35, -49, 18, 25, -41, -48, -21, -18, 46, -1, 27, -40, -24, 12, 44, -22, 15, -21, -41}
, {52, 44, 19, -17, 53, 7, 31, -32, -31, 19, 54, -20, -31, -41, -3, -17, 35, 67, 1, -3, -38, -1, -36, 10, -21, -29, 26, -39, -51, -18, 13, 53, 60, 2, -42, 63, -56, 1, 32, -19, 16, -43, -36, -63, -63, -18, -58, 43, -26, -58, -5, -56, -17, 0, -29, -14, 15, -12, -19, 92, -26, -11, 44, 56, -28, -17, 65, 14, 51, -19, 6, 17, -13, 2, -58, -46, -14, 17, 27, 57, 82, -19, 2, 3, 38, 58, 26, -30, 60, -46, 53, 42, -39, -32, -12, -5, -67, 43, -30, 13, -25, -8, -53, -21, 54, -23, -5, 70, -42, 1, 14, 10, -38, -46, 24, 46, -33, 4, -4, -52, 13, 37, -2, 55, 16, -5, -34, -8, -12, -38, -43, -8, -11, 20, -9, 29, 39, 57, 44, 57, -20, -52, -32, 21, -30, 26, 64, 34, 15, 43, 0, -31, -22, -21, 27, -69, -60, -13, 31, 39, -64, -7, 34, -50, -16, -4, 3, -49, 62, -37, -55, 74, 58, 44, 61, -25, 21, -68, 89, 46, -34, -67, 37, 44, -61, 1, 3, 55, 31, 42, 12, 36, 19, -62, -20, -51, 28, 43, 14, 29}
, {-40, 17, -34, 38, -34, 0, -43, 4, 15, -73, 4, 60, 22, 16, 44, 5, 43, 29, 4, -46, -52, -42, 126, 38, 9, -76, -59, -46, -66, 51, -6, 42, -14, -36, -6, -39, 50, 46, 24, -25, -12, 8, 14, 17, -26, 42, -38, 26, 25, 73, -21, -19, 54, -52, -27, 45, -25, 45, 5, -72, -3, 26, -27, 27, 19, 12, -29, -29, -13, -44, 25, -27, -33, 58, -32, 62, 65, 98, 36, -46, 61, -35, 13, -21, 7, 55, -14, -48, -5, 6, -56, 42, 4, 47, -26, 93, -17, 14, 37, 31, -38, 61, -48, -1, 20, -57, -44, -18, -23, -28, -36, -30, 27, -8, -59, -9, -38, 3, 60, 41, 47, 53, -44, 32, -56, -24, 114, -58, 67, 41, 7, 28, -55, -54, -88, -12, -36, 78, 16, -12, -2, 65, 58, -64, 21, -26, 6, -18, -3, 7, -30, -20, -61, 4, -35, 1, -48, -12, 45, 27, -30, -4, 23, -14, -79, 42, -33, 39, 51, 46, 13, 50, 19, 31, -51, -60, 77, -25, 50, 1, 46, 11, -73, 0, 46, -63, -37, -81, -28, 75, -15, -27, -59, 34, -85, -50, -44, -31, 43, 43}
, {-8, 30, 20, -52, -59, -33, -30, -6, 49, -58, 0, 54, -24, 7, -45, 17, -62, 62, 10, -25, 41, -17, -32, -47, -49, -17, -5, 41, -42, -33, 26, -2, -62, 22, 20, -23, 29, -55, -23, 57, 32, 40, -13, 17, -15, -37, 34, -12, -23, -55, 23, 28, -17, 12, -48, 22, 20, 41, 11, 6, 35, -35, -41, 9, 48, 45, -42, 13, 20, 57, -55, 15, -2, -28, -22, -22, -24, 31, 40, 10, 5, -5, 59, 42, -13, -44, -31, -25, 39, -59, -8, 59, -40, -53, -45, -29, 22, -61, -50, -59, -4, -20, 39, 46, 19, 46, 63, 62, -52, 9, 53, 7, -7, 9, 20, -46, 37, 38, -37, 54, 11, -61, -6, 12, -32, 50, -36, -13, 8, 33, -20, -32, 23, -15, 6, -45, 9, -14, -52, 23, 30, 60, 39, -26, 55, 22, -34, 0, -58, 26, -18, -28, 14, -9, -16, -46, 6, -55, 23, -31, 9, -47, 0, -62, 2, 4, -18, 51, 45, 22, 24, 53, 46, -31, 2, 48, -61, -60, 4, 31, -2, -15, -1, 17, -34, -12, -25, 24, -36, 19, -29, -50, -4, 0, -17, -15, 58, -55, -62, 55}
, {15, 27, 0, 24, -51, -58, 55, 36, -43, 59, -37, 61, 27, -17, 34, 57, -60, 7, 52, 36, 57, 21, 25, 5, 15, -20, -43, 58, -5, -19, -41, 40, 57, -39, -10, -29, -21, 7, -52, -51, -35, -12, 9, -55, 45, 51, 57, 30, 57, -43, -65, -11, -34, 53, 9, -59, 3, -53, 15, -33, 1, 14, 40, -51, 11, -2, -24, -49, 45, -5, -47, -10, 40, -52, 41, -59, 61, 15, 0, -60, -57, -47, 59, -5, -42, 12, -32, 11, -3, 22, 38, 3, -66, -14, -22, 46, -39, -30, -30, 42, 36, 21, 31, -62, 13, -6, 9, 33, 20, 9, -31, -10, -40, 23, -52, 29, 58, -28, 12, 60, 41, 2, 15, 60, -13, -42, -52, -19, 28, -65, 37, 8, -25, -49, -40, 28, 48, 14, -23, 0, 5, 0, -14, 17, -51, 11, -29, 44, 18, 52, 54, -20, -55, 1, -13, 0, 61, 53, -41, 51, 22, 18, 29, 5, 26, 35, -30, -46, 15, 7, 30, 12, 0, -21, -36, -23, -27, 19, 23, -49, -41, 28, 27, 24, 50, 46, 54, -32, -63, -28, -25, -46, 28, -23, 50, 32, 52, 57, 8, -36}
, {-55, 27, 25, 19, -55, -16, 38, -36, 14, 9, -4, 20, -61, 26, 21, 27, 49, -39, 35, -2, 54, 32, 61, -13, -15, 27, 29, 9, -19, -56, -54, 57, -39, -27, 15, -6, 2, -16, -31, 2, 41, -15, 11, -9, 19, -53, -3, -22, -5, -10, -43, -38, 48, -55, -6, 10, -6, -55, -21, -20, -20, 38, -53, 0, -49, -21, 3, -11, 14, -30, 6, -62, -47, -18, -60, -1, 55, 9, 59, 28, -36, 11, 26, -38, -61, 11, -36, 0, -46, -6, 55, 17, -21, -43, 31, -61, 0, 39, -10, 1, 64, -3, 48, -42, 32, -32, -22, -6, -40, -22, -35, 16, 15, -51, 47, -52, 11, 50, 0, 31, 30, 58, -41, -59, 58, 47, -61, -4, -42, 10, 39, -42, -27, -15, 65, 53, -7, -4, 22, 36, -64, -51, -25, -55, -34, 8, 14, -19, -59, 60, 6, -61, 39, -41, 49, -22, -28, 50, 28, 50, -33, 19, 2, -38, -46, -37, 33, 21, 17, -47, 12, -34, 0, -21, 24, 54, 33, 25, -12, 35, -10, 29, 43, 48, -37, 33, -13, 36, 7, 19, -59, -44, 57, -35, -6, 22, 37, -40, -25, -49}
, {38, 53, -10, -65, -54, 32, -1, 44, 54, -14, 25, 49, 11, 15, -36, 0, 61, -10, 31, -59, -36, 5, 49, 16, 56, 35, 64, 42, -31, -53, 21, -43, -60, 58, -38, 53, -24, 30, -56, -11, 37, -43, -3, 5, -30, 19, 20, 33, -59, 61, 22, 8, 5, 59, -54, 18, 59, 51, -7, -13, 6, -19, 32, -18, 11, -56, -31, -28, -5, 3, -44, 9, 60, -63, 45, -24, 49, -59, -53, 18, -45, 3, 53, 42, 60, 7, -19, -10, -23, -33, 49, 53, -52, 41, 26, -6, 39, 16, -36, -23, -19, -56, 56, 51, -41, 22, 2, 27, 56, -31, 62, -39, -14, -58, -17, 33, -2, -41, -54, -21, -39, -23, 42, 6, 22, -23, 48, 0, 4, -33, -10, -44, -42, -54, 9, 44, 39, -21, -11, 26, 52, 9, -10, 39, 28, -17, 61, 43, -18, 3, 63, -25, 15, 13, -44, -15, -18, -39, 0, -8, -41, -38, -12, 58, -30, 18, 16, 0, -22, 23, 49, -34, 38, -1, 25, -23, -36, 61, -47, -18, 28, -37, -17, 56, -37, -18, -49, 37, -8, 29, -3, 34, 4, -15, -4, 46, -3, 28, -5, -49}
, {12, 56, 41, 47, 60, -27, 56, -45, 58, 1, 39, 8, -25, -41, -20, -37, -22, -27, 9, 70, 87, 20, 36, 20, -35, -1, -55, -52, 65, 1, -5, 22, -34, 56, 55, 60, 22, -28, 0, -9, -28, 4, 45, 2, -15, 6, -42, -4, 38, -11, 51, -34, -3, 27, -22, -19, -64, 0, -13, -59, -49, -36, 37, -63, 33, 31, 8, -28, -23, -15, -47, 12, -38, 24, 0, -42, 11, 7, 14, -39, -26, 14, 11, -53, 49, 34, 51, 22, -22, 20, -25, 4, 37, 13, -8, -29, -23, 59, 33, -62, 35, 64, 9, -49, -6, 52, -56, 4, 35, -60, -8, -10, -11, 59, -22, 44, -36, -31, 23, 20, 64, 18, 3, 12, -25, -37, 39, 40, 30, -18, -19, -54, 50, 37, 31, 21, -55, -63, 18, 40, 64, 39, -52, -43, 55, -34, -15, -39, 4, -6, 44, -46, 12, 48, 4, 20, -29, 34, 13, 31, 23, -49, 52, 22, 28, -5, -10, -56, 33, 52, -51, -35, 2, -42, -57, -38, 7, -52, 17, 12, -40, -35, 7, -38, -20, 52, 0, 36, 30, 32, 35, 3, -20, 61, -10, -12, -17, -44, -18, 18}
, {-49, 49, -32, -49, -48, 56, 28, 7, 45, -33, -28, 58, -20, -32, 34, 0, 29, -2, -46, 18, 10, -18, 17, 57, -35, 44, -7, -41, 14, -32, -44, -53, 17, -6, 24, 34, -17, -41, 10, -52, -40, -12, 29, -49, 61, -17, -53, 8, -9, -16, -16, 48, 9, 5, -46, 48, 5, 40, 15, -53, 20, 29, 59, 0, 62, 23, 8, -43, -39, 46, -9, -3, -59, 14, 3, -8, 35, 49, -58, 51, 55, -56, -32, -39, -62, 14, -51, 11, 43, -17, -56, -52, -10, 17, -25, 14, 16, 48, 7, -62, -43, -5, 65, -9, 7, 50, -42, -9, 22, -40, -52, 57, -15, 1, 0, 33, 37, 17, -22, -20, -8, -27, -33, 33, -42, 39, -79, -37, 35, 0, 34, 16, 8, -39, 58, 28, 28, 17, -71, -48, -20, -4, 31, 60, 45, 41, 38, 59, 42, 40, 54, -37, 62, -13, 12, 47, 4, 54, 60, -24, 3, 18, 1, 56, -15, -46, 56, -44, -9, 36, -46, -60, -57, -30, -6, -47, 9, -1, -36, 41, 7, 37, -14, -51, 11, 45, -60, 56, -29, -51, 26, -1, -62, -34, -46, 60, 43, -44, -30, -10}
, {-51, -24, -36, -3, 2, 50, 13, 20, 33, 18, -39, -9, -4, -60, -21, 12, -20, -16, -48, 46, -41, 13, 56, 12, -24, 8, 58, 45, 52, 37, -57, -16, 12, 17, -42, -35, 16, 23, -48, -21, 13, 19, 60, -24, 9, 28, 25, 41, 61, 38, -20, -52, -49, 44, 53, 37, 41, 42, -23, 23, -7, 28, -21, -40, -53, 4, 47, -39, -28, 14, 60, 26, 37, -4, 39, -47, 34, 11, 29, 3, 21, -28, 0, -8, -3, 19, 26, -44, 8, -25, -43, 10, -17, 24, 26, -45, 57, -46, 59, 7, 57, -61, -32, 30, 11, -51, -23, 35, 31, -41, -31, -7, 39, 47, 54, 59, -54, -53, -53, 5, -37, -4, -60, -43, -58, 42, -47, 8, 51, 3, -19, -60, 5, 45, -59, 21, -27, -35, -32, -46, 51, -56, -7, -46, 35, 38, -11, -10, 31, 31, 58, -36, 56, 40, 1, -9, 9, 44, -32, 61, 0, 6, -1, 37, 34, -47, -45, -53, 10, 61, 10, -51, -34, 21, 12, -21, -60, 8, 33, 14, 53, 14, -5, -28, -38, -23, 57, -46, 18, 33, 21, -60, 17, 44, -57, -60, -27, 39, 41, 49}
, {-20, 2, -11, 19, 49, -50, 30, 42, -12, 29, -5, -12, -9, 50, 16, 58, 61, -52, -1, -54, -20, -20, 35, 54, 21, 0, -7, -51, 50, 48, 26, -3, 48, -15, 35, 46, 6, -38, 45, -41, -45, 54, -5, 4, -51, -27, 20, -58, -48, -6, 47, 25, 13, 21, 51, -65, -7, -35, -51, -10, -32, 0, -59, 58, -38, 14, 24, -23, -47, -38, 4, 7, -11, -33, 11, -20, -61, -42, 1, -17, 31, -24, 15, 12, 38, 20, 28, -63, 19, -42, 21, 36, 3, 15, 11, -34, 16, -1, 0, 6, 18, -2, 29, -28, -27, -32, -28, -7, 2, -11, -52, 6, -38, 17, -29, 27, 54, 30, 37, 25, 52, 45, -52, 56, 47, 53, -37, 62, -8, -50, 36, 60, 61, 17, -6, -27, 47, 16, -22, -18, -43, -31, 29, 51, 53, -6, 51, 0, 34, -55, 12, -52, -58, 7, -29, 1, 2, -8, 62, -56, 41, -41, 40, 30, 60, -54, 15, 8, 18, -27, 26, 15, -60, 33, 36, -1, -54, 14, 61, 12, -4, 20, -39, 57, 13, -18, 32, -1, -22, -28, -44, 18, 20, 17, 70, 27, -43, 13, 24, -52}
, {22, 23, -12, 3, -13, 44, 36, -38, -58, -23, 19, -52, -52, -51, 56, -43, 16, -56, -21, 44, -15, 15, -34, -16, -32, 13, -51, -64, 25, 37, -51, 53, -21, -51, -6, -10, 19, 27, -2, -24, 16, -14, -60, -30, -23, -14, -39, -40, 57, -6, -7, -60, 1, 19, 11, 14, 9, 53, 62, -47, -61, 20, 3, 32, 1, -60, 21, 38, -41, 12, 15, -31, -2, 47, 15, 34, 31, 35, 32, 2, 34, -37, -23, 0, -30, -44, 60, 37, 32, -64, 4, 1, -43, 37, 57, -54, -3, -49, 47, -45, -34, 25, -40, -32, 33, 26, 5, 34, 7, 31, -28, 32, 50, 53, -42, 36, 47, 0, 17, 36, -21, -36, -12, -57, 40, -6, -37, -50, -37, 34, -14, 55, -54, -35, 26, 0, -51, 37, -25, -32, -21, -63, 9, 43, -6, 8, -45, -7, -10, 60, -5, 23, 55, -14, 26, 4, -64, -14, 0, 51, -25, 50, 15, -46, -43, 21, 3, -8, -53, -19, -7, -66, 3, 10, 9, 33, 10, 22, -34, 11, 33, -65, 11, -63, 43, 45, -55, 57, 4, 7, 44, -23, -57, 18, 10, 56, 21, -41, 28, 17}
, {10, -54, 12, -2, 55, -8, -11, -1, -42, -1, 16, -7, -55, 53, 54, 15, 29, 20, 41, -66, -33, -36, -54, 47, -16, 38, 31, -46, -12, -27, 51, 23, 17, 27, -29, 13, -4, 65, -3, 60, 53, 54, 44, 56, 6, 16, 11, 38, 2, 31, -27, -26, -48, -48, -26, -53, 39, 42, -11, 61, -37, 31, -69, 42, 36, -9, 51, 27, 48, 31, 32, 30, 25, 34, 13, -42, 53, -6, -49, 5, 0, -14, 22, 19, 43, -12, -25, 62, 40, 40, -52, -48, 12, 42, 57, -21, -11, -48, 61, -35, -6, 51, -11, 32, 7, -13, -60, 35, 28, 39, -29, -35, 3, 32, 26, 1, 21, -11, 3, -26, -47, -19, -21, -55, -28, 45, 29, -1, 26, -42, -23, 54, 44, 17, -61, 44, -30, -7, -5, 34, 50, -7, -52, -53, 50, -17, 23, -2, 12, -46, 6, 19, 40, 20, 27, 54, 49, -60, -59, 13, -2, -60, 38, 52, -63, -8, -59, 12, 39, 27, -29, -56, -7, 11, 57, 17, 58, 42, -44, 23, 45, 57, -25, -21, -52, -50, -24, -33, 36, -17, 6, -44, 12, -41, -53, 11, -32, -3, 51, 60}
, {-17, 51, 54, 31, 23, -6, -46, -19, -25, -12, 53, -38, -56, -10, 45, 24, -31, -25, -50, 42, 29, -3, 0, -50, -24, -35, -5, 54, -42, -42, 17, -20, -3, 12, 9, -33, 48, -57, -40, 31, 24, 23, 31, -17, 32, -34, -4, -44, 19, -29, -54, 7, -48, 3, 56, -7, -35, -59, -30, -46, 5, -33, -16, 54, 14, -31, 4, 42, 46, -7, 46, -38, 52, -37, 60, 8, 22, -51, 5, -57, -23, 6, 21, -12, -34, -47, -15, -43, -52, 37, 12, 55, -32, -40, 16, -54, -17, 57, -6, -27, 15, -36, -7, 48, -15, -46, -6, 0, -32, 8, -46, -13, 23, 43, 18, 26, -1, 15, -53, -20, -28, -60, 28, -55, 0, 56, -22, -2, -23, -44, -43, -24, -14, -4, -50, 11, -7, -14, 60, -21, -60, -39, -17, 45, 16, 12, 45, -4, -25, 48, 45, 40, 9, -16, 56, 24, 12, -14, -61, 62, -6, 39, 1, 31, 3, 3, -29, 29, 15, -49, 51, -50, -28, 19, 21, -49, -19, 23, -32, -33, -17, 56, -56, 55, 28, -7, -37, -23, 9, -37, 0, 41, 40, 39, 44, -31, -29, 40, 11, 37}
, {42, -47, 8, -18, 42, -61, -48, -53, 58, 36, 52, 46, -2, 47, -14, -29, -10, -52, 56, 48, -25, -42, -51, -8, 56, -26, 7, 46, 47, -44, -45, -54, -14, -47, -44, 4, -31, 2, -23, 57, -18, 58, 50, 54, 23, 55, 50, -19, 2, 12, 15, -30, -11, 46, -32, -29, 18, 8, -54, 10, -1, 20, -12, -34, -13, -59, 0, 36, -20, 24, 3, -12, -45, 49, 46, 8, 37, -55, -3, -13, -46, -3, 14, -47, -25, 0, -52, 36, -35, -61, 43, 43, 60, 30, 35, -28, -14, 33, -32, -55, -51, 19, -32, 26, 14, -38, 5, 4, 40, -41, 44, -24, -43, -44, -44, 13, -17, 50, 55, -46, -64, 55, 0, -58, 6, -13, -40, -51, -12, -27, 29, -2, -19, -34, -52, -35, -17, -55, 48, 23, -4, 30, 53, -57, 49, 50, 21, -17, -22, 19, 46, 6, 45, 58, -35, -31, 19, 49, 56, 1, 22, -48, 0, -12, 37, 54, 22, -32, 24, 35, 10, 19, 55, 52, -23, -52, -23, -42, 27, -58, -27, 5, -41, -8, 0, 8, -43, -25, -47, -12, -51, 24, -32, 1, -39, -33, -62, 27, 36, 53}
, {-10, -38, 19, 15, -14, -42, -31, -2, -51, -45, -39, -43, -4, -55, 46, -21, 27, 7, -18, 31, -14, -11, 51, -46, 16, 19, -41, 11, 3, 9, -25, 45, -47, -6, -10, -30, 23, -51, -42, 52, -25, 4, 5, -1, 19, 10, -46, -21, -6, 45, -27, 8, 26, 36, 60, 42, -61, 62, -38, 9, 8, -58, 23, 42, -11, -16, 34, -59, -48, 24, -36, 59, 45, 51, 38, 50, 62, 13, -45, 61, 3, -25, 33, -2, -48, 0, 11, -38, 9, 17, -8, 33, 7, -48, -13, 23, 38, 0, -35, -22, -55, -39, 21, 55, 36, 20, -8, -22, 0, 36, 42, 19, 24, -51, 32, 6, 2, -50, 28, 50, -19, -13, 46, -36, 40, 29, 0, -31, -55, -52, 31, -41, 9, -61, 58, -23, -42, 33, 33, 53, -2, -35, 37, 58, -7, 13, -47, 3, -4, -45, -40, 35, -62, 43, -22, -48, 6, -8, 36, 30, -32, -28, -5, -57, -18, 37, -14, 44, -54, -19, -31, 54, -27, 10, -56, 32, -28, -12, 15, 54, 11, -13, 53, -17, -54, -14, 10, -46, -42, -49, 32, 21, 10, 43, -55, 45, -38, 4, -32, -14}
, {-36, -2, -56, 36, -17, 8, -58, 6, -7, 45, -38, -12, 0, -24, -59, -26, -9, -35, 44, 1, 26, 33, -24, 30, 49, -58, 51, 51, 4, -28, 27, 54, 56, 13, -39, 4, 58, -28, -9, 0, 3, -1, 52, 29, 52, -38, 12, -33, -17, 29, 55, 56, 10, -48, -29, 11, 27, -24, 58, 32, -21, 33, -35, -63, 14, -12, -51, 51, 47, -27, 11, 26, 22, -9, 21, 61, -33, 60, -20, -25, -16, -27, 45, 3, 12, 17, 30, 34, -31, 51, -30, 38, -57, 47, 24, -38, 58, -33, 9, 15, -33, 55, 19, -14, 35, 44, -59, 15, -45, -55, -22, -59, 54, 54, -19, 25, 8, -27, 27, -51, -17, -59, 37, -31, 14, 48, -3, 40, 11, -19, -11, -30, -27, 5, 18, 32, -22, -50, 60, 40, -12, -42, -6, -52, 15, -30, -15, -36, 7, -52, 35, -6, -43, -20, 36, 18, 24, 11, -21, -23, 10, 10, 27, -22, -14, -31, 7, -33, 37, 13, -41, -10, -56, -21, 14, 36, 52, 7, 53, 34, 3, -11, 42, 14, -29, -11, 50, -61, -14, 10, -16, 30, -59, 59, 40, -64, 3, 39, -40, -28}
, {13, 54, -21, 28, -8, -10, -62, -54, 46, -44, 60, 51, 12, -1, -14, -1, -57, 37, -53, 41, -16, 56, 5, -27, 57, -17, 57, -65, 19, -62, 42, -13, 51, -60, 61, -25, -10, -15, -59, -41, -54, -45, -16, -33, -9, -46, -13, -21, -16, -57, 0, -7, 47, 36, 6, 20, 5, -20, 0, -3, 18, 54, 51, -34, -62, -33, 24, -52, 44, 52, -37, -61, -14, 1, -25, -4, 27, 51, -37, 38, -21, -44, -3, -38, 56, -55, 1, 38, -51, 22, -28, 38, -29, 38, -3, 46, -9, 55, 59, -15, -54, -42, -31, -18, -30, 0, -54, 57, 7, 3, -20, 13, -16, 32, -48, 7, -8, 53, 24, 26, 12, -44, -36, -45, -60, 8, -21, -13, 44, -39, 47, 0, -53, -50, 4, -20, 26, 17, 13, -53, 14, 4, -59, 38, 37, -3, -49, 34, 21, -2, -46, -5, -30, -55, -61, 14, -49, -39, -21, -43, -35, 18, 57, 42, 18, -44, 59, -4, -31, -32, 36, 43, 59, -46, 7, -4, 1, -43, 35, 8, -47, -12, 11, 26, 17, -17, 1, -25, -24, -15, -32, 59, -9, 16, -32, -64, -54, 62, -44, -60}
, {3, 19, 0, 45, 24, 18, -31, -57, -27, -26, -45, 21, 40, 55, -25, 55, -3, -12, 34, -52, -44, 21, 34, 61, -3, -24, -46, 30, -58, -1, 14, 12, 26, -53, 10, 60, 21, 66, -30, -45, 3, -55, 22, 63, -12, 61, -6, 63, -20, 6, 5, 64, 44, -33, -56, 65, -34, -51, 37, -15, -11, 41, -45, 41, 52, 35, 64, 42, -18, -23, 23, -3, 2, 9, 30, 12, -30, 9, -5, 68, -40, -50, 47, 24, 62, -36, -24, 5, 36, -5, 10, -59, 59, 63, -15, 27, -27, -21, -52, -40, -29, 32, -55, -4, -42, 45, 51, -28, 35, -56, -60, -4, 53, 15, -45, -44, 33, 64, 58, 59, -40, -26, -10, 28, -26, -45, -51, -51, 30, 36, 36, -30, -45, 4, -9, 50, -66, -6, -9, 61, 62, -3, 53, 8, -12, 47, 23, 14, 56, 30, -44, -40, -50, -38, -5, 37, -17, 17, 2, -24, -36, -23, -44, 12, -6, 35, 69, -31, 13, 19, 0, 29, -49, 38, -35, -44, 35, 49, 0, -38, 36, 0, 44, 21, 59, 40, 36, 36, -30, -21, 29, 43, 14, -40, 3, 50, -38, -44, -50, 34}
, {54, 40, -18, 50, 12, -5, 1, -60, 21, -16, -48, 0, -27, 31, 3, 38, 46, -46, 50, -5, -49, 35, -21, -40, 7, 52, 47, -12, 33, -43, -23, 36, 53, -14, -53, 13, 11, -40, 12, 18, -35, -33, 46, 16, 42, 52, 28, -40, 42, 58, -62, 33, 45, 33, -1, -13, 49, -60, -16, -60, -2, -5, -22, 26, 55, -58, 3, -10, 9, 13, 62, -1, -12, -24, 9, -28, 16, 48, 12, -23, -17, 21, -13, 44, -49, -52, 46, -17, -58, -59, -43, -48, -8, 17, -20, 30, 56, -15, -27, -30, 3, -40, -24, -18, -2, 39, -39, 60, -1, -12, -58, 33, -30, 53, 1, 39, 5, 0, -26, 35, -11, 54, -13, -23, 37, 52, -20, -13, -3, -49, -27, -53, 59, 35, 64, -36, 28, 39, -41, 16, -31, 18, -8, -11, 34, 32, 59, 56, -64, 24, 19, 60, -53, -8, 54, 40, -18, -4, 5, -36, 1, -40, 24, 54, -35, 46, 12, -32, 17, -14, -28, 41, 2, 19, 3, 37, 25, 11, 43, -31, 48, -36, -46, -9, -45, -41, 7, 41, -64, -21, -50, -36, 49, 7, 60, -18, -11, 40, 65, 17}
, {-42, 59, 54, 7, -42, 38, 1, 34, 49, -49, 14, 48, -30, 55, 16, 29, -8, 40, -47, 29, 44, 39, 12, 37, 59, 0, -1, 60, 24, 51, 9, -19, -31, -30, 3, 54, -5, 46, 0, -62, -60, -46, 0, -58, 18, 5, -40, -18, 26, -16, 35, 6, 41, -10, -26, 64, 8, 40, -49, -52, -52, 65, -60, 41, 27, -53, -46, -18, 25, 33, 47, -42, 0, 34, 37, 13, 8, 5, 37, -18, 26, 25, 10, 35, 42, 41, -5, -15, 36, -34, -60, -29, 18, 53, 58, -38, 32, -40, -38, 0, 23, 51, 16, 1, -53, 22, 13, 55, 21, 19, 51, -10, -56, 18, -36, 36, -6, 20, 45, 49, -55, -40, -56, 7, -25, -60, 34, 45, 5, -24, -20, 60, 7, 60, -13, -53, -34, 16, 4, -43, -29, -20, 33, -38, 7, 8, 54, -23, 2, -43, -16, -9, 39, 25, 33, 34, -38, -57, -16, 1, -53, -43, 49, 54, -54, -9, 1, -29, -34, -43, 47, -33, 26, -16, 2, -25, 55, -22, 12, 27, 38, 4, 48, 46, -42, -19, 3, -25, -3, 20, -23, 7, 35, 18, -13, 14, 20, 33, -39, 24}
, {42, -49, -18, -45, 29, 59, -14, -36, -46, -58, -3, -10, 26, -61, -1, -46, 7, 16, 21, 57, 51, -2, 15, 21, -15, 53, 49, -52, 6, 0, -9, -17, -29, -10, -52, 28, 12, 77, 55, -4, -24, -19, 19, -20, 47, 0, 0, -54, 58, -3, -29, 46, -15, 28, -24, -3, -43, 36, -46, 57, -10, -27, -51, 36, -31, -9, 10, -56, 0, 7, 40, 8, 21, 28, 15, -60, -46, -10, 12, -11, 27, -45, -45, -57, 19, -43, 53, -27, 12, -60, 29, 7, 39, -58, 7, -13, 6, 27, 22, 64, -65, -54, 38, -6, -6, -16, -40, 1, -5, -28, -12, 27, 59, 20, -14, -51, 40, 58, 1, -48, 4, 35, -33, 15, -29, 44, 31, -41, -32, 2, -35, 13, 34, -42, -21, -18, 14, 45, 10, 2, 50, -15, -22, 0, 8, 7, 8, 60, -44, -36, -31, -5, 4, -46, 0, 55, -8, 1, 10, -8, -37, -35, -18, 26, 11, -58, -1, -63, -59, 41, 18, -43, -31, -27, 42, -32, 56, -25, 60, -47, -54, -8, 43, -9, 12, -16, -30, 50, 0, 36, 51, 6, -20, 16, 27, 0, 16, -52, -39, 54}
, {61, 54, 10, -51, -43, 2, -38, -45, -25, -54, -38, 56, -14, 56, -11, 8, 13, 25, -57, -40, -46, -49, 61, -43, 95, 38, -46, 68, 85, -64, -7, 15, 58, 20, -54, 24, -10, -29, 29, 5, -61, 43, -44, -42, 6, -36, 21, 57, -20, -34, 0, 47, -3, 36, 0, 54, 45, 9, 27, -21, 69, 12, 27, -31, 33, 0, 47, -49, -41, 19, 23, 27, -27, -45, 55, -13, 73, -16, 4, -14, -42, 20, -6, 26, -18, 50, -14, -11, -60, -11, -45, -50, -4, -54, -39, -4, 43, 54, -13, 38, -44, 18, 52, -8, 67, 5, -10, -18, -23, 20, -50, -26, 45, -15, -23, -9, -50, -34, -42, 46, 9, 48, -5, -13, 53, 50, -18, -50, 29, 38, -22, -20, -4, -15, -22, -3, 6, 12, -40, -17, -40, -29, 0, 73, 22, 24, -21, 4, -30, 59, -44, -46, 4, -17, 16, -40, 10, -29, -59, 52, 55, 55, -57, 31, 0, 18, -26, 67, 0, 41, -8, -50, -20, -34, 32, 53, 0, -4, -47, 24, 59, -28, 14, 7, 53, -3, -43, -4, 19, 27, -61, -11, 24, 52, 60, 28, 15, 93, 5, -54}
, {62, -18, -30, 32, -5, -53, -58, 51, -49, 39, 59, 54, 60, -41, -44, -35, -9, 59, -8, 36, 52, 24, -54, -19, 1, 57, -33, 37, -8, -47, -49, 12, 33, -5, -48, 16, 28, -10, 33, 22, 58, 55, -19, 56, 38, 44, -17, 18, 31, 13, -1, 34, -27, 27, -44, -34, -34, 11, -3, -9, -35, -32, -2, -23, -54, -44, 42, 2, -38, -59, -29, 59, -3, -49, 40, 30, 31, 12, 7, -56, 0, -44, 43, -18, 9, 57, 14, 57, 10, -1, -37, -8, 54, -35, -6, -4, 25, -15, -21, -19, 27, 19, -50, -21, -11, 56, -52, -34, -17, 44, 51, 57, -23, 1, -32, 31, -43, -58, -1, 42, -12, 8, -24, 61, -16, -57, 13, -58, 46, 21, 46, 47, -55, -37, -22, -21, -44, 41, 0, -57, 2, -6, -44, -33, -41, 30, 19, 9, 6, 3, -17, 3, -57, -27, -47, -52, 56, -21, 22, -52, -35, -14, -17, -48, -26, -34, 25, -8, 42, -3, -22, -19, 34, -6, -61, -50, -20, -15, 46, -10, 58, 23, -17, 0, 37, 23, -36, -39, 17, -12, 45, 13, -60, 38, 39, -36, 33, 7, 47, 9}
, {59, 22, -44, 4, 47, 43, -17, -18, -29, 32, 28, 0, -7, -46, -26, -33, -35, -5, -44, -3, -3, 25, 9, -58, 33, 51, 0, 26, -41, -13, -59, -14, -28, -34, -11, 18, -60, 2, -58, -5, 54, -25, 60, 44, -63, -3, 41, 29, -14, 32, -61, -63, 54, 54, 51, 6, -24, 40, 36, -50, 6, 3, 45, -53, -51, 53, -7, -37, -38, 40, -4, 1, -15, -27, 8, 29, 52, 0, 9, -39, -16, 20, -12, -44, -60, -40, -51, -19, 21, -28, 58, -30, 7, 20, -29, 17, 7, 14, 36, -32, -44, 29, -43, 29, 31, -9, -56, 1, -57, -42, 48, 19, 5, 25, -13, 8, -7, 25, -43, 22, -61, -30, 20, 44, -19, -2, 22, -20, -27, -29, 40, 5, 45, -57, -39, 47, -44, 57, 28, -8, 57, 3, 42, 6, 27, 7, 20, 36, -58, 56, 32, 37, -58, 29, -52, 25, 52, -36, -42, 48, -15, -47, 0, 36, 20, 19, -49, -41, -9, 19, -50, 30, -54, -7, 35, 38, 10, -28, -40, 4, 8, -13, 27, -53, -59, 0, -35, -23, 16, 42, -22, 28, 51, 20, 24, -1, -47, -62, 40, 39}
, {-34, -28, -42, 22, -7, -18, 17, -20, -45, 42, 23, -53, -4, -42, 13, 59, 40, 41, -17, 59, 30, -61, 48, -51, 9, -37, -64, -49, -38, 59, 58, 45, -62, -29, 23, 65, 45, 49, -47, 47, 18, 4, 15, 33, -47, -20, -4, 55, -21, 36, 21, -14, 45, -34, -54, 6, 38, 36, 1, 51, 61, -44, -41, 7, 10, 59, 42, 52, 12, 24, 31, 47, -34, 9, -49, -35, -14, 13, -10, 45, 4, -48, -29, -49, 21, -21, -45, 45, 54, 6, 28, -40, 33, 58, -4, 43, -51, 5, -63, 16, 55, 47, 49, 42, 27, -8, -46, -51, -34, 17, -4, -13, -31, -60, 54, -54, -22, 26, -3, 61, 11, 23, 10, 39, 53, 28, 8, 14, -35, 47, -51, 15, -30, -43, 27, 35, 20, 54, 25, -22, 38, -54, -54, 56, -7, -30, 53, 26, 27, -8, -21, -62, -45, 26, 17, 35, -60, 2, -36, 25, 21, -22, -34, -46, 5, -58, -3, -5, -6, 106, 4, 35, -53, -51, 6, 35, 53, -16, -39, -52, -43, 7, 32, 37, 2, 46, -16, 5, 41, -12, -3, 37, -2, 11, 59, 25, 47, -41, 50, -6}
, {49, -33, 4, 42, -22, 58, 30, 50, -43, -64, -28, 55, -24, -49, 24, -39, -64, 57, -49, 55, 21, 14, 30, -11, 4, -44, -54, -28, -41, -48, -26, 52, 5, -43, 52, 17, 13, 9, 39, 54, 4, 57, -29, 20, -27, 58, 33, -63, 55, -28, 47, 4, 31, -45, 13, -1, 66, -18, -45, 47, -47, 8, 62, 46, -1, 22, -7, 48, -50, 18, 37, 30, -61, 46, -53, 20, -25, -31, 50, -13, -26, -11, 21, -22, 19, -52, -24, -53, -59, -62, -15, 3, 18, 44, -39, 9, -39, 4, -3, 5, 24, -45, -45, 0, -8, -59, 31, -50, -50, -45, -7, -53, 45, 45, -6, 35, -18, 0, -55, -31, -11, -37, 58, -42, 9, -3, 19, 28, 3, 33, 32, 51, 48, -25, 42, -31, 55, 54, 19, 44, 40, 8, -43, 9, -6, 12, -24, -18, -26, -62, -26, -46, 24, -35, 0, 56, 11, 3, 58, 0, -10, 60, 47, 47, -48, -57, 21, -41, -17, 0, -13, -34, 49, 45, 46, 11, 22, 18, -47, 38, 21, -28, 5, -63, 3, -35, 52, 58, -58, 27, -20, 28, -36, -41, 44, -2, 54, 31, -43, -45}
, {57, 46, -7, 18, 28, -25, 40, -61, -13, -67, -44, -51, -22, -54, 21, -14, 29, -27, 12, 34, 46, -19, -63, 34, 61, -7, 10, -12, 10, -31, 19, -25, 7, 16, -7, -2, 23, 23, 20, -39, -2, 36, -34, 37, -7, 37, 61, 22, -34, 57, -35, 8, -24, -57, -16, 5, 53, -28, -49, -18, 41, -5, 27, -44, 4, -17, -43, 9, 14, 20, 53, 55, -57, -52, -19, 19, 15, 62, -55, 19, -22, 47, 45, -11, 14, -2, -49, -29, 41, 8, 23, 57, -32, 50, 6, 41, 33, 29, -53, -38, 10, 33, 37, 38, 13, 57, 54, -42, -45, 2, 0, 29, 63, -58, 46, -55, -39, 27, -58, -49, 31, -37, 47, -3, 23, 57, 57, -30, 28, -16, -8, 30, -2, 53, -9, 33, -17, 4, -36, 4, -46, -31, 12, -12, -16, 5, 58, -17, 15, 58, 50, 53, -34, -56, 0, 7, 62, 8, 34, -58, -14, -36, 51, 51, 18, 17, -50, -7, -55, 3, -20, -19, -17, -41, -61, 30, -18, 56, 20, -33, 24, 52, 33, 21, 39, 19, 34, 19, 63, 35, -13, 31, 49, 32, -25, -51, -48, 46, 0, 44}
, {-49, -9, -33, -14, 18, -59, -9, -31, -52, -40, 31, -7, -34, -58, 34, -31, 31, 44, -31, 31, -8, -36, -21, -44, 35, -16, 26, -48, 51, -30, 57, 16, -8, -59, -17, -63, 62, -45, 24, 39, -27, -41, 31, 29, 8, -32, -7, 59, 27, 47, 33, 40, 17, -5, -37, 11, -12, -13, -52, -59, 51, 45, -35, -1, 54, 60, 8, -14, 26, 12, 10, -5, 12, 1, 53, -5, -47, 20, -58, -8, 28, 39, -32, 49, -58, 5, 24, 4, -52, 43, 43, 48, 46, 60, -45, -22, 53, -11, -31, 38, -32, 22, -49, 30, -13, -53, -28, 41, -34, -19, 2, -17, 40, -50, -10, 47, -1, 23, 49, 62, 8, -18, -5, 29, -10, 27, 70, 37, 45, 45, 0, 30, 30, -57, 35, 2, 19, 0, 51, -11, -53, 53, -5, 9, 43, 60, 28, -20, 46, 28, 22, 3, 32, 9, 58, 43, 39, 21, -10, -36, 5, 46, 59, 62, -61, -39, 50, -4, 19, 18, -16, 6, -59, 63, 47, 42, 0, -14, 3, 20, 16, 20, 36, -40, 29, -23, -20, 24, -54, -23, 53, 21, 23, 32, -7, 1, -34, -11, -6, -46}
, {28, 37, -48, -7, 49, -16, -30, 43, 45, -20, 50, 44, -8, -9, -54, 40, 48, -19, 15, 0, -8, 17, -42, 29, -32, 0, 56, -42, 47, -37, 16, -42, 61, -32, -9, 52, -25, -37, -53, 33, 9, -4, 52, -4, -59, -6, -10, -45, -10, -20, -58, 30, -1, -4, 49, -31, -61, 44, 3, 60, -25, -43, 45, 53, -21, -60, -19, 1, 3, -31, -53, 13, -22, 18, -20, 50, -60, 30, 27, -15, -23, 24, -33, 29, 41, 4, 59, 39, -40, -42, -40, -24, 32, 33, -7, -34, 31, -1, 50, 56, -5, -52, -31, -19, 23, 30, -54, 27, 61, -27, -46, 56, -52, 29, 12, -28, 20, -62, -49, 22, 44, -39, 58, 44, -21, -49, 18, -33, -53, 3, 52, 55, -16, 54, -61, 60, -56, 35, -4, 43, 58, 35, -59, -35, -33, -52, -15, -18, -17, 4, -55, -21, -37, 4, -58, -5, -10, -57, -41, 43, -22, 37, -46, -22, -38, -55, 12, 51, -7, 16, -57, -14, 52, -41, 36, 8, 38, -55, 30, 21, -7, -27, -47, 26, -48, 29, -55, -6, -37, 11, -48, 59, 15, -35, -60, -7, -46, -40, 60, -26}
, {52, 7, 8, -29, 60, -10, -42, -40, -21, 26, -31, -23, 9, -49, -3, 7, -59, -19, -26, 46, -20, 58, 34, 34, 45, 31, -28, -37, -60, -3, 48, -13, 61, -58, 51, 55, 24, 37, -40, -48, 19, -25, -44, 43, -7, 0, 22, -53, -1, -18, -59, -59, 51, -14, -5, 11, 64, 20, 60, -15, -33, -55, 50, 48, 9, 7, -52, -59, -8, 34, -29, 25, -17, 10, 2, 47, 35, -62, 42, 18, 4, -35, 47, 19, -14, -34, -33, 3, 24, -61, -8, 47, 48, -23, -3, -31, -2, -29, 60, 32, -62, -36, -5, 31, -54, 49, -5, -31, -41, 26, 15, -45, 54, 16, -2, 21, -18, 56, -10, -33, 44, -39, 60, -19, 30, 41, -5, -30, -12, -28, -60, -14, -4, -15, -23, 51, 50, -52, -6, 46, -18, -43, 58, -51, -61, -2, -34, 9, 42, -59, 29, -63, 42, -30, -24, 53, 13, 15, -65, 0, -34, 58, -2, 57, -23, 9, -17, 29, -41, 52, -15, -58, 55, 28, 9, 59, -54, -44, 1, 46, 43, -17, 60, 28, -64, 16, -21, -39, 36, -35, -49, -11, -64, -43, -38, 38, 17, -31, -9, 55}
, {39, 46, -18, -58, -13, -21, -44, -46, 20, 27, 49, -28, 53, -28, 38, 0, 35, 35, -21, -35, 14, 22, -12, 0, -11, -35, -32, 45, -46, -10, -14, -51, -14, -26, -23, -55, -28, 48, 49, -25, -45, -31, -23, -28, -19, -42, 5, 17, 1, 33, -48, 33, 55, -56, -18, 70, 42, -45, 45, -11, -20, 47, 18, 19, -9, -33, 65, -41, -35, 6, -4, 50, -40, 13, 30, 47, 17, 51, 19, -35, 36, -46, -36, -26, 21, 60, -32, -38, -43, 41, 36, 7, -16, 10, 21, -51, -52, -42, 51, 62, 36, -36, -48, 23, -46, -58, 50, 14, -47, 49, 59, -50, -3, -34, 17, 39, -23, 17, 24, -24, 22, 15, 60, -18, 55, 60, -18, -12, 40, 50, 43, -44, 44, 38, 12, 38, 5, -13, 39, -2, -31, 22, 20, -28, 29, 74, 60, -49, -81, 58, 2, 13, 48, -26, -1, 35, -16, 22, 6, -31, 37, 49, -60, -42, -9, -48, 8, -51, -37, -31, 9, 5, -37, -61, -35, 17, 65, -34, 23, 43, 47, -52, -19, 17, -43, 11, -38, -71, -13, -24, -44, -39, 54, -12, -27, -49, -57, -59, 7, 13}
, {37, -47, 57, -9, 8, -34, -38, 10, -27, 36, -54, 39, 56, 34, -41, -2, 5, -24, -18, 58, -40, -37, -35, -9, 39, -22, 50, -7, 6, 2, -6, -12, -51, -21, 36, -1, -34, 13, -35, -28, 30, 61, -58, -61, -41, 36, -49, 53, -32, -18, 20, -38, -19, -26, 36, 14, 7, 20, 22, 34, -35, 29, 47, 9, -58, 55, 40, 28, 14, -44, 51, 60, -57, -31, 6, 40, 54, -7, -16, 47, -24, 13, 30, -34, -21, -43, 46, 0, 65, -35, 31, 14, -11, -40, -62, 44, 7, -35, 35, 21, 0, -3, -41, 0, -37, -60, 5, 53, -51, -47, 21, 8, 2, 56, -45, -19, -32, 10, -7, 49, -45, -4, -15, 58, 48, -34, -10, -36, -27, 0, -25, -48, 55, -60, 23, 52, -33, -27, -37, 11, -8, -32, 58, 20, 18, 8, -11, -49, -20, 28, -47, -20, 54, -55, -34, 57, -33, -37, 5, -53, -1, -59, -31, -8, 1, 61, 28, 53, 20, -54, 46, 29, -7, 32, 33, 47, -58, 20, -6, 29, -37, -48, 52, -4, 58, -15, -46, 58, -56, -14, 50, -42, 0, 13, -46, -30, -25, 62, -4, 28}
, {-59, -33, 23, 20, 9, 7, 55, -36, -56, 15, 20, 60, 2, -5, -56, -27, -27, -27, -58, -50, -54, 51, -31, 35, 9, 25, 45, -23, -50, 49, 35, 50, -17, -48, -2, -17, 19, 65, 74, -61, 5, 59, 27, 23, -15, -21, 15, 42, 56, 23, 22, -16, 41, -26, 58, -29, -8, -38, 51, 58, 14, -19, 21, -1, -60, -10, 56, -22, -51, 46, 54, -25, 3, -2, -4, 39, -39, 16, -41, -47, -42, -56, 51, 34, 36, -21, -45, -12, -20, 24, 54, -9, -2, 11, -57, -21, -10, -32, -40, 0, -36, 10, 47, 0, -61, -21, -45, -49, -38, -2, -59, -44, 65, -57, -56, 60, 30, -21, 40, 0, 57, -20, -7, 22, -48, -50, 39, 58, 42, -45, 5, -55, 22, -42, -6, -49, 42, -45, -48, 36, -59, -50, 54, 21, 30, 24, -32, -50, 35, 22, 52, -37, -7, 33, 15, 19, -50, -55, -44, -12, -55, -45, 8, -25, 47, -9, 49, -36, -34, -42, -8, 2, -46, 63, -42, -45, -63, 0, -50, 58, -22, -10, -37, 54, 47, -65, -57, 37, -57, -22, 0, -36, 59, 30, -8, -53, 55, -7, 26, -35}
, {-57, -22, -7, -41, -50, 52, -45, 10, 34, -52, 19, -34, 45, -17, 15, -7, 11, 21, -59, 31, 53, -21, 56, -3, -56, -8, -15, 3, 61, -24, 44, 31, -18, -7, -33, -10, 26, -45, 14, 60, 67, -43, -46, 28, -38, 39, 59, -49, 37, -45, -30, 17, -1, 43, 45, -8, 44, 18, -16, -52, 42, 49, -4, 23, -50, -36, -1, -39, -6, 61, 52, -43, -31, -39, -38, -42, -63, -36, -6, 20, 1, 44, 51, -41, -63, 48, 46, 57, 20, 0, -35, 38, -6, 5, 50, -57, 20, -37, -23, -14, 13, 4, -12, -5, -24, 4, -45, -19, 2, 27, 55, 35, -52, -29, -37, -38, 45, 38, -49, 56, -19, -28, -43, -19, -38, -35, -69, -21, -6, 24, 33, -14, 34, -23, 57, 30, 55, -22, 50, 24, 28, -5, 46, -58, 28, -14, -12, -11, -27, -48, 63, 12, 30, 17, 16, 25, 26, -31, -19, 28, 47, -30, -32, -11, -58, 49, -35, -4, 38, 41, 42, 25, 53, 29, 46, 60, -57, -25, -40, -54, -37, -8, -27, -26, -34, -58, 61, 46, 2, -10, 30, -18, -14, 53, 6, -24, -11, -28, 27, 13}
, {-7, -24, -31, 45, 14, -17, -37, -33, 57, -19, 31, -49, 29, -34, -45, -37, 45, 23, -1, -8, -35, -12, -4, -46, -6, 6, 51, -24, 6, 26, -56, -28, 61, -41, -2, -36, 53, 24, 7, 31, 8, 9, -10, 42, -51, 2, -6, 11, 56, -10, 3, 53, 1, 52, -44, -28, 0, 48, -29, -15, 41, -35, -29, 52, 61, 37, -35, -47, -19, 45, -14, -41, 54, -18, -1, -36, 46, 35, -5, -29, 26, -29, 0, -4, -2, 49, 21, 25, 0, -22, -62, 36, 3, -30, -4, 60, -41, 16, 44, -40, 19, -20, 6, 12, -59, 48, -44, -55, -11, -20, -53, 21, -8, -36, 24, -55, -58, -15, -39, 50, 5, -1, -60, 12, 10, 47, 52, -5, 38, 33, -12, 19, 18, 14, -53, 17, -20, 7, -59, -52, 40, -28, -50, -14, -28, -52, -15, -6, -61, -55, 14, -42, -44, 44, -34, 31, -39, 24, 27, 45, 50, 48, -46, 31, 10, -21, -3, -62, 31, 23, -14, 47, -9, 33, -52, -46, 50, 48, -6, -62, 17, -26, -3, -15, -40, -53, -49, 3, 50, -34, -3, 9, -13, 50, -28, 4, -50, 55, 44, -46}
, {-47, 4, 10, 16, -15, 54, -55, 5, 32, -6, 42, -21, -56, -53, 34, 61, -53, -28, 45, -44, 31, 33, 11, 22, 23, -23, 13, 52, 31, -56, -41, -40, 6, -49, 24, -4, 32, 35, -53, -2, 12, 25, 48, 29, 28, 9, 47, -10, 20, 59, 9, -26, 45, 26, -44, -61, -30, -13, -38, 7, -37, -52, -23, 55, 3, -34, -31, -48, 61, -40, 2, 42, -45, 15, 4, 13, -4, 54, -61, 40, 54, -59, 61, -13, 28, -34, -58, -39, -11, -46, 45, -11, -20, 51, -59, 2, -39, -47, -32, 39, 9, -62, 61, -46, 18, -3, -34, -60, -11, 60, -13, 9, 45, 23, 1, -37, -45, -21, -3, 48, 13, -36, 8, 15, -31, 15, -46, 1, -36, -27, 27, 35, 36, -20, -39, 44, -51, -52, -62, 30, -30, 47, -17, 43, -25, -46, -19, 55, -33, -42, 16, 34, 19, 59, 52, 26, 2, 40, -7, 46, -56, 5, -5, -30, -11, 21, -58, -57, -44, -16, 42, 22, -7, 0, 2, 60, -22, -30, 22, -24, 51, 23, -13, 37, -31, -33, -35, 49, -15, -52, 49, 19, -31, -51, -16, -24, 28, -30, 40, -35}
, {0, -6, -1, -28, 25, 15, 15, 62, 23, -66, 59, 23, -1, -2, 35, 49, -40, -51, 36, -56, 24, 7, -7, -16, 19, -37, 19, -44, -44, -8, -47, -3, 56, -43, -59, -44, 36, 0, 5, -15, -43, 20, 32, -49, 48, 65, 47, -42, -42, -44, 41, -42, -18, -19, 6, -60, -54, -28, -43, -16, -49, 2, 24, 46, -43, 33, -59, 50, -19, 14, 61, 21, 62, 32, 20, -24, 49, -8, 53, -6, 56, 28, 2, 47, 23, 6, 37, 0, -62, -27, 29, 14, 28, -32, -51, 19, -26, -7, -29, 26, 8, 9, 13, -33, 0, -48, -20, -20, -49, 25, -17, 53, -44, -22, -35, -29, 38, 6, 40, 46, 38, -34, 50, -41, -26, 48, 32, -61, -14, 42, -43, 32, -47, 13, 41, 0, -18, 47, -17, -12, 9, -33, -40, 5, 26, -10, 18, 1, 29, 3, -10, -3, 37, 28, -16, -25, 61, -10, -48, 55, 6, 37, 9, 4, 19, -39, 25, -10, 23, -8, -22, -53, 52, 39, 53, -25, -29, -20, 26, 8, -35, 25, 6, 61, 8, -38, -59, 34, 44, 42, 10, -5, 17, 15, -62, -26, 37, 3, -41, -33}
, {16, 39, -44, 18, 22, 54, -54, -18, 8, 5, 8, -2, -55, 53, 0, 59, 29, 30, -3, -37, -3, -30, -10, 21, 38, 20, -47, 44, 19, 27, 1, 23, 23, 35, -60, 14, -5, -6, 16, 16, -21, 6, 34, 4, -49, -13, 61, 51, -46, 45, -46, -46, 3, -28, 46, -18, -37, -55, -13, -57, -39, 5, 23, -45, -41, -41, 22, -40, 8, 40, 21, 43, 31, 43, -60, -10, 27, 6, 61, 62, -6, -57, -54, 51, 35, -2, 11, -27, -36, -13, 30, -47, 12, -18, -1, -54, 49, 61, 58, -3, 5, -47, 12, 8, -30, 40, -8, 4, -19, 21, -5, 58, 27, -27, -56, 24, -32, -8, -28, 15, 2, -53, 12, -21, -30, -7, 49, -24, 39, -51, 22, 39, 53, 52, 34, 7, 50, -46, -48, 21, -57, -50, -62, -21, 17, 47, -5, 39, 12, 36, -55, -49, -16, 4, -55, 3, 36, 13, 2, 56, 37, 8, -27, -38, 5, -12, 64, 55, -52, -40, -23, -31, 23, -9, -36, 4, -22, -43, 40, 11, 31, 47, 14, -34, 61, 30, -55, -11, -56, 27, 37, 57, -22, -1, 13, 6, -9, 69, 29, -38}
, {-19, 1, 25, 44, -19, -21, -12, -4, 29, -2, -56, 2, 27, 20, -4, -7, 46, 50, 53, 41, -29, -15, 3, 13, -1, 26, -5, 18, 58, -59, 4, 42, 35, -58, -43, -4, -37, 38, 55, 33, -15, -54, -37, 7, -45, 44, 3, -10, 31, -14, 29, -32, 0, -35, 6, 24, 34, 24, 47, 16, 11, -20, 48, -35, -55, 47, -37, 43, 44, 24, 54, 51, -28, -26, 0, -17, -14, -28, 57, 52, 27, 48, 20, 28, 45, -50, 37, -28, 4, -43, -31, 3, -31, 31, 32, -45, -35, -11, 33, 43, -44, -42, 24, -43, 0, 6, 41, -24, 28, 42, -4, 29, -16, -50, -40, -4, -49, -4, -46, 14, 55, -17, -31, -43, 50, -2, -15, 10, -53, 38, -25, 22, 22, -46, 41, -1, 15, 23, -60, 18, 3, 18, -8, 61, -9, 10, -33, 29, -24, 21, -52, -51, 27, 7, 31, -39, 47, -6, -21, -7, -7, -36, 25, 27, 17, 0, -40, 36, 4, 65, 4, -10, -16, -52, -21, 28, -13, 56, 38, 30, 33, -34, 35, -33, -31, -15, 21, 46, 36, -41, -18, 58, 32, -12, 41, 39, 31, -42, -54, 27}
, {-57, 12, -30, -2, 1, -30, 19, 58, 17, -19, -34, 46, -40, 12, 37, 59, 2, 49, 37, -56, 26, -9, -43, 45, 19, 65, -36, 58, 28, -49, -7, -38, -4, -5, 54, 32, 14, -15, -31, 23, -3, -42, 2, 26, 39, -34, 21, -10, 19, 31, -4, -26, 20, -42, 1, 23, 8, 15, -11, 27, 56, -44, -19, -26, -6, -14, 34, 16, 51, -20, 6, -60, 47, 56, 8, -17, -11, -28, 64, -36, -22, 30, 51, -1, 22, 5, 36, -44, 3, 12, 57, 56, -19, 46, 15, -64, -40, 52, -57, -63, -13, 56, 47, -55, 19, -58, -8, -5, 33, 23, 54, -42, 34, 13, 37, 7, -37, 39, -61, 24, -59, -26, 44, -12, -20, -23, 35, -31, 62, 54, 13, 55, 21, -29, -36, 29, 41, -31, 21, 48, 7, 7, 60, -2, 42, -15, 24, 31, 55, 4, -51, -12, 1, 20, 23, -5, -14, -19, 35, -44, -55, -25, 45, -54, 44, 50, -1, 23, -22, 37, 16, 61, 14, -25, 5, 8, -38, -8, 57, 14, -41, -5, -35, 32, 30, 36, -61, -13, -52, -56, 21, 17, -32, -41, -9, -50, 26, -6, -46, -42}
, {19, 9, -44, 22, -59, 23, 42, -35, -44, -19, 59, 58, 53, -38, 53, 49, 55, -8, -28, -21, -110, 44, -27, 10, 17, 61, 63, 110, -49, 52, -21, 10, 51, 28, -45, 15, 52, 12, 45, 48, -50, 42, -51, -18, 20, -23, -32, 82, 71, 45, -55, -29, 8, 18, -43, -44, -17, -23, 10, -22, -89, 63, -31, -4, 58, 31, 42, -46, 35, -41, 11, -39, -33, 36, 34, -42, 26, 5, -61, 22, 70, 23, -46, 31, -15, 24, -18, -1, -5, -4, 62, -41, -7, 36, 61, -32, -38, -47, -21, 64, -12, -24, -83, -38, -47, 58, -17, 34, -22, 58, -23, 37, 30, 20, 44, -12, -33, -52, -23, 38, -32, -47, 8, 0, 30, -2, 46, 13, 3, -9, 7, 53, 0, -10, -30, -10, -71, 29, 72, 19, 55, -2, -29, 59, -20, 178, 50, -8, -18, 15, -17, -4, -57, 49, -52, -63, -20, -49, -39, -45, 4, -26, 61, 1, -36, -20, 59, 21, 12, 10, 0, 39, 47, -2, -12, -54, -9, 29, -42, 68, -11, -58, 25, 1, -13, 13, 4, 17, -60, 70, -3, 35, 43, 4, -78, -6, 36, -23, -61, -58}
, {-42, -22, -50, -49, -1, 29, -38, 27, -52, -27, -44, 52, 56, -15, -15, 16, -32, 12, 62, 24, 35, 46, -29, -34, 40, 7, 22, -31, -46, -32, -6, 18, -61, 40, -13, 31, -39, 48, -28, 7, -13, -27, -53, 60, 16, 17, -11, 52, 39, 13, -30, 54, 3, 15, 50, -14, 47, -52, -34, -48, 27, 9, 25, -27, 25, -44, -18, 15, -24, 61, 16, -58, 51, -37, -9, 25, -14, 17, 57, -12, -43, 32, 40, -48, -24, 56, -32, -24, 11, 18, 30, 50, -3, 49, 45, 57, 14, 57, 35, -31, 1, -46, -61, 5, 59, -57, 44, 21, -37, -18, 14, 63, -11, 10, -26, 2, -49, -50, 25, 23, -18, -12, 44, -22, 31, 13, 1, -2, 46, 60, -27, 41, -2, -37, -37, -13, -20, 6, 59, 53, -53, 59, -23, -14, 38, -33, -52, 60, -52, 26, 42, -15, -35, 3, 16, -56, -50, -36, 9, 35, 9, 42, -3, 29, -6, 52, 62, 43, 37, 6, 18, 43, 9, -46, -5, 26, 4, 20, -36, 26, -6, 61, -53, 39, 16, -6, -40, 2, 42, -38, 45, -15, -13, -50, -12, 37, -28, 43, 56, -17}
, {-23, 57, 20, -34, 1, -10, -48, 52, 51, 51, 27, -49, -62, 53, 55, -59, -53, 12, 47, -31, 16, 60, 60, 50, 40, -15, -25, -13, -26, -22, 9, -4, 46, -39, -29, -37, -44, -43, 6, 60, 32, -53, 43, -47, 32, 39, 51, -59, 22, 40, 34, -31, 40, 36, 21, -30, -27, -29, 14, 1, -51, -36, 9, 39, 35, 61, -32, -62, -61, -44, -23, 43, 38, 56, -46, 50, 41, 55, -44, 22, -33, -55, -41, 31, 49, 59, -1, 38, 35, 46, -3, 45, 41, -55, 38, 12, 54, 57, 49, 45, 64, 0, 38, 36, 55, -60, -57, -51, -17, 61, 12, -61, -25, 47, -32, 1, 8, -28, -55, -32, -1, 52, -31, 43, 7, -56, 25, -51, 51, 54, 54, 13, 28, 56, -6, 15, 42, -64, -32, -59, -62, 8, 26, 4, 8, -49, 26, -9, 40, -59, -35, 57, 53, -58, -16, 59, 61, -27, -14, -60, -31, 52, -52, 58, 0, 45, 14, 15, 0, 41, -7, 31, -60, 12, 35, 37, 38, -18, -32, -8, 53, 7, 0, -46, 13, 60, 32, 55, 14, -54, 33, 18, 43, 55, 51, 61, 45, 64, 23, 31}
, {14, 47, -54, -3, -28, 54, -50, 45, 35, -21, 4, -60, 60, -65, 47, 31, 12, 12, -50, -48, -20, -43, 54, -29, 29, -39, -3, -17, -11, -21, -11, -53, -22, -8, 32, 0, -45, 30, 0, 42, 32, 17, -16, -4, 36, 59, -22, -11, 5, -59, -40, 61, -6, 18, 42, 21, 51, 22, -23, -50, 46, -34, -13, 55, 48, -42, -10, -58, -47, 3, 49, -49, -52, -45, -11, -38, 15, -13, 52, 59, -15, -18, -47, 19, 24, -16, 19, -31, 51, -60, 28, 31, -23, 35, 45, -3, 22, 20, -4, 54, -29, -8, -24, -18, -51, -11, -40, -13, -43, 30, -20, 30, 30, -33, -61, -56, 15, 32, -18, -27, -43, 48, -16, -61, -61, 54, -44, -55, 23, 49, 47, -13, -22, -16, 6, 40, 12, 33, 68, 4, 55, 43, -50, 47, 42, 49, 14, -45, 24, -38, -38, -4, -37, 0, 52, 15, -32, -55, 60, -3, -55, -51, 13, -1, 19, 31, -4, 7, -34, -16, -52, 51, -32, -12, -53, -9, -20, 16, -7, -19, 10, 4, -50, -12, -45, -4, -37, 35, -44, 27, 60, 30, -13, -53, 35, 58, 19, 49, 36, 39}
, {40, 4, 29, -20, -23, -55, 54, 56, 3, 54, -23, 45, -33, -27, 45, -15, -42, 0, 50, -17, -42, 21, -28, 9, -15, 51, -20, 54, -40, 31, -8, -6, -19, -14, -26, 5, -30, -41, -56, -34, 10, -28, -54, 33, -13, -28, -18, -8, -57, 29, 30, -14, 5, 42, 48, 37, 20, 13, -31, 29, -43, 0, -21, 49, -14, 3, -22, 29, -34, -39, -56, -59, -51, -7, 37, -34, 7, 1, 48, 41, -15, 7, 6, -52, -28, 0, 35, -50, -41, -9, 60, -50, -10, -14, 45, 67, 23, 41, 36, -12, 15, 20, -5, 36, -5, -14, -46, 9, 48, -54, 34, 26, 12, 36, -58, 0, 60, 46, -24, 65, 16, -56, -12, 21, -47, 34, 12, -27, 24, -54, -61, 54, 39, 18, -60, 31, -66, 2, 72, -13, 47, -6, 5, -47, 7, 22, 32, 34, 21, -47, -59, 40, -18, 32, 30, -34, 9, 41, 41, 55, 15, 26, -6, 11, -42, 53, -20, -40, 27, -69, -51, -9, 0, 25, -13, -56, -40, 3, 5, 28, -48, -6, -4, 0, 14, 46, 61, 49, 2, -3, 42, -56, 43, 25, -54, 53, -36, -49, -4, -11}
, {-51, 66, -1, -43, -17, -47, -46, -54, -9, -21, -31, -58, -9, -68, -61, 6, 0, -68, 30, 53, 4, 23, -24, -40, -60, 47, -28, 80, -57, -42, -24, -28, -51, -37, -56, 28, -1, -46, 16, 17, -2, -22, 14, 40, 14, 55, -19, 42, -27, 31, -32, 58, 54, 36, 41, 118, -27, 44, -1, -26, -17, -55, -86, 59, 29, -41, 16, 40, -3, -32, 72, -52, 31, 20, 63, -44, -6, -36, -6, -26, 9, 40, -54, -44, -49, -61, 61, 61, 14, -7, 59, 59, 24, 58, 47, -59, -41, 28, -13, 8, 60, -55, -24, -50, -22, -14, -43, -22, -7, -30, 48, -13, -50, 36, 8, 19, -41, 32, -3, -24, -56, 12, 0, -40, -4, 47, -72, -25, -5, 20, 22, 4, -59, -36, 0, -22, -19, 88, -4, 12, 17, 61, -51, 38, 21, 32, 37, -48, -58, 5, -48, -10, -58, -20, -22, 36, 20, 50, 57, -12, -26, 33, -3, -60, 46, -16, 37, 51, 40, 34, -5, 57, -48, -25, -13, -50, -23, 52, -53, -57, -20, -27, -21, 8, -50, -3, 44, -39, -13, 68, 32, 37, -28, -48, 20, 27, 4, -78, -27, 32}
, {49, 36, -29, 43, -29, 0, 28, -38, -20, -13, 38, 13, 34, 12, -27, 50, -10, 29, 23, 30, -19, 34, -47, -23, -34, -2, -34, 17, -38, 9, 28, -34, -31, -50, 29, -51, 22, 22, 50, 54, 21, -32, 29, -35, -64, -21, 14, -13, -36, 7, -38, -5, 13, 41, 1, 58, -9, -9, 35, -54, -46, 7, -44, 0, -42, -36, -5, 20, -6, -25, 55, -27, -8, 44, 35, -38, -28, 39, -63, 31, 15, -30, 29, -22, 18, 29, 53, 43, 32, 25, 10, -26, 46, -23, -1, 50, 13, 47, 19, 49, 2, 25, -3, 43, -9, 35, -58, 10, 58, 58, 9, -63, 47, 11, 17, -54, -60, -26, 53, 34, -25, 10, 7, 62, 17, -9, -12, 34, -22, 25, -47, 18, 55, 42, -65, -18, -37, 43, 20, -55, -49, 7, 8, 40, 49, -30, -56, 52, 47, -36, -48, -6, -19, 1, 38, 28, -57, -29, 35, 51, -42, -23, 32, 46, 18, -12, -52, 1, 58, 12, -61, -51, 41, -25, 21, 5, 21, -53, 57, -33, -41, -30, -23, 7, -8, -11, -56, 34, 17, -52, 9, -37, -21, 6, 40, 55, 52, -26, -19, 32}
, {5, 28, 36, 0, 14, -51, 46, -32, -32, 38, -2, 15, -43, -2, -13, 7, 23, -50, -2, 34, -58, -46, -21, -6, -48, -48, -27, -56, 44, -3, 39, 58, 29, 8, -24, -48, -16, 55, -13, 39, 10, -6, -34, 2, 22, 0, 53, 29, -5, -23, -32, 43, -40, -8, -50, -30, -13, 19, 56, 16, 12, 50, 24, -40, -25, 23, -48, 44, -40, 2, 41, 30, 22, 53, -33, -14, 22, -20, 41, 22, -12, -3, 38, -35, 26, -46, 32, -38, -50, 20, 8, -23, -15, 51, 41, 54, 8, 5, 6, 0, -36, 1, -30, 1, -38, -45, 31, 48, 4, 25, -2, -57, -29, -49, 57, -29, 0, -34, 22, 50, -52, 1, -33, -59, -45, -50, 0, -25, -55, -44, -15, 0, -39, 10, -10, 3, 8, -45, -24, 46, -52, -47, -25, -58, 62, -32, -49, 0, -6, 24, -17, 49, -23, -35, 49, 34, -30, -13, -48, -22, -51, -56, 39, 50, -34, -18, 35, 31, 41, -13, -30, 25, 4, 37, -22, -42, -48, 55, -21, -18, -11, -34, 57, 50, 7, -47, -60, -58, -30, -34, 18, -27, 25, 30, 58, -50, -53, -55, 3, -2}
, {55, 23, -4, 58, 0, 23, -42, -32, 30, -28, -43, -46, -56, 59, 15, -56, 11, 60, -3, 52, -34, -1, 2, -22, -34, -18, 25, 40, 7, -5, 32, -5, -15, -4, -53, 19, -18, 47, -52, 24, 50, -13, -25, -15, 6, -1, 33, 1, -18, -22, -3, -62, 36, -56, -21, -51, -46, -28, 4, -25, -11, -19, 38, -56, 57, 7, 16, 52, 23, -10, 50, -4, -54, -7, -44, 31, -55, 51, 45, 46, -30, 24, 33, 44, 4, 60, 42, -55, 31, -21, -31, -33, 26, 45, 6, -48, -36, -14, 59, -10, 41, -44, -44, -58, -60, -57, 8, -58, 53, -7, 11, 27, 11, 25, 62, -35, 16, 53, -16, -18, -14, 56, -54, -8, -2, -37, 23, 3, 62, -65, -53, 48, 13, -62, 4, 54, -7, 28, -46, -50, 15, 6, -21, -34, -65, -28, -40, 47, -51, -55, -43, 56, -48, 47, -27, -36, -64, -19, 8, -59, -37, 21, 34, -16, -9, 24, 9, -63, -45, 53, 37, -52, -17, 12, 35, -55, 0, 5, -17, 52, -63, 37, 38, -59, 61, -21, -2, -30, -27, 39, -34, -64, 48, 23, 56, 7, -8, -7, 58, 22}
, {60, 37, 19, 58, 12, 36, -7, -62, -58, 33, -7, -25, 40, -42, -11, 12, 39, 1, 47, -1, 3, 1, 0, -13, -38, 55, -58, -13, 6, -53, 14, -50, 16, 49, -2, 32, 57, -42, 62, -35, 12, 29, -6, 49, -21, -37, -30, -10, 55, 39, -12, -20, 6, 51, 50, -48, 44, 53, 21, -6, -35, -2, -25, 19, 41, -54, -3, 60, 37, -2, 6, -62, 19, 1, 8, 18, -58, -52, 34, 8, -15, -15, -37, 23, 35, -5, -62, 18, -28, -37, -51, -42, 54, -15, 49, -30, 22, -28, -22, -51, -28, -65, 20, -30, -16, -55, 48, 11, -35, 23, -14, -14, -46, -7, 5, 39, -60, -8, 2, 47, 34, 3, -9, -32, -40, -50, -48, 12, 26, -58, -26, 7, -16, 0, -27, 14, 43, -46, -34, 18, -26, -64, 23, -32, 30, 54, -52, -31, -34, -57, -52, 30, -47, 33, -35, 58, 53, 58, -55, 34, 6, 18, -61, -13, -23, 31, 49, -6, -3, -21, 5, -39, -47, 39, -5, 50, 10, 28, 20, 7, 45, -57, -4, 53, 48, -52, 55, 39, 17, -54, 57, -25, -26, -18, -34, -5, 19, 21, 0, -14}
, {24, -2, -23, 20, 29, -20, 34, -38, -30, -59, 52, 2, 43, -22, 46, -30, 25, -18, -36, 46, 18, -9, 19, 46, -53, 25, 16, -11, -6, -14, 7, 25, 31, -17, 51, -48, 2, -7, 18, 26, -18, 47, 50, -46, -37, 41, -13, -11, 55, 18, 57, 33, -12, 36, -2, -25, 23, 1, -36, 20, -49, -10, -4, -15, -34, -59, 18, 25, 9, 29, -21, 4, -55, -28, 54, 50, -9, 31, 30, -12, -17, -25, -58, 41, 20, 61, 38, -5, -17, 52, -30, -5, -38, -44, 51, -59, -16, 53, -34, -59, -44, -2, 19, -29, -2, 29, 46, 42, 61, -6, 17, -59, 42, 26, 35, -34, -25, -21, -23, -56, -34, 3, -18, 18, 16, 14, -11, -23, 16, 15, 25, 26, -37, 20, 37, -26, 34, 61, -58, -29, -12, 9, -4, 26, -21, -45, -10, 8, 52, 26, -58, 58, -60, -49, -23, -52, -23, -34, -10, 17, -23, -22, -5, -24, -9, -48, -10, -34, 7, 15, -57, 23, 53, 56, 59, 41, -20, 20, 23, 17, -3, 13, -46, -54, 61, 7, -60, -54, -60, -24, -49, 6, 17, -51, -13, -15, -35, 49, -30, -2}
, {26, 53, -46, -34, -35, 55, -42, -49, -15, -57, 59, 4, 20, 16, 22, -58, 21, 14, -44, 48, 49, -25, 56, 25, 2, -31, -45, 20, -1, 44, 42, -16, 27, -57, -61, 22, 35, -41, 49, -5, 10, -34, -9, 0, -10, 46, 55, -67, 15, -20, 51, -58, -28, -16, 37, 46, 10, -56, -4, -45, -18, 35, 3, 23, -7, -24, -24, -31, -33, 31, -55, 31, -26, 11, -16, 16, 16, 21, -1, -12, -27, -24, 54, -60, -5, -52, 44, 50, -15, 41, 31, -52, -8, -44, -18, 26, 53, 37, -16, -9, -48, 11, -8, 16, -23, -19, -2, -7, -36, 38, 8, 33, 26, -13, 13, 47, 4, 10, 43, 17, 3, -35, -14, -40, -40, -29, 51, -41, 17, -4, 46, 0, -30, 47, 0, -65, -22, 9, -32, 24, 7, -24, -12, 41, 47, -10, 32, 15, -38, -20, 58, -49, 6, -2, 1, 33, -37, 60, -56, -44, -8, 19, 35, -42, 31, 55, -43, 16, -61, 51, -52, 22, 20, -43, -43, 58, 5, 13, -47, -55, 30, -1, -18, 27, 39, -40, -3, 34, -35, 32, -36, -51, -6, 37, 3, -43, -45, -16, 40, 14}
, {-15, -5, 31, 9, 48, -35, 46, 55, 34, 13, 29, 2, -53, -24, -28, 44, -60, 42, 54, 29, -11, 42, -27, 4, 32, 39, 16, -41, -21, 8, -9, -50, -57, -39, 5, 43, -44, 8, 45, -12, -45, -34, 8, -49, 30, -11, -17, -43, 27, -45, 21, 51, 26, -43, -29, -56, -26, 8, -62, -28, -9, 11, -62, 43, -50, -61, 48, -58, -19, -56, -55, -8, -10, -36, 6, 6, 24, 24, 2, 53, 51, 27, 40, -34, 22, 49, 60, -46, -58, -4, 31, 45, -50, 42, -42, 29, 11, 6, 29, 49, -31, 5, -27, -36, -8, -1, -15, 0, -40, -50, 9, -44, -38, -8, 37, 25, -43, 33, 17, 55, 8, 48, -30, 60, -42, 22, -7, 18, 46, -2, 7, -35, 12, -36, 36, 51, 52, 42, -68, 7, 0, -33, 40, 38, -56, -5, 51, 36, 13, -10, 42, -18, 0, 14, 22, 39, -42, 19, 32, 53, -29, 59, 20, -16, 11, -57, -21, 22, 11, 1, -24, 14, -63, 1, -1, 20, 44, -33, 8, -24, -21, -25, -2, 55, 61, 19, 3, 44, -12, 38, -38, 6, 9, 29, 37, 10, 50, -5, 43, 49}
, {-60, 32, -31, 17, -40, -23, 21, -18, 10, 11, 43, -12, -59, -60, 24, 33, 10, -18, 32, -53, 23, 46, 57, -16, -41, 18, 46, 14, -30, -45, 26, -41, -6, -55, 61, -58, 33, -16, -45, 36, 29, -21, -26, 17, -58, 15, -2, -41, -40, 4, 0, -47, -45, 0, -47, -32, 22, 14, -24, -24, 33, -11, 15, 52, -32, -51, 53, 7, 45, -9, 30, 14, 7, 22, -14, 28, -42, 23, -18, 7, -6, -21, 49, -28, 2, 51, 55, 40, -63, 2, -11, 17, -48, 53, 61, 40, -23, 47, 61, 0, -59, 25, 33, 15, 23, 0, 41, 17, -31, -26, -27, -31, -11, -51, -4, -16, -41, -29, 20, 51, -15, 23, -17, -52, -32, -26, -25, 48, 45, -14, -1, -22, 4, 27, 58, -1, -14, 66, 2, -22, -31, 61, -28, 58, -42, 22, 18, 0, -6, -32, -10, -16, 31, 9, -24, 2, -32, 3, -47, -24, -57, 33, 36, 6, 54, -63, 50, 23, 42, -16, 30, 2, 7, 54, -25, -31, 13, -40, -10, 22, 43, -53, 56, -57, -37, 0, -52, 0, -51, -3, 58, 72, -45, -23, -49, 31, -52, -37, -15, -46}
, {23, -51, 41, 5, -22, -33, -5, -10, 4, -12, 60, 47, -12, -11, -9, 2, -5, 42, -10, -23, -3, 21, 48, 22, -22, 57, -30, -20, -50, -51, -45, 58, -40, -48, 32, 28, 67, -20, -22, -46, 46, 25, -30, -50, 35, -57, 43, 27, 59, -15, -37, 32, 49, -12, 30, -33, -9, 51, -2, 26, -41, -10, 0, -6, 12, -30, 6, 45, 7, 47, 31, -14, 5, -51, -33, 22, 48, -44, 33, 34, -21, 48, -23, 42, 32, -54, 14, 40, 43, -62, 51, 6, -48, 37, 5, -59, 42, 12, -60, -12, -59, -10, -20, 47, 41, 10, 39, 24, 16, -56, 35, 19, 18, 31, -23, 29, -56, 25, -53, -7, 58, 12, -8, -25, 51, 37, -31, 0, -20, 27, -56, -27, 25, -46, 20, -20, 0, 53, 52, -54, -5, 57, 7, -34, -20, 5, 22, 43, -7, -43, 23, -35, -5, 16, 49, -63, -45, -37, -54, -14, 7, -17, -11, 49, -42, 14, -44, 21, 14, -39, -38, 8, 3, -57, 60, -31, -12, -25, 32, -41, 58, 46, -18, 52, -17, -50, -17, -29, -57, 15, -31, -2, -22, 21, 3, 19, 8, -30, -7, 34}
, {21, 31, 48, 38, 11, -37, 15, 36, 54, -25, 9, 20, 36, 10, -27, 32, -43, -31, -30, 64, 12, 43, 48, 25, -4, 35, -11, 48, -46, -55, 38, -61, -38, -53, 50, -42, -53, -21, -14, 14, 35, 11, -48, 5, 8, 5, -54, 44, 49, -32, 19, -58, -20, -28, 0, 53, 63, 59, -5, 32, -27, -7, -22, 16, 15, -36, 49, -64, 13, 29, -63, 1, -24, 28, -8, 19, -4, -67, -61, -63, 19, -6, 58, -35, 20, 17, -10, -44, 20, -53, 42, -11, -36, 14, 15, -5, -58, -41, -13, -27, -37, 61, -35, 37, -39, -28, 16, -29, 11, -18, -12, 11, -30, -26, -57, -48, -41, -27, -45, 37, 23, 4, 18, -37, -36, -5, -41, 17, 33, -53, -2, -43, 14, -44, 53, -39, -17, 54, 29, -23, 24, 18, -62, 2, -46, 38, -23, -17, -46, 12, -28, 42, 55, 46, -49, -10, -39, -57, 37, -23, 54, -48, -43, -49, 0, 31, 8, -25, -17, -21, -24, 9, -44, 39, 31, -5, -2, 33, -42, 53, -50, 42, 32, 52, 7, 5, -35, 65, -56, 26, 0, -22, -15, -36, -52, 42, -11, 8, -33, -8}
, {15, -34, -12, 11, -2, 30, 17, -10, 5, 41, 59, 13, -15, 40, -42, 23, -61, -27, -2, 34, -5, -14, 10, 53, 10, -39, -32, -16, -11, -8, 22, -12, -34, -44, 18, 24, -62, 36, 37, -11, 10, -38, -26, 6, -49, -30, -31, -18, -59, 8, -39, -41, -29, -16, -64, -48, -39, -33, 41, -51, 37, -40, 9, 3, -51, -14, 53, 5, -40, -41, -38, -53, 12, 3, 10, 26, 24, 14, -19, 14, 17, 44, 33, 53, -59, -55, 25, -42, 47, 56, -60, 9, -60, -31, 52, -22, -39, -28, -19, -45, 21, -54, 34, 20, 5, 27, 51, 13, -1, -24, 10, 53, 9, 15, -13, -43, -12, -44, 17, 38, 41, -8, 2, 48, 3, 23, 52, 40, 25, -17, 8, -28, 31, 26, -36, 11, 27, 56, 14, -11, 60, 3, 1, 2, -4, 32, -30, -17, 16, -57, -34, 18, -64, -9, 19, -41, 41, -3, -4, -17, 9, -57, -8, 56, -46, -23, 30, 58, 28, 16, 22, -22, 24, -17, 2, 34, -59, -53, -49, 51, 17, 31, -39, -17, 35, -35, 43, 39, -21, 5, 23, -57, -50, -37, 27, -27, -57, 24, -61, -32}
, {34, 39, 0, -14, 57, -46, -32, -53, -7, -17, 62, -57, -36, 47, 27, 44, -7, -42, -40, -7, 25, 31, 11, 23, -63, -3, -15, -31, -41, -13, 17, -45, 27, -42, -44, 43, 43, 58, -27, 53, -63, 17, -1, 36, 14, 13, 25, -30, -13, -29, -59, 37, -9, -14, 42, 54, 35, 53, 4, -50, -47, -30, 25, 15, 39, 1, 19, 54, 11, 17, 3, 0, -22, 45, 7, 21, 33, 29, -13, -20, -12, -4, 26, -34, 22, 27, 50, 41, -35, -41, 44, -21, 57, 44, 2, 14, 5, -45, -4, 58, 55, -40, -42, 50, -21, -35, -54, -46, 57, 45, 25, 1, 38, -21, 14, 41, 29, -52, 4, -1, 52, -44, -3, -8, 37, 61, -44, -16, 13, -6, -54, 1, -20, -7, 26, 42, -12, -34, -55, -26, 45, -33, -36, -37, 55, 18, 28, 30, 47, 17, 24, 19, 6, 19, -41, 16, 0, 54, -53, 28, 47, -57, -38, 0, 19, 35, -5, -36, -53, -41, 48, 52, -39, 52, 12, -55, 10, -30, 33, 22, -23, -59, -16, 18, -12, 59, 62, 4, -52, 27, 17, -30, 51, -21, -48, -27, -3, -11, 9, 59}
, {-45, -36, 59, -59, 55, 35, 42, -36, -33, 49, -15, 46, -23, -22, -11, -46, -57, -16, -48, -27, -2, -21, -42, 10, 1, 35, -12, 28, 15, 15, 53, -59, 22, -55, -60, 27, 55, -63, 45, -38, 24, 48, 53, -51, 45, 27, -5, -62, 21, -59, 37, 36, -1, 33, 18, -16, -48, 35, 11, -41, 49, -33, 19, 42, 61, -5, 22, 29, -35, -49, -18, 60, 14, -34, 29, -36, -39, 50, 49, 39, -28, -12, 1, -50, -55, 34, -49, 5, -8, -26, 21, -55, -32, 44, 40, 21, 37, -9, -16, 50, 0, 46, 57, -48, -1, 12, 45, -26, 28, 23, 20, 7, -46, -8, -19, 33, 15, -8, 48, -59, -2, -17, -14, 19, 22, -26, 7, 39, -42, -46, -30, -46, 49, -30, 0, -23, -23, 42, -63, -61, -44, 55, -28, -7, 57, -40, 2, 51, -1, 22, 30, -18, 19, 13, 45, -41, 33, -20, 10, -35, -50, 0, 22, -10, 57, -58, -39, 49, 0, 55, 1, -24, 42, 38, 2, 30, 33, 16, -29, 59, 22, 56, 38, 14, -54, -21, 14, 57, 23, -20, -34, -4, -61, -3, -45, -41, 2, 25, 20, 6}
, {9, -48, -58, 33, -6, -51, -49, 20, 44, 34, 36, -40, -3, 39, 23, 55, 61, -21, 54, -41, -34, 31, 55, 0, -39, -56, 39, 50, 10, 31, 27, -42, 10, -4, 46, -17, -3, -36, -38, 0, -33, 31, -13, 12, -49, 21, 32, 18, 11, 18, -21, -51, -1, -60, 64, 5, 31, -44, 18, -27, 71, 45, 45, 34, 46, -3, -47, -55, 29, -24, -18, -12, 32, 26, -58, 31, -16, 19, -46, -3, -38, 55, 9, 54, -43, 7, 4, 53, 65, 21, 53, 2, 16, 47, 56, 9, 26, -16, -14, -45, 41, -4, 58, -22, 12, 42, 47, -7, -23, 52, -14, -62, -54, -36, 53, 13, 1, -58, 23, 26, 24, 21, -32, -9, -35, 49, 5, 18, -13, -30, 15, 17, 0, -32, 42, 36, -32, 1, -11, -52, -23, -21, -36, -46, -35, 39, -21, -47, -37, 58, 35, -45, 10, 16, 2, -28, 51, 48, 20, -56, 18, -25, -48, -43, -33, 52, -31, 3, -45, -31, -6, 38, -14, -41, 23, 12, -20, 40, 44, 25, -38, 21, 35, -28, 28, 35, -39, 30, -14, -56, -53, 23, 11, 9, -40, -50, -32, 6, -52, -20}
, {-54, 38, -11, 6, 26, -6, -16, 44, 5, 1, 61, 29, -52, -49, -2, 39, 38, 23, -55, -29, 20, -56, 44, 43, 29, -39, 19, -5, -52, -16, 57, 50, 5, 54, 34, 4, -13, 28, -37, 23, 34, -7, -49, 23, -18, 37, -3, 14, 37, 16, 60, -44, 26, -31, 57, 47, 19, 41, 60, -3, 4, 7, 58, 62, 38, -11, -4, 62, 21, 0, -9, -13, 41, -41, -26, 13, -16, 60, -58, 0, 39, 3, 45, 57, -34, 15, -35, -1, 14, -15, -13, 60, -14, 23, 57, -32, -31, -26, 15, -56, -42, 3, -36, -53, -22, -11, -2, 26, 39, -21, -50, -33, -55, 25, 58, -10, 32, 22, -50, -56, -48, -16, 51, -28, 3, -13, 10, -20, 57, -45, 48, -11, -18, -57, 39, -41, -22, -35, 60, -25, 19, -22, 19, -12, 14, 13, -10, 59, 22, 55, 24, 36, 22, 14, -39, -26, 51, 54, 6, -46, -16, 20, 12, 21, -51, 38, 49, -9, 27, 11, 43, -10, -36, -35, -16, 29, 3, -52, -56, 33, 59, 47, -14, -2, 53, -6, 27, -66, 22, 52, 0, 3, 25, -44, -71, 56, 35, 30, 7, -27}
, {23, 27, -19, -1, 4, -6, 39, -62, 48, -24, 58, 61, -21, -13, -52, 27, -50, -13, -48, -39, 15, -23, 5, -57, 47, 39, 48, 31, -28, -50, 30, -15, -34, -5, 23, -55, 36, -29, -60, 32, 52, -37, -28, 51, 22, -33, 51, 12, -30, 24, -52, 31, 41, -47, 25, -58, -48, 2, -22, 51, -10, 32, -29, -32, 0, -25, -18, 10, 29, 19, -52, -36, -24, -54, -53, -26, -51, 7, 57, -45, -37, -49, 46, 45, 28, -28, 32, 34, 60, -20, -41, 9, 50, -43, -21, -55, 37, -36, -35, -47, 50, -43, -12, 8, 8, 46, 51, -47, -11, -19, 27, -24, -43, -47, 16, -52, -40, -60, 53, 53, -29, -19, -9, 23, 26, -23, -11, -53, 39, 26, 17, -18, -33, 0, 23, 49, 7, 40, -28, 24, -61, 4, -63, -58, 55, 21, 20, -2, -26, 27, -20, -53, 35, -37, -11, 32, 39, 62, 14, -6, -6, 45, 47, 33, -40, 38, 24, -2, -39, 17, -53, 2, -21, -42, -60, 20, -4, 0, -40, -1, 31, 5, 59, 32, -23, -11, -17, -62, 36, 61, -45, 36, -25, -8, -61, 1, 50, 38, 22, -57}
, {9, -9, 16, -47, -32, -2, 17, 55, -7, 19, 20, 31, 62, 2, -39, -47, 11, -8, 58, -23, 19, -29, -45, -23, -33, -50, 52, 36, -30, 15, 53, -33, 60, -48, -54, -40, 30, -10, -38, -18, 43, 35, -59, -50, 52, 57, -47, 17, 60, -41, 10, 50, 29, -38, -5, 36, -32, -36, 60, -38, -57, 57, 11, -56, 39, 16, 41, 17, 18, 5, -57, 8, 48, -24, 15, 12, -1, -51, -50, 64, 19, -29, 30, -30, 21, 23, 48, 6, -51, 5, -40, -12, 51, -27, 33, 3, 21, -18, -37, 0, -21, -13, -42, 26, 58, -11, 25, 29, -21, -47, 1, 52, 29, 12, -59, 0, 5, -23, -50, -26, 45, 54, 20, 20, 44, -42, 60, -32, -17, -46, 3, -24, 20, -44, -60, -55, -49, 22, 60, -46, 52, 44, 60, 29, -20, 54, -1, 36, 42, 6, 22, 44, 55, -25, -17, -42, -34, 7, 26, 51, -6, -6, 28, -51, 11, -6, 23, 0, -53, 22, -25, -55, 8, 33, 2, 14, -59, -56, 58, 15, -40, -42, 27, -22, -56, -48, -51, 16, 33, 44, -39, -25, -52, -29, -63, -2, -28, 54, -38, -3}
, {2, 0, 6, 38, 28, -51, -57, 51, 28, -62, 38, -10, 3, -16, 17, -17, -54, 19, 6, -1, -46, -16, -56, 17, -9, -17, -17, 43, 9, -20, 58, 63, 40, -10, -37, 13, 19, 33, -67, -4, -12, -12, -58, 1, -8, 10, 5, -34, -21, -36, 53, 38, 34, -6, 55, -54, -52, -3, -38, -8, 21, 65, 60, -8, -11, 31, -15, 56, -6, -61, 18, 55, -38, -54, 62, -5, -2, 12, -17, -17, 56, 54, -16, -3, 22, 15, 42, -57, 22, 51, -29, 30, -3, -13, 8, 23, 29, 23, -39, 48, -16, 0, -54, 59, 12, 12, 46, -3, -55, 28, -63, -45, -36, -56, 26, -6, -9, 15, -17, 33, 39, -9, -40, -12, -35, 58, 16, 8, 8, 0, -35, -30, -54, -49, -46, -32, 55, 47, 63, -30, -4, -51, -44, -6, -47, 19, 1, -27, -37, 1, -1, 0, 56, 32, 32, 17, -55, -48, 25, -3, -34, -24, 20, 41, 46, -5, 18, -19, 31, 35, -14, -26, -49, 54, 12, -11, 56, 1, -27, 18, -35, -23, -12, -56, 58, -2, 57, -22, -6, 35, -8, -47, 3, -35, -20, 59, -46, 30, 45, 37}
, {53, 20, 8, -14, 12, 42, 6, -16, 38, 2, -44, 34, 16, 18, -16, 0, 29, 44, 52, 59, -32, 21, -51, -36, 49, 13, 35, 37, 62, 55, -7, 38, -34, 35, -1, 7, -28, -72, -6, 36, -54, 58, 41, 7, 53, 37, -48, -12, -50, -50, 1, -29, -30, -48, 49, 21, -12, 62, 33, -56, 30, -27, 42, 37, 42, 40, -31, 23, -26, 7, 55, 34, 39, -49, -46, 17, 36, 53, -24, -12, 17, -44, -14, 11, -37, 37, 52, 48, -12, 6, -21, -59, -65, -57, 53, -1, -25, 42, 57, 22, 18, 60, 47, 11, -22, 25, 2, 45, 54, -59, -50, 35, 57, -13, 17, 8, -21, 53, 57, 41, 3, -56, 7, -32, -21, 51, 23, 4, -23, -52, -55, 64, 50, -41, 33, 45, -10, 38, 39, -3, 9, 23, -28, -34, -57, 0, -42, -18, 11, -53, 37, -46, -12, 1, -5, 10, -18, 0, 45, 29, 9, -53, -4, -21, 2, 40, -25, 40, -1, 16, -37, 35, -6, 24, 29, -38, -25, 0, 18, -14, -15, -24, -12, 2, 5, -16, 22, 38, 17, -61, -18, 15, 54, 26, 68, -47, 50, 8, 60, 27}
, {-50, -22, 35, 0, 50, 23, -24, 22, -35, 25, -32, -31, -20, 29, 59, -51, -47, 16, -46, -17, 51, -27, 0, 14, 46, -31, -7, -59, 15, -22, 16, 0, -41, 9, 56, 8, -11, 29, -58, 16, 39, 51, 12, -39, -11, 12, 22, -31, 12, 60, 33, 43, 30, 10, -58, -40, -9, -16, 13, 41, 27, -30, -13, 1, -52, -6, -19, 26, 2, 53, 15, -5, -9, 20, 54, 10, 47, -64, 10, -6, -46, 21, 0, 0, 26, -27, -39, -15, 8, 34, 28, 15, -62, -54, 41, -12, -36, 47, -50, -60, -54, -60, 27, 46, 45, -12, 41, 24, -9, -55, -35, -51, 38, -34, 33, 55, -47, -45, -4, 21, -46, 50, -6, 12, -41, -51, -36, 61, 27, -8, -18, -40, -37, 16, 25, 38, 33, -61, 9, -4, 31, 59, -36, 32, 34, 42, 44, -38, 27, -39, 41, -13, 55, -50, 49, 17, 44, 17, -9, 28, 1, 24, 15, -43, 61, 43, 25, -41, 36, 63, -20, -6, -13, 43, 2, -20, 22, -50, 58, 19, 48, -54, 26, 50, 37, 4, -37, 65, 37, -2, 27, 2, -4, -44, 35, 36, -30, 26, -31, 49}
, {1, 22, -34, -57, 28, 5, 48, -27, -30, -11, 45, 26, -37, -23, -22, -17, 0, -42, -55, 15, -44, -34, 57, 26, 43, 57, 24, -38, 37, 17, -9, 3, 31, -53, -11, 16, -57, 31, -8, 36, 10, 58, 21, -49, 58, 25, 43, -21, -58, 68, -42, 39, -31, 62, 59, 22, -31, -30, 10, -52, -66, 19, -55, 39, 39, -52, -6, 65, 9, 26, -48, 13, 15, -10, -24, 28, 47, 5, -7, 0, 61, -62, -25, 40, 49, 10, -16, 23, 4, 48, 41, 48, 41, 21, -3, -50, -35, 48, 52, 11, 27, 50, 28, 8, 6, -59, 14, 45, -53, 3, 9, -22, 9, 60, -21, -40, 21, 17, -61, -23, -14, 50, 60, 11, 20, -22, 7, -47, 15, 27, 55, 22, -34, 2, 56, 0, -23, 34, 0, 40, -2, -50, -4, -4, -13, -43, 31, -33, -3, 8, -42, 59, 42, 8, -38, -62, -20, 31, -8, -41, -59, 33, -50, 45, 12, 63, -35, 10, -55, 40, -50, 42, -24, -52, 29, -16, 42, 24, 22, -54, -3, 4, 45, -56, -35, 47, -29, 36, 32, 54, 27, -14, 20, -11, 48, 13, -40, 42, -14, 17}
, {52, -8, 9, -61, 13, 57, -55, -5, -19, -40, -20, 41, 26, 48, 41, -22, 54, 57, 5, 8, 34, 49, 54, 8, 54, 12, -19, -19, -40, 8, -37, -30, 18, -15, -48, 7, -1, 29, -54, -31, 58, 16, -55, 53, 5, -24, 21, 57, -1, 9, -34, -58, -27, 7, 37, 10, 26, -21, -34, 20, 3, 20, 19, 36, 53, -54, -51, 56, -11, 31, -19, -63, -31, -60, 56, 4, -61, 0, 1, -57, -30, 35, -39, 49, -15, -58, -4, -39, -40, -63, -31, 56, -22, 30, -60, 5, 7, 42, -30, 15, 22, -35, -54, 5, -63, -50, -45, -11, 55, 33, 14, 52, -41, 24, -58, -51, 44, 40, -54, 26, 29, 0, -18, -57, -30, 16, -61, -26, 9, -58, -36, -54, -6, 16, -34, -17, -4, 14, -56, -51, 19, -64, -51, 1, 13, -53, -30, -47, 53, 43, 0, -60, 0, 56, 29, -27, -10, 52, -4, 27, -53, 37, 40, -30, 9, -59, 43, 18, 23, -6, 3, 22, -55, -38, 32, -59, 36, 6, -35, -3, -54, -24, -39, -12, -16, -63, -16, -38, -41, 39, 9, 36, 10, 4, -3, 26, -36, 59, -14, -46}
, {-51, 43, -50, 55, 11, 54, -23, -10, -32, -40, -1, -1, 26, 41, -47, -39, 0, 33, -55, -50, -21, 42, -35, 23, -9, -28, 20, -8, 2, -11, -44, -23, -39, 47, 52, -16, 0, -47, 54, -24, 3, 11, -31, 44, -6, -32, 54, 44, -44, 39, 37, -5, 55, -11, 15, -51, 46, 2, -4, -39, 33, 56, 13, -58, 5, -36, 49, 49, -59, 50, -54, -34, 8, 47, 48, 38, -22, -18, 18, -19, -33, -31, 4, 43, -8, 42, 19, 34, -52, -21, -52, -48, 10, 18, -10, 4, 27, 48, -58, -63, -18, 22, 49, -23, 57, -14, -60, 49, 20, -15, -61, -45, 41, 35, -42, 50, 10, -2, 26, -27, 14, 36, 43, 46, -55, 39, 51, -36, 21, 38, -9, -31, 54, -61, 9, 52, 17, 7, 26, 24, 27, -13, 44, 59, -1, 24, 1, -17, 31, -26, -1, 51, 34, -15, -24, -57, -14, 62, -38, -23, -26, -48, -13, -23, -22, 21, -55, -55, -5, 17, -21, -6, -29, -29, -4, 62, -22, -2, 10, 30, -24, -52, 29, 33, -62, -61, -43, -55, -7, 4, 15, -27, 2, 3, 9, -44, -19, 40, 21, 61}
, {-24, -3, 47, 60, -54, -60, 48, 1, 57, 21, -16, -16, 10, 22, -25, 35, -39, 10, 35, 33, 33, -53, 62, -44, -37, -52, 4, 21, 20, 20, 46, 10, 44, 36, 15, 24, -11, 25, -31, -38, -3, -35, -41, 53, 43, -18, 28, 34, 15, -39, 54, -16, 8, -31, -9, 62, -7, -1, 33, -63, 17, 61, 8, 8, -15, 14, -24, -55, -33, 39, 48, 22, -21, 0, 9, 41, -29, -18, 38, 30, -52, -60, -4, 35, 0, 48, -14, 30, 38, -45, 35, 44, 0, -61, -42, -59, -46, 37, -43, 57, -28, -8, -44, 41, -38, 41, 18, 0, 0, 30, -42, -29, 2, 3, 56, 43, -31, -2, 25, -51, 18, 51, 2, 20, 43, 58, 27, 12, -1, -5, -17, 23, 8, -7, -2, 55, -21, 0, -47, -48, 30, 13, -29, 61, 63, 59, -50, -49, 0, 17, 37, 1, 15, 17, 53, -33, 16, -26, 34, 26, 5, 21, 8, 47, -41, -29, -4, 24, -30, 8, 56, -33, 58, -49, -32, 39, -26, -2, 10, -51, 21, -14, 31, 11, 1, 4, -47, 17, -26, 53, -49, -63, 7, 35, -37, 50, 43, -70, 28, -39}
, {-6, -38, 58, -32, 22, -13, -6, -54, -32, -54, 19, -3, -48, -8, 0, 46, -59, 15, -21, -10, 11, 5, -30, -25, 26, -58, -6, -51, -49, 13, -11, -44, -48, 17, 49, 55, 48, 27, 22, 18, -33, 24, -15, 41, -24, 33, 9, 35, 38, -36, -19, -1, 41, 22, -21, 34, 18, 27, 34, -23, -62, 63, -15, -3, 23, -29, 35, 46, 31, 34, -16, 25, -29, -9, -4, 14, -57, 55, 46, 28, 32, 59, 27, 48, 30, -8, 32, -52, -62, -42, -57, 5, 41, 60, 19, 57, -50, -21, 25, -22, -59, 41, -53, 50, -6, -46, 56, 1, -47, -39, 34, -34, -23, -19, 44, 18, 53, 32, 43, -54, 26, 25, 39, -40, 41, 24, 9, -57, 47, -47, -32, -59, -26, -7, -5, -8, -47, -48, -36, -60, -17, -54, -3, 39, 18, 55, -23, 21, 0, 48, -50, -11, -20, -29, -19, 36, 16, -38, 60, 22, -6, 38, 59, 32, 25, 22, -5, -14, -32, -32, 43, 32, -39, 43, 56, -10, -43, 40, 40, 37, 12, 44, -12, 17, 34, 28, 38, 39, -57, 17, -17, -11, -42, 41, -53, -16, -34, -18, -20, 38}
, {-26, -19, 26, 22, -14, 29, -36, -51, 42, 56, 30, 11, 15, -23, 29, 38, -38, 35, -41, 17, 11, 7, -19, -18, -58, 56, 44, -59, 12, 44, 9, 54, 0, -52, -41, 52, -12, 22, 2, 47, 40, -21, 48, -44, -58, -18, -32, 17, -51, -4, 44, 29, 27, 7, -56, 3, 27, 18, 40, -43, 57, -56, 8, 49, 57, 22, -36, -59, -53, -41, -40, -28, -26, 9, -57, -23, -13, 10, 51, -6, 32, -29, 10, -40, -41, 57, -14, -20, -55, -25, -57, 0, -9, 53, 33, -31, 40, -48, -7, -49, 46, 44, 11, -49, -7, -53, 45, -4, -51, 23, -31, 22, 54, 48, 34, -42, -51, -4, 31, -8, 35, 21, 15, -15, 38, 57, -6, -24, -55, -4, -47, -1, -17, -7, -30, -47, 56, -39, -10, 12, 35, 7, 40, -46, -35, -43, 6, 27, -27, -59, 7, -18, -20, 15, -27, -2, -44, 16, -55, 8, 44, -3, 40, 28, 25, -60, -6, -6, -39, -30, 23, -24, 9, -34, -12, 8, -56, -5, 43, -62, 7, -58, 35, 12, 57, -20, 28, 50, 4, -25, -13, 28, 38, -18, 70, 32, -38, 3, 12, -25}
, {-53, 43, -13, -48, -60, 51, -24, -39, -62, -6, -6, 20, 47, 36, -31, -20, 46, -14, -1, -60, 25, 28, 40, -50, 20, 44, 46, -36, 6, -40, 54, -19, -25, 53, -33, 35, -39, -37, -45, -12, 9, -44, -20, -59, 43, -37, -2, -61, -1, -25, 49, 40, -23, 58, 26, 28, -11, -60, -46, 11, -27, 33, 58, 49, 37, -19, -58, -1, -25, -26, 35, 3, 58, -55, 0, -1, 41, 49, 25, -54, 60, -63, 53, 7, 33, -2, 25, -32, 45, -53, 48, -5, 55, 44, 7, 29, -18, -35, 8, -51, -2, -21, 28, 11, 44, -41, 49, 44, 52, -8, -2, -28, 14, 10, 8, -36, 50, -53, -29, 22, -19, -14, 54, -45, -47, -16, 37, 15, 57, -49, 34, 3, 53, -24, 9, -20, -41, 23, -31, 40, 53, -39, 17, 16, 16, 42, 36, -44, -56, -52, 20, -19, 25, 14, 21, 42, -36, 40, 0, 2, 55, 20, 50, 20, 32, -39, -56, -50, -27, 36, 44, -23, 27, -46, -38, 2, 35, -41, 52, 34, 23, -30, 60, 34, 20, 0, 47, 43, 50, 2, 62, -33, 40, 61, 21, 2, 5, -12, -22, 39}
, {2, -20, 30, 30, 12, -13, 8, -42, -30, 48, -2, -18, 11, 30, -42, -20, 12, 33, -2, 56, 5, 5, 27, -59, 11, -48, -6, -27, 34, -48, 6, -65, 26, -1, 32, -21, 28, -61, -9, -20, -51, -10, 10, 8, -14, -6, 39, -53, 11, 38, 12, -43, 43, -52, -10, -44, 6, 9, -38, 58, -31, -57, 54, -69, 33, -6, -26, -12, 0, 6, 45, 30, 46, 20, -49, 0, 23, -6, -37, -23, -13, 16, 51, -33, 14, 46, 19, 17, 0, 54, 58, -48, 1, 1, 47, -50, 60, 51, -21, 36, 50, -51, 7, -50, 29, 60, -40, 40, -15, -39, -32, 31, -3, 8, -11, 27, 44, 56, -10, 4, -41, -28, -25, 44, -45, 41, 40, 4, -41, -23, -22, -9, 11, 35, -32, 13, 11, 57, -43, -31, 21, -1, 28, 2, -29, -45, 31, 18, -12, 22, -34, 43, 62, -32, -41, -27, 46, 57, 45, 16, -37, -35, 17, -58, 27, -53, 0, -61, 53, 52, 46, 1, 43, -5, 28, -36, 31, -26, -34, -29, -39, -30, 59, 62, -27, 61, 12, -18, 48, -54, -40, 20, -52, 23, 47, 58, -4, -16, 51, 15}
, {49, 36, -35, -16, 31, 54, -5, -56, 35, 41, -21, -49, 19, 30, -15, 36, 28, -18, -1, 43, 7, 51, -5, -36, -46, -9, -47, 12, 56, 29, 32, -9, 3, 18, -7, -6, 36, 44, -34, -61, 2, -43, -49, 51, 60, 34, -54, 3, 61, -60, 6, -23, -21, 23, -3, -1, -24, -43, 30, 33, 69, -26, 23, -63, -34, 4, 54, -38, 41, 40, 31, -49, -40, 13, 36, 35, -22, 38, -38, 55, -40, -8, 40, 17, -25, 5, -16, 29, 62, 19, -42, 25, 2, -32, 11, 48, -58, 41, -36, -45, -8, -12, 0, 48, -56, -5, -9, -38, -21, 2, -35, 32, -20, 49, -60, -52, 10, 29, 36, -46, -9, 42, -10, 44, -12, -6, 16, -4, -38, -14, 42, -10, 4, -23, 0, -49, -27, 50, 0, 3, -63, 13, -14, 54, -57, -30, -56, 11, -12, 46, 14, 42, 59, 26, 24, 22, -24, 7, 35, 44, -35, -34, -25, 49, 19, 32, 53, 59, 34, -40, -33, -22, -62, 13, 38, 53, 3, 2, 32, 33, 44, 52, -18, 54, -60, -26, -39, 61, 25, 32, 62, -37, 58, -39, 11, -20, 10, 16, -58, -59}
, {-14, -45, -49, 27, 17, 17, -60, -18, 9, -11, 16, 29, -41, 21, -34, 60, 41, -65, 43, -26, 42, 43, -1, 27, -55, -21, -51, -60, 2, -24, -60, -49, 38, -29, -57, -60, 19, -23, -36, 57, -41, 11, 51, 21, -50, 14, -15, -30, 4, 15, -27, 9, -56, -57, 24, -17, 46, 17, -27, -45, -44, -63, 54, -7, -38, -38, -4, -46, 8, -58, 6, -5, -39, 54, -47, 36, -35, 47, 18, -16, -19, -25, 29, -52, 6, 41, 49, 38, 10, -18, 5, 57, -62, 15, -44, 35, -13, 16, 29, 55, 26, 16, 46, -60, 13, -21, -8, -26, -45, -22, -13, -44, 38, 0, -51, -61, 27, 35, -11, 8, 51, -14, 19, -57, 0, 10, -27, 41, 27, 18, -20, -44, 25, -62, -28, 6, -4, 54, 55, 37, -40, -21, 13, 39, -45, 61, 1, 36, -58, 55, 51, 5, -37, 21, -50, 54, 45, 46, -53, 60, -20, -2, -61, 19, -58, 57, 26, 20, -62, 15, -4, -39, 0, 60, 42, 51, 47, 58, 55, 27, 39, -63, 21, -61, -63, 13, -50, 28, 11, 45, -44, 30, 5, 50, -10, -17, 18, -39, 37, 2}
, {13, 3, 34, 61, 14, -40, 55, 27, -53, -41, 55, -13, 39, -39, -27, 36, -33, -7, -24, -56, 15, 1, 30, -46, 6, 2, -31, -30, -12, 14, 47, 17, 58, 0, -12, 16, -4, -1, -5, -13, 30, 23, -29, -62, -39, -5, -56, -11, -27, 3, 26, -24, 55, -27, 29, 46, -9, 4, 45, 2, 55, 6, 55, 18, 47, 24, -53, -58, -55, 48, -39, -53, 61, 48, -40, -19, -27, -27, -1, 0, 48, -44, 52, 37, 21, 56, 28, 62, 25, 29, 57, -8, 67, -15, 54, 66, 3, -43, 56, 37, -31, 31, 0, -17, -37, 22, 30, 5, 22, 45, 28, 5, -12, -49, -40, 52, 55, 5, -58, -24, -30, -7, 55, -36, -8, 18, -11, 35, 37, 3, 49, 31, 45, -51, 50, -24, -12, 41, 29, -22, -44, 56, 54, -34, -35, 19, -10, -32, -57, -39, -45, 18, 43, 43, -17, -61, -7, 60, -32, 49, 45, 3, 33, -58, 20, -27, 62, 9, -30, -12, -17, -3, 62, -12, 35, 24, -56, -7, -9, 1, -16, 57, 40, -10, -57, 22, 26, 32, 51, -2, -10, -15, 8, 26, 38, -1, -50, -59, 49, -43}
, {-30, -23, -10, 65, -4, 11, 35, 54, 33, -23, 51, 19, -40, -28, -6, 35, 12, 48, 56, 21, 7, 45, 52, -64, -17, -60, 57, 46, -18, -46, 36, 50, -47, -46, 31, -57, -47, -21, 6, -22, 62, -1, 45, -10, 47, -17, 36, 57, -52, 5, 61, 0, 58, -33, -61, -31, 26, 21, 10, -4, 43, -10, -50, -40, -32, -12, 17, -52, -8, 36, 44, 17, 14, 21, 27, -26, -50, 42, -8, 59, -54, 35, 5, -46, 30, 7, 25, -2, -12, -2, 39, -47, 11, 2, -32, 16, -33, 50, -24, 20, -35, -29, -50, -56, 11, 50, -25, 3, 33, -2, 30, -54, 46, -44, 44, -15, -24, 56, 17, -47, -58, -18, -23, -2, -12, -8, -45, -10, -54, -67, 42, 51, -38, -55, -48, -36, -59, 36, -18, -38, 11, -38, -12, -17, -32, 23, 34, -33, -60, -27, 60, -26, 15, 7, -37, 19, 48, -1, 49, 56, 52, 52, -25, 58, -61, -43, 24, -58, 47, 22, -58, 21, 34, -13, 18, -26, 7, -15, -33, -28, -15, -56, 39, 60, -41, -43, -37, -42, -13, 16, 32, -51, 30, 53, -9, -62, 40, 18, 21, -21}
, {48, 43, -11, 1, 59, 17, 8, -9, -23, -35, 31, -56, -11, 0, 13, -7, -13, -42, -51, -9, -70, 38, 47, -1, 2, 41, 20, 50, 46, 58, 8, -4, 57, 44, -49, 12, 64, -38, 11, 47, 5, -14, -57, 27, -59, -38, 15, 47, -6, 45, 15, 57, 59, -30, 44, -19, 43, 53, -19, -23, -4, -23, 20, -19, 17, -40, 51, -36, 7, 7, -4, -13, -22, 27, 5, -11, -24, 0, -42, -32, 15, -40, -2, -10, 3, -54, -5, -9, -10, 12, 60, 50, 46, -9, -23, 47, -53, 8, -52, -16, 58, 50, -31, 51, -14, -57, 45, 0, 54, -5, -58, 36, -9, 16, -48, -32, 60, 31, 51, 8, 8, -21, -54, -4, 22, -60, 31, -45, -55, 64, -14, -34, -21, -61, -69, -58, -68, 36, 11, -57, 53, -11, -25, -52, 32, 8, 47, -2, -23, -44, -39, -15, 27, -59, -53, -14, -48, 22, 23, 56, 7, -50, 58, -5, -43, -17, 42, -35, 40, -62, -1, 32, -56, -35, 35, -20, 42, 20, -12, 55, 23, -13, 0, -58, 44, -28, 2, -60, -41, -16, -59, -65, 51, 36, 10, -61, 36, 61, 57, 63}
, {-52, 37, -43, 24, 48, 12, 20, -7, -10, -20, 30, -1, 23, -15, 55, -8, -56, -14, 38, 3, 22, -40, 17, -3, -55, 6, 30, 3, -55, -39, 4, 56, -17, -34, 28, 4, -40, -8, -61, 27, 49, -46, 44, -60, -18, -7, 2, -5, 9, -49, -26, -52, 50, 58, -54, -54, 39, -3, 26, -31, 53, -38, 46, -41, -29, -61, 16, 24, 10, 37, 7, 3, -31, -50, -8, 3, 53, -38, -11, -4, -34, -48, 4, 21, -27, 6, 18, -37, -51, 24, 58, -29, -16, -43, -9, -40, 8, -21, 38, -32, 32, -43, 49, 15, -17, 61, -17, -11, -8, 45, 9, -51, 20, -62, -42, 23, -23, -55, 10, -5, -7, -34, 7, 41, -4, 39, 47, 0, -31, -3, 21, 37, 52, 43, 58, -29, -12, -26, 7, -34, -29, -52, -38, 41, 44, -28, 54, 12, -37, 5, -46, -58, -34, -35, -27, 10, -11, -28, -24, 40, 35, -5, 28, -59, 52, -30, 61, -23, -8, -59, -8, -16, 6, 2, 0, -44, -19, 58, 20, -19, -56, -8, 56, 0, -61, -39, -21, -15, -22, 12, -26, 0, 1, 62, -26, -2, 30, -25, 53, -15}
, {36, 22, 54, 46, -28, -38, 50, -38, 49, 51, -21, -34, 38, 66, -50, 7, 32, 60, -24, -32, 7, 36, 5, 39, 28, -2, 40, 7, -40, 1, -54, 52, -17, -32, 6, 4, 16, -12, 52, -24, -33, -36, -24, 49, -16, 19, 36, 41, 44, 35, 44, 19, 55, 21, 37, -22, 14, -57, 8, 19, 70, 21, 62, -16, -1, 45, -60, 13, 22, 53, 20, 32, 14, 8, 54, -44, -56, -27, -54, 9, 34, 55, -17, 59, 19, -17, -47, -51, -43, -32, 33, 16, -41, 62, 59, 26, 18, -42, -61, 4, -19, 23, 13, 15, 12, -51, -34, -41, 0, 41, -31, 16, -3, 12, 38, 2, 51, -48, -48, 21, -16, 5, 4, 53, -36, 54, -38, 63, 6, 30, -29, 9, 36, -49, -25, 38, 53, -55, -53, -40, 21, -7, 11, 17, 36, 10, 59, 33, 12, -19, -13, 43, 35, 42, 58, -20, -5, 23, -48, 8, 47, 12, -30, -12, 25, 45, -28, 15, 20, -37, -6, -15, -17, 16, -59, 6, 48, 50, 34, 40, -26, -35, 43, -2, 26, -26, 41, 63, -44, -51, 35, 32, -46, 51, 17, -40, -53, 66, 18, 16}
, {-55, -53, -29, 59, -62, -31, -26, -15, 31, 15, 41, 22, -43, -17, -36, -26, 38, -12, 37, 36, 47, 28, 39, 21, -5, -4, 4, 2, -18, -39, -27, -44, 10, -58, -21, -26, 57, 51, 54, 1, 48, 34, -30, 19, 31, -6, 54, 52, 18, 33, 32, 14, 12, 8, 6, -53, 39, -44, -49, 44, 95, 11, 42, -42, -40, 26, -22, -34, 56, 23, -5, 59, -33, 2, -61, 54, 18, -8, -60, 49, -50, 59, -45, -36, 46, 37, 58, 49, -49, -21, -57, -44, -27, 18, -32, -47, -59, 84, 58, 57, 18, -48, -9, -29, -58, -42, -64, 39, -46, -62, -49, -20, 0, -22, -49, 48, 0, -1, 10, 1, -11, 26, -31, 54, 38, 57, 52, 30, -41, 23, 22, -23, -25, 5, -7, -24, -6, 0, -38, 1, 55, 0, -13, -61, -36, -24, -37, 36, -26, -11, -53, -34, -11, -47, 19, -53, 42, -48, 20, -59, 2, -1, 22, 21, -2, 14, 38, 39, 38, -63, 34, 40, -27, 23, -14, -18, -30, -56, -47, -63, -56, 37, -40, 8, -14, -5, -4, -5, 14, -9, 23, 20, -34, -18, 22, -52, 55, 48, -49, 41}
, {-35, 41, 61, -47, 27, 47, -29, 20, 33, -5, 24, 55, -19, -7, -20, 1, -41, -41, 57, -56, 66, -11, -41, -34, -22, 6, -53, 46, -21, -28, -2, -31, -19, 1, -56, 5, 39, -70, -6, -43, -44, 25, 59, 48, -54, -26, -11, 11, 0, 36, -47, 44, 58, 53, 6, 39, 51, 28, -54, -16, 31, 48, 27, 9, -28, -45, -25, -9, 0, -51, 5, 10, 0, 11, -16, -11, -1, 54, 17, -56, 53, -55, 29, 27, -9, -25, -14, -62, 65, -4, 33, 3, 43, -10, -43, 57, -48, -47, 1, 35, 38, -9, 54, 48, -57, 51, -22, 38, -51, 29, 30, 11, 7, 50, -7, -54, 15, 54, 59, -11, 27, 1, -57, -19, 47, 29, -79, 43, -49, -9, -29, 54, 58, 35, 12, 39, 15, 44, -70, 23, -8, -3, -6, -33, -41, -41, -6, -1, -41, 12, 38, -7, -45, 27, 36, 20, 36, 0, 22, 28, -34, -2, -24, 33, 34, 1, -21, 47, -52, 44, -3, 53, -44, 11, 26, -61, -18, -50, 43, 22, -2, 33, -57, -61, -1, 33, -39, 18, 32, 14, -11, 64, 56, 32, 15, 3, 9, 48, 28, -29}
, {2, 17, -45, -43, -10, -36, 53, -42, 61, -10, -38, 4, -48, 34, -9, -4, 9, -12, -2, -24, 31, 49, 36, -53, -3, -27, 28, -26, -41, 52, -19, -10, 48, -27, 26, -46, -25, -20, 25, -5, -52, -57, -19, 33, 42, 30, -32, 25, 61, 21, 1, 25, -16, 38, 55, -16, -32, 32, -30, 29, 27, 0, -20, -12, -6, 20, 13, 13, -53, 4, -3, -62, 38, 2, -46, 20, -34, -51, 38, -16, -3, -6, -9, -25, 58, -26, -28, -47, 36, 23, 7, 17, -37, 50, -30, -12, 51, -40, 55, -39, 62, -33, 19, 11, 32, -55, -10, 16, -2, 11, -35, -35, 38, -50, 8, -34, 43, -50, -8, 47, -53, 61, 27, -3, 23, 39, 0, 35, 18, 26, -45, 47, -8, -3, 45, -48, 56, -61, -68, -36, 58, -32, 53, 25, 41, 41, -8, 17, -3, -49, -59, -18, 12, 47, 20, 56, 55, -49, -39, 47, -25, -25, 38, 12, -42, -41, 11, -61, 24, -26, 60, 52, -8, -64, -54, 33, 3, 47, 42, 12, 33, 61, -30, -18, 6, 50, -49, 39, 6, -42, -45, -19, 4, 51, -17, 12, 46, 50, 49, 7}
, {25, 13, 11, 58, 15, 17, -14, -42, 26, 11, -23, 15, -31, 36, 28, -52, 53, -30, 52, 51, -5, -27, 57, 20, 20, -11, -32, -17, -5, 58, 24, -53, -35, 31, -61, 59, -41, 31, -14, -25, -39, -36, -47, 58, 52, 26, 44, -56, -58, 28, -4, 10, 18, 62, 38, -9, 28, 5, -54, 2, -41, 43, -24, 10, -59, 29, -39, 41, -45, 0, -11, -55, 8, 8, -37, -45, 39, 30, 29, 51, -16, -34, -27, 25, 12, -20, -32, -7, 55, -25, 10, 42, -2, 51, 7, -10, 58, -20, 2, -3, -45, 22, 37, -23, 2, -14, -32, 35, -35, 36, -16, 58, -39, 25, -31, 22, -2, 6, -3, 23, -1, -37, 30, 39, 44, 59, -27, 1, 7, 30, 21, -46, 4, 24, -66, -61, -40, -13, 18, 0, -59, 6, -39, 24, -62, 6, 41, 50, 5, 21, -7, -43, -32, -33, -48, 5, -33, 52, -29, -28, 47, -9, 35, 61, 1, -41, 11, 49, 18, -20, -36, 10, 1, 11, 41, 45, -2, -48, -5, -37, 25, 46, 45, 27, -56, -23, 56, -53, 50, -13, -21, 22, -28, 55, -35, -12, -27, -29, -56, 26}
, {10, -41, 23, 52, 34, -17, 52, -16, -47, 36, 22, -44, 22, -53, 45, -28, -14, -55, 30, 30, 0, 16, -37, -10, -23, -8, -61, 30, 47, -42, 9, -29, -58, -25, 25, 16, -41, -43, 18, -62, 37, 9, 3, -12, -55, 57, -32, 12, 47, 27, -19, 54, -50, -18, 5, 1, 4, -62, -8, -49, -35, -28, 51, -6, 14, 15, 41, -27, -57, -30, -39, -8, 33, 39, 34, -36, 46, 16, -15, -50, 46, 30, -19, -35, -55, 31, -22, 11, 60, 33, -60, 39, 26, -19, 35, -59, -32, 57, 47, -14, -53, 43, -41, -34, 4, 45, -45, 39, -56, 33, 14, 41, 21, -24, -57, -48, 58, -23, 39, -7, -52, 55, -47, -57, -9, -60, 29, 49, -10, -25, -38, -15, 46, 28, 41, -42, -25, -16, 72, -47, 42, -4, -54, 44, -46, 20, 53, -38, 33, 10, 9, 12, 24, 0, -62, 58, 26, -19, 30, -48, 4, 19, 42, -11, -9, -18, -22, -4, 15, 42, 36, -39, -34, 8, 23, 20, -7, 40, -20, 49, -5, 3, -8, 51, -29, 50, 13, -33, 11, 18, -55, -46, -4, -18, -10, 44, 45, -59, -42, 30}
