/**
  ******************************************************************************
  * @file    weights/fc.cc
  * @author  Pierre-Emmanuel Novac <penovac@unice.fr>, LEAT, CNRS, Université Côte d'Azur, France
  * @version 1.0.0
  * @date    24 march 2020
  * @brief   Template generating plain C code for the implementation of Convolutional Neural Networks on MCU
  */

#define INPUT_SAMPLES 200
#define FC_UNITS 200


const int16_t dense_12_bias[FC_UNITS] = {-3, 0, 2, -3, -3, 3, 3, 0, -2, -1, 0, 3, -3, 3, -4, -2, -3, 4, -3, -2, 17, -1, 0, 0, -3, -3, -2, 20, 3, 0, -4, 6, 4, -3, 0, 2, -3, -3, 1, -3, -2, -3, -7, 0, 0, -2, -4, 0, 3, 2, -4, 1, 0, 3, 4, 3, -3, -3, 2, -5, 3, -3, -1, 0, -2, 0, 0, 3, -2, 0, 3, -1, 3, -4, -2, -3, -3, -1, -3, -3, -2, -3, -2, 3, 3, 0, -3, 3, 3, -1, 3, -2, -2, -4, -2, -4, -2, 0, -2, -2, -3, -2, -3, 3, -3, -4, 3, 0, 3, -2, -1, -7, -1, 0, -2, 0, -3, -1, 0, 0, 0, 3, -5, -3, 0, -4, -6, 0, -3, -4, 1, 0, 0, -1, -1, 0, -3, 2, -2, -3, 0, -3, -3, 0, -2, -3, 0, -2, -1, -3, -1, 0, 4, 2, -2, 0, 7, 1, 3, 0, -2, 0, -3, 3, 2, -3, 0, -3, 2, -1, -3, -2, -3, -2, 0, -3, -5, 3, -3, 2, 3, -4, 4, -4, -1, -4, 3, -4, -3, -3, 3, -1, 0, -1, -2, 3, 4, 0, 0, -2}
;

const int16_t dense_12_kernel[FC_UNITS][INPUT_SAMPLES] = {{7, 17, 11, 54, -17, 5, -48, -59, 5, -1, -53, 28, 41, -17, 2, -53, 48, -62, 30, -52, 16, -11, -20, -22, 45, 2, -56, 46, -15, -38, -37, -57, 61, -18, 57, 55, 48, -41, 41, 46, -41, -55, 0, 10, 56, -64, -33, -14, -49, 57, -35, -54, 39, 50, -45, 29, -46, -51, -39, 49, 53, 10, 11, -31, 31, -39, -21, -42, 27, -15, 27, 39, -17, 28, 20, -43, -59, -48, -18, 57, -27, -2, 0, 0, 18, 15, 41, -10, -56, 21, 44, 17, -21, 21, 40, 0, -44, 42, 11, 6, -59, 15, 41, -51, -28, -28, -40, -35, -23, 67, 22, -6, -36, -53, 39, 9, 33, 14, 26, -48, 35, -58, -42, 6, 12, -62, 8, 57, 63, 50, 13, -35, -52, -13, -38, -9, 29, -61, 12, 38, -6, 37, 36, 33, 10, 61, 49, -7, 56, -10, -5, 9, 15, 44, 29, -47, -17, -25, -16, 34, -24, 5, -46, 0, 61, 32, -15, 34, 48, -64, -47, -48, 65, -20, 1, -22, 44, 69, 26, -34, -2, -4, 19, 44, 60, 22, -42, 37, -55, 21, -60, -48, -30, 22, -16, 48, -17, -19, 14, -44}
, {15, 56, 11, 20, 42, -42, -51, 38, -55, -25, 19, 1, -36, -58, 23, 42, 25, -55, 60, 19, -44, 36, -14, 27, 29, 44, -22, 15, -7, -31, -35, 7, -1, -41, 54, 47, -5, -2, -38, -49, -46, -61, 36, 31, 25, 24, 7, 14, 11, 42, 13, -37, -4, 34, 44, 29, -53, 0, 2, -27, 41, 55, -46, -22, 16, 11, -38, -20, 12, -15, 20, 26, 39, -23, -51, 1, -36, 4, 31, -49, -14, 15, -20, 8, -43, 15, 34, -20, 60, -52, -47, -10, -5, -31, -21, -54, 26, 46, -16, 39, -7, -39, -8, -36, 47, -56, 62, 47, -49, -8, -13, -31, 59, 25, 51, 6, -47, -14, 36, 46, 48, -40, 14, 36, 17, -35, 1, 21, -57, 16, -32, 54, -25, -24, 48, 40, -11, 40, -53, 21, -55, -44, -31, -21, 44, -2, -26, -9, -33, -52, -13, 56, 32, 25, 16, -17, -14, 26, -40, 56, 20, 13, -37, 4, -36, -5, 28, -10, 58, -41, 56, 8, 27, -46, -50, -3, -43, 37, 43, 25, 55, 54, 10, 32, -43, 48, -48, -56, 10, -26, -28, -48, 46, -4, -2, -29, -35, -49, 16, -15}
, {59, -19, -37, -29, 9, -4, 63, -3, -17, 44, 6, -25, 10, 4, 12, 23, -3, 27, -57, 20, -36, -61, -6, 63, -4, 31, 6, 47, 41, -60, -44, -37, 44, -53, 62, 39, -43, 34, 12, 54, -46, 59, -13, -14, 3, -15, 26, 8, 34, -28, 40, -20, 24, -21, 21, 11, 19, -39, -39, 8, 0, 51, 46, 37, 19, 19, 36, 53, 59, 50, 49, -10, -46, 50, 61, 32, 60, 42, 15, -3, -8, 0, 39, -47, -26, 3, 40, 3, 6, 21, -55, 11, -33, -29, -56, 11, 51, -46, -56, -55, -57, 1, -16, 56, -13, 10, -41, 50, 29, -63, -29, 7, 24, -25, 7, 23, 46, -9, 0, -52, 20, -28, 8, 40, 17, 61, 42, 12, 34, 27, 48, -10, 1, -60, -10, 54, -13, -46, 39, -57, 37, 19, -32, 43, 50, 3, -18, 26, -46, 54, 46, -37, -38, 34, -31, -6, 44, -61, -49, -17, -8, -2, -1, -47, 51, 6, 37, 48, 10, 33, 36, 55, 9, -60, 39, -62, -46, -61, 53, -18, -18, 34, 13, 24, 61, -25, 12, 17, 62, 46, 33, 26, 60, 0, -3, -28, -26, 25, 16, 51}
, {-44, 38, 48, 62, -22, -18, 17, 0, 55, 18, -26, 45, -47, 44, 27, -47, 53, -15, -32, -38, -59, 57, -40, -52, -24, -30, -41, -59, 16, 13, 50, 32, 23, 47, -24, -52, 37, 28, -1, 61, -55, 20, 5, -18, 46, 47, 37, -52, -20, -24, 47, 19, 4, 54, 10, 25, -21, -46, 59, 18, -42, -39, -33, 61, -35, 11, -23, -21, 14, 1, -34, 53, 47, 47, -63, -41, 17, -3, -51, 20, -16, -56, 12, 14, 11, 57, 43, -29, -35, -8, -51, 28, -30, -7, -46, -48, -23, 12, -10, 59, -8, -65, 22, 20, -36, 34, -13, 2, -14, -39, -2, 62, -49, 32, 33, 30, -11, 35, -16, -20, -58, -19, 55, 33, -15, -41, -12, 1, -47, -47, -53, 6, 26, 65, -8, 12, 57, 46, 23, 34, -67, -24, 28, 1, -12, 41, 47, 4, -15, 61, -12, -27, -27, 6, -29, 38, 44, 37, -19, 43, -44, -49, 19, 58, 3, -59, -13, 20, 29, 25, 4, -23, -3, -25, -4, 18, 45, 22, 16, 51, -28, -46, 54, -56, 55, -10, -12, 7, -25, -54, 56, -41, -53, 1, -16, -60, -30, 15, 53, -40}
, {-53, -1, 51, -15, -49, 31, 59, -19, 54, 4, -4, 39, 45, -26, -1, 60, 49, -13, 55, 41, -25, -35, -33, -11, 45, 22, -64, 23, 29, 51, -13, 43, 38, -32, 8, 55, 4, 4, -11, 50, -17, -42, -59, 20, 51, 9, -54, 44, -62, 30, -31, 0, -40, 51, -37, -2, 59, 6, 14, -61, 20, -15, -57, -17, -58, -19, -18, 61, 12, -11, 8, -27, 3, 45, -6, 42, -26, -31, 54, -29, 21, -9, 60, -57, 7, 42, -50, 60, -1, 29, 19, 51, -24, -40, -11, -57, -24, -50, -51, -49, 48, -58, -47, 19, 36, -51, -29, 0, 37, 45, -44, 11, -1, -51, 41, -46, -46, 4, -24, 21, -23, -10, 2, 2, 26, 16, -5, 41, 24, -29, 57, 15, -34, 51, 0, 32, -3, 8, -33, 22, -22, 10, 28, -22, 4, 2, 0, -3, -9, -22, 16, 0, -51, -51, 22, 23, -5, -17, -60, -8, 41, 39, 18, -38, 30, -50, 5, 18, -13, 30, 11, 29, -53, -50, -15, 44, 56, 42, -29, -44, -41, 15, -23, -30, -47, -25, -77, 8, -44, 13, 17, -26, 32, 4, -12, -48, 32, -61, 55, -47}
, {13, -45, -47, -35, -31, -39, -28, 27, 37, 31, -30, -38, -13, -27, -1, 37, 50, -28, -54, 9, -21, -28, -34, 24, -20, -7, -1, 48, -42, 4, -27, -17, 30, 29, -29, -1, 24, 27, -45, 46, -61, 49, -10, 56, -35, -22, -56, 11, -44, -17, -42, 37, 32, -49, 58, 60, -44, 46, 52, -38, 13, -34, -27, -59, -13, 44, -11, -36, 15, 4, -58, -6, -32, 58, 17, -29, 0, -51, -43, -33, 5, 12, -46, -39, -44, -9, 48, 53, 7, -59, -41, -57, -11, 10, 47, 59, -5, 18, 23, -28, 37, 27, 55, -12, -46, 43, 35, 0, 28, -18, 46, -9, 52, 25, -49, 0, -36, 30, -64, -6, -4, 54, -27, 52, -40, -50, 33, -5, 25, -26, 52, -41, 59, 7, 46, -14, -47, 61, -52, -10, 51, 15, 3, 45, -55, -58, 30, -11, 23, 48, 58, 44, -52, -56, -17, -15, -29, -43, 55, 9, -40, 5, 53, 22, 23, -47, -50, -59, -4, 52, 26, 37, -49, 1, 8, 14, 35, -45, -41, 41, -43, -37, -49, 58, -41, -36, 56, -47, -2, -48, 54, 36, -50, 35, 15, 18, 47, -26, -16, -46}
, {-21, -17, 11, -60, 39, -41, 42, -45, 21, 49, -35, 17, 1, 53, -24, 6, 9, 80, 8, -31, 18, 0, -3, 15, 0, -26, -37, -4, 9, 41, 50, -38, -56, 51, -36, -47, 0, -10, -20, -30, -35, 6, -57, 45, 26, 43, -8, -27, 55, -43, 24, -24, 51, -27, -2, -20, -41, 39, 50, 26, 63, 49, -18, 14, 15, -29, 25, -39, 36, -38, 61, 30, 63, 37, -3, -3, 41, 57, -55, 60, 38, 22, -25, -33, -47, 58, 18, -17, 49, -34, 55, -56, 27, -48, 49, 26, -27, -54, 57, 6, 32, -58, 35, 48, 15, -60, -49, -5, 23, -67, 25, 0, 17, 39, 14, -17, -46, -12, 29, 34, -23, -15, -30, -30, -33, 64, 45, 27, -3, -51, -52, 1, 30, 3, 57, 5, 5, 14, -30, -32, 31, -9, -4, 21, 24, -20, -10, 52, -1, -43, -14, 4, 45, 64, 0, -35, 41, 35, 30, -21, -8, -36, -58, 11, 20, -9, 60, 8, 54, 49, 0, -12, -11, 53, 11, 6, 23, 19, -55, 19, 48, 5, 15, -44, 2, -57, 36, -12, 48, -15, -6, 61, 44, -32, -46, 40, 30, 7, 8, 51}
, {13, 10, 3, 59, -68, 25, -43, -24, -25, 33, 41, -49, -52, -46, -56, 37, -58, -23, 46, -16, 16, -58, 48, -24, 35, -18, 25, -37, 30, -23, -31, 11, 25, 75, 34, 53, -32, 38, 59, -25, 29, -52, -24, 52, 66, 85, -12, -1, 59, 54, 5, -5, -74, -14, -18, 9, -45, 61, 10, 28, -42, 53, -34, -5, -60, -32, -20, -15, -4, -41, -48, 25, -18, 6, -39, -39, 7, -34, -45, 39, 56, -30, -7, -17, -25, -6, 54, -48, -65, -26, 26, -69, 53, -20, 17, 42, 36, 59, -48, -58, 45, -49, -37, -49, 43, 63, 9, -51, -17, 31, -12, -41, -46, -2, 49, -62, -34, -31, 28, 53, 46, -38, 61, -22, -54, -45, -51, 28, 54, 10, 48, 6, 26, -55, -6, 5, 56, -15, 12, -14, 14, 15, -11, 7, 8, -48, -16, -12, 47, -62, 17, 51, 6, -30, 31, -44, -39, 57, -59, 61, -22, -44, 25, -52, 9, -41, 32, -7, 15, -9, -39, 44, -19, -7, 1, -60, -16, 21, -10, -29, 32, -20, -37, 68, -25, 24, 9, -27, 3, 38, -30, 30, -40, 56, 22, -32, -8, 50, 42, -71}
, {-18, 59, -37, -62, 33, -51, 62, -33, -41, 56, -45, -2, -27, -61, 37, 31, 13, -4, -13, 54, 38, 31, -25, -42, -48, -16, 16, 0, 50, 9, 34, -13, -61, -38, -40, 58, -60, -20, 37, -50, -1, 1, 12, -23, -16, 32, -14, 39, -56, -42, 34, -40, 44, 29, -2, -8, -22, 42, 42, 39, 42, 49, 45, -33, 56, -49, -48, 2, -58, 23, -37, 40, 12, -33, -17, -34, 3, -60, 39, 11, -20, 49, -40, -50, -38, -45, -10, 34, -12, 53, 11, -48, -37, -43, 0, -55, 31, 48, 27, -64, 13, 44, -7, 30, 27, 42, 23, 12, 0, 21, 24, 41, -42, -50, 41, 38, -29, 28, -38, 44, 10, 11, 53, 23, -36, -57, 21, -58, -22, -51, 53, -43, -55, -9, -48, -30, -38, 11, -22, 40, 52, 23, -1, 60, 49, -30, 44, 24, 10, 15, -47, -59, 35, -46, -9, 36, -22, 48, -44, -37, -51, 61, -45, -6, 20, -26, -20, -44, -35, -37, -34, 46, -31, -22, -52, 43, 3, -37, 44, -55, 41, -53, -64, -62, -48, -8, 10, -42, -29, 55, 15, 27, -40, -31, -46, 25, 40, 26, 18, 26}
, {-9, 52, 7, -58, -18, 57, 20, 59, -50, 38, 31, -11, 0, 25, -50, 54, -47, 44, -7, 25, 0, -43, -8, -30, -37, 41, 55, -47, -52, 30, -20, 14, 33, -60, 20, -42, -5, 32, -3, 38, -22, 24, 41, 7, 22, -25, -32, 46, -32, 26, -52, -1, -46, -23, 11, 6, 33, 0, -5, 34, -29, -53, -22, -4, 47, 56, -11, -20, 52, -53, -16, 48, 43, 36, 11, -6, -1, -51, -28, 17, -15, 7, -7, 57, -39, -53, -49, -26, -33, 4, 9, 17, -31, -58, -41, -67, 0, -47, -24, 44, 46, 32, 31, 26, -63, 54, -37, -15, 57, 7, -3, 30, -13, -35, -21, 50, -27, -19, -56, -34, -56, -7, 10, 50, -19, 60, 54, 10, -53, 49, 9, -49, 9, 39, -45, -46, -47, 25, 9, 47, -40, 48, 19, 15, -33, -18, 9, -30, -45, 51, 25, 61, 43, -18, 56, -49, 22, 18, -19, -22, 46, 53, -4, -1, 39, 50, -29, 42, -25, -4, 13, -51, -11, 38, 29, -20, 47, 82, 18, -59, -25, -56, -28, 20, 26, -64, 56, 1, 55, 32, 42, -47, 22, 26, -38, 40, 22, 26, 28, -26}
, {-44, 6, 10, 56, -53, -10, 47, -34, 4, 23, 54, -18, -2, 3, -7, -5, 41, -11, -37, -22, -61, 52, 9, -7, 58, 46, -13, 15, -57, 59, -22, 4, 61, -29, 27, 59, 38, -61, -50, 0, -53, -56, 44, 14, 56, -44, -35, 26, 62, 44, 54, 44, -5, -31, 28, 41, 21, 33, -54, -45, 54, 48, -22, 43, -30, 55, 57, -53, -4, 46, -3, 39, 18, 2, 48, 44, 14, 52, -16, -60, -20, -3, 29, -1, 34, 16, -7, 25, -34, -58, -23, -12, -34, -50, -60, -2, 9, 0, 53, 7, 2, 10, -39, -5, -18, 31, -16, -7, 47, -11, -1, -61, -55, -56, 32, 52, 59, 40, 61, 48, 36, -52, 2, -37, -40, -15, -58, 24, 33, -18, 22, 18, 0, 59, 19, 32, -13, -32, 51, -3, -12, 4, 2, 56, 15, -35, -11, 32, 25, 15, 31, 16, -20, -54, 48, -32, -45, 3, -47, -23, 24, -23, 32, -15, -37, 36, 1, -61, -57, 32, 41, -6, 10, -56, 20, -49, 31, 0, -18, -15, -42, 35, -2, -25, -8, 12, -37, -24, -50, 12, 33, 56, 44, 51, -54, -25, 57, -55, 44, -39}
, {-12, 38, 7, -51, -53, 29, -42, 30, -20, 31, 33, -63, 16, 18, -52, 56, 51, 37, 56, 52, -48, 43, -36, -24, 5, -21, 8, 17, -31, -30, 19, 38, 28, 19, -28, 46, 39, 6, -15, -11, 37, -36, -57, 55, 7, -60, 17, -16, 0, -19, -42, -1, 36, -5, 42, 30, 25, 50, 31, -21, 59, -57, -8, 20, 59, -5, -57, -40, -33, -39, 60, 61, 10, 12, 61, -32, -14, 10, 0, 31, -41, 52, 27, -51, 14, -16, 54, -30, -34, -28, 40, -32, 21, -50, 15, 36, -36, -1, -27, -5, -13, -36, 13, 60, -27, 53, -18, -54, -28, -40, -40, -33, -32, -45, -3, 37, 44, 29, -21, 22, 31, 23, -2, 11, -32, -50, -56, 7, -18, -63, 38, 28, -60, -57, 34, -33, 54, -50, 26, 25, 11, 48, 18, 13, 21, 38, -22, 46, 11, 47, -53, 57, -6, 46, -14, -36, 0, -37, 13, 28, 18, 22, 1, 0, 9, -62, -50, 46, 43, 34, -16, -14, -47, -40, 11, -19, -33, -51, -39, 43, 6, -18, 55, 45, 37, -54, 67, -33, 62, -36, 36, -55, 37, -7, 21, 58, 34, -7, -65, 44}
, {-4, 60, 48, -58, 20, -56, 42, -8, -27, 25, 51, 33, 32, -8, -2, 34, 37, 37, -1, 11, 23, 54, 55, -28, 48, 57, 42, -43, -54, -36, 59, -57, 16, 59, -57, -12, -26, -32, -11, -18, 4, -24, -47, -26, -32, 25, 53, 3, -10, -52, -58, 27, -38, 26, -18, -49, 12, 58, 54, 42, 8, -5, -60, 26, -62, 30, -61, -16, -14, 0, 51, -9, -40, -7, -37, -25, 16, -18, -54, -32, 59, -35, 31, -44, 0, -28, -37, -16, -18, -15, -24, -55, -55, 59, 29, 11, 24, 21, -13, -14, 49, 41, 10, -31, 9, -62, 25, -40, 46, 33, -58, 48, -48, 38, -63, 61, -39, -1, 5, -5, -4, -31, 55, -5, 55, -38, 52, 50, 5, 29, 20, -44, -26, -6, 34, 56, -23, -17, 0, -23, -25, 36, 5, -8, 39, 44, -17, -19, 17, -4, 30, 29, 54, 20, 32, 16, 17, 39, -8, -23, -30, -61, -63, -12, -24, -34, -20, 10, -61, -16, 0, -10, -25, 8, 6, 4, 38, -24, -27, 18, 46, -12, 3, -53, 52, 47, 18, -8, 58, 42, -7, 18, 12, 37, 0, -2, 0, 46, -20, 61}
, {11, -23, -39, 32, -39, 22, -47, -18, -52, -26, 45, -61, -21, -3, 38, 0, 0, 93, -6, -20, -31, -52, -11, -10, 56, -13, -9, -47, -4, 22, 37, 27, 52, 35, 46, 30, -20, -46, 27, 8, -45, 61, 13, 55, 52, -15, 13, 3, -25, -39, -7, 45, 6, 46, -23, -20, -37, -64, -32, 55, 37, -19, -60, -14, -45, 5, -33, 30, 19, -2, -61, -44, 34, -46, 7, -48, 54, -29, 58, 28, 51, -62, -61, 12, 7, -50, 4, -23, 40, 53, -2, 43, -53, -50, -41, -47, -25, -26, -63, -24, 11, 32, -27, 73, -12, 39, 114, -1, 0, 42, 1, -13, -6, 35, -50, -49, 54, 50, -18, 58, 35, 61, 28, -8, -32, 9, 24, -12, -17, 31, -23, -6, -29, 21, 41, -51, -12, -11, 52, -42, 40, 19, 11, 8, -8, 20, 6, -59, -38, -21, 58, 2, -55, 57, -49, 42, -25, -12, 49, 0, -40, 16, 62, -38, 59, -47, -57, 52, 43, 25, 12, -14, 57, -56, 29, 47, 49, -43, 56, 45, -44, -56, 8, -57, -7, 7, 50, -40, -3, -19, 3, 30, 48, 1, -27, -51, 23, -7, -62, 61}
, {40, 48, -30, 61, -37, -52, 10, -12, -66, -25, 47, -15, -43, 32, -28, -55, 18, -16, 45, -58, 11, 11, -58, -20, -21, 32, -19, -1, 56, 23, -9, 10, -41, 30, 0, 29, -44, 2, -53, -49, -30, -55, 59, 31, 47, -8, -64, 13, 4, -54, -31, -5, -9, -66, -43, 42, -37, 52, 39, -14, -34, 4, 54, -44, -60, -6, 58, 47, -24, 52, 43, -31, -48, 8, 31, 45, -37, 17, 45, -43, -57, 43, -25, 31, -56, -52, 17, -34, 17, -47, -11, 18, -28, -36, -4, 44, 47, 10, -20, 59, 56, -5, -12, -52, -64, 24, -40, 39, 12, 36, 8, -54, 28, 19, 3, 42, 8, 11, -57, 27, -35, 33, -6, 25, 32, 26, -51, -30, 9, 56, 19, -1, 6, -9, 45, 27, -15, -4, -28, 14, 51, -34, -38, 7, -21, -46, 9, -39, -2, 52, 18, 43, 15, 3, 57, -45, -3, 9, -24, 2, -13, -52, -32, -34, -34, 42, 33, 45, 27, -21, 31, 0, 27, -20, -13, -54, -20, -29, -35, -5, 47, -65, -3, -15, -63, 54, -46, -46, 50, -45, -15, 27, 52, 0, -31, 43, -40, -2, -54, 34}
, {-7, -60, 4, -10, -45, 32, -21, 32, 47, -58, 54, -16, 11, 30, -61, 9, -9, -55, -55, -25, 27, -41, 19, 7, -18, -21, 54, -17, 32, 45, -8, 32, -5, -40, 25, -41, 39, 51, 9, -46, 56, -27, 47, -43, 22, -53, 21, -37, -28, 63, 22, -17, -61, -41, -21, -59, 3, -3, 54, -35, -47, -56, -61, 16, -43, 37, -48, -23, 58, -50, 28, -24, -36, 20, 29, 21, 13, 36, -40, 36, 40, -29, -10, -13, -27, -46, 50, -13, 54, -26, -52, 30, 59, 61, 11, 41, 25, 42, 12, -43, 12, 9, 17, -65, 31, -52, -33, -3, -2, 72, -35, -23, 32, -48, 45, 17, 10, 36, 23, -26, -23, -18, 16, -14, 6, 17, 17, 10, -3, 56, 44, 14, -37, -30, 29, -11, 40, -59, 2, 52, -10, -8, 34, 50, -36, -61, 28, 14, 24, 48, 28, 16, -26, -40, -38, -32, 45, 16, -55, -49, 35, -8, 19, -23, 56, -44, 17, -26, -12, 33, -6, 54, -40, -21, -39, 50, 10, 75, -59, 2, 48, -34, -2, -8, 30, -60, -60, -27, 18, 55, -20, 35, -39, -34, 17, -10, -50, -38, -22, 53}
, {29, -55, -35, 20, 22, 7, 30, -53, 16, 7, 21, 12, 59, -63, -5, -21, -56, -54, -16, -21, 40, 12, 58, 37, -35, -57, -54, -63, 54, -5, -47, -5, -14, -17, -42, 21, 4, -43, 44, -49, 18, -63, -47, -40, 61, 47, -55, -18, 40, -53, 3, -32, -62, -35, 55, -42, 15, -38, 46, 5, 23, 17, 55, 59, -53, 31, -53, 60, 20, 24, -60, 0, -48, 29, 34, -31, -47, -65, -5, -10, -31, 50, 7, 42, -37, -38, 53, 58, 15, 47, -13, -6, -62, -58, -24, -8, 15, -6, 2, 53, -23, -57, 29, -27, -57, 14, -4, -26, -29, 49, -52, 27, 57, -30, -54, 39, -48, -1, 27, -62, 58, -61, -1, -5, 15, 50, 3, 36, -27, 17, 2, -42, -42, 54, 40, 51, 52, -21, 50, -27, -58, 14, -17, -12, -18, 30, 31, -44, -15, 4, 35, 26, 52, -10, 7, -27, -11, 30, -9, 3, 1, -48, 15, -60, -30, 29, 58, -1, 31, -1, 57, 3, 24, -47, -17, -29, -52, -4, -53, -54, -33, -58, 10, -29, 50, -4, -22, -61, 14, 42, 15, 36, -45, 16, -36, -4, -62, -10, 28, 45}
, {57, 5, -54, -59, 6, 21, -47, -33, -40, 39, -33, 29, -50, -45, 1, 20, -45, 70, -45, -28, -24, -4, 44, 62, 29, -46, 42, -31, -9, 4, -29, -43, 42, -53, 3, -55, 14, 14, -34, -18, 13, -52, -2, 19, -42, 18, -16, 44, -10, -25, 16, -2, 27, -12, -2, -33, -47, -48, -56, 45, 10, -25, -56, 36, 55, -7, -52, 51, 32, -14, -40, -31, -23, 5, -44, -3, 54, -9, 18, 58, -51, 0, -1, -43, 8, -18, 17, -15, -21, 24, -56, -54, 23, 58, 2, 14, 15, -45, 30, 3, -51, 27, -54, 11, 6, -33, -27, -50, 31, -42, 59, 61, 47, 32, 9, -12, 62, 15, 18, 36, 4, 17, -35, -67, 11, -27, 60, -35, 34, 8, 27, -21, 54, 15, -61, 46, 10, -47, -26, -24, 12, -58, -73, -48, -11, -44, 8, 35, -44, 58, 56, 32, 48, 28, 19, 1, 42, 33, -6, -58, -33, 40, -33, 54, -40, -51, 53, -20, -27, -14, -33, -50, -55, 37, 45, -3, -38, -23, -42, -18, 47, -8, 24, 34, -4, 27, -43, -55, 7, -43, -40, -52, 45, 43, 29, 44, -6, 42, -38, -51}
, {-11, -8, 49, -49, -3, 28, -11, 54, -4, -44, -43, -53, 20, 56, 42, -37, 58, -63, 42, -8, 46, 52, -49, 53, -5, 52, 2, 15, 52, -23, -42, 43, 12, 44, 8, 51, 2, 6, 19, -40, -29, -64, 37, -11, 43, 5, 2, -27, -45, -38, -51, -58, 20, 41, 17, -44, 13, -9, -36, 41, -39, -46, -20, -14, 43, -52, 35, -21, -16, 11, 27, 18, 48, -4, 0, 6, 20, 60, 28, 44, -59, 60, -56, 32, 48, 13, 40, 53, 7, -40, -27, -5, -21, 12, 44, 57, -42, -42, -28, 59, 37, -22, 40, -79, -18, 8, -42, -47, -62, 7, -14, -48, 12, 28, 33, -30, 43, 5, -26, -51, 6, 56, 44, 20, 46, -63, -45, 54, -9, -34, -4, 10, -7, -35, 10, -18, -50, 56, -44, -54, -52, 6, -9, 1, -37, -26, 37, 0, 26, -57, -36, 45, 11, 34, 57, 2, 10, -31, -12, -49, -8, 50, 31, 30, 36, 13, 48, -19, 55, 6, 11, -32, -53, 25, 27, 60, 0, -31, -26, 3, -57, 12, -2, -19, 25, -31, -28, -64, -21, 33, -8, 36, 12, -55, -16, 14, 49, -52, -38, 59}
, {18, 38, 8, 12, 42, 2, -29, 46, 66, 7, -4, 49, 9, -57, -53, -21, 31, -82, 52, 113, -38, -50, -31, -40, 0, 57, 45, 12, -4, -20, -4, 16, -22, 55, -61, 52, 32, 48, -62, 61, -54, 46, 8, -12, 50, 2, 29, 17, -56, -36, 8, 56, -25, -19, 22, -21, 51, 30, -57, -57, -47, 26, -10, 8, -47, 44, -7, 18, 11, -7, 0, -6, -51, -34, -49, -38, 18, 0, -22, -60, -29, -14, -43, 50, -3, -31, 37, -41, 61, 29, -39, 29, -24, -19, 36, 42, -10, -62, 36, -40, 33, 60, -35, -77, 41, -10, 9, 6, -59, 20, 42, 51, 30, -41, -10, 0, 0, 47, -29, -28, -19, 14, -1, 67, -48, 22, 12, -54, -53, -17, -11, 5, 68, 41, 13, -21, 6, -45, -11, 67, 37, -2, 56, -22, -30, 49, -21, -37, 38, 45, -27, -7, 12, 16, 59, -18, 11, -62, -22, -38, -57, -37, -6, -50, -12, 51, 1, 22, -35, -18, -34, -60, 26, 23, 55, 47, -4, -16, 6, -37, 18, -39, 9, 1, 53, -49, -42, 35, 45, -8, -9, -31, 16, 6, -62, 18, -2, -16, -47, -15}
, {52, -58, 27, 27, -55, -68, -9, 41, -46, -1, 17, -51, 26, -7, -7, -56, 36, 88, -47, -42, 63, -42, 8, -18, 54, -31, -23, -33, -63, 39, -12, 0, -7, -55, -4, 65, -9, 30, 46, -7, -59, 30, -42, 24, 17, 56, 50, 55, -18, 37, -37, -37, 47, -54, -22, -26, -39, -1, 63, -59, -9, -17, 59, 52, -55, 29, -50, 16, -58, -18, 14, -39, 28, 32, 48, 50, 55, -36, 19, 62, 51, 5, 35, 2, -54, 65, -44, -21, 16, 33, -24, -60, 13, 9, 77, -31, 11, -51, -38, -52, 19, -6, 23, 58, 26, -27, 61, 17, 21, -12, 27, -44, -41, 40, 65, 46, 11, 20, -82, 62, -38, 0, 1, -78, -46, 28, -28, -44, 53, -45, 20, 31, -41, -44, -10, 34, 19, 1, 44, 59, 81, 21, -59, 49, 55, -9, 16, 59, 29, 15, 2, 13, 58, 2, -49, -3, -21, 61, 14, 34, -3, -61, 61, -18, -60, 59, -49, 9, 69, 37, 46, 0, -12, -40, -40, 53, 29, -68, 63, 0, -26, -45, 3, -28, 38, -29, 86, 46, -53, 54, -2, -44, 43, 25, 13, 11, 28, 41, -67, -17}
, {-60, 43, -14, 34, 49, 55, -14, -9, 57, -46, -7, -13, 61, 20, 55, -11, -40, 23, -13, -1, -1, 21, 40, 0, 51, 21, -2, 43, -51, -16, -54, 20, 29, -4, 29, 45, -34, 33, 53, -29, -33, -27, -45, -49, -56, 19, 26, 42, -38, -2, 57, 8, 33, 1, 23, 21, -57, -7, 42, -42, -28, 7, 5, -12, 45, 56, 32, 0, 6, 16, 56, 50, -55, 68, -31, 54, -19, 12, 24, -62, 58, -27, -57, -46, 14, 49, -59, 12, -43, 23, 3, -33, 4, -48, -24, -51, -33, 39, 36, -46, -13, 19, -21, 26, 37, -54, -32, -43, -15, -61, -30, -25, 11, -1, 16, -59, -41, -8, -24, 38, -36, 15, -58, 15, 35, -54, 24, -6, 54, 61, -25, 25, -39, -48, -30, 37, 9, -56, -22, -21, -19, -3, 50, 21, 19, 7, 56, -65, 49, -56, -6, -13, 3, -26, 22, 28, 3, -51, -16, 54, -61, -15, 30, -60, -50, -35, 42, 41, -64, 0, 50, -58, -59, 49, -43, -18, -45, 33, 18, -43, 43, -52, -64, -3, -47, -11, 31, -5, -55, 23, 36, -26, -58, -1, 53, -24, 47, 57, 0, -7}
, {48, -60, 17, 58, -7, -4, 3, 25, -41, -32, -53, 0, -57, -7, -49, -27, 37, 0, 46, 10, 35, 13, 34, -25, -41, 31, -41, -37, -37, 16, -60, 62, 34, 8, 40, 16, 56, -55, -53, 54, -9, 42, -34, -44, -6, 45, 25, -56, -34, -55, 13, 47, -21, 22, -14, -33, -47, -9, -42, 30, 45, 31, 41, 3, 7, 23, -25, 40, 17, 32, -62, 1, 13, 40, -53, 62, 14, 46, -50, 56, -43, -30, 33, -17, 48, 30, 25, -57, -19, -40, -10, -55, -22, -23, -45, 47, 1, -2, -23, -23, -19, -19, -31, 61, 52, 46, -20, -15, 24, -37, 8, -59, -32, 9, 50, 1, 4, -5, -48, -28, -46, 61, -48, -44, -14, 48, -4, 16, -55, -22, 46, -62, -1, -24, 7, 53, 41, 0, -32, 53, -56, 7, -25, 8, -29, 30, -4, 61, 60, 10, 0, 17, 24, 59, 5, 23, -45, 8, -40, -52, 7, -19, -23, -2, 1, 52, 27, 25, -29, -10, 0, -20, 27, 33, 4, -7, -1, 39, 37, -57, 13, 21, 47, 56, 36, -49, -31, 34, 21, -44, 18, -58, -31, 7, -39, 21, -9, -46, -15, 53}
, {-15, 37, 46, -6, 54, -35, 5, 18, 52, -61, 11, -5, 23, -39, -51, 60, 27, -45, 16, 12, -42, 37, -34, -43, -44, 17, 41, 57, 32, -8, -42, -45, -52, -49, -56, -58, 41, 9, -8, -4, -16, -60, -14, 24, -46, -53, -5, 47, -14, 57, 42, 14, -18, -55, 4, 31, 43, 59, -44, -2, 49, 10, 32, 40, -30, -62, 1, 34, -56, 21, -42, 59, 41, 33, -59, 25, -34, 24, 9, -26, -39, 44, 7, -15, 30, -36, -42, 39, 60, 9, 59, -8, -22, -42, 24, -43, -18, 14, 0, 49, 60, 40, -8, -56, 13, 13, -1, 36, -35, -38, -14, 6, -35, 31, 41, -11, 28, 39, 13, -10, 41, -34, 31, -38, -20, -53, -47, -24, 34, 50, -25, 23, 25, 15, -46, 28, 23, 39, 55, -36, -44, -15, -24, 56, 42, -2, 38, 11, -50, 5, -54, -9, 39, 25, -6, -16, 9, -62, -42, -58, -42, -21, 52, -61, 9, -35, -6, -33, -16, 19, 19, -61, -41, 9, 16, 54, 35, -6, 44, 56, 41, 18, 21, -44, -26, -42, -5, 55, 16, -31, 0, 20, 23, 34, 39, 13, -13, 30, -9, -14}
, {-41, 8, 49, -26, -55, -10, 37, 44, -23, 5, 61, 55, 36, -54, -25, -12, 7, -27, 45, 66, 17, 39, -55, -50, 32, -6, -26, -3, 28, 20, 14, 29, 41, 8, 55, -2, -20, 57, 41, -2, -9, 20, 4, -1, 1, 52, 11, -40, -62, -28, -2, 35, 32, 51, -20, 37, 28, -15, -25, 21, -43, -4, -47, -20, 47, -22, 42, -5, 33, -52, 55, 0, 4, 13, -41, -56, -44, 47, 10, 0, 60, -22, 9, 27, 62, -8, -5, -59, 0, 1, -40, 54, 45, 2, -61, 17, 50, 21, -2, 0, -43, 7, -60, 1, -27, -15, -21, -11, -38, 23, 4, -39, 58, -36, -61, 39, -47, -33, 59, 55, -13, 8, 27, 63, -49, 27, -37, -32, -57, 30, -20, 17, -10, 19, -60, 32, 15, 58, -35, -14, -24, -52, 38, 7, 1, 10, 5, -22, 18, 46, -34, -9, 44, -19, 17, -28, 31, 23, -46, 30, 30, -15, 31, -44, 51, -39, 39, -24, -24, 27, -74, -42, -21, -58, -15, -46, -16, 0, 6, -26, -24, -51, 44, -6, -1, -19, -8, -19, 53, -25, 47, 61, -4, -5, 26, 45, 23, 50, 53, -47}
, {55, -13, 33, 49, 54, -55, 0, -52, 8, 22, 48, 5, -32, 7, 42, -49, 55, -3, 19, -19, 50, -30, 15, 30, 21, 16, -22, 49, 8, -6, 56, -2, -30, -31, 60, 52, -1, -50, -41, 62, -40, 24, -27, -30, -47, -16, -30, 59, -59, 0, 21, 0, -34, -61, -21, -41, 19, 0, 33, 42, 56, 3, -40, -28, -26, 12, -4, 16, -11, -33, -14, -16, -51, -25, -16, 48, 47, -53, 0, -62, 49, -28, -17, -41, 6, -35, 33, -8, -8, -34, 18, -56, 18, 33, -4, 51, -32, -6, 18, 34, -31, -21, 26, -64, 59, 38, 40, 57, -61, 56, 46, -54, -2, 1, -50, 58, 20, -46, 21, 18, 40, -14, 51, -41, 37, -20, 47, 37, 25, -14, 57, -18, 0, -48, -3, -58, -20, -3, -32, 12, -12, -51, 51, 0, 10, -3, -19, 42, 2, -34, 26, -45, -43, -50, -22, -34, 37, 43, -54, 42, 24, 59, -48, 48, -18, 28, 48, 64, -34, -12, 31, -15, 10, -61, -17, -30, 63, -36, -17, -49, 41, 4, -1, 17, -19, 12, 13, -29, 0, -58, -54, 24, 58, -9, 0, 5, -57, 62, -25, -43}
, {-41, 7, 56, 60, -48, -21, 27, 21, 48, -14, 40, 23, -1, 5, -48, 10, 33, 70, -53, 29, -10, -22, -31, -11, -39, 1, 57, -6, 18, 0, 45, 37, -37, 11, -48, 55, -20, 72, -14, -65, 50, 53, -56, 34, 16, 0, 33, -5, 38, -61, 22, -19, -23, -41, 32, -5, 41, 44, 20, -46, 49, -59, -5, 22, -19, 5, 41, 26, -46, 4, 13, -30, 29, 3, 29, -14, 27, -28, -51, 4, 1, 38, -39, 59, -35, -15, 64, -10, -57, -47, 11, -43, 11, -32, -30, 34, -53, -56, -33, -54, -5, -50, 25, 54, -3, -1, -32, 38, 65, -24, -49, 57, -28, 48, 40, -13, 50, 7, 13, 36, -27, 39, -31, 10, 5, 29, -14, -11, -14, -60, -7, -28, -41, 38, 6, 23, -62, 25, 1, -63, -2, -19, 71, -29, 53, 45, -61, 39, 13, 40, 29, 15, -18, 37, 38, -41, -17, -13, -44, 1, -31, -38, -17, 52, -57, -32, -32, 9, 22, 43, -41, 37, 1, 31, -4, -46, 57, 41, -52, 53, -15, -42, 21, 15, -12, -53, 39, 16, 18, 25, 50, 16, 2, 4, 24, -57, -16, -10, 65, -34}
, {12, -7, 26, -21, 103, 33, -37, 14, 48, 11, 77, -17, 31, -6, -47, -19, -34, 79, -5, -35, 68, 0, -4, 58, 27, -43, -28, 46, -42, 21, 19, -66, 23, 75, -68, 23, -62, -90, 14, -31, -55, 65, -53, 40, 81, 35, 67, 56, -44, -24, 56, 37, 15, -21, 0, 25, -20, 54, 35, 36, 33, -68, -21, -53, -20, -24, -11, 29, 48, 128, -28, 22, 65, 51, 6, 76, -79, -22, 4, 10, 55, 34, 0, 8, -11, 0, 57, 41, 13, 16, -49, -25, 60, -22, 71, 42, -25, -28, -60, 17, -25, -21, -52, 104, 48, -45, 20, 1, -29, -84, 33, 14, -26, -2, 55, 22, -19, -13, -13, 80, -56, 51, -34, -64, -36, -21, 22, -33, -43, 69, -58, 128, 38, 16, 15, -10, 69, 47, -19, -18, 41, 22, 42, -23, 3, -53, -7, 45, -69, 9, 43, 36, -21, 56, -8, -9, -14, -5, 10, -16, 13, 58, 79, 59, 22, 27, -28, -40, -47, 32, 71, -37, -43, -53, -4, 35, 57, -50, 49, 0, 73, 61, 60, 52, -25, 40, 78, 70, -18, -51, 11, -38, -46, 61, -42, 18, -14, 11, 19, -76}
, {-55, 9, -43, 34, 0, 6, -9, 61, -36, 39, 46, -41, -17, 11, 1, -54, -21, 58, 0, -15, 59, -32, 26, 39, -45, -19, -15, 32, -25, -60, 23, -15, -1, 54, -31, -34, -17, -42, -32, 56, -24, -18, 12, 45, 8, -37, 38, 26, 7, -17, 27, 5, 5, -14, -24, -11, 20, 41, 43, -14, 59, -32, 44, 5, 8, 51, 44, -33, -36, 58, 47, -26, 63, 19, 43, 27, -59, -42, 27, -24, -19, -54, 47, 43, 9, 44, -9, -42, -50, -63, 18, 10, 9, -8, -49, 61, -40, -17, 0, 36, -54, 56, -40, 40, -2, -30, -35, -64, 53, -45, -34, 42, 55, -25, -55, -53, 23, 11, 52, -63, -46, -38, 46, 29, 29, -40, 31, -54, 51, -38, 39, -35, 34, 42, -1, -55, 51, -50, 18, 32, -2, 45, 12, -56, 17, -26, 47, 58, -38, -7, 64, 35, 1, -38, -22, -47, 2, 52, -52, 59, -9, -3, 23, 7, 37, 14, -54, -60, -57, 40, -7, 28, -36, -62, 44, -18, -24, -34, -52, -47, 60, -28, 21, 19, -28, 0, 0, 38, -6, -45, 48, -38, -42, 59, -20, 0, -17, -7, 0, 54}
, {-36, -34, -54, -23, -61, 55, -33, -5, 0, 28, 21, -23, -49, -21, 9, 47, -48, -17, 61, -9, -59, 3, -46, -36, -42, -33, -15, 28, -43, 33, 17, -47, 52, 4, 46, 49, -3, 51, 42, -32, 62, -49, 41, 49, 36, 56, 11, 13, 6, -49, 58, 29, 61, -49, 0, 44, 60, 40, 61, -57, -55, -58, -18, -54, -23, -37, -41, -20, 3, -33, -39, -60, 40, 37, 8, 34, 35, -22, -18, -59, 33, 7, 11, -19, -48, -18, -45, -50, 8, -15, -45, -53, 10, -32, 26, 6, 30, -51, -29, -11, -5, -30, 26, 22, -42, 21, 2, 9, 9, 40, 37, 7, 16, 39, -5, -3, 44, 25, 47, -44, 22, -27, 42, -37, -44, -43, 19, -23, -37, 45, 13, -60, -23, -12, 57, -12, 42, 42, 13, -18, 45, -40, -59, 47, 15, -15, -49, 2, -59, 5, 39, -32, 39, -24, 58, 23, -15, 6, -50, 29, 58, -35, -15, -52, 61, 49, 18, -42, -59, 54, -35, -10, -59, 16, -3, -55, 8, 61, 0, -13, -11, -12, 8, 55, -50, -59, 30, -5, 44, -4, -28, -56, 50, -25, -22, -16, 39, -61, 58, 18}
, {-18, 28, -63, -35, 1, 0, -40, 6, -5, 25, -19, 24, -23, 27, 18, 41, 30, -61, 12, -35, 1, 37, -36, 33, 45, 9, -47, -53, -37, -6, -29, -32, -13, 15, -21, -53, 24, 57, -62, 25, 49, 42, 11, 60, 0, -26, 42, -58, -48, -1, 41, -24, 39, -61, 42, -11, -46, 0, -25, -20, 13, 8, -16, 11, 3, -42, -55, 25, 34, -30, 15, 25, 16, -47, -49, 7, 17, 46, -7, -51, 44, 24, -38, -43, -13, -66, -32, 11, -20, 8, 33, 6, 45, -32, -51, 28, 6, -26, 24, 28, -57, -12, 14, -43, 40, 43, -18, -52, -47, -48, -13, 50, -47, -8, 44, -25, -43, 27, -33, -13, -9, -7, -37, -64, -26, 10, -48, 25, -49, 45, -52, -30, -18, 11, 38, -42, -48, 4, 61, 54, 33, 16, 34, 18, 4, 32, -7, 38, -44, -58, 28, 14, -47, -50, 39, -59, -34, 29, -44, -26, 48, 10, 25, -46, -60, -18, -17, -6, -35, 8, 13, -6, 56, 51, 19, 2, 22, -49, 49, 20, -32, 33, -8, 43, -24, 16, -39, 58, 52, 6, -2, 3, 0, -66, 25, -33, -54, -25, 58, -60}
, {-8, 46, 30, -4, 12, 33, 40, -5, -41, 12, -53, 32, 49, -4, -31, 18, 0, 47, 15, 3, 41, 19, -22, -23, 2, -54, 62, -53, 65, -16, -64, -17, 52, 12, 19, -5, -49, -55, -50, 31, 16, -13, -27, -56, 3, -1, 60, 28, 54, -4, 59, 30, 47, -3, -32, -58, 23, -65, 0, -13, -17, 13, -45, -11, -37, -34, 63, 51, 50, -20, -21, -53, -10, -4, -19, -13, 37, 23, 18, 54, -43, -53, -56, -8, -56, 25, 32, 39, 47, -44, -58, -41, -42, -21, -20, 23, -7, 9, -8, 39, 65, -56, -9, -45, 14, 55, -46, -8, -45, 10, -34, -5, 3, 34, -34, -33, -29, -42, -13, -37, 59, -4, -46, -12, 9, 14, -10, -25, -57, 56, 49, 15, -8, -16, -20, 25, -56, -24, 28, -62, 4, -26, -66, 1, 56, -46, -6, -27, -58, 8, 70, 28, -40, 14, -29, -34, -48, 49, -30, 38, 8, -60, -45, 35, -53, -43, -7, 60, -6, 6, -48, -26, -56, -20, 39, -49, 6, -55, -33, 40, 10, 20, -50, -60, -40, -51, 58, -21, -33, 27, -33, 1, -11, -24, 14, 37, 49, -14, 36, -40}
, {55, 59, -19, -17, -44, -29, 49, 18, -17, 8, 44, -53, 2, 0, -6, 38, 3, -27, -8, -3, -50, 52, -54, -5, 58, 0, 2, 53, -27, -21, 7, -30, -8, -14, 28, -25, 31, -60, -38, -51, 27, -35, -30, -55, -52, 19, 7, 59, 12, -20, -9, -33, 1, -44, -53, -43, 31, -52, 62, -10, 66, -32, -38, -25, 2, -19, 45, 21, 49, -19, -27, 25, -15, -26, 22, -30, 17, 17, -24, 14, -33, 5, 3, 3, 59, 18, 1, 18, 7, -35, 58, 47, 0, -27, 8, 64, 49, 4, -29, -11, 54, -39, -29, -60, 54, 16, -12, -51, -6, -38, 22, 21, -13, -50, -14, 45, 26, -4, 40, 26, -45, -1, -38, 25, -1, 29, -53, 19, -4, -32, 25, 39, 36, -55, -11, 0, -51, 19, -13, -33, -15, -55, 7, 8, 51, -57, 47, -30, -34, 49, 2, -35, -42, -13, 39, 31, -37, 22, 53, 12, -51, 32, -6, 60, -49, 61, 53, 15, -34, 5, -35, -18, -4, 51, 24, 50, 49, -32, -38, 40, -42, 59, -36, 14, -25, -12, 61, 49, -35, -40, 55, -19, -1, -4, 1, 7, -24, -24, 28, 21}
, {-17, 6, -11, 61, -10, -30, 26, 51, -62, 26, -22, -19, -25, -60, 28, -30, -40, -42, 0, 27, 41, -1, 41, -5, 15, -24, -32, -31, -19, -1, -15, 9, -34, 16, -39, 20, 27, -18, 34, 23, -3, -12, 32, -51, -58, -6, -35, 26, 34, 6, -59, -16, -15, 52, -38, -46, -24, -40, -48, -57, -18, -19, 56, -15, 28, -20, 9, -6, -40, -33, -9, -43, 3, -13, 26, 1, -1, 24, -34, 19, 14, -23, 33, -61, 3, 19, 60, -23, -46, -47, -7, 53, -39, -21, -30, -61, -19, 36, -36, -56, -29, -60, -47, 38, -7, -19, 54, -50, 55, 11, 57, 3, 23, -19, 23, -24, -56, -32, -63, 30, 9, 34, 44, -45, 36, 46, 33, 23, -51, 41, -14, 40, -57, 48, 28, -6, 21, 62, 13, 18, 38, -39, 60, -26, -11, 56, -23, 54, -13, 42, 3, -21, -6, -40, -15, -21, 20, 56, 3, 21, 3, 50, -47, -34, 50, 44, -8, -11, -18, -49, 37, -25, -64, -48, 25, -50, 33, -48, 42, -15, -35, 16, -55, -4, 14, 34, -2, 3, -7, -2, -54, 2, 25, 3, -6, 12, -20, -27, 51, 50}
, {0, -57, 16, 62, 12, 61, -60, -52, -8, -61, 4, 19, 57, -58, 24, 53, -59, -3, 15, -58, -23, 37, -9, 4, -19, -48, -61, -56, -43, -12, 26, 0, -48, -62, 61, -19, 29, 37, -26, -29, -3, -59, 61, 55, 50, -38, 18, -1, -7, -46, -21, 59, 2, -16, -34, 37, -17, -43, 25, 28, 46, -21, -24, -2, 44, -39, 39, -28, -50, 15, 55, -5, 26, -9, -33, -28, -57, -60, 16, -37, -43, 12, -55, -18, 10, 45, -46, -13, -22, 13, 29, -58, -24, -35, -41, 23, -15, 20, 26, 23, -43, 54, -26, -21, -33, 21, -24, 10, -1, 54, -48, 47, 9, -9, 36, 48, 13, -32, 18, -33, -8, -16, -47, -57, 21, 27, 33, -38, -37, -4, 17, -27, -40, -60, -29, 60, -21, -20, 29, -60, 48, -31, -12, -5, -7, -47, -19, 16, 6, -59, 56, -20, 40, -47, -19, 56, -15, -20, -25, 60, -15, -58, -29, 31, 6, -16, -2, 14, -10, -57, -60, -50, 45, -55, 45, -33, 36, 52, 28, 13, 51, -32, -21, -35, 20, -58, -26, 9, -40, -45, -3, -38, 19, 20, -56, 26, 23, -18, 31, 58}
, {-40, -20, 56, -45, 18, 44, -56, -45, -32, -24, -38, 29, 13, 50, -54, 10, -4, 56, -17, -51, 48, 48, 55, 30, 51, 42, -47, 54, -43, -7, -55, 30, -16, 0, 59, 49, -24, -29, -30, 52, 35, 35, 0, 37, -37, 16, -49, 36, 33, -59, 21, 17, 45, 47, -20, 56, 26, 3, -1, -54, 40, 58, -11, 13, -9, -32, -8, 46, -10, 4, -45, -32, 26, 28, 6, -8, -1, -34, 23, 62, -32, -30, 2, 15, -4, -45, -14, -27, -15, -37, 52, 43, 28, -1, -30, -61, -55, 10, -17, 19, -46, 30, 40, 72, 36, 19, -50, 1, -19, -31, 46, 31, 6, 32, 13, -18, -3, 11, 37, 38, 16, 23, -1, 34, 44, 61, -8, 43, -37, -29, 37, 12, 10, -15, -38, 15, 17, 39, 47, 34, 5, -14, -2, -60, 4, 34, 34, -20, 61, 30, -25, -1, -14, -30, 27, -56, 52, 3, 36, -13, 9, -42, -43, 19, -48, -15, -17, -20, -53, 26, -12, 16, -11, 25, 40, 50, 18, 34, -1, -49, 12, -52, 15, -48, -3, 38, 40, 28, 53, -58, 40, 13, 60, 51, 36, -6, -48, -44, -38, -5}
, {51, -3, -53, 0, 51, 35, -18, -4, 3, 3, -51, -18, 55, 59, 22, -10, -17, -45, 0, 44, -24, 50, 3, -42, -22, -55, 40, 25, 32, -37, -15, -27, -45, 35, 45, -12, -17, -23, -56, -40, 21, 29, 18, -20, 2, 34, 15, -36, -62, -3, -28, 56, -5, 58, -53, -15, 20, 4, 18, -26, -3, -16, 0, -1, -50, -42, 56, 59, -25, -62, -45, 34, -65, -21, -35, 50, -25, -25, -47, -2, -21, -20, -4, 50, 56, 31, 10, -19, 38, 10, -23, -41, -44, -60, -10, 5, -57, 6, 13, -61, 43, 38, -58, 23, 15, -57, -47, -6, -20, -7, 39, -36, -28, -48, -5, -7, 21, -43, 18, -30, -49, 0, -17, 6, 50, -61, 16, -23, -20, 21, 30, 28, 27, 4, -59, 55, -55, -62, 53, 30, 28, -26, 2, -11, 26, 14, -33, 56, -28, 56, -62, -14, -30, -18, 20, 8, -32, -18, 34, -39, 1, 6, -7, -31, -18, 61, -30, 40, 30, 28, -40, 45, -2, -5, -59, 46, -38, -24, 35, 16, -37, 23, -62, -62, -28, 39, 33, -47, -54, -56, -4, -45, 0, -26, 48, -5, 39, -6, -55, 1}
, {-2, 40, -45, 8, 34, -27, -33, -51, -62, 22, -43, 48, 50, 1, 46, 7, -13, -14, 6, 33, 56, 7, -28, 11, 50, -45, -49, 40, 38, 50, 48, 27, 50, 54, 33, 2, -19, -3, -7, -57, -25, 32, -5, 36, 32, 36, -14, 48, -64, -61, 41, 31, 27, -19, -24, -45, -41, -6, 28, -58, 45, 7, 53, -23, -18, 3, 52, 19, 24, -28, -14, -26, 16, -32, -3, -16, 37, 12, 8, -30, -36, -6, 15, -14, 48, 44, 29, 36, -52, 4, 41, -17, 6, 56, 25, -42, 32, -44, 16, -54, -40, 41, 0, -38, -51, 1, 35, 25, -17, -57, 1, -30, -11, -20, -2, -38, 17, -12, -55, -30, 21, -36, 42, 34, 13, 24, -25, -42, 48, -31, -14, 26, -36, 40, 51, -38, 29, 13, 2, 14, -26, 37, 24, 32, 58, 62, 14, -25, -11, -3, -11, -16, -32, 2, 3, -11, 32, 1, -36, -65, -18, 47, 37, -48, -63, -40, -14, -28, 8, -9, -12, -45, 24, -37, 18, 24, -10, 40, -9, 21, -41, -29, -45, -63, -63, 51, 3, -55, 41, 11, 45, -34, 53, 34, 46, 36, 53, -34, -58, -30}
, {34, 9, 10, 14, 13, -51, 9, -22, -46, -41, 17, -68, 20, 13, 56, -9, -28, -13, 0, 21, -4, 5, -44, 56, 47, -41, -49, 2, 50, 55, -13, -50, -52, -28, -12, -23, 26, -42, -54, -19, 12, 41, -9, 9, -11, 55, -48, 60, 4, 13, -52, -48, 1, 55, 25, 52, -56, 32, -37, 29, 48, -52, -60, 51, 19, 0, 4, -43, 44, 18, 22, 49, -9, -35, -18, 19, 2, -46, 4, -50, 28, -4, 0, 2, 47, 43, -49, -5, 21, 43, 7, 39, -38, -3, -11, -44, -13, -68, 31, 17, -4, -19, 38, 24, 29, 48, -20, -8, 6, -19, -53, 19, 47, -6, -12, 55, -41, 23, -22, -25, -3, -63, 23, -47, 6, 39, -34, -30, -48, -3, -58, -38, -72, 48, -30, 58, -60, 0, -19, 0, 39, -56, 12, -5, 56, 54, -41, 52, -2, 57, 9, 29, 0, 20, 56, 28, 17, 36, 42, -9, -40, -51, -44, 1, 10, -30, 11, 32, 23, -60, 65, 14, -65, 22, -30, -36, -13, -30, 46, -53, -11, 34, 29, -7, -45, -13, -18, -9, -25, -38, 16, -13, 60, -35, -46, -22, -7, 37, -72, -36}
, {44, 0, 17, 9, 6, 50, -28, -30, 3, -28, -41, 18, 51, -31, 54, 57, 60, -67, 25, -12, 1, -61, -15, -9, -6, -38, 30, 18, -13, 8, -45, -4, -9, 0, 28, -37, 50, 0, 45, 29, -42, 51, 29, 54, -42, 48, -54, 38, 45, -36, 57, -43, 4, 47, 9, -35, -3, -6, -2, 50, -60, 30, -18, 61, -11, 57, 0, 37, 12, 47, 22, 8, -36, -56, 3, -54, -9, 22, 30, -45, 17, -22, -38, -39, -30, 53, 42, -2, 50, 48, -10, 1, -42, -39, 21, 3, 12, -14, 20, 18, -61, -8, 24, -11, -55, 45, -29, -37, -57, 73, 6, -42, -42, -46, 43, -49, 59, 57, 40, -61, 8, -39, 38, 62, 41, 32, -19, -10, 15, 24, 6, -61, -17, -39, 22, -49, -6, -51, 33, -51, 5, 0, -18, 30, 52, 48, -58, -19, 12, 11, -14, -2, -51, 35, -50, 26, 42, -61, 39, -13, 59, 25, 53, -12, 40, -53, 4, 51, 45, 50, 4, -36, 23, -33, 35, 4, 24, 82, 35, 12, 62, 14, 9, -24, 19, 8, 17, 29, 6, -9, 20, 41, 39, -9, 22, -8, 31, -2, -54, -41}
, {-28, -30, 4, -24, -57, 48, -55, -10, 20, -9, -4, 6, -14, -23, 34, 18, -49, 52, -56, 5, 22, -23, 32, -30, 34, 57, -55, 18, 10, -39, -24, 34, -30, -10, 52, -44, 7, -33, 19, 60, -1, 9, -11, 61, 33, 8, -21, -48, 47, -38, -28, -16, 5, -54, -57, 60, 28, -58, 4, -7, 31, 5, -26, 30, -13, -49, -38, -24, -26, -43, 15, 54, 31, 18, -29, 22, -35, -41, 24, 36, -45, -15, -26, -34, -39, 51, -28, 48, -16, 60, 48, -2, 13, 23, 37, 33, 33, -35, 52, 6, 2, 7, -18, -58, -13, 51, -60, 31, -23, 45, 56, -59, -15, -30, 54, 7, -42, -60, -32, 20, -39, -50, 23, 7, -47, 55, 11, 51, -12, 9, -51, 40, -24, -1, -45, 60, 13, -52, 29, 26, 59, -63, -46, 38, 38, 55, 55, 42, 48, -11, 18, 56, -45, -57, 36, 49, 12, -47, 8, -29, 56, -20, -5, 8, -2, -4, -50, 59, -18, -38, -13, -21, 8, -40, -22, 14, -25, 72, -48, 0, 0, -13, 38, 18, -21, 41, 5, 40, -4, 35, -27, -33, 13, 43, -26, 40, 59, 27, -19, 57}
, {37, 7, 0, 11, -12, -16, 36, -7, 64, 46, -48, 16, 54, 55, 1, 39, -3, 32, 47, 37, -45, -39, 57, 58, -48, -7, 46, -14, 18, 1, 51, -26, 2, 21, -56, -7, 26, 33, -21, 47, 56, -15, -39, 24, 55, 20, -5, 14, 33, 63, -59, 24, 59, 34, -5, 46, 53, -16, -61, -6, -32, -16, -19, 38, -34, 52, -3, 12, -33, -14, 3, -3, 14, -12, -5, 56, -51, 11, 25, -34, 7, 30, 56, 35, 22, 61, -21, -27, 7, 61, 54, 38, 9, -5, -54, -40, 17, -33, -58, -51, -24, -38, -38, -58, -39, 2, -41, -3, 19, -2, -1, 36, 38, -25, -40, -47, 58, 30, 45, -21, 56, -7, 3, 40, -1, 30, -19, -17, -6, -37, -12, 25, 58, 25, 11, 49, -40, 16, 30, -39, -27, 19, -35, 41, 38, 33, 43, 21, -27, -2, 14, -30, -15, 5, -53, -38, 56, -37, 12, -21, 43, 23, 15, -3, 43, 6, -50, -56, -27, -56, 14, -15, 16, -54, -60, 2, 0, 38, -10, -28, -52, 54, 49, 12, 19, 27, -28, 27, 30, -56, 37, -55, 24, 20, 40, -57, 26, 41, -6, -11}
, {21, -16, -27, -56, -30, 41, -23, -69, -59, -9, -35, -7, -33, 4, -16, -11, 2, -18, 17, 27, -28, 24, -44, -15, 9, 50, -29, -51, 24, 19, 13, 34, -30, -26, 53, 1, -18, 9, -3, -53, -10, -28, -44, 35, -31, -56, -26, 29, 10, -61, -61, -50, -59, 24, 18, 35, -2, 5, -19, 15, 48, 3, -33, 45, 25, -62, 29, 18, -31, -30, -26, -49, 20, 26, -31, -34, 44, 18, 8, -14, 11, -45, 22, 28, -4, 32, -58, -57, -6, 31, -45, -6, 27, -33, 5, -71, 1, 1, 57, -59, -25, 16, -32, 27, 12, -17, 46, -50, 46, 43, -4, 28, 19, -14, -26, 28, 54, -32, 55, -31, -42, -21, -33, 21, -6, 20, -8, 16, 2, -54, -41, 4, -51, 46, -43, -2, -35, 38, 31, -2, 22, 21, 14, 9, -21, 52, -18, -61, 14, -59, 7, 35, 12, -34, 14, 22, 51, -38, -50, 53, 52, -2, -60, -4, -36, -30, 5, 50, 47, 18, 16, 6, 34, 23, 15, -32, -4, 8, -11, 0, 37, -27, 27, 23, 29, -3, 15, 44, 37, -42, 17, 5, -13, 29, 53, -4, 3, 27, -38, 19}
, {-27, -57, 45, -58, -28, 52, 49, -42, 3, -60, -9, 0, 10, 34, -2, -59, -19, -20, 24, -45, -8, -53, -62, -50, 24, -9, 18, 22, 49, -25, 1, -24, 19, 15, 26, 0, -46, 22, -34, -50, -46, 20, -26, 41, 8, -4, 30, 21, 58, -19, -20, -60, 40, -6, 41, -5, 13, 42, 57, -32, -8, -31, 23, -53, -32, 13, -3, 25, 3, -12, -4, 53, -53, -31, 61, 41, 23, 45, -12, -49, -1, 7, 55, -11, -31, 60, 36, -44, 39, 33, 20, 21, -54, -12, -57, -14, 41, 19, -32, 37, -40, 9, -53, -54, -39, -5, -32, 50, 20, 35, -25, -20, -32, -40, 46, 48, -43, -44, 35, 0, 19, -51, 37, -16, 37, -38, 15, 5, -51, -8, -1, -9, -28, 55, -25, -12, -18, 51, 57, -44, 29, -22, -36, 8, -10, -11, 29, -42, 39, -30, 21, -41, -15, 58, 16, -13, 40, -41, -38, 17, 18, 29, -7, -37, 48, 27, 8, 48, -8, -53, -55, 28, 5, 6, 46, 46, 25, -51, -24, -1, 57, -55, 55, -52, 20, 6, -37, 11, -40, -46, 25, -14, -48, -11, 17, -32, -40, -52, 13, 35}
, {-18, 16, -13, -25, 19, -15, 0, -12, -31, 4, 25, 37, -6, 49, 60, -39, 32, -25, 32, 59, 36, -56, -34, -28, -21, 9, -11, -40, 58, -57, -48, 54, -1, -12, 8, -25, -6, -47, -2, -57, 32, -32, 38, -29, -2, 61, 0, 45, -13, 54, 52, 8, -61, 13, -33, 0, 10, 60, -56, 45, 54, 21, -29, -16, 56, -32, -35, 51, 21, -13, 29, 8, 55, -20, 33, -51, 7, -40, 56, -51, -60, -50, 3, 37, -2, -17, -38, 48, 28, -34, 16, -27, -23, 35, -51, -17, -43, -62, 4, -59, 42, -25, 42, 51, 38, 28, -60, -28, -52, 51, 35, -26, -27, -54, -7, 45, -13, 28, 5, -26, 44, 41, -15, -60, 0, -21, 1, -38, 52, -48, 54, 57, -55, 37, 52, -58, -35, 7, 58, -47, 11, 5, -51, 43, 1, 6, -26, -48, -16, 35, 22, -61, 23, -31, -6, 9, -46, -12, -21, -8, -62, 62, 0, 53, 2, -23, -13, -51, -6, -7, 5, -47, -31, 27, 6, 14, 11, -55, -46, -57, 1, -53, -61, 56, 22, 3, 59, 9, -13, 0, -27, -43, -18, 10, -55, -34, -8, 4, -7, 12}
, {42, -61, -51, -53, -26, -34, -5, -35, 38, 4, -16, -60, -23, -41, -18, -1, 18, -17, -46, 18, 11, -19, 12, 58, 39, -35, -49, -21, -36, 13, -13, -59, 56, -61, -6, -52, 2, -45, 53, -27, -21, 32, 8, -8, 48, -13, -45, 6, 5, 0, -55, 2, 52, -11, 26, -53, -37, -13, 20, 5, -58, -33, 52, 13, 40, -30, 20, -43, 15, -32, 44, 19, 29, -49, -51, 2, 11, -56, 25, -30, 41, -48, 61, -35, 10, 38, -19, 4, -40, 20, 48, 40, 62, -62, -4, 42, 3, 29, 13, -12, -34, -56, -45, 2, -52, -42, -25, -14, 6, 5, 57, 18, -16, 23, -26, -22, 36, 38, -25, -58, -58, 22, -52, -2, -59, 20, -51, -9, -12, 9, 39, 36, -44, 20, -16, -41, 7, -48, -41, -8, -21, -64, -20, -31, 14, 3, 15, -1, 17, -63, -59, -32, -47, -23, 27, 13, 55, -35, 27, 23, -51, 49, 40, -3, 19, -39, -47, 35, 46, -9, 11, -14, -50, -35, 52, 23, -50, 35, -48, -60, -36, 43, 3, -59, 20, -11, -37, -5, -54, 51, 50, 49, 57, -28, -41, -39, 39, -11, 14, -34}
, {33, -54, 34, 55, 8, 35, -24, 27, 62, -10, 35, 28, 24, -37, 53, -29, -53, 48, 38, 60, -23, 10, 59, -30, 3, -45, -39, 9, -1, -65, 37, -57, -2, -6, 47, -20, 58, -25, -10, 40, -44, 37, -31, -57, 46, -51, -2, -31, 35, -60, -42, -16, -61, -55, -34, 9, 34, 17, -44, 42, 48, 42, -2, -50, -15, -7, -54, 50, -20, -44, 21, -19, 19, 45, 20, 51, 30, -55, -49, 54, -42, 51, -62, 46, -63, -66, 33, 44, 8, -55, -58, -25, -47, 44, -45, 45, -67, 2, 51, -17, -38, -26, -3, -11, -34, -19, -24, -18, 23, -28, 9, -37, -39, -49, -13, -37, 6, -14, -47, -28, 30, 33, 54, 25, -50, -42, 3, -22, -25, -14, 42, 46, -61, -41, -57, 21, 41, -51, 4, -40, 13, -18, -12, 52, -50, 57, -36, -21, 1, -61, 30, -21, 27, 36, 32, 37, -3, 10, 35, 55, 42, -37, -58, 15, -58, 37, 9, -47, 57, -41, 6, -1, 37, -13, -20, -25, -7, -9, 33, -56, -12, -18, -61, 50, -16, 55, -8, 50, 38, -17, 9, 25, 25, 15, -28, -34, -24, -13, -30, 36}
, {35, 46, -19, 38, 40, -66, 11, 19, -5, 21, 27, 28, 49, 25, -29, 31, 42, 26, -18, -5, 4, 12, -5, 40, -30, 6, 25, -48, 19, 48, 16, -2, -19, 34, -24, -8, -8, 25, -18, -60, -21, -15, 20, -30, 47, 24, -32, 34, -24, -39, -4, 26, 44, -18, 8, 6, 18, 32, 6, 36, 58, -7, -20, 60, -17, 1, -42, 1, 39, -44, 22, -41, 19, 37, -57, 17, -39, 61, -59, 1, -33, 24, 47, 38, 60, 42, -20, 63, 2, -22, -35, -32, -12, -47, 32, -2, -1, -31, -2, 55, 46, -52, -44, 50, 57, 19, 47, -41, -58, -17, -3, -37, -36, 41, 38, -26, 24, -34, -34, -25, -36, 23, -57, -18, -20, -47, 4, 28, 15, -43, 33, 39, 46, -44, -15, 10, -28, -50, -11, -8, -12, 56, 50, -10, -33, 23, -19, -35, 37, 2, -9, 0, -12, 13, 12, -50, -50, 35, 0, 59, -26, 16, -35, 28, 51, 42, -61, -27, 38, -19, 22, 6, 4, -61, 0, -29, 1, -52, 4, -16, 52, -17, 43, 35, -60, 39, 22, -51, -6, 21, 4, -9, 8, -21, 27, -45, -30, 7, 54, 41}
, {-26, -14, 43, -34, -21, 60, -35, -15, -65, 0, 53, 51, -20, -54, 53, -31, 53, -35, -13, 45, -52, -2, -57, -35, -58, 43, 33, 40, 61, 28, 38, -31, -49, 29, 11, 58, 34, -41, 56, 15, -55, 58, -11, -28, -44, 27, 35, -42, -8, 24, 51, -55, -26, -21, -46, 43, -28, -29, -35, 20, 49, 38, 48, -51, 32, 46, 59, -6, 10, 44, 58, 27, 48, -32, 58, 51, -15, 7, 21, 31, 11, 6, 46, -45, 5, -8, -38, 34, -31, 13, 18, 32, 56, 59, 54, -33, -63, 28, -17, -7, 39, 13, -32, -2, 55, 1, 21, -18, -59, 11, 34, 49, 26, 39, 39, -27, 3, 30, -12, 29, -24, 38, 16, -14, 8, -37, -16, -2, 46, -22, 23, -31, 12, -60, 35, 59, 16, 55, 11, -37, 38, -36, -23, -8, 3, -52, 55, -9, 5, -23, 63, -22, -41, 45, 22, 43, -17, 25, -55, 54, 39, -9, 40, 21, -44, 14, -36, -52, 42, -3, 56, -14, 7, 20, -58, 25, -25, -74, -32, -32, 16, 28, -26, -38, -30, -34, 67, 20, -47, -17, -54, -42, -6, -61, 5, 23, 53, -34, -31, -34}
, {43, 57, 18, -24, -9, 25, -48, -41, 23, -22, -24, 27, 44, 39, -11, -58, 54, 41, 25, -26, -42, 13, 25, 8, -62, 40, 61, -57, 51, -36, 3, 8, -24, -37, 16, -25, 13, -14, -3, -14, -35, -32, 22, 18, -34, 20, 23, -30, -8, 28, -52, -40, 54, 43, -26, 59, 61, 41, 10, 38, -50, 37, 1, 44, -33, 60, -39, 2, 10, -34, 2, 23, -13, 53, 41, 6, -37, 18, 21, -14, 15, 39, -63, -11, 60, -55, -53, -20, 50, -50, 60, 53, 54, -18, -50, 44, 6, 22, -2, -11, 34, 31, 51, -1, 56, -54, 34, 44, -6, -16, 43, -10, 55, -59, 0, -46, -28, -4, 35, -18, 34, 33, -42, 22, -9, -3, -39, 33, 44, 16, 5, -4, -12, -64, -15, 21, 45, 13, 21, 39, -45, -19, 5, 26, -7, -4, -20, 5, -12, -58, 64, -21, -7, -21, 36, 2, 8, -21, 9, -12, 38, -3, 56, 3, -17, -51, -48, -35, 53, -26, -23, 38, 6, -40, -4, 19, -5, 7, -42, 17, 37, -45, 60, -57, 13, 20, 23, 17, 34, 13, -42, 46, -42, 51, 18, -19, -55, 11, 9, -44}
, {-55, -45, 32, 7, 7, -54, 19, -28, -60, -23, -39, 28, -9, 19, 60, 17, 33, 13, -52, -18, -47, 19, -8, 6, -47, 25, 0, 38, 1, 50, 0, -48, -19, 6, 3, -26, 44, -41, 30, 11, -40, 23, -28, 17, -38, 6, 44, -59, -36, 55, 45, 31, 60, -57, 59, 3, -45, 55, 7, -27, -44, 15, 22, 32, 39, 34, -32, 43, -48, -15, 27, -38, 39, 52, -30, 22, -25, -50, 41, -45, -31, -52, -46, 48, 41, 51, 34, 36, -46, 25, -29, -44, 55, 8, 30, -64, -6, -7, 9, 38, 1, 32, -60, -68, -60, -10, 51, 45, 28, -40, -36, 54, -59, -34, -42, -21, 50, -20, -40, 50, -13, -49, -61, 27, -32, 46, 37, 13, -2, 32, 53, -26, 13, 20, 45, 19, 58, 12, 53, 61, 34, -32, 70, 33, -33, -34, 12, 30, -16, -12, 57, -22, -2, 11, -8, -39, 59, 15, 26, -40, -57, -53, -39, 57, -10, 34, -29, -13, -6, -36, -28, -3, 61, -48, -21, -61, 20, 3, -21, -42, -15, -2, 25, -36, -43, 10, 14, 52, -21, 14, -7, 51, -18, 6, 33, 32, 51, 18, 52, -57}
, {-13, -49, 8, 14, -18, -19, -47, 56, -48, -34, 36, 21, -36, -21, -6, -33, 3, -15, -32, 55, -14, -1, -37, -26, -52, -12, 40, -1, 26, -1, 9, -1, 24, 26, -37, 47, -23, -41, 25, -45, 40, 8, 13, 25, 56, 59, -39, -9, -12, 22, 12, 28, 33, 27, -39, -15, 0, -60, -24, 11, -52, 56, 14, 48, 33, -21, 24, 18, 24, -35, 24, -4, -26, 47, 63, 0, -19, 18, 59, -27, -41, 41, -16, 13, 10, -7, -6, -57, 32, 1, -30, -24, -44, -35, 3, 47, -49, -1, -60, 62, 19, 35, -40, 40, -31, 44, -19, 12, -36, 3, -28, 47, 24, 60, 7, 48, 57, -53, 20, -17, -60, -34, -54, -30, -2, 36, -60, 8, 60, 22, -34, -55, -57, -19, -55, 0, -59, -57, -15, 28, -4, -11, 16, 60, 37, 58, -13, -61, 26, 23, 3, -52, 32, 28, 43, 45, -37, -24, 53, 53, -16, 10, -22, -43, -44, 55, -30, 48, 8, -23, 62, 30, -19, 45, 27, -6, 16, 50, -10, 57, -41, 26, -6, -24, 8, 42, -27, 0, 28, 22, 12, -50, 10, -38, 32, 8, 42, -44, -56, 32}
, {-56, -24, -32, 34, 14, -55, 12, 41, 53, -42, -37, -58, -17, -27, 36, -33, -28, -9, 45, 48, 0, 58, 8, 5, 53, 18, -48, -46, -7, -27, 8, 47, 32, -55, -9, -38, 2, -32, 44, -31, -1, 40, -10, 59, 32, 59, 39, 33, 45, 49, 42, 45, 25, -45, 5, -54, -29, 26, 51, 17, -54, -5, 54, -14, 30, 59, 4, -27, 11, 55, 33, 4, -32, 35, 55, 32, -38, -1, 51, 6, 26, -25, 12, 35, 10, -14, -49, 58, 18, -31, -12, 34, -55, 51, -58, -38, 26, 58, -45, -44, -53, 62, -43, -57, -53, -6, -11, 32, 42, 58, 27, -15, -16, -28, 30, 18, -34, 19, -32, -23, -13, -49, -5, -38, -35, -55, 14, 0, 15, 22, 60, -2, 2, 45, 24, 6, -37, 11, -24, -21, -53, -35, -49, 21, 18, 25, -57, -7, -57, -27, -30, -15, 33, -55, 25, 7, 4, -25, 16, -36, -24, 29, 27, 7, 61, 61, 13, -31, -5, 10, 5, -41, 27, -62, -56, 27, 16, -48, 49, -17, -45, -1, -36, 24, -44, 56, 8, 0, -5, 22, 48, 17, -39, 46, 26, -46, 41, -47, -45, 50}
, {-46, -7, -15, 27, -1, -26, 61, -1, -10, -19, -47, 35, -54, -21, 47, 45, -13, 23, 35, -67, -56, -17, -22, -50, 17, -15, 48, -40, 12, -38, 32, 35, 3, -49, -29, -56, -54, -34, 0, 31, -34, 6, -31, 0, -56, 6, 50, 8, 48, -12, 5, 54, -17, 28, -61, 15, -11, -36, 12, 33, -2, 9, -61, 35, 20, 25, 55, -27, -58, -4, 10, 35, 15, 48, 53, -41, -24, 44, 0, 39, 21, -26, 20, -31, -1, 40, 7, 27, -30, 53, -47, 12, -18, 34, -4, 33, 16, -28, 8, 3, 45, 27, 1, 46, 27, -41, 6, -24, -17, -55, -57, -31, 61, 44, -31, -20, 27, -51, 58, 32, -41, -36, -41, 34, 31, -53, -15, -30, 0, 39, 20, -54, 24, 12, 20, -7, -34, 65, -6, 58, -52, 49, -19, 19, 5, -50, 42, 41, 1, 57, -29, -41, -14, -44, -31, 12, -40, -4, 10, 21, -28, 26, -1, 20, 8, 14, 45, 18, -9, 12, 69, -35, -42, 2, 0, 6, -46, 3, -52, -53, -53, -55, -57, 30, 24, -16, 62, 58, 57, -5, -18, 44, -44, -18, 10, 40, 13, -29, -3, 8}
, {-25, 2, 4, -5, -60, 0, -29, -5, -3, 34, -44, -60, -34, -5, -40, -52, 41, -40, 16, 28, -54, -62, 29, -28, 12, 10, -34, -62, 20, 37, -63, 27, 0, 42, -6, 39, 33, -56, 46, -52, -26, -41, 34, 27, 12, -2, 54, -13, -25, 11, 47, -18, 11, -18, 13, -41, 4, 52, -4, 36, -8, 28, 0, -47, -37, 48, 38, 35, 11, 17, 44, 12, 4, -27, 41, -18, 14, 17, 18, -61, 36, 5, 48, 23, 52, 41, 19, 23, -17, -46, -48, -57, -42, -18, 1, 18, -7, 32, 56, 38, 20, -38, -25, 79, 7, -57, -26, 43, 49, -24, -23, -37, 10, -2, 17, -2, -7, -23, -37, -56, -22, -6, 20, -68, -30, 44, 48, 15, 18, 44, 17, -28, -9, -41, -41, -59, 9, -37, 49, 1, -31, -58, -65, 16, 9, 48, -44, 38, 56, 46, 54, -58, -20, 19, 16, 20, -10, 29, -52, -27, 1, -26, 13, 49, 29, 59, -7, -9, 56, 30, 14, 5, 59, 58, 4, -52, 0, -11, -49, -45, 5, 18, 35, 0, -6, -30, 81, -10, -48, 55, 28, -37, 45, 40, 23, 55, 59, 3, -19, -41}
, {-18, 57, 56, -32, 2, -60, -14, 52, -14, -63, 29, 11, -42, -35, -33, -54, -3, 34, -34, 49, 17, 59, 3, 29, 21, 51, -5, -10, -49, 13, -24, 48, -33, -25, -59, -42, -19, 50, 41, -36, -38, -12, -7, -38, -6, 21, 33, 60, 62, 50, -1, -16, 26, 4, -6, -12, 56, -45, 56, 17, 10, -58, 29, 41, -19, 14, -16, 46, 41, -7, 5, -59, -47, 38, 58, -23, -26, 40, -11, -56, 60, 1, 26, -52, -33, 26, 57, -55, -34, 56, -60, -54, 33, -59, 42, 53, -1, -11, -10, 20, -14, -41, -2, -18, 0, 27, 54, -29, 61, -81, 10, 61, -46, -57, -51, -13, 3, -18, 0, -4, -25, -11, -15, -67, 48, 3, -39, 22, -3, -54, -17, -56, 25, -8, 16, -33, 42, 45, -45, 36, 69, -22, 4, 15, 1, -47, 56, -63, 20, -50, 47, 21, -52, -10, -61, -47, 52, 46, -33, 34, 29, -55, 43, 60, -56, 20, -28, -5, 53, 0, 43, 3, 12, 60, 4, 23, 56, -82, 62, 38, -47, -20, 32, -19, 40, 59, -32, -1, -43, 31, -33, 39, -16, 49, -29, 17, 56, -19, -34, 41}
, {31, -49, 57, 15, -14, -57, -35, 20, -47, 56, -14, -19, -58, -55, 40, -43, 11, -35, 0, 7, 43, -18, 55, 0, -31, 10, 21, -49, -9, -51, -32, 40, 4, 2, 36, -48, -23, -24, -56, 53, -15, 32, -45, -41, 5, 21, 48, 0, 1, 6, -23, 16, 44, -7, -37, -15, -15, 13, -2, 62, 35, 22, -22, -29, 3, -40, -63, -34, -49, -2, -9, -51, -55, 41, -42, -3, 38, 49, 50, -30, 39, 3, -49, 9, -16, 48, -39, 30, 10, -50, 55, 31, -34, -56, 6, -5, 50, 47, 32, 50, -55, -65, 26, -41, 36, -25, 41, 10, -52, 71, 36, -49, 58, 38, 5, -30, -44, -49, 16, 0, -44, -41, -3, -46, -43, 40, 15, -20, 23, 39, -42, 9, 47, -19, -9, -28, 1, 3, 25, 7, 14, -28, -7, 51, -7, -61, 61, 45, -51, 21, -36, 3, 35, 55, -45, 56, 36, 46, -11, 59, -47, -58, 57, -1, -32, -28, 18, 18, -9, 53, -59, 0, -4, 40, 48, 18, 56, 74, 2, 57, -3, 39, -8, 0, -9, 54, -32, -62, -18, 25, 45, -10, 41, -5, 17, 24, -11, -53, -10, -5}
, {63, -34, 0, 5, -9, 20, 52, 55, 12, 23, -29, 50, 0, -37, 53, 31, 44, 13, 63, 5, -25, 45, -7, -50, 53, -40, -8, -24, 2, 33, 25, -27, 12, 27, 17, 33, -10, 19, 14, 19, -16, -57, -56, 47, -26, -9, -6, -57, -33, 2, -63, -53, -1, 0, 52, 56, 33, 63, 50, -56, 32, -40, 59, 38, 50, 33, 16, 45, 58, -35, -56, -53, -9, 29, 5, -62, -41, -53, -1, -59, 50, -3, 48, 24, -29, 46, -21, -60, 28, -20, 57, 14, 37, 60, 27, -37, 64, -56, -38, 25, -25, 54, 42, 9, 12, 36, 55, -53, -24, -26, 49, 37, -21, 6, 37, 44, -53, 33, 20, 59, 44, 20, -61, 19, 39, -42, 61, -43, -15, -25, -27, -51, 46, 0, 48, 56, 20, -54, -41, 5, -17, 56, 49, 28, -7, -10, 47, -27, 6, 13, -29, 36, -24, -11, 46, 58, -36, 58, -3, 29, 43, -51, 57, 12, 23, -10, 60, 33, -13, -5, -65, 13, 7, 13, -58, -53, -28, 86, 55, 45, -52, 56, -16, -14, 36, 35, -40, -3, -23, -35, -12, 41, 42, 0, 10, 33, 8, -59, 47, -6}
, {-23, 1, 6, 57, 26, 13, 0, -36, -18, 12, 22, 47, -11, 35, 6, -59, -20, -11, 7, 60, -12, -41, -5, -31, 46, 28, 4, -15, 16, 28, 37, 28, 49, -48, 32, -26, 53, -35, 4, -60, 1, 54, -2, 23, -36, -14, -1, 49, -41, -34, -37, -16, 43, -48, -7, -8, -14, -1, 2, 41, 11, 33, 17, -38, 39, -49, 55, -15, -10, 56, 9, 9, 38, 10, 49, -44, -24, -15, -28, 3, -15, 19, -7, -41, 29, -10, 59, 41, 31, 18, 61, 17, -39, -54, 3, 54, 3, -30, 5, 40, -61, 57, -34, 77, 16, -29, -27, -25, -41, -30, -19, 47, -12, -23, -58, -17, 11, 8, -4, 8, -33, -1, -10, -35, 36, 15, 37, 13, -18, -32, -32, -15, 50, -10, -56, -29, 2, 33, -19, -61, 10, -59, 31, -32, -16, -16, 48, -58, 9, 14, -8, 2, -30, 43, -4, -19, 49, -17, -59, -30, 55, -39, -27, -32, -8, 20, -26, -58, -42, 33, 75, -49, 28, 43, 29, 36, -19, 17, 21, -4, -26, 44, 53, 20, -18, 59, -56, -20, -11, 30, -14, -15, -17, 37, 21, -60, 36, 29, 3, -37}
, {42, 15, 5, -45, 46, 6, 17, -29, 38, -64, 14, -29, 5, -17, 57, 4, 16, -56, -5, 57, -1, -13, 0, 12, 13, -55, -2, 22, 43, 24, 32, -17, -46, 2, 14, -42, -12, 5, -40, -44, -42, 55, 27, 47, -50, 14, 8, -31, 48, 55, 18, -5, -47, -23, 44, 52, -39, -46, 13, -53, 9, -60, 8, -5, 33, 41, -35, 52, 49, -65, 6, -38, 37, 43, -21, -50, -62, -48, 12, -35, 59, 4, 11, 29, -2, -58, -58, -3, 37, -63, -34, 3, -1, -4, 7, -16, -60, -52, -33, 18, 35, 6, -6, -31, -62, -60, -39, -55, -24, -51, -54, 57, -54, -22, 53, 36, 3, -7, 49, -23, 33, 53, 12, 47, -64, 19, 44, -6, -60, 35, -54, 46, 6, -46, -48, -26, 1, -6, -61, 29, -23, 23, -19, 26, -31, -3, 16, -27, -62, -4, -14, -57, 21, 37, 48, -21, -7, -38, -28, -63, 11, -23, -46, -1, 0, -34, 55, 55, -25, -43, -45, -50, -41, -18, -6, -4, -34, -37, 4, 40, 56, 33, -27, -13, -67, 42, 13, -16, -29, 44, 42, -44, 43, -17, 14, -35, 16, 23, 1, -5}
, {19, -16, -52, -28, -16, -43, -33, -32, 38, 22, -13, -24, -44, -33, -18, -14, -10, -37, -18, 34, -40, -20, -14, 64, 44, 11, 54, 47, -16, -42, 55, -29, -34, 57, -60, 15, -25, -16, -12, 40, -22, 14, -41, 24, -4, -48, 15, 46, -16, 37, -10, 34, 36, 14, -29, 20, -44, 10, -30, 49, 34, -33, -52, -56, 33, -18, 54, 33, -15, 8, -18, 59, -50, -55, 45, 45, -43, 46, -58, -8, -33, 40, 57, 44, 6, -16, -51, -14, 47, -54, -49, 34, -43, 9, -34, 21, 36, -45, 25, 46, -32, -5, -12, -33, 11, 39, -22, 37, 18, 5, 36, -19, -8, -16, -1, 36, 13, 9, -27, -30, 16, -45, 46, -49, -1, -56, 42, -16, 44, -33, -4, -2, 16, -33, -53, 60, 43, 15, -38, -2, -50, 9, 35, 58, -37, 24, 51, 47, -28, -47, 35, 32, -48, -50, 41, 5, -63, 36, -5, -22, -5, -18, -26, -45, -14, 59, -13, 55, 32, -25, 76, -56, 1, -28, 60, -18, -39, -19, 63, -44, 12, -32, 55, -40, -4, -51, -30, 36, -53, 21, 27, 26, -11, -13, 9, 17, 30, 46, 52, -13}
, {22, 6, 60, 29, -28, 9, -22, 51, 53, -52, -8, -22, 5, -32, -21, 32, 50, 19, 51, -33, -55, 14, 16, -58, 29, -14, -61, -35, -44, -51, 9, -62, -36, 11, 48, -56, 26, -16, 5, 36, 11, -51, 42, 57, -55, 32, 49, -54, 28, 25, -36, 25, 7, -23, -59, 19, -1, -26, 9, 1, -23, -40, -52, 6, -39, 58, -40, -37, -37, -62, -61, 3, 43, 24, 13, 15, 22, -52, 2, -36, 53, 17, 23, -6, 52, -32, 10, -24, 23, 34, -54, 23, -42, 50, -53, 14, -6, 59, -27, -6, -46, -40, -7, -42, 27, -37, -30, -15, 35, 32, 35, 25, 36, 16, 1, 61, -28, -15, 64, 33, -24, 31, -40, 13, 5, 17, -13, 43, 28, 54, -20, 23, 41, -20, 43, 49, 39, 44, 33, -51, -22, -5, -36, -26, 0, -46, 62, 23, -17, 9, -14, -9, 41, -30, -50, -39, 10, 46, 12, -61, -4, -13, -22, 3, 44, -14, 40, 18, -20, 0, -23, -31, 21, 48, -43, -36, -43, -20, -41, -45, -44, 47, -21, -10, -27, 1, 8, 40, -4, 18, 24, 24, -18, -9, -60, 18, 39, 6, 7, -45}
, {-53, -61, 39, -53, -21, 20, 40, -41, -57, 51, 39, -1, 56, 4, 43, 9, 31, -55, 58, 43, 61, -47, -58, 14, -28, 57, 20, 14, -50, 58, -33, 58, 16, -63, 20, 38, 26, -2, 33, -53, 50, -36, -8, 47, 4, 31, -8, 58, -65, -18, 26, -35, -51, 59, -34, 2, 51, -13, -48, -37, 30, -55, 62, 39, -14, -36, 3, -52, 8, 28, -14, -44, -7, 0, -22, -19, -28, 52, -17, 39, 3, -47, -18, 37, -14, -7, -43, -1, 17, -37, -24, -1, -7, -17, -39, 23, 34, -33, 0, 27, -20, 41, 32, -8, 30, 5, 47, -12, 14, -45, -6, 55, -51, -29, -38, -16, 9, -18, 28, 6, -30, 27, -25, 22, -59, -43, 43, 17, 5, -24, 54, 53, -58, -56, -27, -20, 59, -24, -64, -1, -23, 22, -38, 29, 10, 9, -61, 30, -17, -56, -33, -28, -1, 52, -15, -61, 21, -28, 2, 15, -55, -30, 24, -32, -44, 43, -64, 59, 11, 12, -21, 12, 0, 44, 33, -3, -19, 50, -61, -42, 24, -11, 1, -20, 6, 4, -32, -28, -11, 44, 59, -59, -26, -62, 23, -28, -56, 0, 45, 30}
, {26, -50, -29, -49, 33, 5, 54, 61, -5, 9, 36, 4, -15, -18, 57, -13, -16, 1, -46, -39, -55, 21, -17, 61, -57, -47, 53, 34, 53, 23, 18, -44, 0, -25, 13, 24, 7, -31, 17, -23, -57, -55, 21, 16, 27, 10, -37, 16, 43, 6, 12, -17, -20, 50, 35, 51, -17, 57, -24, -54, -25, 46, 3, -22, -62, -15, 52, -13, 5, -55, 19, -41, 38, -51, -27, -5, -60, -52, 32, -49, 46, -46, 53, 16, 2, -31, -43, 52, -26, 24, 26, 49, 53, 59, -18, -56, -11, 17, -24, 13, -10, 47, -7, -23, -56, -7, 13, -8, -3, -34, -35, 46, 54, -30, 34, -2, 21, 56, -56, 3, 58, -49, -32, -47, 36, 17, -8, 3, -52, -12, -15, -5, -46, 42, 29, -51, -9, -18, 30, 62, -36, 21, 40, 37, -28, -47, -15, 61, 31, -53, 59, -22, 8, -38, -40, -55, 58, -59, 24, -19, 47, 45, 40, 35, -59, 21, 35, -51, -35, 8, -6, -51, -35, -1, -45, -17, 29, 47, -55, 28, 52, 27, -36, -12, -29, -45, 15, 56, 50, -38, 39, -39, 30, -60, -42, 57, -32, -15, 43, -61}
, {-27, -44, -47, -31, -12, 46, 38, 12, -8, -25, 42, 57, 18, 27, 5, 14, 8, -40, 25, -35, -33, 12, 14, -4, -38, -38, 58, 40, 53, -33, 48, 32, 29, -49, -27, -61, -13, -28, -30, -39, 54, -2, -24, -46, 55, 49, -49, 52, 28, 5, 39, 54, -9, -29, 13, 29, 30, 36, 14, -7, -46, -52, 16, 30, 60, 37, 15, 42, -50, -26, 24, -23, 39, -22, -29, 50, 44, 15, -55, -20, -2, 24, 55, 33, 35, -4, 46, -11, -22, 54, 62, -58, -36, 29, 38, 48, -43, -9, 13, 10, -51, 34, 42, 45, -7, 57, -51, -20, 13, -21, -54, -29, 43, -14, -61, 26, 16, 39, -55, 16, 49, -1, 9, -26, 40, -30, 29, -43, 24, -28, 52, 31, -41, -31, 32, -63, 15, 48, -17, -28, 51, 32, -27, -26, 43, 43, -60, -5, -35, -36, 32, 34, -46, -53, 53, 9, 1, 53, -11, 43, 29, 33, -46, -71, -57, -41, -27, 43, -39, -58, 7, -28, -35, -22, -11, 3, -42, 48, -29, -3, 12, 39, 61, 30, 8, -44, -17, 42, 28, 8, -33, 32, 37, -29, 19, 9, -59, 16, -19, -6}
, {-17, 59, -48, 0, -21, -44, -40, 19, 36, -26, -28, 34, -19, -5, -19, -47, -48, 23, 8, 31, -33, 32, -45, 32, -51, -49, -47, 54, -3, -44, -14, 33, -13, 27, -42, -20, 8, 59, 14, -13, -49, -52, -54, 42, -43, 31, -50, -19, -42, 0, 29, -40, -11, 0, -2, -26, -53, 2, 48, 40, -37, -52, -23, 35, 5, 3, 18, -13, -7, 23, 37, -24, -15, 23, 15, -1, 9, 33, 2, -54, -48, 49, 13, -48, 6, -16, 33, -12, 34, -19, 34, -32, 45, 47, 9, 60, 18, 44, 50, 20, 0, -31, -60, 17, -27, -43, 36, 22, -52, 8, 51, -42, -40, -57, -14, 30, 46, -52, -39, 54, 13, -11, 8, -61, 7, 45, -26, 4, -3, 6, 40, -38, -7, -51, -42, -21, -8, 62, 3, -13, 23, 48, -35, -12, 27, -4, -18, 53, 7, 56, 41, -48, 23, 42, 2, 0, 61, 26, -34, -51, -39, 4, -45, -7, -25, 6, 32, 57, -55, -44, -26, -3, 35, 56, 32, 47, 8, -61, 6, -23, 52, 0, -59, 1, 31, -48, 31, 34, 8, -24, 27, -26, 42, 23, -7, -13, 15, 37, 11, 38}
, {-38, -33, 46, -56, -12, -14, -9, -4, 30, 40, -39, -17, 49, -54, -47, -61, -54, -31, 10, -11, -57, 25, -32, 57, -60, 17, 31, -54, 35, -5, -62, 41, 37, -13, 38, -9, 58, 21, -8, -16, 56, 5, 13, -51, -41, -4, -1, 18, -46, -22, -59, 49, -33, -34, -32, 55, -19, -60, -37, 24, -10, -22, 47, -21, -30, 52, 53, 59, -62, -43, -36, 15, 57, 42, 2, -7, 27, -46, 39, 54, 42, -15, -29, -34, 60, 58, 47, 35, 41, -38, -32, -51, -43, -61, -1, 44, 56, 9, 58, 53, 59, 35, -29, 1, 60, 61, 34, -8, -33, 19, -1, 18, 40, 4, 26, 31, 22, -3, 11, 40, 52, 17, -27, 0, -27, 35, -57, -16, -23, -1, -27, -1, -35, -56, -54, -31, 0, -54, 6, -12, -10, 38, -53, -58, -44, 1, -38, -43, 23, 49, -4, 53, -59, 31, 47, 10, -48, 50, 59, 31, 4, -56, -51, -48, -21, 36, -17, -2, 0, -12, 31, 43, 10, 7, -52, 38, -6, -48, -13, -28, 46, -57, -17, -33, 39, -19, -61, 12, -19, 26, -10, -61, 8, 48, -31, -54, 12, -15, 34, -9}
, {-28, 8, -4, -39, -62, 36, -15, -54, -2, -19, 13, -11, 51, -57, -26, 59, 48, 70, 14, 14, 15, -37, 53, -17, -39, 1, 58, 45, 41, 57, 39, 43, 54, -30, -23, 45, -38, 57, -33, -17, -12, 18, 5, 24, -56, 47, -6, -53, -9, -43, 3, -48, -63, 13, -21, -52, -4, -16, 15, -13, 34, 51, -51, 58, 8, 14, -1, -32, -59, -2, 29, -60, -7, 47, -5, 28, 19, -7, 31, -41, 42, 21, -55, -27, 14, -14, -26, 31, 59, 29, 0, 18, -3, 0, 20, 48, 28, -43, 23, 14, 17, 28, -34, 84, -13, 31, 29, 14, -34, -42, -24, 30, 3, -10, 51, -58, 7, -37, 33, -23, 19, 5, -5, -61, 37, -19, -55, -35, -31, 39, -25, 34, -50, 2, 30, -24, 6, -57, -6, 26, 40, 10, -31, -8, 19, -45, -47, -6, -50, -54, -26, -35, 26, 21, -28, -37, 30, 17, 49, -59, -55, -5, 45, 0, -7, 60, 43, -28, -12, -39, -4, -33, 12, 7, 41, -10, -58, 10, -48, 6, 19, -15, 8, 44, 10, -11, 49, -33, 16, -27, -26, 25, -49, 55, -39, 57, -1, -4, 41, -22}
, {38, -6, 10, -3, 11, -18, -62, -2, 18, -3, 19, 58, -31, -1, 64, 48, 30, -26, 56, -20, -42, 21, 42, 16, -65, -25, 26, -56, 13, -44, 25, 13, -57, -46, 56, -5, -24, -72, -26, -61, 50, 23, -59, -10, -28, -23, 5, 28, -44, -30, 13, -58, -6, -16, -37, -10, -55, -34, -63, -54, 33, 49, 44, 36, 55, -33, 32, 19, -37, 58, 52, -39, 51, 8, 58, 19, 51, 29, -27, -31, 29, 0, -52, 12, -26, 0, -20, -20, 42, 55, -15, -11, -7, -3, 48, -7, 9, 40, 25, -63, -44, -47, -38, 20, 60, -1, -48, 33, 34, -19, 56, 7, 18, 57, 48, 8, -50, -23, -34, 17, 50, 43, 47, -47, -46, -36, -43, -15, -2, -15, -14, -63, 49, -27, 4, -13, -24, 25, 43, -23, 8, -58, 22, -4, -38, -36, 21, -13, 0, 11, 24, -2, 48, 45, 26, 48, -30, 14, -20, -31, 7, 16, -20, 25, 30, 13, 47, 51, -5, 51, 3, 12, -11, -28, 49, -26, -60, -57, 25, -7, 52, -28, 39, 17, -8, -44, -51, 61, -42, -32, -47, -28, -4, 47, 0, -18, 41, 5, 6, 20}
, {58, -40, 36, -49, 2, -46, 60, 52, 61, -33, 19, 5, 43, 23, 41, -3, -60, 3, 14, -46, 4, -10, 29, 45, 26, 43, 11, 49, 21, 10, 37, 7, 48, 5, -60, -47, 12, 48, -2, 5, -11, -39, -23, 21, 59, 6, 39, 62, 23, -48, 53, 39, -37, 27, -27, 15, -53, -10, 23, -39, -29, 10, -39, -36, 5, -28, 56, -27, -12, 51, 38, 52, 60, -9, 38, -36, 14, -61, 7, -33, 40, 0, -1, 28, -15, -23, -1, 32, -2, -25, -34, 27, -13, -2, 59, 19, -7, 28, 54, -54, 60, -32, 21, -7, -59, -40, 29, -23, 47, 10, -21, -34, -53, 53, 50, -41, 53, 27, -2, 24, 42, 34, -45, -35, 10, 40, -55, -4, 47, 1, 0, 50, 12, -33, 10, 8, 1, -11, 12, 60, 61, 41, -56, 40, 4, 12, -8, -5, 3, -28, -41, 39, 5, 2, 30, 27, 43, -31, -57, 26, 27, 40, 15, 49, 2, 33, 50, 8, -51, -20, -52, 0, 47, -1, -1, -12, -38, -17, -53, 38, 54, 7, 8, -47, 38, 13, -44, -1, -27, -51, 24, -51, -27, 22, -41, 19, 5, -1, 33, 54}
, {26, 54, -55, -15, -11, 17, 56, 31, 51, -28, 15, -18, -52, -51, -6, -51, -13, 9, -24, 23, -47, -54, -18, -52, -49, -15, -26, 10, 45, 46, -16, 13, 17, -7, -50, 9, -64, 24, 1, 26, -20, 38, 61, 34, -25, 47, 12, 6, -16, 31, -13, -1, -9, -45, 53, 38, -20, -37, 54, -34, 36, -53, 23, 53, -33, -45, 18, 53, -43, 16, -8, -18, 17, 43, -17, -52, -16, 1, -19, 3, 6, -32, 2, -52, 3, -60, 32, 22, 42, 25, 40, -17, 60, -37, -12, 1, -33, -7, 42, -55, -55, 28, 49, 0, 37, -38, 57, 31, -54, -73, 35, 34, -8, -22, 7, -7, -28, 11, -64, -56, 7, 35, -48, -21, 36, 35, -17, 43, 43, -25, -53, -8, 0, 36, -22, 56, -31, 18, 62, -20, -36, -38, 32, -12, 1, -42, 42, 17, 30, 56, 63, 22, -7, 63, -5, 55, -55, -16, 29, -1, -3, -39, -45, 5, 59, 52, 31, 18, 62, 14, 11, -28, 8, -39, 6, -26, 0, 12, 49, -23, -41, 16, 61, 30, -2, 6, 48, -47, 11, 55, 11, -11, 18, 25, 34, 6, 10, 54, -36, 21}
, {12, -40, 19, 36, 42, -11, -59, 7, -29, -42, -4, -30, 54, -37, -4, -1, -58, -28, -24, -15, 15, 50, 15, -10, 36, -19, -38, -45, -62, -12, -44, -28, 3, 51, -5, 26, -33, 6, 9, 1, -61, -46, -18, 11, -27, -53, 1, -51, 44, -4, 9, -4, 12, 49, 31, -51, -2, 47, -15, -7, 36, 9, 50, -56, 45, 23, -21, -11, -11, -58, -36, -21, -45, 11, -58, 34, 15, -61, -22, 62, -46, 29, 29, -10, 10, -65, -16, -6, 48, -51, 5, -18, -62, -54, 31, -29, 2, -24, -30, -29, -52, 37, 43, -22, -58, 62, -10, -46, 7, 44, 25, -22, -13, -22, 41, -61, 15, -28, -45, -24, -9, 17, -8, 32, -29, -35, -27, 9, 16, -59, -20, -19, 6, 20, 21, -9, -30, 36, -39, -28, 20, -6, -49, -34, 29, -40, -15, -24, -27, 28, 53, -57, -59, -28, -7, 34, 43, -11, -6, 14, 5, 40, 49, 28, -3, -48, 60, 59, 49, -15, -44, 8, 23, -29, 37, -24, -40, 38, 48, -37, -1, 0, 32, 4, -62, 58, 42, 31, -50, -46, -37, 34, 45, -31, -53, -14, -16, 22, 50, 3}
, {23, -5, -38, -13, 24, -14, -58, 0, -59, -16, 27, -43, -10, -60, 53, 36, -10, 72, 26, 13, 16, 6, 37, 30, 59, 60, -13, 37, 0, -4, -21, 16, 30, 7, -15, -36, -56, 33, -1, -17, 11, 5, -57, 38, -40, 51, 48, 29, -9, 36, -57, -12, -16, -1, 2, -14, -24, -50, -1, 39, 28, 36, -42, 43, -29, -21, -52, 5, 47, -43, 41, -58, -5, 62, 5, 35, -10, 50, -31, 0, -21, -57, -18, 46, -2, 34, 44, -38, -48, 40, 1, 9, 14, 16, -58, -46, 17, -15, 15, 38, -25, -22, 7, 72, -43, 0, 13, 18, -5, -14, -23, -3, -51, -23, -45, -52, 50, 16, 25, -12, -60, -18, -42, 30, 8, -59, 45, 35, 28, -26, -45, 49, -11, 55, -16, 0, 59, -47, 0, 22, -44, -16, -50, 45, 55, 59, 6, 58, 37, 23, 44, -16, 39, -36, 36, -15, 3, 38, 7, -46, -50, -54, -40, -29, -8, 34, 55, 48, -54, 61, 57, -29, -3, -10, -38, 36, 0, 1, 24, 44, 51, 24, 40, 57, 39, 58, 42, 49, -27, 26, 5, 0, -30, 8, 29, -53, 65, -55, 33, -49}
, {13, 55, -24, -34, -7, -15, -50, 3, -31, -25, -46, -62, -6, 7, -18, -25, -42, -11, 23, -45, -5, 9, -50, -17, -23, -58, -29, -12, -17, 7, 1, -18, 32, 20, -47, -51, -12, 42, -3, -56, -47, -9, 32, 12, -49, -4, 33, -39, -11, 34, 54, 1, 16, 51, -43, 60, 21, 1, -61, 60, -65, 53, -15, 34, -51, 49, 42, 26, 57, -2, 40, 48, -24, 29, 34, -35, -54, 6, 31, 5, -42, 46, -58, -36, -10, 48, 55, -60, 20, -16, 19, 23, 3, -38, 57, 24, 5, 58, -29, -43, 53, 2, 20, 21, 23, -31, 44, 0, -64, -13, -50, 42, 21, -31, -42, -13, 17, -49, -45, -41, 20, -24, 25, -20, -44, -41, 12, 56, 22, 12, -37, 54, 48, -51, -4, -43, 6, -51, 0, 12, -21, 52, -22, 32, -7, -16, 48, -43, -39, -25, -3, 46, 38, -29, -16, 28, 2, -62, 39, -48, 45, 13, 47, 27, 0, 42, -19, -61, -2, -40, -42, 31, 30, 47, -34, 10, -31, 33, 6, 19, 52, -6, -35, -51, -43, -1, -58, -45, 12, 57, -15, 20, 17, -16, -53, 24, 51, 47, 47, -13}
, {35, 16, 50, 62, 16, -36, 32, 59, 14, -57, 28, -44, -54, 14, 35, 17, 6, -9, 54, 39, -54, -1, 45, -29, 24, 14, -31, -41, 4, -16, 56, -31, -63, -24, -44, -11, -12, -21, -46, -42, -60, 53, -5, 11, -50, -25, -28, -3, 61, -38, 32, 45, 53, -21, 62, -37, -48, -22, 35, 0, -50, 4, -3, 47, 62, -18, -10, 14, 9, -36, 28, -37, 52, 4, -60, -52, 40, 5, -5, -42, 1, 25, -49, -14, 23, -57, -60, -20, -2, -46, 26, 32, 49, 46, -30, -12, -3, 0, -36, -64, -22, -39, 2, 32, -17, 27, 50, 34, 14, 50, -41, 5, -2, 33, 35, 8, 23, 35, -60, 37, -43, -2, 0, 36, 61, 56, 1, -36, -16, 23, -44, 6, -13, -10, 8, -26, -34, -12, 53, -53, 30, 37, -34, 42, -3, -3, 46, 43, 9, -17, 40, 26, -34, 32, -23, -8, 25, 51, -35, 11, -4, 62, 20, 36, 8, -24, -43, 4, -61, 2, -57, -17, 53, 15, -39, -2, -49, 70, 0, -20, 54, -58, 22, -15, -3, -28, 17, 25, -3, -52, 57, -54, 26, -56, 56, -24, 23, 44, -44, 3}
, {-45, -36, 29, 18, -13, 38, -46, 31, -10, -56, 52, -28, 27, 9, -54, -12, -66, 51, -2, -38, -1, 2, -52, -7, 51, 47, -15, -50, -2, 47, -7, -19, -7, 15, 36, -49, -42, -34, -20, -34, 55, 2, -7, 41, 59, -40, 27, -27, 59, -37, -6, 13, 42, 26, 57, -39, 1, 35, -52, 36, 34, 40, -33, 43, -24, 10, 2, 37, -12, 46, -44, -17, 25, 27, -4, 34, -62, -41, -5, -44, 6, -48, -54, 51, -35, 57, -34, -55, -2, 5, -28, 37, -6, 42, -19, 54, -7, -47, -39, -54, -11, 0, -50, -60, -1, 27, -5, -11, 14, -21, 42, -45, -26, -44, -23, -56, 11, -1, -19, -62, -31, -5, -24, 54, -35, -42, -19, 11, 38, 34, -36, 5, 22, -6, 53, 20, -48, -56, -57, 58, -10, -51, 45, -25, 41, -23, 51, 43, -49, 31, 8, -28, -41, -15, -14, 14, 7, -19, -46, -45, 41, -28, -55, 11, 0, -7, 32, -7, -23, 22, -44, -43, -21, -20, -5, -4, 43, -59, 6, 0, -62, 21, -40, 17, 9, -55, 5, -15, 60, 29, 9, -45, -28, -41, 21, -48, 5, -18, 4, 13}
, {14, -1, 28, 24, 12, 52, -57, 54, -10, 40, -30, 30, -9, 55, 56, -20, 0, -21, -7, 48, -25, 42, 18, 24, 34, 27, 8, 11, 49, -39, 32, 49, -45, 5, -41, 46, -16, -27, -18, 17, 39, 5, 30, -46, 53, -39, -50, 54, -13, 29, -7, 5, 25, -26, -39, 56, -42, -45, -23, -2, 56, -22, -25, 16, 17, -2, 53, 60, -45, -23, 46, 8, 54, 49, 22, -45, -38, -43, -41, -8, 28, -22, 28, -25, 38, -4, -4, -59, -41, -38, 0, -21, 11, 61, -61, 16, 35, -26, -45, 44, -24, 59, -19, -63, -41, 38, 6, -25, 4, 31, 38, 46, -52, 53, 52, 27, 27, -26, 15, 0, -2, 46, 1, 25, -14, -6, 0, 16, -60, -43, -31, -7, 48, -54, -52, 14, 39, -29, -57, 19, -13, 2, -28, 57, -43, -50, 23, 4, 57, 46, -44, 30, 38, -23, -41, -15, -44, -41, -32, -49, -58, 39, -15, -53, -38, 31, -45, -19, 36, 8, -43, 30, -50, -31, 25, -41, -8, -11, -13, -13, 35, -7, -23, 39, -25, 42, 2, 39, 16, -60, 1, 61, -27, -16, -17, 8, -29, 33, 54, 45}
, {20, 40, 35, -44, -4, -27, 23, -61, 57, 5, 30, -60, 0, 37, 1, 1, 59, 20, -12, -27, 11, -61, -11, 21, 49, -55, -43, -31, -2, -21, 32, 22, 33, 14, 6, -30, -46, 19, -46, -48, 14, 8, 62, -49, -36, 11, 0, 25, 32, -24, -37, -25, -44, 31, 20, -54, -11, -23, -62, 35, 37, 38, -59, 0, 57, -34, 52, -53, -62, -33, -41, -49, -45, 8, 18, -14, 17, 55, -29, 58, 62, -11, -19, -29, -51, -6, -5, -20, 36, -33, -12, -64, 41, 45, 53, -41, -53, -8, 30, 59, 27, -39, 48, 38, -63, -22, 0, 57, -56, 50, -34, -60, 32, -37, 34, 41, -31, -1, 28, -42, -46, -45, 59, 15, 33, 4, 26, -65, -43, 48, 9, 0, 10, -62, -46, -55, -53, -38, 19, -57, 27, -14, 0, -14, -53, -13, 56, 45, 4, -49, -31, 1, 29, 25, -25, -3, 39, -11, 9, 7, 40, -59, 4, 38, 22, 38, 6, 44, -24, 33, 53, -19, -50, -19, 21, 4, -6, 54, -14, -12, 47, -52, 10, -6, -37, 12, 29, -33, -9, -3, -38, -2, -24, -5, 9, 21, 18, 4, 47, -63}
, {19, -53, 52, -32, 27, -28, -41, 0, 48, -10, 19, 52, -58, -47, -42, -53, -31, -10, -35, -12, -9, 28, 49, 11, 36, 36, -32, 9, -7, 45, -59, -30, 13, 8, 57, 13, 7, 3, -10, -59, -63, 1, 27, -29, -58, -58, -6, -8, 24, 53, -21, 43, -15, -8, -41, -40, 46, -51, -46, 50, 8, -12, -53, 51, 26, -3, 7, -13, -20, -36, -35, 18, -48, 25, 26, 27, 23, -43, -9, -16, -59, -61, -12, 16, -64, 39, 55, 58, -39, 12, 8, 39, 50, 12, 48, -55, -22, 8, -36, -15, -58, -7, 34, 4, 8, -18, -45, -41, 49, 44, -37, -16, -62, -12, -49, 36, -44, -16, -65, 5, -58, 1, 31, -5, -35, -27, 50, 58, -35, -29, -8, 3, 49, -2, 25, -25, 51, -45, 37, -2, 7, -50, 34, -1, 45, 59, 37, -44, 2, -21, 2, 1, -2, 34, -57, -6, 58, 12, 45, -6, 13, 18, 25, 21, -36, -2, 14, 9, 24, -41, -62, 37, -25, -48, -21, -12, 33, 34, 31, -31, 32, 24, -13, 44, -44, -53, 21, 39, 59, -42, -12, 19, 32, 5, 48, 57, 52, -53, 58, -29}
, {55, -5, 32, -36, 19, -42, -40, -15, 3, 26, -7, -56, 0, -34, -29, -11, -46, -61, 42, 59, 22, -41, -1, -60, 24, 15, 26, -58, -5, 0, -34, 15, -62, -39, 27, -2, -59, -42, 52, 59, -35, 46, 18, -53, 2, -20, 60, 28, -8, -25, -59, -23, 36, -60, 20, -62, 57, -25, 22, -40, 57, -39, 30, 47, 52, -17, -59, 19, 2, -24, 36, -37, -38, 36, 47, -4, -32, 53, -53, -29, 23, 32, 65, -39, 4, -9, 28, -4, -32, 42, 11, -11, 61, 38, -5, 0, -38, 58, 22, -51, 54, -9, -47, -66, -29, 41, 25, 20, -39, 21, -5, -23, 26, 52, -41, -30, 42, -26, -42, -1, -53, -41, 58, 48, 59, 58, 59, -53, 41, 18, -13, 33, 41, 2, 25, -16, 58, 49, -24, -7, 2, -30, -40, -39, 48, -53, 10, 7, -60, 50, -39, 17, 2, 12, 21, 36, 32, 9, -23, -4, -37, 56, 44, 58, 48, -23, 0, 22, -54, -18, 15, -15, -19, -13, -39, -51, 52, 57, 14, 30, 58, -25, 13, 22, 29, 31, -72, 2, 48, 1, 17, -16, 49, -8, 58, 44, 43, -42, 16, 2}
, {23, 38, -63, -43, -59, -6, -52, 49, 45, -44, -4, -45, -22, -39, -52, -64, -16, -31, 24, -4, -42, 10, 50, -21, -46, -22, 24, 9, 12, 48, 15, 19, 47, 30, 47, -5, -3, -2, 31, -28, -41, 48, 34, -59, 51, 7, 44, 9, -53, 0, 42, -62, 22, -31, -39, -43, 28, -16, 37, 5, -49, -26, 55, -62, -4, 24, 53, -37, -38, -35, 25, -3, -31, -17, -28, 30, -4, -14, -35, 15, 44, 61, -60, 28, 54, 36, 39, 21, 23, 18, 33, -24, 11, -21, 16, 20, 18, -55, -52, -2, 41, 6, -50, 44, -53, -13, 30, -56, -16, 46, -57, 6, -37, 14, 34, 20, -11, -22, -54, 24, 47, 8, -60, -42, 18, 44, 21, 49, 41, 52, 49, -27, 44, -56, -59, -14, 37, -47, 52, 18, -48, -8, -71, 12, -35, 48, 54, -25, 45, 23, -53, -27, 33, 23, -38, 33, 18, -63, 13, 33, 13, 41, -52, 0, 4, -10, 12, -54, 8, -23, 31, -56, 37, 18, 57, 58, 24, -12, 37, -29, 42, -15, 46, -52, 29, -1, 20, -21, -30, -58, 39, -44, 42, -27, -8, -32, 52, -49, 18, 60}
, {-58, -3, 33, -24, -37, 49, 45, 38, 46, 42, -32, -7, -60, 7, -56, 0, -54, -2, 12, 66, 2, 60, 47, 9, -61, 41, -40, 19, 40, 5, 8, -39, 62, -46, 20, -38, -48, 41, -43, 23, -56, 40, -22, -61, 27, -20, 60, -1, 35, -11, 53, 43, -26, 45, 5, -21, -34, -39, -23, 50, -28, 51, 0, -27, -14, -33, -16, 47, -33, -24, -40, 32, -43, -53, -45, 1, 29, -23, 59, 23, -61, -19, -45, 62, 5, 28, -59, -14, 21, -33, 33, 26, 0, -49, 24, -26, -45, -6, 27, 34, 55, 21, 13, -82, 58, 55, 0, 65, -47, 73, 54, 57, 39, -13, 8, -34, 33, -22, 29, 0, -1, 9, -18, 22, 1, -32, -49, -3, -48, -59, -42, 17, 50, 62, 26, -40, 3, 7, -17, -49, 34, -12, -1, 8, 29, 44, -32, -21, 58, 0, -17, -29, 21, 6, 24, -46, 38, -59, -44, 40, 49, 58, -51, -57, -55, -38, 55, -2, 13, -25, -69, -37, 22, 29, -6, -26, 45, 78, 32, -35, -27, 26, 34, -48, 48, -14, -15, -49, -32, 21, 48, 51, -46, -24, 20, -9, 51, 22, 44, 32}
, {-61, -31, -57, -12, -61, 34, 34, 34, 56, 20, 58, -35, 33, 46, 6, -42, -37, 10, 22, -9, 57, -21, 31, -42, -8, 21, -60, -9, -20, -58, -10, 50, -29, -52, -26, -34, -57, -46, 8, -18, -38, -39, 50, 56, 50, 6, -1, -40, 48, -5, -11, -18, 8, 5, -59, -55, -28, 0, -14, 49, -13, 21, 32, -7, 9, -55, 55, -6, -52, 19, -4, 20, -45, 43, -45, 49, 35, -11, -40, 27, -49, 9, 60, -19, 33, 16, 39, 58, 29, -13, -4, 30, -8, -44, -21, -30, -30, 16, -9, 30, 18, 16, 46, 11, -47, -25, 3, -36, 0, 27, 0, 29, -45, -44, -7, 9, 56, -52, -50, -17, 54, -18, 11, -55, -19, -45, -65, 6, -39, -22, -51, 22, 19, 48, -38, -22, -26, 57, 47, 59, -26, -8, -56, 62, -9, 41, 19, -16, 24, 4, 53, 6, 56, -6, -8, -22, -61, 18, -43, 52, 1, 22, 9, 53, 22, -12, -56, -49, 12, -10, -28, 32, 3, 25, 39, 44, -45, -11, 59, -13, 36, -15, 9, 51, 32, 40, -4, 36, 17, -12, -43, -44, -27, -32, 10, 2, 23, 8, -23, 49}
, {28, -6, -30, -61, 59, -55, 37, 43, 40, 15, 15, -65, -15, 33, 8, 4, -47, 46, 48, -46, 48, -23, 53, 18, 33, -44, -23, 55, 35, -23, 40, 34, 36, -27, -53, 47, 18, 33, 7, 3, -30, -15, -17, 13, 13, 15, 40, -35, 37, -53, 12, -24, 16, 40, -24, -7, -46, 11, 33, -27, -54, 8, -12, -47, 1, 37, -32, -44, 51, 39, 27, -25, -46, -57, -25, 58, 0, 12, 5, -21, 35, -49, 41, 42, -60, -33, 49, 45, 23, 25, -7, 40, -52, 34, 23, 53, -33, 38, 42, 59, 32, 3, 39, 27, 54, -12, 34, -38, -40, -51, -23, 41, 43, -11, -16, 12, -44, -3, -3, -18, 10, 58, -48, -13, -12, 13, 21, 11, 55, 19, 28, -11, -48, -61, 33, 11, 45, -1, 37, 30, -23, 36, 23, -5, -35, 56, 28, 49, -61, -8, 5, -54, -11, -7, -4, -14, -25, 54, -46, 36, 19, -25, -41, -41, -44, 46, 0, 18, 3, 45, 29, 48, 22, 20, -61, 52, -32, 30, 45, -27, -1, 17, -31, -48, -1, -35, -34, 44, 48, 48, 32, 10, 14, 41, 24, -26, 43, 25, 47, -49}
, {-30, 21, -5, 30, 9, -42, 28, 3, 52, -45, 19, 41, -39, 57, 54, 41, 11, 44, -10, 7, 36, 26, 6, -48, -45, -31, 2, 54, 61, -37, -45, -2, 31, 37, -28, 5, -39, 17, -12, 14, 49, -42, 23, -18, 59, -6, -4, 7, -2, 16, -50, -16, -12, -8, -44, -20, 53, -32, 32, -17, 58, 3, -3, -5, 25, 54, 5, 21, 59, -53, -50, 11, -27, -13, -16, -55, 14, -29, -33, 53, 3, 60, 7, -49, 19, 0, 26, -53, -9, 0, -23, 32, -32, 60, 57, -2, -2, -61, -60, -23, -16, -36, 26, 52, 8, -16, -41, -37, -47, 11, -39, 27, -10, 54, 35, -56, 31, 20, 38, -6, -15, 46, -55, 38, -36, -9, -21, 11, 10, 33, 47, 36, -15, -56, -17, 21, -36, 15, -50, -29, 64, 2, -49, 12, 5, 60, 8, 27, -26, 49, 9, 59, -13, 59, 33, 23, 16, 35, -5, -54, -31, 63, -50, 39, 63, -52, 0, -58, 13, 41, -37, 41, -31, -4, -35, -10, -61, -19, -29, -19, 27, -13, 48, -34, 27, 21, 56, 1, 10, -40, -49, 18, -41, -17, 6, 58, 29, 5, 25, -12}
, {55, 43, 55, 16, 6, -52, -33, -5, -60, -23, 33, 59, -20, 7, -46, 17, 3, -24, 52, 18, -54, 47, 48, 59, -28, -53, -32, 5, -37, 5, 62, 25, 26, -21, 0, -45, 24, -18, 44, 56, 18, -24, 57, 53, -6, 14, 27, -35, 5, -32, 28, 3, -19, 58, -20, 6, -32, -47, -56, -46, 31, 35, -38, -27, -18, -49, 62, -38, 14, -57, 38, -52, 52, -35, -39, 41, -6, 17, 36, 44, -40, 60, -25, -25, 36, -23, -24, -47, 31, -60, -59, 5, 50, -53, 47, -44, 25, -48, 19, -34, -44, -7, 55, 39, -4, -24, 0, -32, -10, 36, 10, -35, -49, 29, -3, -61, 31, 29, 51, -54, 61, 55, 51, 24, -34, 4, -52, 43, -32, 16, 16, -25, -45, 21, -47, -28, -37, 10, -53, 36, -13, 0, 9, 35, -10, 50, -51, 55, 41, -10, 52, -50, -30, 46, -14, -50, -33, 33, 26, 2, -57, -32, -37, 20, -52, 41, -14, 18, -12, -39, -50, 21, 42, 51, -16, 46, -29, -56, 59, -22, -62, 0, -5, 61, -24, -49, -24, -35, -35, -51, 11, 44, 54, 55, -37, 3, -1, -43, -42, -60}
, {62, -15, -20, -11, 46, -41, 11, -43, 45, -54, 4, -35, -11, 14, -24, -26, -22, -37, -4, 54, -49, -59, -45, 24, -22, -47, 0, -29, -62, -47, 3, -59, 38, 8, -38, -35, 8, 39, 19, 39, 20, -8, 6, 48, -17, 11, -57, 31, 41, -52, 48, 48, -56, 26, -58, 29, 42, 35, 22, 11, 54, 51, -52, 40, 40, 60, 26, -14, -6, 27, 27, 30, -51, -9, 55, 50, -21, 24, 35, -1, -38, 54, 38, 17, 11, -62, 46, 5, -2, 1, -49, 28, 10, -34, -36, 53, 30, 20, 51, 40, -28, -10, 8, 24, 40, 38, 30, 55, -1, 19, -23, -22, -64, -19, 41, 51, 36, -46, -2, 50, -26, 53, 8, 32, 55, -34, 18, -32, 7, -4, 41, 57, 34, -42, 30, 22, -58, -58, 52, 37, -37, 31, 6, 13, 54, 36, -22, -1, 11, 11, 45, 21, 57, 41, -28, 19, -41, 7, 14, 46, 28, 49, -31, -10, 1, -32, 50, 44, 0, -27, -56, 5, -34, 2, 26, -18, -31, -54, -59, -52, -39, -48, 44, -52, 41, 20, 8, -4, 18, 6, 52, 25, -36, 26, -48, -60, -4, -28, 6, 14}
, {-43, -54, -11, 58, -59, -60, 6, 12, 11, 11, 41, 24, -7, 0, -17, -15, 23, 5, -3, -33, 17, 47, -8, 64, 59, -31, -53, -16, -34, 24, -30, 17, -51, -59, -39, -54, -25, 5, 60, 19, 42, -52, 43, 28, 23, -9, -59, 27, 56, 30, 25, -23, -52, 12, 43, 47, 46, 34, -27, 45, 9, -53, 27, 26, 36, 5, 0, -40, 0, -56, 32, 28, 23, 30, -39, 50, 55, -19, -60, -27, 59, -21, -22, -17, 57, 51, 22, 47, -8, 25, 46, -51, -60, -39, -37, -48, -60, -29, 11, -21, 63, 33, -42, -29, -12, -28, -44, 27, -20, -77, -12, 25, 32, 45, -38, 33, -13, -5, 5, 20, -61, -5, 4, 17, 49, 0, 20, 26, 13, -61, -5, -27, 26, -60, -14, -37, -58, -49, -8, -35, 59, 61, 10, 45, -8, -38, -37, -15, 39, -33, 61, -17, 52, 11, -44, 58, -40, 0, 4, -33, 18, -34, 37, -50, -1, 1, -64, 31, 48, 50, -11, 42, 12, 38, 51, 48, -16, 46, -24, 25, 46, 16, -37, -44, -3, -35, -26, 32, -52, -47, -9, -37, -52, 31, 52, 22, 0, -35, 38, -20}
, {36, 47, 1, 24, -42, -35, -10, 33, 44, -48, 33, -51, 60, -20, 1, 30, 31, 65, -16, 5, 35, -45, -19, -28, 57, 15, -43, -38, 7, -50, 54, 29, 3, 0, 49, -49, -12, -34, -17, 58, 15, -7, -4, -61, 58, -29, 46, -39, 15, 22, 3, -34, 49, 28, 0, -4, 54, 42, 51, -20, 1, 33, -32, -19, 13, 25, 31, 12, 54, -38, -14, -38, -10, -31, -24, -17, -48, 22, 30, 11, 40, 13, -45, 41, -29, -14, -1, -14, 50, -17, 55, -28, 30, 36, -9, -32, 23, 46, 28, -36, 59, 7, -53, -22, 0, 55, 26, 26, 60, -22, 39, -33, 34, 43, 30, 34, -49, -6, 40, -42, -26, -45, 37, -2, 27, -47, 26, 45, -31, 51, 10, 59, 21, -9, -22, -14, -1, -42, -52, 26, 19, 42, -36, -51, 57, 1, -1, 6, -18, 27, -5, 46, 59, 59, -46, -15, -63, -31, -49, -38, 49, 47, 27, -55, -37, -59, 24, 26, 44, -47, -7, 0, -31, -18, -14, 43, -14, -81, 55, -23, -48, 33, -60, 50, -15, -18, -7, 43, -9, -46, -6, 19, 61, 2, -18, -44, 56, 48, -59, 48}
, {49, -28, 53, -58, -26, -9, 32, -46, 43, 19, -9, 51, 35, 11, 5, 45, 8, -9, -62, -36, -22, 36, -43, -50, 21, 26, -60, 36, -20, 14, 25, 1, -10, -6, -54, 9, 34, 10, 58, -49, 33, 52, 9, -50, 58, -51, 42, -55, 38, -53, -3, 20, 49, -32, 21, 28, -53, -1, 59, 37, 41, 47, -38, -27, -56, 27, 31, 24, -29, 2, -50, 21, 54, -34, -48, 31, 0, -59, -53, -6, -9, 29, 26, 21, -2, -34, 32, -58, -19, 59, 41, -1, 18, 10, 32, 6, -54, -53, -47, 30, 29, -8, 51, -16, -31, -39, -5, -33, -35, 18, -60, -37, 8, 28, -47, -47, 0, 4, 32, 14, -62, 47, 7, 15, -48, 44, -8, -25, -27, -8, -20, 0, 57, -24, 16, 45, 30, -41, 37, -39, -33, -26, -21, 23, -22, -20, 30, 53, 36, -41, 55, 41, 59, -3, 51, 49, -45, 21, 4, 41, -40, 50, 34, -54, -2, -20, 26, -36, -28, -16, 5, -22, 23, 18, -26, 6, -14, 84, 20, 45, -28, 30, -49, 13, 0, 24, 46, 0, 52, -49, -53, 44, -54, -57, 10, -25, -9, -41, -49, -28}
, {43, 35, -48, 36, -29, 40, -40, 51, 16, 54, -46, 7, -62, 50, -33, 28, -12, 34, -4, -65, -12, 33, 54, 57, 56, -1, 14, -40, 37, 53, -52, 44, 21, -12, -13, 47, 25, 42, 57, -21, -38, 14, 46, 36, 15, 14, -28, 3, -8, 44, 33, -38, -62, 31, -3, 31, 32, 17, 33, 45, -13, 19, -58, -9, -60, 61, -24, -1, -8, 16, 30, 14, 42, 39, -12, -1, -13, -43, 41, 17, 43, -29, -4, 59, 15, 7, 58, -6, -12, -58, -6, -41, 43, -4, -43, 8, 25, -10, 7, 13, -22, 1, 3, 51, 18, 29, 30, -37, -43, 25, 0, -46, -9, -27, 59, 26, 38, 50, 52, 29, -35, -52, 25, 46, -34, 10, 21, -61, 1, -54, -30, 55, 46, 21, 28, 6, -34, 0, 8, 37, -40, 8, -31, 43, 43, -13, -28, 24, -37, 57, 34, -55, 29, -40, 50, 5, -17, 9, -54, -26, 36, -39, -45, 26, 54, -61, -13, -59, -11, -6, -14, 59, 56, 60, -45, -57, -49, 27, 24, 34, -58, -10, -19, 54, -4, 5, 26, 54, 10, 45, 6, -56, 51, 5, 4, 21, 41, 35, -12, -52}
, {17, -35, 6, 8, -44, 8, 48, 9, 14, 45, -60, 2, -40, -59, -2, 51, -16, 35, 48, 4, 11, 13, 45, 48, 48, 0, -60, -22, 43, -46, 60, -21, -57, 4, -30, 13, 60, 5, 3, 49, 52, 45, -55, 10, -9, 18, -15, -40, -30, -30, 4, -21, -20, -54, 21, -61, 29, -11, 29, 25, -57, 46, -2, -26, 52, 28, -30, 49, 47, -26, -48, -44, -14, -62, 24, -31, -34, -15, 33, -3, 38, -44, -52, 39, 37, -33, 52, -51, -47, 2, -12, 55, -36, 19, -40, -11, 55, -8, -10, 1, 10, 4, -29, -28, 29, 0, -100, 16, 0, 70, 22, -28, -23, -37, 39, 27, 55, -14, 21, 44, 6, -34, 3, 75, -48, -36, -55, 15, -12, 57, 0, -49, 54, 38, -3, -21, 40, 48, -18, -21, 16, 22, 85, -16, 39, -22, 4, 24, -17, -8, 2, -52, -17, 15, -49, 55, -22, -63, 2, 1, -38, 45, -20, -15, 28, -7, 40, 21, 27, 57, -14, -11, -62, -60, 18, -24, 20, 113, 55, 4, 42, -2, 12, 59, 30, 57, -4, -55, 51, 0, -53, -46, 17, -13, 18, -7, 16, -14, -15, 0}
, {-3, 2, -34, 1, -54, 47, -37, -24, 24, -20, -43, -20, 59, -23, 31, 43, -19, 0, -42, -65, -7, 19, -41, 13, -30, 10, 21, 32, -27, 47, -6, 3, -35, -46, -48, 10, -18, -5, 48, -36, 36, -9, -3, -21, 22, -35, -13, 59, -50, -8, 56, -41, -32, -7, 17, 31, -6, 41, 3, 54, 30, 14, 35, -19, 32, -47, -54, 4, -52, 3, 59, -49, 31, -49, 27, -2, 23, -56, -21, -37, -47, 47, 42, 19, -61, -13, 56, 11, 0, -21, 49, -40, 35, -12, 35, -18, 19, 41, -8, -19, -34, 0, -50, 51, -21, 2, -12, -35, -52, 59, -54, -50, -41, -53, -60, 3, 42, 13, 52, 5, 25, -12, -45, -35, -21, 45, 31, 5, -7, 47, 58, 43, 9, -38, -38, -64, 39, -36, -54, -55, 56, 40, 14, -40, 21, 8, 6, 50, 49, 40, -18, -4, 62, 32, -28, -15, 48, -28, -56, -58, 26, -42, 13, 26, 34, -20, 34, 43, -39, -63, 0, 57, 10, 60, -61, -52, -61, -30, 35, 5, -6, -1, -13, -55, -5, 46, 22, 9, -5, 47, -51, 50, -32, 35, 37, 33, 35, 35, -27, 20}
, {45, -20, 11, -8, -30, 33, -8, -42, -42, -46, 14, -52, -11, 5, -25, 38, -36, -56, -36, -43, 47, 25, 17, -19, 32, -50, 10, 15, -12, -31, -42, -31, 3, -38, 23, 23, 23, -18, 32, 49, -5, 21, 8, -28, -53, 51, -24, 49, -57, -61, -37, 38, -17, 39, -33, -53, 55, -7, 49, -56, 55, 46, 61, -19, 30, 22, 19, -25, 40, 40, -11, 21, -31, -54, 9, 51, -66, 0, -60, -10, 37, -14, -5, -8, -61, -35, -56, 0, 40, -47, 13, -22, 36, 40, 45, -41, -47, -6, -62, 17, -36, -49, -38, -61, 21, -43, 23, -10, -9, -68, -8, -21, 2, 0, -14, -54, 25, 0, 44, -60, 32, -51, -62, -29, 33, 54, -65, -48, 53, 13, -8, 1, -5, -60, 37, -38, 5, 49, 50, -10, 24, -22, -2, 12, 52, 5, -15, -35, 7, 28, -43, -40, 0, 51, 52, 59, 51, 7, 8, -65, -27, -30, 6, -51, -40, 24, -29, -42, -6, 57, -47, -23, -26, 39, 2, -39, -27, -39, 54, -59, 25, 36, 13, -50, -46, 18, -45, 45, -12, 0, 11, -28, 7, -12, 18, -27, 15, 18, 33, -13}
, {-60, 29, -24, -38, -20, -47, -27, 59, 11, 40, -22, 43, 50, 50, -49, -23, -7, 16, 32, 59, -1, 62, -11, -7, -41, -55, -3, 7, -21, -59, 24, 26, 49, -21, -47, 26, 5, -59, -4, 56, 49, 25, 35, -20, 14, 49, 3, 48, -20, -51, -64, 20, 16, -29, 38, -48, 8, 25, 46, 21, -28, 13, 25, -26, 50, -57, -60, -54, -19, 51, -15, 44, 53, 5, -5, 44, 49, 47, 27, 20, -17, -16, -62, -49, -59, 51, 0, -7, -23, 20, -35, 49, -61, -50, 1, -43, 46, 25, -31, 28, 2, 40, -62, 4, 45, 34, -44, 57, -8, -26, -55, -39, -27, -11, 5, 52, 33, -56, -18, 14, -32, 24, -27, 5, -11, -26, 20, -44, -47, -24, -61, 44, 16, -44, 35, -8, -16, 0, 9, -41, -27, 32, -41, 10, 49, -27, 0, 41, -36, 15, 28, 46, 9, -19, 0, -11, -23, -54, 28, -21, 39, -24, -12, 38, 56, 57, -34, -23, 52, 2, -51, -6, -30, 1, 23, 60, 53, 18, 61, 25, 0, -6, 17, 9, 2, 36, -41, -55, -6, -19, -26, -38, -26, -12, 27, 10, -45, -37, -52, 49}
, {41, 38, 56, -40, -26, 0, 27, 31, 105, -26, -5, 99, 19, 18, 30, 39, -60, -53, 24, 52, -32, 45, -62, 36, -42, 15, -22, -54, -48, -52, 33, -17, -48, 38, 13, 2, 15, -30, 34, -1, -42, 19, -29, 42, -10, 31, 44, 47, -42, -56, 10, -32, -10, -48, -50, 16, 2, 0, 20, 9, 33, 73, -58, -25, -11, -65, 55, 16, 45, 23, -24, -42, -22, 2, 29, 7, 26, 34, 45, 54, -3, -34, 43, 57, -61, -37, 11, -25, 3, -59, 28, 9, -61, -53, -40, -4, 11, -4, -36, 39, 27, -65, -16, 49, 25, -42, -42, -60, -14, -46, 11, -11, -24, -26, 44, 57, 41, -2, 21, 24, 38, -3, 9, -27, 22, 52, -54, 4, -60, -8, 42, -24, -23, -6, -9, -31, -33, -46, -23, -19, -49, 14, 29, -4, 43, -42, 19, 61, 28, -3, 50, -55, -45, 34, -1, -43, -54, 46, 13, -18, -32, -39, 42, -42, 51, -37, -50, 29, -29, -32, -38, -37, -49, 19, 57, 40, 38, -46, 9, -64, -16, -1, 22, 26, 27, 2, -57, 3, 4, -55, 52, 35, -51, 5, -5, 16, -55, -20, 11, -52}
, {34, 45, 37, -29, 24, 54, 1, 43, 5, 39, -14, -19, 40, -61, -56, 29, -32, -47, 39, -38, -39, -56, 23, 59, 53, -8, 35, -38, -12, 6, -57, 29, 17, 11, -53, -20, 22, -22, 13, -13, 51, -57, -5, 8, -36, 1, 15, 29, -1, -14, -14, 9, -51, -5, 14, 19, 34, 22, -62, -63, 53, -60, 51, -25, 57, 17, -37, -57, 50, -17, -10, -39, 57, -29, -22, 3, 41, 14, -51, 46, -38, -36, 40, -36, 5, 6, -32, 32, 19, -33, 29, 53, 5, 7, -25, 14, 47, -16, -56, -26, -22, -52, 47, 46, -38, 9, 68, 2, 64, -30, 4, -63, -21, 11, 42, -4, -55, -33, 58, 18, -62, 45, 26, -54, 30, 51, -54, -36, 10, -28, -40, 16, -44, 28, -21, -18, -47, -47, -44, 8, 27, 47, 71, -16, -40, 47, 7, 47, 50, -29, 34, -21, 27, -59, -4, 34, -35, 53, 60, 2, 0, -30, 3, 47, -22, -21, 18, -8, 56, 3, 54, 43, 28, 2, 12, -46, -44, 27, 16, 43, 57, 43, -36, 24, -40, -59, 48, -38, 38, 2, 10, 26, -35, 0, -12, -15, -35, -7, -29, 54}
, {-44, -61, 24, 42, -28, -22, 4, 24, -48, -39, -17, -5, 21, 44, 25, 48, -55, 37, -33, -32, -30, 0, -1, -61, 51, -58, 49, -35, -25, 57, -64, -27, 39, 59, -40, -22, -56, -43, 1, 50, 33, 21, -18, -5, -35, 32, 33, -38, -44, -60, 2, 36, 11, -33, -5, 56, -4, -62, -36, 50, -28, 36, -9, -12, -41, -58, -60, 60, 26, -40, -40, -28, -17, -18, -58, -27, 23, 55, -21, -30, -29, -28, 54, -12, 37, 24, -46, 27, 26, 25, 56, -8, 37, -19, 33, -1, 45, 14, 1, 33, -25, 42, 27, 59, -2, -51, -46, 49, -46, 11, -21, 57, -13, -48, -7, -60, -21, -15, -14, 7, 31, 7, -30, -41, -37, -20, -44, 46, 13, -51, 9, 22, 46, 51, -14, 31, -16, 53, -3, -7, 26, -3, 3, 25, -49, 56, -5, -32, -40, 53, -60, 24, 10, 58, -31, -7, -48, -3, -42, 47, 51, -1, 16, 45, -49, -56, 8, -59, -21, 9, -59, 6, 48, 19, 3, -17, 15, -5, -37, -52, -65, -63, 35, -39, -60, 26, 49, -56, -42, 26, -56, -39, -12, 25, -55, -37, 0, 12, -60, 56}
, {-48, -44, 35, -3, 44, -4, -59, 51, 8, 38, 5, -7, -19, 4, 31, -57, 1, -23, 9, 47, -41, -61, 21, 39, 37, -34, 23, 27, -59, 49, -4, 25, 47, 20, -6, -49, -50, 54, 23, -60, -29, -60, -20, -23, 14, -51, 29, 55, 59, -7, 51, 55, -23, 44, 51, 2, -50, 47, -14, 13, -10, 36, -41, 53, -58, 59, 28, 10, 26, -8, 21, 29, 9, -14, 8, 35, -23, -32, -20, 2, -47, -39, -9, -10, 11, -6, -37, 25, -11, -45, -14, 1, 21, 23, -57, 31, 47, -39, -39, 9, -35, -15, 37, -39, 1, -50, 41, -28, -12, 1, 17, -33, -36, -9, -23, 3, 27, 57, 5, -26, 34, -37, 9, -62, -1, -58, -54, 56, -53, 44, -32, 48, -59, 20, -6, 38, -32, 0, 50, 3, -36, -21, -16, -31, 40, 30, -52, -23, 4, 29, -6, -1, 0, 21, 11, 55, 35, -57, -62, 19, -12, -58, 42, -29, 1, -32, 16, 58, -10, -38, -33, -6, 37, 28, 0, -63, 10, 47, 23, 56, 38, 0, 45, -52, -27, -28, 56, 9, -16, -6, 22, -13, 60, 20, -28, -17, -60, -56, -22, -58}
, {-32, -59, 49, -2, 38, 19, -27, 59, -27, -3, 47, -32, 30, -49, -35, 1, 2, 23, -29, 36, 19, -26, 47, -11, -30, 38, -23, -32, -14, -58, -12, 51, -32, 11, 29, 15, -62, -56, 26, 27, 1, -43, 38, 13, -58, 5, 60, -36, -18, -30, -4, 22, -31, -26, 31, -32, -62, -35, -49, 45, -10, 22, -29, -38, 0, -39, 39, -4, -12, 13, -30, 0, -2, -57, 11, 12, 48, 0, 38, -28, 59, -42, 25, 31, -16, 46, -58, 41, 15, -45, -41, 11, 21, -62, 59, -48, 36, 22, -44, 4, 44, 51, 43, 10, -49, 46, -57, 17, 36, -51, -13, -63, 51, -56, 47, 45, 23, -32, 34, 1, -34, -10, 48, 34, -55, -2, -59, -15, -9, 48, -50, -18, 29, -54, -19, 46, -25, 15, 49, 12, 2, 30, -20, 45, -3, -7, 2, 42, -39, -22, -5, 42, 23, 3, 22, 6, -21, 50, -39, -32, 10, 24, -11, 34, -9, 27, 22, 36, -43, -36, 53, -45, 18, 13, 16, 11, -56, -60, 21, -53, -26, 4, -53, -58, 44, -50, 17, 26, 32, 36, 26, -53, 6, -13, -12, -5, 12, -50, -16, -16}
, {-15, 53, -68, -18, -34, 40, 31, -16, -55, -15, 54, 33, 4, -41, 47, -58, -2, 20, -50, 3, 18, -59, 3, -7, -48, -21, -49, 18, 10, -47, 43, 4, 37, -50, 1, -22, -49, 11, -61, 19, -22, 52, -17, 20, 11, 20, -56, 41, 56, -66, 14, 16, 5, 27, -26, 42, 4, -32, -29, -56, 39, 2, -21, -40, -58, -34, -6, 36, 48, -20, 50, 16, -55, 23, -61, -26, -35, -31, -39, -17, -58, 27, 61, -12, 40, 27, 27, -25, 16, -62, 8, -49, 31, 0, -43, -40, -31, 49, 6, -26, -63, 42, -25, -30, 58, 27, 27, -15, -52, -18, -49, -37, 24, -59, 12, 15, 51, -23, 1, -24, 45, -36, 54, -7, -47, -29, -19, -23, 7, 50, -28, -33, -58, 17, -22, 23, -52, 9, 47, -11, -27, 28, -28, 58, 43, 20, -12, -6, -10, 3, -73, 38, 10, -67, -39, -24, -28, 36, 59, 32, -27, 25, -57, -48, -25, -60, -37, -53, 56, -56, 42, 42, 19, 35, 39, -27, 16, 11, 14, -39, 29, 52, 47, -33, 0, 15, 6, -35, 10, -30, 46, -38, 17, -33, -57, 52, -5, 44, -41, -29}
, {-54, -49, -2, 52, -40, 47, -19, -16, 34, 24, 50, -39, 23, -8, 10, -44, 47, -55, -63, 18, -5, 8, 39, 10, -30, 51, 9, 0, 14, 13, -53, -30, -45, -33, -58, 34, -61, 7, -19, 10, -1, -19, 28, -29, -45, 7, 24, 59, 41, 46, 35, 16, 0, 20, 36, -58, 20, -16, 3, -42, 31, 8, -1, 62, -8, -24, 31, 25, 56, 59, -5, -32, -59, -44, -31, 1, -12, -33, -34, -20, -26, -41, 18, 59, 38, -31, -52, 47, -64, -12, 45, -23, 44, -21, -6, -21, -29, 50, -45, -10, -33, -15, -20, -29, 54, 32, 56, -21, 44, 60, 46, -34, 52, 48, -47, 18, 26, -16, 4, 20, -9, 5, -44, 26, -31, 0, -24, 24, -23, 64, -51, 59, 7, 53, 24, 2, 12, 50, -31, 38, 71, -54, -15, -43, -48, -39, -9, 57, -53, 10, -64, 6, -45, -37, 35, 41, -59, 41, 55, -34, -36, -59, 36, 38, 1, 50, -44, 57, -12, 10, -57, -20, 29, -20, 24, 15, 33, 0, -39, -6, 27, 11, 8, 11, 10, 39, -33, -41, 12, -4, 24, 55, 57, 8, -52, 39, 37, -11, -13, -37}
, {-12, 36, -57, -55, 50, 18, 51, 41, -53, 45, -1, -29, -57, 39, -10, 11, 33, 33, 47, -15, -49, 18, -47, -38, 45, -7, 16, -12, -4, -8, 53, 54, 25, 54, 56, -16, 15, -10, -53, -8, -55, 27, -5, 57, -7, -38, 44, -17, -57, 23, -3, 1, -65, 13, 4, 51, 19, 29, 0, -62, -51, 50, 58, -55, -43, -46, 33, 57, -19, -64, -60, 16, -31, -42, 50, 51, -20, 22, 46, 25, -24, -13, 25, 6, 0, 29, -10, -60, -27, -56, 38, 31, 24, -41, 42, 1, 39, 58, -14, -38, 29, 30, 4, -24, -25, -46, 26, -32, 9, -48, 17, -12, -56, 25, 40, 14, 37, 49, -52, 8, 41, -11, -7, 70, 26, 23, 48, -14, 61, -18, -1, -29, 4, -10, 48, 30, 0, -28, 43, 59, 6, -60, 37, -33, -4, 20, -51, -15, -42, 58, 32, -61, -56, 11, 50, -64, -20, 54, 30, 33, 14, -39, 30, 9, -9, 1, -57, 53, 10, 48, -5, -45, -32, -30, 29, -20, -53, -12, 21, -6, -5, -37, -4, 24, 11, -51, 44, -31, -1, -50, 35, 0, 2, -23, 14, -27, 24, -15, 3, 16}
, {-8, -23, -53, 7, -38, 67, 38, -45, -23, 9, 32, -7, -30, -32, -36, -2, -55, 55, -61, -9, 15, 2, -7, -59, 34, 2, 9, 66, -4, 12, -49, 35, -33, -26, -47, -8, 42, 50, 49, -35, -15, -5, -28, -43, 23, 75, -13, -26, 7, 17, -28, 37, 28, 49, 51, -22, 52, -25, 21, 32, -8, -13, -52, 33, -36, 0, -57, -65, -20, -47, -59, -17, 47, 53, -8, 10, -43, 31, -10, -2, -60, 3, -33, -29, -15, 0, -3, 23, 51, 33, 62, 19, 1, 41, -57, 46, 43, 49, 7, 34, -16, -41, -22, -68, 66, -23, 48, 24, 20, 54, 14, -25, -48, 24, -24, -25, 6, 22, -46, -2, -50, -13, 47, -12, 38, -17, -40, -45, 8, 38, 22, 65, -13, 50, -20, 1, 50, -1, 4, -9, 25, -30, 48, -42, 20, 19, 47, 59, 50, 4, -30, 12, 57, 49, 55, 6, -14, 22, 39, 14, 54, 37, 39, 80, 51, 8, 0, -27, 30, 25, -6, 22, 49, -27, 37, -8, 31, 13, 20, 18, 95, -43, -50, -36, 51, 6, -13, 35, 35, -25, 80, 41, 37, -6, -51, 42, -32, -57, 14, 86}
, {-1, 6, 11, -34, 41, -47, 41, 57, 51, -15, 43, -6, 9, -24, -50, 17, 7, -20, 64, -20, 48, 54, 45, 14, -51, -23, 19, 9, 15, 13, 20, 29, 55, 41, -52, -9, 51, -51, 25, 60, 58, -57, -46, 45, 12, 46, -14, -62, -39, -17, -30, 39, -18, -14, -51, -37, 44, -28, 10, -22, 4, 28, -2, -44, -34, 4, -24, -13, -17, -10, -22, -5, -57, 6, 3, 46, 59, 52, -24, 35, 42, 26, -6, 57, 51, 5, 49, 8, -29, -25, 42, 45, -44, 36, 43, 24, -38, -1, 37, -27, 28, 55, -3, 38, -46, 11, -43, 49, 59, -35, -2, 6, 26, 22, 18, 34, 14, -32, 50, 14, 16, 3, -15, -12, 52, -23, 41, 49, -6, -38, -19, 49, 13, -27, -60, 6, -39, -41, -43, 17, 46, 37, 5, -40, -30, -58, -59, 20, 41, 36, -66, 58, 47, 24, -14, 0, -47, -45, -34, -14, -23, -58, -60, -43, -54, 62, -32, 21, -39, 34, -50, -45, -34, 26, 52, -19, -23, 43, 24, 22, 2, -21, -20, -22, 52, 57, 6, -53, -17, -3, 45, -5, -18, 22, -35, -5, -33, -3, 19, -53}
, {-39, -50, -17, 7, 28, -16, -42, -19, -36, -32, 7, 57, -46, 3, -50, 20, 60, -41, 33, 34, -5, 60, -20, 46, -26, 18, 27, 23, -24, -44, -57, -64, 58, -21, -34, 33, 26, 24, -16, 19, 2, 49, 42, -2, 43, -28, -3, 30, -57, -7, 23, 19, -10, 20, -33, 51, 0, 39, 23, 37, -32, 45, 55, 55, -53, 16, -62, 21, -32, -14, 31, -56, -4, -41, -61, -58, -9, -49, 23, 42, -15, -10, -53, 4, -25, 50, -13, 49, 26, -23, -40, 54, -7, -25, -27, 47, -55, 23, -1, -23, -48, -30, 46, -44, 8, -63, -48, 31, -45, 30, 56, -24, 31, -39, 2, -5, -51, 26, -25, 15, -5, 12, 42, 8, 33, -66, -18, 30, -48, -28, -11, 26, 4, -23, -39, -22, 22, -9, -40, 7, 23, 23, 62, -20, 36, -35, -35, -56, 52, -4, -29, -29, 25, -21, -31, 55, -3, -38, -14, 0, -54, 10, 18, 0, 61, -37, 47, -45, 27, 33, -59, 59, -5, 55, -16, -5, -21, -35, -20, -57, 8, -30, -62, -21, -32, 24, -20, -26, -12, -35, -13, 27, 57, 3, 32, -11, 22, 9, -18, -46}
, {48, -37, 24, 48, -15, 37, 8, -14, 22, -9, -16, 26, -9, -32, -43, 23, 7, 39, -62, 64, 42, 39, 3, -45, 61, 36, -42, -54, -54, 25, -53, 19, 17, 14, -5, 37, 4, -14, 42, 29, 11, -48, 48, -50, -23, 0, -56, 40, -64, 21, 14, 27, 22, -4, 35, -43, -33, -45, -43, 32, -51, -44, -49, 37, -34, 13, -44, -59, -5, -18, -23, -58, -44, 11, -16, -3, -34, -31, -36, -33, 54, -17, -4, -34, 19, -26, 21, 0, -6, -36, 40, -47, 37, -16, 54, 33, 61, 0, 7, 36, -19, -41, -58, 17, -62, 42, 50, 41, -41, 25, 35, -9, 5, -57, -36, -9, 52, -29, 7, -39, 56, -37, -23, 65, -52, 1, -21, -40, 2, -35, 15, -3, -22, 37, 54, 53, -30, -12, 62, 16, -35, -28, 42, 35, 60, 25, -25, 45, 70, 12, 0, -21, 56, -37, -31, -16, 23, -17, 36, -47, -50, -31, 19, 57, -58, -57, -59, 44, 61, -51, -30, -12, 49, -4, 1, -10, -11, -8, 39, -17, 60, 7, -18, 22, 53, -4, -57, 36, -21, 11, -22, 3, -36, -60, -1, -7, -49, -15, -58, 42}
, {-59, 5, -32, -34, -45, 5, -48, -38, 40, -47, -19, -43, -16, -16, -40, -33, 55, -37, 21, 31, -34, -31, -58, -35, 26, -31, 48, 54, -9, 23, -13, -19, -29, -41, 34, -40, 47, -48, -8, 15, -5, 53, -27, -16, -34, 54, 59, -35, -34, -9, -55, -14, 30, -13, 56, 61, -12, -49, -51, -18, -53, -7, 58, 42, -6, 58, -20, 47, 13, 52, -40, 21, -5, -28, -10, -11, 36, 50, -39, 42, -14, -47, 30, 22, -38, 49, -54, 6, -55, 50, -30, 56, -8, 14, 58, -62, -59, -51, -17, 28, 0, 55, 14, -42, 30, 17, 14, -18, 43, -25, -19, -54, -27, -7, 22, -7, 4, 41, -35, -36, -32, 45, -52, -1, 60, 44, -10, 22, -54, 0, 18, -38, 31, 12, 61, -14, 7, -42, 38, -21, -29, 32, -30, -50, -33, 14, -41, 60, 0, 29, 54, -40, -2, -14, -35, -27, -60, -64, -40, -3, -28, 44, 44, 4, 20, 28, 17, -22, 60, 36, -16, 12, -14, -31, 21, -29, -42, -11, 53, 48, -29, -48, -37, 47, 36, -50, -45, -14, 3, -34, 3, 59, 2, -57, -57, 58, 19, 50, 27, -44}
, {24, 40, 34, 55, 55, 0, -38, 46, -53, -37, 4, -23, -59, -22, -49, 34, 40, 47, 41, 43, -13, 3, 49, -48, -49, -9, 55, -50, -60, -54, -39, 62, 52, -15, 0, 37, -9, -22, 26, -53, -14, -51, -54, 21, -48, 29, 46, -32, -12, -44, 20, 15, 25, 58, -50, -21, 32, 0, 48, 23, 12, -30, -38, -6, -54, -27, 32, -54, 41, -43, 0, -20, -33, -42, -4, 41, -11, 41, -25, -47, 58, 37, 45, -12, 42, -11, -6, -18, 35, -17, 19, 1, 47, -47, -41, 59, 21, 12, 19, 14, 3, -20, 29, 38, 9, 16, 12, -27, -22, -51, -11, -4, 45, 57, 30, 21, 37, 45, 28, 42, -21, 20, 53, 1, -33, -37, -51, 4, 46, 7, -32, -58, 35, 28, 43, -47, -35, 41, -19, -7, -3, 49, -2, -43, 19, 29, 53, -48, 24, 26, 33, 33, -51, -1, 13, 9, -62, 20, -7, -25, 8, 24, 1, 61, -30, -3, 55, 11, -44, -54, 6, -55, -37, 11, -7, 42, 39, -41, 42, -14, 42, -24, -5, 18, -33, -35, 65, -2, 44, 39, -11, 60, -48, -55, 43, -57, 60, -5, -62, -6}
, {-14, 39, -19, 49, 42, 33, 36, -36, 54, -25, -53, 60, 50, -46, -43, 36, -41, -64, -17, -4, -2, 60, -1, 13, -4, 52, -22, -18, 11, 25, 9, -1, 28, 34, 47, 26, 33, 20, 0, 23, -62, 20, -39, 34, -29, 19, 37, 31, -59, -22, 62, 48, -57, 54, -45, -58, -11, -30, -38, -21, 26, -20, -31, 22, 32, 31, -66, -22, 41, 54, -59, 38, 43, 50, 30, -15, 20, 29, 33, -3, -38, 43, 39, -30, 19, -18, -57, -55, 12, -1, -52, 36, -53, -5, -37, 53, 14, -50, 7, -53, -12, -28, 3, 58, 38, -57, -59, -27, -25, 32, -53, 17, -17, 41, -27, 52, -22, 51, -11, -17, 45, 22, -48, 28, -26, 44, 47, -24, -31, 19, -30, -2, -56, -58, 2, 10, 5, 39, 48, -18, -17, -41, -1, -21, -42, 7, 49, 47, 47, -30, -39, 22, 35, -23, 15, 20, -48, 14, 55, 40, 11, 14, 37, -6, 40, 29, -8, 24, -48, 32, -25, -42, 41, 47, -20, 16, 56, 55, 9, -20, 52, -42, -11, -30, -31, 25, 26, -36, 15, -53, 35, 2, 50, 4, -49, 37, 8, -29, 13, -38}
, {8, -37, 40, -33, 10, 26, -24, -12, 59, -56, 30, 24, -13, -15, 46, -10, 27, -48, 24, 42, 32, -55, -25, 46, -41, -11, 43, 45, -57, -40, 22, -46, -48, 47, 24, -24, 43, -72, 19, 59, 56, 6, 19, 52, -54, -59, 52, 48, 11, -25, 13, -49, 5, 29, 21, 48, 33, -30, 36, -34, 14, 8, -12, 39, -20, -16, 7, -10, -36, 39, -32, 40, 55, -36, -35, -46, 13, 45, 34, -50, 58, 28, 29, -39, 9, 56, 32, -45, 4, -6, -20, 56, 14, -63, -8, -41, -3, -57, 44, -21, 50, 26, 41, -57, -36, -35, -22, 9, -10, 31, -25, 54, -43, -28, 16, 42, -30, 7, -16, 3, 46, -8, 37, 14, 0, 28, -15, 58, 54, -17, -26, -26, 7, 43, -30, 50, 52, -19, 43, -16, 53, 36, 19, -31, 13, 27, 2, 4, -20, -8, -51, 29, 53, 0, 55, 10, -21, -26, 4, -25, 33, -25, -57, 68, 36, -48, -18, -5, -35, 7, -57, -4, 38, 1, -17, 42, 55, 39, 52, 38, 25, -13, -60, -27, -42, 50, 21, 46, 11, -51, 46, -8, -52, -7, 17, 41, -38, -55, 29, -51}
, {-62, -1, 40, -38, 1, -55, -15, 58, -62, -13, -2, -40, 10, -28, -6, 42, -54, 1, 45, -86, 13, 1, 11, 48, -6, -19, 42, 0, 34, 21, -7, -27, -35, -64, 4, -4, -40, 17, -56, -27, -58, 35, -37, 7, -1, 7, 37, -57, 31, 14, -33, -51, 35, 9, 0, -30, -38, 16, 1, 37, -24, -33, 25, 1, 13, -22, -55, -51, -17, -56, 4, 17, -45, 33, 46, -46, 36, -22, -1, -5, 10, -58, 36, 23, -53, -52, 10, -37, 0, -20, -46, 59, 37, 46, 3, -37, 0, 5, 5, 23, -2, 9, 40, 33, -45, 11, 14, 6, 2, -66, -38, -27, -23, 57, -46, -52, -48, -53, -27, 42, -1, 6, 36, -64, 0, 24, -54, 14, 21, -13, -44, -87, 40, 59, 59, -17, 45, 17, -16, 9, 15, -47, -26, -13, 7, 27, 38, -35, 30, -20, -44, 50, -14, -1, -42, 27, -46, -20, -16, -60, 43, -59, -16, 2, -63, 15, 48, 62, 54, -59, 10, -31, 61, 30, -55, 35, 13, -55, 54, 26, -71, -25, 21, -30, -32, -32, 18, 24, -34, 15, 35, 42, 58, -7, 1, 53, 3, 15, -11, -51}
, {4, -40, 43, 48, -35, 55, 30, 44, -37, -51, 53, 34, 16, 51, 0, 35, 1, 31, -4, 41, 0, 0, 59, 24, -26, 18, 64, -18, -61, -27, 51, -37, -17, -39, -45, 44, 61, -54, 48, 19, -26, -36, 7, 40, 37, 0, -33, -16, 31, 0, -28, 52, 9, 42, 54, -9, 5, -29, -40, 5, 9, 42, 8, 47, 3, 32, -2, -37, -12, -24, 4, 29, 33, -57, -36, 40, -56, 56, 8, 4, 32, 23, -50, 3, 2, 21, -23, 15, 59, -22, 51, 2, 44, -7, -12, -56, 60, 60, 33, -45, -15, 17, -5, 130, 24, 33, -33, -58, -39, 5, 33, -52, -10, -49, 10, 35, -50, -47, -8, 13, -42, 25, 4, 7, -34, -28, -42, 15, -26, 35, 54, 61, -12, 53, 1, -66, 47, -47, -61, -46, 62, -32, 3, -43, 59, 49, -46, 54, -1, -10, 21, -4, -7, -16, -62, -11, 58, 13, -3, 7, 2, 40, 63, 30, -1, 42, -18, -43, -17, -10, -37, -18, 23, 51, -43, -26, -28, 28, -19, 60, -14, -60, -18, 1, 5, -8, -44, -23, 31, 51, -65, -31, 46, -34, -51, 43, 41, 45, -13, -55}
