/**
  ******************************************************************************
  * @file    weights/fc.cc
  * @author  Pierre-Emmanuel Novac <penovac@unice.fr>, LEAT, CNRS, Université Côte d'Azur, France
  * @version 1.0.0
  * @date    24 march 2020
  * @brief   Template generating plain C code for the implementation of Convolutional Neural Networks on MCU
  */

#define INPUT_SAMPLES 200
#define FC_UNITS 200


const int16_t dense_7_bias[FC_UNITS] = {-2, 0, -2, -4, -3, -2, 2, -2, -3, -2, 0, 0, 0, 3, -5, 0, -1, -1, -3, 2, 0, 0, 2, -2, 2, 0, -4, -2, -11, 4, -3, -3, 0, 0, 0, 3, 2, 8, 9, 0, 0, -2, 0, 3, 2, -4, -1, 0, -5, 0, -2, 0, 4, -4, 0, 0, -2, -3, 0, 0, 4, 7, 1, 4, -5, -2, 1, -3, 0, 0, 1, -2, 0, -3, 0, 0, 3, 2, -5, 2, 3, 5, -2, 0, 2, 0, 0, -5, -2, -1, 0, 0, 0, -3, 0, -3, 0, 0, -4, -2, -3, 3, 1, 0, -2, 0, 1, 2, -1, -1, -4, 3, 0, 0, 0, -1, -1, 3, 1, -2, 0, -4, 0, 0, 0, -2, 2, -5, -1, -3, -3, -1, -4, -2, 0, -2, -2, 1, 2, 1, -7, 1, -3, -4, 5, 1, 3, -2, -2, 0, -7, 0, -5, 0, 0, 0, -6, 0, -5, 0, 0, 0, 0, 1, -1, 2, 1, 0, 0, 1, 2, -1, 1, -2, -4, 0, 0, -2, -6, -2, 5, -2, -7, -2, -3, -2, -3, -2, -4, 4, 0, 0, -1, -3, 1, 1, -2, 5, -2, -2}
;

const int16_t dense_7_kernel[FC_UNITS][INPUT_SAMPLES] = {{45, -15, 37, 16, -15, -51, 50, -33, 47, 57, 41, -45, 40, 8, -16, 23, 20, 40, 57, -64, 34, 34, -4, -51, 28, -55, 43, 39, 46, 39, 23, 62, -23, -9, 45, -11, 21, -55, -1, -8, 37, -60, -10, -54, 53, -38, -22, 6, -19, 14, 8, -48, -40, 43, -44, 49, -35, 7, 26, 0, -44, 33, -17, -37, -17, 45, -44, 50, -5, 28, 14, -54, 15, 17, -54, -40, 35, -36, -36, -10, 27, 9, 33, -58, -52, -36, -39, -28, -10, 44, 15, 12, -16, 19, -45, 13, -59, 8, -61, -16, 6, -42, 27, -51, 45, -16, 14, -41, -61, 44, -55, -31, -42, -10, -13, 16, -53, -2, 15, -24, -61, 39, -37, 12, 0, -21, -50, -5, 52, 6, 10, -23, -1, -32, 28, -60, -19, -11, 25, -46, 42, -36, -57, 62, -3, -35, -13, 42, 56, -9, -22, 39, -39, -37, 14, -37, -30, -25, -54, -43, 43, 29, 7, -25, -16, -65, 44, 34, -29, 5, 11, 20, 22, 35, -21, -15, -61, 41, -25, 44, 49, -50, -61, 23, 53, -54, -33, -20, -49, 29, -48, -1, -26, -42, 56, -26, 20, 59, -15, 53}
, {-30, 60, 0, -17, 49, 49, 61, 51, -3, -27, -17, 58, -52, -56, -32, 52, -46, -25, -27, -14, -17, 58, -42, 50, 40, 20, -24, -35, 53, 5, 54, -15, 59, -63, -5, -6, 18, 59, -33, 11, 31, 8, -35, -36, 20, 49, 41, -55, 14, -8, 14, -22, 29, -19, 44, 62, -60, 48, 46, 42, -7, -37, -13, 43, 36, 51, 5, -37, -8, 2, 23, -11, -54, -18, -34, 33, -63, 21, -24, -42, 36, 26, -14, -35, 4, 23, 59, -19, -23, -45, -27, -28, -53, 4, 38, 4, -7, 3, -6, -31, -49, -31, -53, -57, -39, 14, -61, 17, 59, 27, -52, 30, 27, 25, -12, 48, -2, 24, 1, 0, -39, -5, 53, 47, 0, 61, 48, 32, 40, -1, 45, 5, -48, 24, 6, 3, -14, 3, -38, -52, -12, -22, -48, -66, 31, -39, -25, 35, 44, -32, 24, -44, -21, 11, 38, 10, -14, -42, 35, 34, -27, -60, 20, -6, 59, 13, -1, -14, 50, -37, -41, 0, 41, -49, -10, -5, -25, -46, -46, -28, 16, 10, 41, -31, -2, 37, -14, 6, 41, 36, -32, 61, -53, 10, -55, -4, -53, -56, -49, 18}
, {37, -8, 62, -44, -31, -60, -46, -48, -21, 16, 22, -5, 60, 54, -40, 57, 36, 35, 14, 45, -55, 80, 37, 60, -37, -41, 47, -37, -52, -40, 18, 19, -22, -20, 9, 16, -8, 10, 46, -65, -54, 1, -21, -49, 34, -39, 7, -19, 4, 46, -25, 39, -34, 29, -22, -14, -58, -39, -21, -88, 43, 33, 24, 9, -45, 25, -21, 8, -16, -8, -56, -38, 24, -26, -5, 4, -33, 29, -4, -33, 1, -34, 60, 46, 42, -19, -57, 29, 30, 20, 3, 17, 60, 48, -56, -50, -15, -9, -4, -34, -27, -67, 19, 9, 36, 34, 63, 45, 23, 36, -60, 12, 12, -93, -41, 33, -30, -27, -45, -16, 55, 39, -1, -13, 44, 50, -49, -57, 55, -48, 10, 20, 14, -5, -4, -2, 4, 26, -47, -43, -33, -6, -10, 37, -49, -48, 15, -17, -19, 21, 8, 48, 20, 22, -12, -58, 55, 3, 33, 39, 1, -37, 31, -34, -26, -61, -57, -12, 13, -32, 52, 95, -12, 13, -6, 14, 42, -59, 51, 22, -4, -48, -42, -38, -32, 47, -8, 1, -16, -51, -13, 5, -50, -57, -57, 6, 27, 43, -50, 31}
, {-33, -9, 15, -53, 40, 43, -59, 38, -50, 52, 11, -47, -43, -23, 50, -8, 11, -44, 44, -54, 8, -57, -39, 32, 30, 13, 54, -8, -46, -12, 33, 51, -50, -30, -22, -25, -31, -9, -49, 51, -23, 56, 0, 25, -30, -9, -32, 4, 40, 41, -50, 15, 21, 19, -17, 7, -35, -54, 27, -17, -15, 35, -9, -35, -55, -64, -58, -1, 59, 25, 34, 49, -60, 3, 25, -1, 32, -55, 9, 27, -45, 28, -10, 13, 25, 56, 37, 34, 15, -5, -54, 10, -1, 26, 58, -21, -45, -1, 6, 35, -61, 0, -26, 28, 5, 26, -24, 20, 52, 38, -64, -17, -33, -33, -41, -47, 20, -27, 37, -48, 17, -30, -30, 13, 6, 38, -23, -37, -27, -2, -47, -24, -15, 6, -39, -7, -48, 4, 24, -21, -38, -7, -19, 43, 50, -11, 24, -5, -61, -13, -66, 31, 32, -1, 56, 26, -19, 34, -59, 25, 24, -20, 5, -18, 16, 22, -44, -47, -11, -13, 44, 34, 33, 46, 57, -13, 49, 49, 56, -40, -18, -61, 20, -57, 29, 22, 10, 58, -10, -26, 26, -21, -23, -10, 5, 53, -17, 39, 14, -52}
, {31, -25, 8, 43, 18, 52, -29, -50, 21, 28, 19, -47, 26, -4, -4, 39, 60, -58, 22, 12, -5, 15, -5, -61, -40, -59, 12, 25, 21, 9, 34, 7, -49, 43, 32, 6, 55, 44, 33, -15, -8, -2, 55, 61, -31, 18, 8, -26, -8, -43, 23, 41, 31, -6, -30, 22, 39, 50, -54, -20, 35, 24, -45, 34, 40, -55, 47, 1, -43, -48, -1, -45, 52, 25, 40, -4, -25, 49, 56, 0, 61, 27, -21, 20, 57, 29, 56, -52, -29, -48, -10, 29, 9, 40, -51, 22, -47, -2, -10, 30, -19, 37, -18, -50, -39, 50, 52, -5, -32, -55, 9, -21, -3, -48, -19, -23, -22, -24, 8, -59, 26, -24, -57, -56, 9, -25, 40, -60, 0, -57, -63, 7, 44, 43, 50, -12, 3, 50, 20, -59, -51, -55, -58, -31, 46, 1, -22, 2, 15, -1, -6, -20, 2, 24, 65, 27, -1, 12, 54, 14, 38, -56, -8, -15, 45, 60, -17, -2, -47, -45, -34, -7, -31, 49, 41, -63, 32, -2, -45, -29, -25, 34, 41, -10, -38, -23, -5, 27, -47, -56, -15, 25, 0, 9, 46, -53, 59, -20, -40, 3}
, {53, -44, -39, -8, 20, -35, 32, 1, -39, 8, -47, -4, 33, 53, -17, 1, -1, -23, -46, -37, -56, -47, -21, 19, -41, 19, -41, 7, 39, -47, -42, 0, -40, 5, -7, 52, -8, -38, 55, -24, -30, -7, 38, 53, 8, -10, 21, 24, 34, -42, -43, 39, -15, 14, 16, -38, 20, -59, -18, -60, 8, -56, 53, -17, -1, -24, 0, -35, -8, -10, 55, -23, 30, -9, -38, 27, 48, 52, 25, 56, 34, 43, -44, 54, 31, 56, -10, 14, 36, 32, 59, 18, -46, 18, 36, 60, -19, -48, -21, 52, 50, 5, -24, 19, 15, 39, 36, -50, -8, -45, -6, 33, 27, -11, -40, -6, 44, 60, -35, -29, 34, 24, 5, -60, 4, -63, 1, -43, 50, -13, -23, -21, 8, -3, 26, 33, -59, -17, -44, -54, 44, 53, 57, -1, -48, -42, -32, -45, 24, 52, 41, -12, -6, -2, 25, -32, 29, -49, -45, 11, -12, -39, -1, 22, -64, -43, -24, -1, -65, -36, -15, 38, 20, -57, 56, -42, 28, 28, -46, -32, -95, 53, -59, -42, 53, 26, 35, -49, -26, 17, 59, 43, -41, 21, -9, -22, 47, -31, 17, 10}
, {39, -2, 47, -60, -11, -42, -18, -12, 0, 18, 52, -24, -52, 39, 35, 30, -43, -56, -36, 20, 67, 28, -17, -46, -21, -50, 0, -16, -33, 30, -3, 19, 2, -31, 57, 17, 2, 8, -33, 42, -5, -15, -15, -52, -1, 9, -26, -23, 23, -65, -16, -59, 2, -3, -29, -4, -56, 9, 24, 24, 39, -43, 48, 22, -50, 10, -54, 3, -5, -44, -43, -22, 15, 48, -22, 11, 37, -35, 25, -20, -25, 13, -3, 56, -50, -30, 46, -60, -48, -45, -26, 54, 7, 1, 65, 21, -43, -46, -61, -59, -26, -38, -35, 27, 16, -19, 51, 30, 40, 61, -59, 37, -6, -16, -40, -9, 62, 24, -60, 32, -23, 41, -62, 2, -8, 16, -51, 41, 37, 1, -25, 57, 58, 46, -43, 40, -13, -25, 61, 27, 18, -6, -17, -1, 59, 37, 22, 35, -42, 57, -36, 21, -23, -54, 17, -31, 56, -64, -47, 60, 3, 51, 21, 8, 59, -30, -2, -47, 52, 31, -5, -40, 61, 23, 60, 53, 46, -12, 49, -59, 88, 15, -42, -10, 60, -12, 24, 48, -46, 1, 34, -35, -62, -29, -20, -15, -47, -23, 7, 26}
, {35, 17, 36, -25, 47, 10, 29, 16, 24, -19, -10, 23, -1, 25, 52, 60, 50, 8, 24, 11, 44, 35, 30, 27, 47, -35, 41, 2, -8, 15, -23, -3, 19, 40, 5, 61, 32, 52, -14, -72, -45, 58, 42, -43, -54, 15, -38, 0, 15, -39, -51, -46, -10, -43, -8, -50, 56, 27, 58, 31, -46, 43, 47, -37, 0, -10, -49, -31, -46, -38, -25, -45, -52, -53, -51, 26, 59, -14, 3, -34, 29, -2, 24, 9, -32, -5, 47, 59, -26, -38, 28, 16, -11, -17, -4, -56, -57, -20, 33, 10, 30, 50, 40, 60, 0, 44, 52, 5, -33, 50, 25, 49, -28, -69, 27, -32, -61, -29, 37, 2, -47, 5, 22, -23, -50, -61, 4, -47, 21, -51, 8, -42, -2, 0, 40, -33, -5, 62, 20, 22, 29, -10, -20, 35, 49, 54, -3, 14, 45, -31, -23, -43, 3, -37, 24, 23, -18, 14, 24, -4, 4, 8, -8, 44, -33, 37, -13, 18, 26, 51, 34, -24, -21, 19, -26, 58, -10, 63, -28, 41, -85, 62, -37, 2, -60, -37, 25, -31, 20, 50, -31, 21, -58, 30, 41, -38, 18, 54, -29, 0}
, {26, 29, 0, 46, 38, -43, 24, -63, 21, -48, 27, -1, -62, 12, -37, 15, -44, 20, -40, 24, -12, 82, 0, -29, -15, 39, -20, 10, 70, 57, -22, -16, -41, 36, -45, 27, 43, -45, 26, -51, -8, -29, -45, 30, -19, -57, -48, 42, -22, 45, -8, -56, 4, 56, 56, -12, 44, 31, -51, -11, -58, -9, 48, 22, 18, -20, -51, 32, -58, -34, -60, -21, -46, 44, -15, -14, -1, -43, 50, -61, 41, -33, 1, 60, 0, 0, 43, 15, -33, 25, 50, 38, -33, -54, -27, -43, -36, -34, 26, -6, -5, 57, 56, -32, 33, 36, 33, 15, 17, 26, 48, 20, 4, -77, 37, 40, -9, 20, 35, 24, 18, 51, 33, -46, 66, 29, 12, 2, 7, -37, -62, 18, -8, -51, 9, 4, 13, 22, 45, -19, -24, -31, 64, 16, -35, 25, 7, 55, -17, 5, -58, 53, -32, 25, -14, -2, 33, -59, 0, 40, -53, 32, 30, -39, -38, 50, -26, 42, 40, -44, 31, -17, 53, 15, -57, -13, -22, -35, 59, -20, -28, 1, 25, 22, -8, 18, 15, -4, -57, 38, 44, 9, 54, 1, 41, 33, -26, -4, -52, 0}
, {49, -31, -39, -63, 28, -53, -24, -67, -22, 28, 11, -3, 22, 35, 58, 2, -45, 2, -2, 9, -69, 13, -41, 12, 12, -53, -19, 42, -37, -4, -53, -37, -15, 37, -38, 48, 41, 19, -15, -8, -18, 30, 14, -4, -29, 48, 61, -35, -59, -61, 32, -28, 11, 10, 47, 45, 26, 46, -12, -46, 48, 47, 38, -56, -51, -27, -3, -60, 20, -30, -3, 6, -42, -5, -13, 62, 32, 47, 48, -54, -24, 38, 8, -32, 59, 25, -56, -31, 58, 28, 49, -9, 29, 59, 44, -50, -40, 4, 0, 0, -6, 55, 40, 52, 6, -48, -54, 49, 11, 33, 21, -2, -11, -64, 28, -48, 13, -27, -34, 60, 5, -35, -58, -8, 31, 8, -56, -80, -36, -7, -45, -59, -25, 34, 33, -4, -19, 40, 59, -87, -4, 9, 47, 34, -32, 24, 15, 29, 18, 3, -24, 34, 57, 53, -23, 49, 37, 22, 19, -14, 53, -13, 68, -58, -7, 30, 40, -59, 42, -33, -37, -13, 62, -43, 23, 10, 25, -22, -13, 31, -8, 61, -41, 52, 31, 32, -25, 14, 4, -38, 35, 38, 24, -52, 4, 54, -61, 14, 22, 24}
, {47, 33, -36, 0, 30, 21, 17, -21, 8, 34, 15, -20, -19, 10, 4, 17, -41, 54, 46, -15, -26, 33, -23, 41, 11, -5, 1, -34, -51, -37, -2, 8, 5, 53, -3, -67, -8, 8, -55, -7, -48, 18, -25, -53, 18, -40, -41, -43, 60, 55, -39, -48, 19, 39, -19, -18, 17, -20, -58, -30, -6, -60, -10, -27, -4, 63, 52, -59, -26, 24, -47, 13, -31, 55, -42, 11, -22, -8, -20, -56, 33, -33, -54, 33, 31, -27, -24, -50, 20, 40, -23, 40, 50, 55, -35, -37, 59, 30, -56, 0, 32, -29, -46, -23, -36, 31, -62, -7, 11, -26, -22, 44, -52, 83, 30, 7, 23, -5, 38, 37, 55, -22, 35, 37, -46, 19, -23, 53, 44, -14, -12, 36, -54, -14, 66, -51, -10, 10, 56, 5, -44, 44, 0, 37, 28, -28, -11, -61, 14, 25, -37, 46, 60, 22, -40, 43, 2, 7, -37, 32, -16, 10, 54, -54, -1, -22, 38, 49, -41, 47, -37, 6, -3, -60, -53, -65, -4, -31, 42, -21, 79, -25, 45, -22, -39, -54, 18, 22, -41, 35, -64, 1, 19, 9, 52, -30, 64, 51, -60, 23}
, {34, -2, 36, -62, 0, -7, 17, -60, 53, -41, -39, -28, -11, 4, -53, 35, -8, 41, 33, -36, -11, 48, -29, -8, 5, 10, 28, -11, -25, 49, -21, -52, -19, -48, -22, -40, 0, -6, 55, -61, -20, 15, -39, 12, -3, 47, -48, -15, -25, -54, -37, 23, -11, -41, -44, -25, -50, 51, 57, -34, 58, 61, 41, -38, -40, -7, -58, -42, -21, -30, 28, -13, -32, -46, -43, 22, -41, -10, -12, -2, 6, 4, -20, 24, 43, -30, 50, -1, -3, -47, -47, 24, 16, 62, 21, 13, -55, 5, -23, 9, 26, -35, -13, -11, -25, 41, 55, -30, -33, 10, -34, 46, 27, 19, -21, 57, 29, 6, -61, 2, -29, -38, -55, 59, 20, 27, 31, 29, -33, -31, -13, -49, -32, 33, -22, 30, -17, 8, -42, -18, -56, 42, -5, 43, -49, 1, 47, -60, -28, 60, -19, 17, -11, 0, 30, 31, -36, 25, 11, -44, 6, -8, 33, -12, -36, -25, 31, -28, 9, -27, -54, 4, -52, -24, -10, -35, -23, 47, 0, -40, 16, -6, 51, 61, -53, 18, 28, -49, -40, 55, -5, 1, 19, 12, 38, 30, 0, 28, 14, -4}
, {0, -42, 14, -57, 50, 20, -50, 25, 5, 12, 58, 26, 28, -6, -16, 48, 60, 24, -2, 43, 13, -33, -55, -4, -61, -31, -32, 59, -62, 4, -42, 39, 12, -56, -59, -14, -20, 29, 45, -8, 55, 50, 11, -14, -15, -30, -12, 46, 2, 61, -26, 36, 52, 46, 40, 59, -34, 12, 45, 41, -51, 18, 13, -25, -47, -14, -17, 0, -12, 47, -60, 33, -5, -49, -24, -31, -47, 61, 12, 11, 44, 24, -30, 50, -22, -40, -26, -33, 58, 35, -58, 52, -14, -39, 30, -13, -2, -35, -56, -10, -33, 10, 24, -49, -36, -29, -36, 60, 19, -36, -42, 12, 23, 0, 11, 49, -10, -4, -29, 10, -10, 51, 13, -33, -23, -23, 49, -1, 3, -15, 8, -61, -25, -33, -6, 10, -58, 41, 42, 33, -8, 46, -48, -34, 55, 62, -45, -57, 4, -10, -11, 54, -6, 7, -46, 20, 40, 34, 2, 12, 15, 16, -4, -51, 58, -61, -8, 54, -55, 60, 2, -61, -2, -2, -41, -53, -41, 41, 1, -57, 22, -61, 37, 25, 27, 14, 12, 7, 19, 56, 29, -9, 61, 6, -30, -5, -26, -51, -31, 51}
, {-53, -13, -33, 29, 35, -45, -49, 55, -21, -19, -22, -3, 18, -6, -61, 31, -32, -54, 35, 55, 40, -43, -24, 55, -21, 51, 40, 41, 11, -53, 65, 13, -35, -37, -47, -29, 45, 54, 10, 46, 9, 21, -32, -5, -8, 14, -43, 22, 53, -48, -57, -1, 39, 61, -12, 50, 28, 3, 49, 54, -52, 4, -7, 50, 48, 18, -50, 4, 54, 30, -27, -11, 29, -13, 16, 44, 12, 1, -46, 65, -22, -31, 30, 26, -32, -64, 60, 57, 39, -60, 38, 6, -54, -48, -39, 54, -30, 9, -62, 9, 12, 9, 33, -7, -40, 16, -51, 42, -62, -46, 58, -66, -16, -22, 45, 16, 21, 6, 57, -52, 22, 3, -44, -32, 40, 11, 46, 53, -36, -17, 47, -19, 19, 3, 51, -7, 1, 57, -22, 22, 36, -24, 0, 1, 2, 48, -19, -16, -8, -21, -66, -47, -31, 19, 42, -53, -31, 66, 31, -56, -45, -28, 24, 12, -61, -10, -36, 18, 21, 35, 17, -17, 53, -29, 56, -25, -48, -48, -13, 62, 40, 38, -27, -2, 18, 52, 13, 38, -7, -47, 30, 55, 56, -43, 8, -55, 60, 1, 55, -40}
, {2, 37, 9, -50, 20, 26, 41, 37, -20, 19, -22, 43, -53, 19, 1, -30, -56, -46, -14, -56, -6, -42, 17, -17, -65, 36, 36, -10, -30, -36, 38, 55, -56, -19, -66, -1, -43, 46, -20, 18, -8, -23, 41, -61, 41, -50, 43, -17, -5, 21, 41, 5, -61, -16, 0, -16, -64, -23, 37, -49, 14, 49, 47, 25, -24, -52, -61, -28, 4, -36, 25, -11, -31, 33, -39, 15, 8, 48, 30, -45, 2, 50, -40, 34, 11, -32, 55, 43, 4, -24, 20, 46, 39, 43, 32, -32, 58, -62, -18, 56, -30, -7, 9, 22, -2, -11, -29, 5, -17, -11, -36, 27, 25, 14, 25, -2, -57, 20, -1, 54, -66, -1, -54, 24, -20, -11, -60, 61, 46, -12, -26, 39, -1, -37, 25, -38, 21, -57, -40, 53, -32, -42, -9, -36, -48, 6, -24, 36, -58, -22, -19, -65, -45, -36, -50, -36, -54, 12, 16, -26, 25, -46, 39, 32, 31, -7, 7, 15, -5, -61, -26, 44, -46, -28, -6, 29, -46, 4, -5, -22, 47, -38, 57, 41, 0, 48, -57, 45, 32, 51, -59, -4, -5, 44, 6, 32, 29, -32, -15, 36}
, {-20, -7, -34, 4, -60, 54, 31, 15, -59, -43, -58, -50, 13, 7, 13, 54, -45, 9, -61, -12, 45, 46, 38, 59, 34, 58, 41, -59, 31, 34, -57, 53, -3, -50, -28, -51, -38, -20, 59, -27, 17, -55, 5, -56, 41, 57, -4, -23, -49, -42, 39, 30, 12, -30, -61, 35, -54, -44, -10, -43, -59, -20, 42, 42, -52, -12, 19, 46, 1, 12, 52, 10, -41, -9, 22, -29, 56, 17, -20, 27, -4, -45, 0, 26, -39, 6, -14, 4, -61, -19, 32, 44, -3, 38, -22, -7, 50, 30, -47, 14, 34, -17, 14, -23, 23, -47, 2, -30, -34, 36, 56, 37, -28, 45, -48, -3, -36, -58, 46, 28, 22, -62, 8, -15, -28, 37, -40, 40, 38, 52, -51, -21, -34, -7, 18, 24, -20, -16, -19, 54, -33, 41, -53, 28, 23, 0, -34, -29, 31, -62, -10, 55, -38, -29, -25, -29, 1, -33, -28, -39, 38, -28, -59, -16, 53, 49, -19, -49, 58, -59, 18, 35, 57, -26, 47, -24, 42, -32, 28, 31, 48, -8, -25, -6, -54, -33, -6, 31, -43, -41, 35, 22, -29, -12, 34, 17, -40, 21, 9, -25}
, {52, 29, -48, -64, -8, -52, -12, 38, -46, 48, 51, 38, -53, 0, 2, -18, -38, -13, 30, 0, 70, 77, 18, 55, 0, 44, 24, 28, 21, 5, 47, -64, -54, 47, 52, 39, 8, -52, -49, 68, 21, -25, 56, -23, 23, 24, 18, -47, 38, 44, -59, 5, 27, -46, 36, -25, -4, 21, 62, 67, -5, -21, 0, 23, -53, -20, -34, 34, 24, -54, 48, -58, -8, -55, 33, 13, 38, -22, 47, -34, -5, -3, -10, 32, 1, 6, -44, 14, -35, 13, 54, 3, -64, 16, 22, 6, 21, -32, -18, -51, -42, -41, 25, -34, 37, -28, -34, 5, 35, -44, -28, -48, -52, 28, 69, -27, 59, 28, 53, 52, -59, -47, 40, 11, 10, -58, -3, 41, 31, 38, -39, 14, 44, 24, 45, 69, 24, -29, -47, 3, 60, -23, 5, -61, 12, -1, 56, -2, -17, 24, -15, 13, 21, 30, 34, -35, -16, 12, 20, 29, 58, -11, -51, -60, -17, -7, -23, -58, -27, 25, -6, 0, -40, 52, -37, -4, 58, -1, 19, -31, -26, -44, -31, -26, -36, -59, -24, 0, -56, -23, -41, -20, 27, -31, 48, -5, 45, -37, 40, 53}
, {64, 43, 34, -57, -7, 10, 45, 52, -37, -34, -55, 47, -36, -62, 32, -15, 38, -47, 55, 27, 29, -20, 19, -55, -30, 17, -39, -41, -10, 34, 40, -50, -60, 0, -21, 8, -15, -53, -48, -59, 12, 20, 2, -31, 47, -8, 55, 20, -33, -58, -25, -34, 24, 40, 30, 59, 23, -54, 4, 26, 14, -36, 46, 44, 36, 5, 28, -60, -42, -49, -25, 17, -55, 12, -21, 42, -43, -57, 14, 4, -18, -26, 29, 26, 42, 40, 21, -61, 29, 4, 33, 32, 41, 49, -58, 38, 26, 24, 37, 19, -61, -20, -21, 12, 17, 44, -59, -35, 32, -44, 12, 50, -50, -23, 42, -49, 18, -18, -72, 59, 58, 25, 34, 10, 0, -24, -39, -9, -49, 19, -14, 20, 16, 31, -38, -39, 52, -17, -59, -29, 0, -34, -44, 36, 42, -22, 46, -19, -62, 44, 35, -28, 57, 10, -45, -46, -36, 14, 56, -31, 59, 36, -22, -37, -2, -47, 0, 18, 6, 23, -1, -65, 14, -61, 52, 29, 8, 1, -47, 10, 3, 35, 1, 8, -5, -28, -44, 30, 55, -30, 2, -53, -50, 49, 48, 55, -36, 19, -26, 17}
, {4, -64, 30, -65, -24, 32, 27, -36, -65, -26, 25, 4, 36, -9, -18, 32, -31, -22, -25, 2, 0, 45, 56, -49, 21, 2, 25, -40, -64, -57, -17, 29, -22, -26, 10, -35, -21, 38, 61, -59, 46, 32, -23, -31, -23, -16, 50, -3, 40, 6, 59, 25, -10, -15, -33, 16, -57, -12, -9, -46, -34, 61, -39, -2, -22, 0, -44, -27, 2, 8, -6, 59, -36, -29, 38, -4, 17, 29, -43, 12, 23, 11, -44, -9, 39, 56, 58, -58, -15, -21, 57, -19, -54, -27, -18, -44, 46, 51, -19, -51, -41, -22, 13, -28, -18, -40, 38, -27, 30, 8, -26, 4, 52, 46, 17, -45, -54, -49, -14, -12, -58, -40, -22, -8, 49, 45, 38, -39, -22, 42, 1, -28, -30, 40, 34, -35, 48, 32, -19, -3, 58, -48, -21, 2, 21, -38, -62, -14, -7, 15, -13, 1, 33, -14, 22, -20, 31, 22, 7, -4, 27, 29, -4, 59, 35, 59, 16, -61, 19, -35, -17, -48, -25, -57, 16, 5, -41, -28, -3, 58, 18, 32, 22, 0, 21, -50, 25, -60, 7, -27, 48, -7, 37, 0, -2, -41, 8, 26, -15, 14}
, {52, -31, 41, 7, 19, -33, 20, -30, 33, -15, 24, 28, -5, 0, 41, 20, 12, 6, 27, 31, -2, 70, -3, 13, 11, 20, 49, 1, -36, 55, 45, 30, -47, -52, 34, 56, -45, 18, 44, 18, -3, 52, 55, 12, -21, 22, 43, -52, 55, -27, -11, -2, 3, 51, 17, 29, 10, 38, -36, -10, 50, -47, -38, -1, 11, -60, 23, -56, -47, -37, 33, -56, -29, -49, 37, -57, 22, 48, 61, -35, 7, -10, -55, -4, -30, 18, -54, -42, 51, 31, 58, -18, 48, 13, -14, -15, -11, 46, -61, -18, -43, -2, -43, 52, 24, 43, -52, 11, -35, 45, 42, 44, -23, -23, -55, 29, 57, 36, -19, 60, 7, -39, 23, 24, -45, 56, 5, 7, 44, 46, 24, -51, -19, 47, -54, 17, -60, 30, 42, 56, 5, 37, 58, 34, 58, -12, 53, -45, -38, -38, 51, 61, 9, 36, -3, -11, 3, -41, 18, -3, -21, -46, 52, -41, 51, -52, -36, -7, -35, 22, 23, -44, 57, -26, -23, 40, -43, -56, -27, -22, -56, -28, -1, -13, 10, 15, -24, 19, -43, -16, -47, 25, 36, -54, 5, 42, 52, -19, 35, -46}
, {2, 21, -12, 30, -50, -57, -44, -75, 58, -21, 51, 58, 5, -40, -49, -45, -22, -19, 30, 22, -66, -41, 49, -9, -3, 52, 8, 41, -57, -40, 26, 28, -30, 10, 42, -7, 54, 8, -39, 16, -16, -31, 26, -56, 3, -33, 38, -25, -11, -49, 22, -50, -27, -66, -45, 92, 44, 21, 46, -4, 19, 41, 28, -27, -5, 51, -40, -47, -34, -57, 0, 44, -4, 26, 56, -52, 32, 9, 36, -17, 2, 100, 22, 48, 5, 25, -53, -37, 20, 47, 42, -42, 5, 33, -47, -16, 60, -17, 36, 36, 4, -67, -37, 59, 31, 26, -47, 57, 0, 37, -62, -49, 33, 7, 36, -50, 31, 63, 65, 29, -43, -47, 38, 3, 21, 12, 53, 33, 5, 13, 24, -24, -37, -60, 56, -13, 13, 32, -22, 3, 17, -52, 82, 39, -54, -6, 25, -14, 10, 50, -40, -19, 29, -20, -42, 62, 0, 20, 69, 43, -21, -16, 44, -49, -21, -76, 76, -37, 15, 62, 13, -29, -11, -3, -21, -64, -58, 50, 21, 7, -6, -34, 30, -3, 56, -33, 37, -20, 84, 0, 49, 8, -12, -47, -59, -2, 51, 53, -6, -59}
, {-2, 14, -8, 0, 16, -55, 23, 1, -48, -33, 33, 11, -15, 19, -51, -51, 7, -13, -32, -39, 51, -1, -34, 11, -13, 47, 5, 26, 39, -33, -1, 24, -8, -34, -14, -27, 27, 50, 19, -8, 43, -7, 8, -30, 23, -18, 2, 25, -57, 5, -58, -24, 27, 22, -28, 14, -39, 21, -10, -53, 49, 16, -16, 27, -1, 30, -57, 19, -47, -1, 44, -45, -40, -29, -56, 39, 43, 16, 6, 41, 10, 10, 43, 23, 62, -15, -30, 15, 31, 23, 11, -53, -36, 32, 8, -16, 40, -29, 29, -26, -15, 13, -22, 0, -30, 10, -36, -54, -58, -20, 8, 0, -34, 33, -55, 49, 34, -1, 2, 27, -32, 50, -50, 15, -29, -51, 9, -58, -23, 49, -62, -35, 39, -46, -23, 0, -7, 20, -43, -4, -34, 30, -42, -16, -8, -22, -27, -44, 61, -26, -35, 5, 48, 3, -23, 39, 15, -10, 18, -13, -13, -32, 33, -20, 57, 51, 54, 58, 21, -61, 21, -46, -48, 39, -30, 17, -4, -1, 34, 36, -11, 17, 55, 20, 59, 29, -11, -41, -45, -60, -5, -48, -36, 61, -21, -20, -20, -57, 15, 61}
, {-37, -38, 56, 44, 25, -1, 14, -46, -33, -42, 34, -50, 9, -61, 0, -13, -35, 22, -51, 8, -18, 36, 32, -31, 1, 33, -19, 4, 0, 16, -30, -43, -19, 38, 16, -58, -3, -39, -2, -20, 13, -56, 60, 13, -57, -57, 5, -46, 21, -49, -6, 28, -8, -31, 51, 50, 21, -6, 43, 61, -16, 2, -46, 31, 31, 41, -42, 53, -13, -7, -30, 45, -24, 48, 20, -50, 38, 46, -14, 26, 52, -40, -30, -14, 51, 0, 59, 48, -47, 27, -16, -31, -18, 4, -19, -17, -34, -19, -45, 18, 32, -41, -1, -14, -5, -66, -16, 56, 55, -48, 59, -55, -41, 0, -19, 52, 58, 22, -17, -29, 9, 49, -55, 4, -35, -7, -19, 60, -53, -3, -41, -11, -9, -18, 0, -53, 60, 4, -12, -58, 55, -29, 9, -31, -23, -14, -8, 7, 20, 43, -17, -12, 23, 24, 12, 20, -26, -60, 22, 1, -58, 16, -9, -43, 19, 67, 48, 2, 33, -6, 58, -39, 40, 25, 45, -4, 25, -55, -43, 33, -18, -40, -42, -6, 27, 32, 14, 16, -49, 15, -2, -17, -20, 9, 17, -42, -14, 50, 27, -26}
, {2, -19, 7, -1, 57, 29, 6, -28, -53, 20, -35, 51, 37, 6, 9, 29, 17, 31, 11, 6, 16, 39, 10, 14, -11, -60, -16, 23, 17, -23, 54, -6, -55, 25, -39, 9, -2, 30, 59, -1, 15, 11, 31, -50, -39, -27, -38, 40, 16, -18, 46, -47, 52, -10, -22, -59, -36, -49, -36, -14, 58, -25, -10, -55, -53, -24, 7, -49, 18, -35, 46, 58, -15, -34, -56, 12, 52, -38, -21, 33, -65, 11, -39, 57, -38, -9, 13, 8, 28, -39, -9, -7, -3, 47, -9, 42, 48, 37, 11, -21, -14, 2, -58, 54, 34, 2, 40, -35, 0, -32, -2, -54, 20, -60, -61, -54, 48, 22, -31, -22, 56, 7, 22, 5, 39, 53, -9, 21, -57, -12, 8, -49, 53, -5, -51, -8, -12, 47, 29, -64, -7, 57, -42, -11, 1, 2, 46, 59, -7, 11, 27, 38, 22, 11, 26, -53, 48, -15, -27, 23, -38, 19, 21, 21, -30, 22, 35, 22, 4, 40, -6, -25, -15, -21, -34, 37, 17, -34, 0, 57, -7, -54, 6, 17, 19, 43, -60, 37, 26, 10, 8, 12, -56, -38, -21, 59, -17, 28, 10, 36}
, {-7, -43, 5, -51, -1, 55, -26, -23, 49, -32, -19, 50, -25, 45, -31, 51, -32, -16, -6, -55, -5, -18, -54, -25, 32, -9, 15, -61, 2, 27, 55, 43, 52, -16, -37, -20, 54, 48, 52, 34, 2, -51, 69, 8, -46, -17, 18, 48, -7, 48, -35, -29, 44, 55, -36, -22, 0, 37, -32, -25, 52, 16, 40, 64, -38, -45, 70, -27, 10, -7, 45, 17, 38, -5, -53, 6, -44, 42, -12, -13, 69, 40, -51, 13, 6, -1, -4, -2, -19, 21, -13, 18, -9, -19, 63, -30, -30, 65, 56, -19, 44, 57, 42, 47, -18, 19, -22, 59, 26, 20, 21, -45, -23, 50, 40, 55, -13, 11, 38, 41, 4, -28, -13, 18, 4, -58, -22, 13, 29, 60, -42, -29, -48, 67, 29, 5, 10, 67, -47, 39, 70, -22, 44, 4, -26, 7, 50, -50, 6, 40, -3, -3, 50, -16, 35, 23, -23, -50, 7, -7, 1, 35, -6, 19, -45, 15, 54, -34, -32, 15, -3, 61, 26, 43, -54, -22, 9, 10, -10, -42, 45, -35, 47, -40, -25, -33, -58, 44, -35, 27, 68, 4, -2, -18, -42, -47, -4, -55, 25, 22}
, {4, 49, -11, 2, 38, 17, -54, 26, 11, -59, 11, 14, 57, -24, 29, -50, -62, 20, -55, -4, 22, 83, 40, -48, -58, -52, 60, 24, -46, -9, 42, -2, -9, 0, -58, 15, 28, -55, 5, 29, 19, -37, 23, -54, 31, -35, 11, -19, -24, 54, 21, -2, -27, -15, 2, 49, -14, -9, 41, -21, -53, 38, 59, -22, 14, 51, 44, -41, -42, 32, -2, 18, 27, -12, 54, -26, 4, -53, -13, 1, -12, 60, 24, 0, -48, -12, 42, 10, 55, 60, -1, -22, 53, 58, -58, -31, -65, 32, -12, 11, -42, 55, -4, -17, 7, 57, 12, -7, -43, 4, 13, -41, 51, -56, -29, -11, -10, 23, -7, 27, -15, 20, 56, 56, -28, 4, -7, -34, 46, -54, -53, 42, -22, -34, -22, 4, -29, -28, 62, -33, 36, 38, 26, 48, 44, 21, -35, 37, -15, 33, 0, 5, 48, 20, -5, -10, -40, 36, -15, -24, 19, 28, -10, -10, -48, -33, -9, -31, 52, 27, 24, -21, -55, 47, 24, -25, -14, -16, 41, 34, -54, -17, 6, -48, -28, -35, 44, 40, 21, 6, -22, -34, -47, -26, -30, -51, -49, -50, 47, -30}
, {-65, -24, 55, 53, 51, -55, 22, -3, 15, 18, 6, -61, 37, 48, -51, 25, 38, -12, -50, 40, 40, 58, 19, -20, 16, 12, -55, 58, 43, -1, -9, 43, 18, 55, 44, 18, 49, -18, 21, 55, 53, 30, -32, -37, 29, -22, -33, -29, -12, -7, 21, 14, 7, 16, 38, 39, -33, 39, -40, 3, 42, -40, 59, 32, -34, -27, 46, -18, 13, -17, 60, -53, -41, 20, -22, 50, -4, -50, 5, -3, -18, 34, 6, 15, 58, 40, -41, 40, 26, -30, -10, 34, -63, 18, 19, -19, -45, 20, -12, -16, 19, -20, -53, 55, 26, -33, -18, -11, -64, 15, 3, -17, 36, 50, 18, -54, -30, -6, -16, 50, -50, -41, 15, -6, 59, 32, -28, -19, 15, 0, -53, 29, 31, -50, -21, -60, 54, 52, 3, -44, 10, 57, -43, 13, 45, 47, -13, -7, -15, 36, -43, -13, -30, 36, -23, -53, -44, -63, -50, 47, -5, 11, -7, 37, 8, 17, -31, -14, 54, 6, -5, 43, -56, 24, 61, -17, -13, -53, 21, 55, -67, 52, -53, 37, 50, 31, -20, -60, -33, -14, -59, -38, -16, -44, 58, -45, -29, -14, -51, -6}
, {48, 53, -58, 40, -14, -64, 37, -49, -21, -26, 1, -21, -30, -37, 18, -57, -43, -7, 40, 31, -40, -36, -1, 24, 67, -43, 12, 52, 3, -12, -38, 2, -30, 28, -52, -13, 54, 1, -24, 39, -16, 50, 34, 17, 18, 45, 9, 48, -8, 36, -23, 49, 59, -1, 18, -53, -61, 39, 30, -35, -49, -43, -18, -1, -9, 4, -41, 58, 5, -57, -52, 44, -23, -46, 0, 8, 0, -12, -48, -14, 51, -25, -58, -29, 22, 20, 53, 60, -51, 0, 47, 1, 40, -35, -54, 1, 26, 35, 43, 27, -3, -47, -27, 40, 51, 29, -1, 51, 0, 13, 50, 50, 47, 1, -18, -60, -29, -66, 53, 0, 16, -14, -45, 60, -44, -35, -2, -30, 40, 56, -16, 26, 0, 33, -13, 64, 6, 67, 6, -2, 53, 35, -26, 57, 57, 8, -25, 37, -27, -39, -28, -21, -6, 49, 0, 58, -64, 62, -2, 42, 40, -1, -35, 35, -32, -50, -20, 28, 26, -43, -35, -19, 41, -36, -55, -52, 21, -22, 11, 55, -16, 44, -66, 51, 34, -40, -50, 42, -5, 0, 11, -21, 21, 6, 9, -39, -28, -44, -5, 18}
, {42, -56, 35, 0, -19, 23, 18, -16, 19, 58, -45, 41, 22, 39, -18, 55, -38, -28, 18, 46, -32, 39, -38, 50, -73, -41, -12, -24, -9, -31, -76, -13, 17, -9, -53, 17, -35, -52, 33, -24, 39, -39, -5, 18, 68, 52, 53, 42, 73, 31, 45, -40, 24, 27, 37, 20, 56, -26, -56, -72, -38, 47, 53, -54, -5, 38, -11, -65, -51, -9, 15, 8, -46, -61, -41, -59, 9, 38, -27, -23, 29, -35, -37, 15, 53, -27, -50, 32, -47, 31, -45, -17, 34, 51, -15, -1, 21, -53, 40, -18, 37, 62, -63, -15, -66, -15, -36, -4, 54, -13, -57, -7, 7, -36, 15, 43, 11, -40, -69, 50, 54, 23, -28, 40, -43, 1, 13, 0, -64, -11, -23, -12, 39, 21, -16, -46, -6, 38, -15, 8, 44, -16, 43, 59, -15, -45, 31, -14, -48, -37, -29, 57, 55, 57, -28, -47, 23, 59, 21, -36, -11, 14, -18, -17, -36, -67, -64, 19, -14, 64, 38, 0, -54, -39, 60, -59, 5, -7, 24, 33, -10, 7, -60, -9, -67, 10, -33, 44, -80, -25, -21, -22, -16, -15, -13, 24, -37, 8, 61, -30}
, {5, 12, 41, 23, 45, -15, 8, 3, -16, 61, 3, -14, 17, -22, 14, 31, -27, 28, -36, -35, -10, -6, -51, -1, -18, 27, -40, -25, -50, -43, -22, 43, -44, 13, -43, -43, 29, -60, 41, 23, 60, 39, 48, -54, 29, -51, 11, 39, 10, -43, 38, 59, 8, 37, 15, -41, -46, 17, -56, 41, -4, 2, 46, -29, -40, 13, 32, -11, 62, 24, 41, -63, 60, -39, 18, -28, 60, 7, -27, -38, 37, 35, 38, 55, -13, -39, 6, 9, -11, -28, -8, -38, 6, -39, 40, -46, 0, -54, -60, -43, -32, -78, 58, -15, 4, 26, -27, 36, 37, -16, 25, -29, -42, 67, -27, 14, 9, 36, -7, 53, -26, -22, -8, 11, -54, -20, -44, 44, -52, -42, 10, -22, 56, -18, -61, 46, 54, 58, -17, -6, 27, -22, 36, -50, 30, -35, 4, -32, 14, 7, 33, 27, -18, 61, -39, 56, 0, -43, -18, 5, 12, 45, 17, 55, 15, 4, 30, 55, 56, 57, 12, -24, -51, -2, 40, 25, 47, 6, 0, -16, 32, 5, 40, 0, -39, 36, -30, -20, -28, 40, 8, -35, 13, -7, -40, -16, -51, -23, 61, -50}
, {-53, 17, -42, 31, -47, -1, 35, -26, 37, 8, 28, -25, -12, 13, -5, -53, -34, -24, -21, 20, 11, -24, 8, -17, 39, -5, 34, 18, -44, -6, 39, -50, 31, 30, -59, -18, 48, -25, 40, 49, -31, 40, -55, -4, -59, -2, -8, 37, -12, -34, -15, -45, -12, -53, 58, 40, 11, 48, -57, -6, 6, -14, 38, 2, -15, 36, -31, -7, -33, 32, 14, 53, 9, -32, 56, 10, 59, 35, -53, 48, 27, 22, -21, -20, -41, 47, -33, 39, -47, -38, 62, -42, -58, 26, -49, -64, 56, 61, 26, 4, -60, 33, 5, -55, 21, -19, -33, -35, -32, 0, -7, 35, -24, 11, -42, -5, 49, 58, -51, -53, -33, 51, -2, -53, -30, -34, -14, 49, -5, -1, 6, 9, 1, 18, 25, 25, -8, 21, 16, -35, -62, 37, 25, 6, -20, -24, 27, 30, -3, -50, 19, 9, 47, -39, -62, -52, 32, 0, 36, -7, 38, -2, -12, -25, -12, 50, -40, -57, -64, -44, -31, -35, 23, -34, -50, 50, -59, -4, -22, 34, 40, -63, 35, 24, -45, 55, 52, 51, 9, 30, 38, -33, -20, 37, -42, 12, 58, 26, 0, -63}
, {47, -18, 55, 12, -10, -65, -40, -51, 44, -50, -17, 16, 13, 8, -24, 28, 28, -14, -55, -40, -37, -30, -24, -40, 21, 4, -18, -47, 0, 53, -48, -51, 21, -38, 15, 0, -6, -27, -7, 0, 38, 22, 34, 57, 15, -61, 5, 14, 11, 41, -50, 9, -61, -27, -34, 0, -41, -46, 3, -11, 11, -47, -54, -51, 56, 61, -9, -44, -44, 8, 36, -54, -20, 21, -9, 0, -39, 18, -31, 48, 29, 60, 8, -33, -24, -45, -1, 44, 29, -38, 22, -7, 37, -61, 25, -1, -62, -4, -24, -2, -12, 9, -2, 23, 44, 53, 6, -37, -41, -6, -30, -41, 23, -53, 13, 19, 14, 56, -20, -57, 6, -22, -22, 42, 46, -59, -9, -50, 18, 58, 39, 7, 25, -19, -42, 17, -50, 7, 13, -17, 30, -43, 35, -43, 45, -26, -29, -17, -28, 27, 35, -51, 0, 20, 3, 0, 52, -13, 8, 19, -20, 47, -41, -18, 48, -19, 12, 32, 50, 5, -49, 52, 16, 28, -24, -24, 6, -58, 31, 20, -26, -58, 12, -1, 55, -50, 22, 25, 53, -60, 53, -25, 26, -51, -3, 53, 15, 0, -46, -2}
, {-21, -44, -22, 32, 25, 42, -6, -52, -27, -45, 18, -9, 46, -47, 41, 56, 34, 58, -9, -44, 14, 31, -49, 18, 6, 29, 11, -41, -59, -58, -46, 60, -4, 38, -53, -34, 36, -62, -26, -14, -40, 33, 3, -54, -18, -30, 5, -3, -48, 61, 48, -7, -60, -54, -13, -33, 59, 53, 17, -54, -32, 3, -52, -22, -51, -47, 28, 17, -38, 14, -58, 2, -46, 22, -26, 9, 3, -1, -14, 42, 40, 9, -8, -10, 1, -31, 16, 25, 3, -9, 42, -26, -54, 10, -1, -16, 38, 50, -3, -47, 0, -57, 41, 27, 26, -6, -42, 20, -3, 36, -5, -5, 12, -31, -37, -31, -46, -56, 15, 26, 23, -51, 5, -17, 39, 30, 1, 33, -20, 48, 34, 30, -44, -14, -24, -59, 15, 62, 59, -30, 10, 24, 28, -21, -40, 28, -57, -3, 21, 3, -32, -6, -8, -18, -2, 52, 27, -33, 11, -43, 32, -22, 56, 7, 4, -28, -62, -50, -20, -27, 23, 1, 58, 57, 38, 25, -33, -28, -41, -28, -36, 4, 32, 42, 41, 49, -22, 49, -36, 12, 50, -33, -10, 13, -50, -5, -50, -39, -32, 36}
, {-13, 0, -55, -49, 13, 53, 49, -21, 36, 38, -60, -34, -5, -47, 58, 9, 60, 24, -40, -36, -47, -1, 19, -57, -40, 2, 62, -5, -60, -28, -52, -27, -53, 23, 0, 6, 47, 16, 38, 6, 61, -6, -20, -4, -61, 27, -5, -41, 55, -3, 39, 33, -43, -23, -41, 17, -3, -41, 20, 51, 13, -4, -6, -46, -45, -59, 30, -53, 56, -60, -42, 62, -31, 45, -52, 25, -56, 60, -2, -35, -37, -31, 21, -19, -38, -20, 25, 56, 29, 35, 32, -61, 11, 39, 56, 47, -58, 44, 39, 2, 49, -2, -29, 23, -59, -55, 31, -57, -6, 48, -43, -62, 37, 26, -41, -57, 23, 4, 11, -32, -56, -21, -4, -39, 35, -50, -20, -35, 33, -31, 28, 21, 27, -35, 0, 9, -36, 9, 59, -39, -60, 14, 62, -56, -25, -24, -4, -2, -6, -54, 49, 45, 53, -32, -39, -32, -24, -49, 9, -11, 4, 25, 14, 5, 21, 43, -44, -32, -24, 21, 9, -15, 10, -17, 17, 54, -36, 33, 35, -44, 5, -15, 54, -8, -38, 61, -2, -19, 44, -29, -39, 25, 49, 12, -20, -15, 5, -12, 50, -62}
, {-16, -54, 2, -10, -31, -45, 15, 21, 33, -38, -47, -39, -22, 11, 41, -8, 7, -62, -59, 25, 8, 25, -48, -48, -24, 45, -8, -5, 34, 35, -52, -42, -40, 20, 40, -30, 59, -43, 11, -17, -5, -57, -54, 11, 44, 39, -56, 0, 10, 34, -56, 2, -26, -34, -3, 50, -35, 11, -9, -43, -1, -37, 37, -42, -54, -42, 36, 50, -16, 27, 24, -21, -32, 50, -11, 59, 34, 24, -9, -49, 15, -46, -49, -11, 45, 33, -48, -51, -47, 3, -52, -25, 42, -15, -36, 46, 29, 9, -53, 36, -58, 18, -30, 53, -58, 32, 25, 9, 23, -55, -55, -57, -27, 26, -13, 34, 48, -28, 57, 8, 46, 48, -32, -30, -12, 6, 47, -6, -34, 11, -36, -13, -42, -20, 3, -56, 61, 30, 31, -42, 48, -9, -46, 29, 42, -17, -34, 41, 36, 25, -30, -60, 35, 29, 34, -6, 8, -55, -59, -50, 36, -37, 48, -17, -10, -46, 50, -27, -42, -31, -31, -49, -53, -60, -49, 59, 5, -10, -22, 41, 50, 11, 61, 32, 17, -24, 39, -42, -4, 60, -54, 47, 10, -20, 17, -10, -15, -24, -8, -61}
, {0, -19, -41, -35, 50, -3, 62, 0, -1, 54, -54, 10, 41, 48, -4, 28, 24, 18, -51, 29, 18, -45, -30, -39, -33, -55, 49, -2, -28, 24, -5, 50, -40, -58, -18, -49, 51, -42, 29, 75, 47, -26, 52, 59, -39, 28, 0, -26, -26, -7, 8, 50, -19, 59, -16, -15, -8, -53, -29, -18, 37, -16, -27, 22, -58, 0, 50, -47, 40, 21, -44, 49, 21, 14, 43, 61, -39, -30, 5, -39, -33, 37, 30, -18, -48, -48, -35, -15, 43, 15, 57, -57, -15, -57, -34, 33, 49, 21, -55, 54, 60, -60, 6, -15, -3, 13, 33, -28, 12, -8, 9, 37, -62, 47, -23, 66, -32, 19, -14, -27, 18, -25, -25, 56, -15, 26, 55, 10, 15, 38, 58, 47, 10, 53, -28, -36, 47, -26, 22, 4, 52, 28, -23, -15, 31, 22, -3, -30, 37, 30, -42, -50, 11, 53, -14, 49, -23, 42, 0, -50, 16, 36, 20, -6, 12, 24, 16, 15, 31, -37, 53, 62, -12, 44, 20, -7, 17, -32, 20, 13, -5, -15, 0, 3, -37, 11, -52, -15, -53, 8, 11, 40, 26, 59, 45, 8, -28, -8, 25, 50}
, {-35, -31, -30, 18, 52, -36, 36, 34, 53, 34, 7, 41, 16, -11, 60, 5, -51, -47, 50, -22, -38, 4, -57, 29, -39, -44, -31, -31, 48, 59, 51, -7, -26, -27, 18, -44, -18, 7, -37, 25, -38, -47, 11, 39, -18, 40, -50, -46, 52, -20, 34, -1, -21, -35, -26, -50, -8, 56, 22, -18, -29, -35, 28, 47, 21, 55, 62, 58, 45, -36, 31, 12, 8, -38, 32, -55, -38, 25, -20, -64, -65, 27, -49, 17, 1, -33, -8, -59, -53, -32, 54, 24, 45, -5, -20, 59, 20, 28, 64, 62, 9, -22, 42, 18, 15, -32, 20, 58, -8, 7, 23, -44, 18, 58, -45, -8, -61, 0, -7, -4, 40, -39, -11, -40, 9, 51, 32, -41, 14, 30, 31, -59, -33, 47, -35, 24, -34, 65, 46, -12, -12, -61, 16, -26, -8, -12, -32, 35, -41, 29, 1, 35, -9, -56, 19, 18, -15, 31, 6, -55, 55, 40, -28, 50, -46, 57, 25, -53, 21, -61, -28, -61, 40, -24, -45, -37, 11, -4, 42, -38, -5, 12, -7, -16, 10, -5, -1, 62, -5, -22, 28, 13, -51, 34, 6, -11, 51, -21, 57, 45}
, {17, 0, 17, -52, -12, 1, 21, -45, 29, 38, 48, -14, 47, -37, -60, -61, -4, 49, 44, 57, -3, -43, 60, -26, 42, 0, -53, 42, -14, 32, 62, 4, -17, 55, -50, 16, -2, 49, 53, -34, 8, -48, 53, -59, -67, -51, -8, -19, -11, -23, -19, -44, -60, -3, 62, -5, -57, -62, -61, 38, 9, 14, 10, -26, 33, 56, -59, 44, 5, 37, -49, -37, -2, -38, 29, 13, -59, 63, -22, 32, 38, -80, 42, 50, 32, 9, -18, -43, -51, -39, 18, -26, 32, -52, 16, 55, 29, 8, -13, -55, 37, -48, -20, -44, -41, -4, -47, -8, 22, -54, 22, 61, -88, 35, 43, 82, -5, 8, 76, 29, -23, 10, -48, 52, 30, -40, -10, 44, 41, -12, 67, -12, 56, 72, -42, 39, 39, 4, -46, -52, 41, 31, -38, 39, -43, -34, -11, 40, 57, -43, -46, -21, 41, 65, 26, -18, -51, 53, -29, -54, 28, -27, -33, -31, -31, 26, 59, -59, 2, -43, -39, 4, -9, 28, -59, 48, -54, -12, 45, -3, 0, -13, 34, -13, -22, -55, 52, 9, -67, -28, 37, -3, 21, -17, -17, -24, 15, 8, 43, -58}
, {39, 17, -57, 63, 52, -52, 55, -26, 33, 5, 65, 21, -54, -37, 22, -8, -34, 12, 51, -49, 22, -2, -8, -13, -78, -50, -9, -53, 10, 32, -45, 28, -19, 19, -34, 44, -45, -41, 0, -66, 37, 55, -31, -55, 42, -44, 23, 39, 9, 13, 15, -51, -43, -8, -42, -41, -31, -5, 24, -4, -62, 4, 21, -46, 51, 58, -1, -2, 13, -34, -51, -61, -64, -41, 67, 36, 44, 65, 23, -29, -18, 29, 59, 43, 22, -1, -33, 9, 44, -2, 47, 17, 48, 46, 36, 3, -53, 0, -26, 5, -26, 35, 24, -25, -66, -52, 1, -23, -12, -35, -34, 56, 58, -60, 64, 62, 24, -5, 39, 17, 36, 47, -17, 44, 16, -20, -15, 16, 36, 50, 61, -56, -40, 60, 57, -5, 22, 35, -49, 54, -39, 57, 71, -44, 40, 39, 13, 60, -10, -22, -50, 31, -18, -45, 24, 6, -31, -8, -30, -38, -40, -8, -45, -21, 18, 14, 39, 19, 42, 46, 35, 49, -11, 0, -42, 50, -2, 5, -43, 56, -78, -26, -19, -47, -56, 20, -2, -43, 11, -4, 43, 46, 60, -62, -51, -51, 25, -24, -40, 55}
, {-36, -25, -20, -2, 3, -16, 5, -8, 24, 1, 37, -49, -37, -40, -33, 55, 12, 12, -56, 44, 40, 53, -55, 13, -43, 30, 61, -18, -4, -45, 4, 32, 49, 3, 24, -47, 57, 10, 23, -57, 14, 50, 54, -20, -47, -32, 1, 13, -11, 33, 59, 11, -5, 48, -41, -58, 37, 18, -60, -39, 20, 45, -38, 40, 47, 17, -6, 1, -19, 21, 38, -57, -53, 3, 45, -8, -56, 11, -16, -33, -3, -14, -47, 4, 54, 25, 25, 55, -24, 41, -47, -52, -22, -26, -50, 32, -4, 12, 27, -7, -54, 29, -43, 34, 37, 15, 36, -5, 54, -19, -45, 15, 6, -25, 32, 26, 21, 39, 13, -40, -59, -14, -42, -12, -46, -25, -7, -26, 10, -6, 6, 30, 8, -11, 15, 11, -41, 18, 19, 48, -36, 35, 58, 12, 0, 37, -38, -20, -8, 31, -19, 56, -45, -16, 29, 55, -51, 20, 19, -46, -6, 52, 17, -45, -59, -56, -23, 59, -9, -8, 58, -9, -36, -30, -21, 10, -58, 42, 33, -2, 5, 8, -46, -13, 17, -26, -59, -23, -16, -46, -46, -43, 4, -56, 62, -4, -2, 30, -56, -53}
, {38, -7, -42, -16, -28, 45, 60, -4, 53, -16, -37, -9, -52, -4, -6, 47, 32, 69, 4, -35, 33, 45, 0, -9, -13, 11, -60, -51, -21, -28, -59, 43, -14, -1, 14, 48, -50, -12, 36, -14, 25, 33, -62, -45, -34, 21, -28, 23, 27, -32, -46, -56, -43, 4, 37, 54, -36, 19, -8, 50, 46, -11, -35, -54, 31, 19, -43, -23, -45, 54, -15, -53, -40, -10, -56, 19, -61, 38, 44, 31, 36, -53, 29, 58, -30, -58, 8, -55, -22, -8, -45, 25, 32, 33, -13, 23, -34, 46, 36, 3, -29, 31, -25, -54, 14, -46, -15, 51, -39, 42, 44, 36, 53, 14, -14, -50, 45, -59, -9, 2, -30, -57, 8, -35, -27, -18, 28, 32, 14, -33, -37, 27, -45, 44, -40, 42, -31, 12, 47, -16, -2, 15, -41, 50, -16, -54, 54, 15, -49, 0, -31, 47, -47, 29, -26, -32, -37, 7, 42, 43, 46, -3, 54, 0, 44, 5, -49, 24, -39, -19, 57, 46, 42, -36, -40, -6, 16, 62, 9, 49, -82, -7, 53, 41, 48, 21, -48, 52, -39, -14, 25, -18, 19, -53, -48, 46, -53, -53, -57, 3}
, {9, -10, -34, -15, 50, -42, -19, -48, -43, -52, -20, -11, -43, 26, 18, 57, -34, 22, -12, -39, 42, -38, 1, 13, 0, -42, -8, -36, -38, 17, -31, -7, 40, -22, -21, 61, 18, 60, -15, -48, 16, 8, -18, -34, 30, 47, 40, -54, -47, 44, 29, -56, -38, -54, 34, -2, -12, -1, -44, 56, 26, 35, -36, -51, -45, 10, -57, -20, -34, -43, -41, 14, 26, 49, -11, -57, 24, -64, 29, 40, 34, 38, -54, 35, 26, 65, -62, 51, 22, -57, 16, 20, 45, -34, -5, 26, 15, -54, -54, -57, -12, -13, -48, 13, -42, 30, 59, 8, -14, -22, -36, 17, -10, 8, -56, -51, 47, 54, 10, -25, 59, -40, -6, 29, -3, -4, 48, 15, -12, -28, -36, -20, 50, 42, 61, -48, 51, -30, -20, 39, -33, -11, -9, -48, 33, 27, -4, 35, 13, 60, -30, 44, -57, 17, -42, 32, -49, 16, -38, -10, -24, -45, 9, -21, 43, -46, 8, 50, 61, -39, -5, -41, 5, 40, 22, -2, -4, 37, -29, 53, 38, 35, 25, -46, -22, -52, -49, 17, -24, 23, -14, 24, -5, -37, -17, -14, -33, -13, 48, 51}
, {-28, 46, 47, 26, 43, -4, 46, 58, -52, 50, -51, 33, -57, 51, 41, 37, -24, 20, -23, -47, -27, -17, -49, 31, 16, 3, 8, 58, 56, 56, -22, 57, 54, -61, 37, -23, 14, 23, -42, -22, 45, -25, -50, -16, -14, -18, 46, -45, 35, -51, 41, -56, 41, -39, 29, -39, -57, 30, 50, 56, 59, 28, 16, 43, 36, 37, 51, 26, -27, -56, 49, 44, 15, -43, -17, -33, 27, -25, 3, -23, 38, -19, 23, -26, -58, 56, -20, 28, 13, -43, -32, -19, -15, 34, 42, 17, -19, 27, 46, -55, -23, -49, -32, -29, 44, -34, 30, 0, 35, 33, -6, 6, -30, -59, 47, -33, 28, 29, 19, -31, 14, -32, -23, 24, 18, -52, 61, 58, 61, -40, 9, -23, -38, -62, 31, 14, -43, -49, -46, 50, 62, -17, -17, -35, 41, 45, 0, -48, 16, -20, -48, -18, 60, 21, -59, -31, -56, -5, 2, 21, 3, -6, -39, -42, -55, -21, -59, 27, 36, 41, 33, -4, -45, -32, 48, 31, 22, -39, -5, -50, -12, -61, 4, -46, 34, -25, 43, -36, -32, -16, -44, -41, -34, -38, -24, 3, -58, 36, 44, 29}
, {-42, 54, -36, 10, 53, 7, 27, -52, -46, 18, 2, 19, 6, 3, -26, -45, 24, 13, 0, -56, -21, -72, 60, -29, 19, -47, 52, 2, 48, -62, 50, 27, 16, 59, -24, -49, -18, -59, -24, 49, 53, 49, -2, 55, 25, -7, 14, 40, -38, -14, 15, -63, 41, -32, -40, 1, 13, -50, -33, -13, 47, -38, -20, 12, 0, -34, 29, 1, 4, 4, 8, 59, -23, -53, -52, -48, 12, -18, 49, 36, -29, 51, 37, -13, 46, -34, 41, 47, -10, -19, 6, 37, -28, -60, 17, 6, 18, -22, -23, -30, 36, 4, -46, -36, 4, -20, -46, 52, 59, -6, -6, -61, -66, 52, 38, 12, -34, -5, 47, -35, -15, 0, 19, 18, -26, 46, 23, 72, 57, 0, 65, -7, 64, -14, 10, -19, -15, -62, -41, -7, 8, 37, 51, 61, -62, -19, 51, 31, -56, -5, 58, -57, -60, 47, -26, -35, 39, -28, -50, 2, -17, -35, 18, -30, 32, 42, -53, 38, 17, 7, -32, 9, -34, 47, 36, -11, 19, -59, 43, -11, 83, -39, -44, 4, -26, -33, -2, -20, 13, 31, 7, 31, -26, -2, -64, -38, -17, 57, 57, 44}
, {15, 1, -67, -28, 31, -37, -3, 38, 21, -32, 19, -72, 39, 28, -54, 47, 8, -16, 12, -24, 56, -98, 53, -52, 3, -3, 42, 6, -13, 25, 64, 4, -50, -38, 58, 18, 54, -16, -18, -38, -49, -8, 54, -62, 12, -21, -35, -60, -16, -39, 62, -42, 44, 32, 39, -1, -17, 35, -38, 2, -2, 51, -6, 47, 36, -4, -33, -58, -55, 27, 44, 17, -58, 8, 30, -15, 12, 31, -36, 29, 55, -21, 43, 37, 3, 49, -18, -60, -6, 18, -8, 2, 57, -27, 6, -55, 83, -5, -63, -32, -62, 54, -2, -39, -6, -22, -34, -3, -11, -3, -49, -24, 39, 78, -64, -19, 17, 9, 20, -58, 10, 59, -46, 59, -2, -30, 50, -20, -52, -1, -44, -31, 0, 26, -62, -1, 9, -50, 21, -28, -58, 52, 17, -33, 50, 18, 49, -52, 35, -43, 43, 7, -47, -11, -2, -30, 36, -49, 34, 36, 7, -16, -18, -4, -55, -8, -35, -16, 40, 35, -8, 37, -52, -2, -4, 31, -5, 50, -4, -24, 12, 2, 16, -27, 21, 22, 57, 0, -47, -2, -48, -2, -52, 23, -43, -45, 26, 19, -31, 5}
, {8, -17, 47, -18, 52, -28, -3, 5, 39, -23, -13, -60, 9, -15, -43, 48, -48, 8, -20, 10, -37, -49, 42, 4, -26, -56, -25, -63, 58, 26, -45, -57, 55, -40, 15, 25, 55, -16, -37, 45, -9, 39, -32, 16, -19, 47, 38, 49, -6, 9, -58, -50, -8, -36, -58, -41, 21, -17, 52, 53, 45, 1, 32, 58, 42, -55, -63, -56, -6, 32, -7, 60, -9, 55, -40, -24, -1, 48, -32, 22, 35, 7, -43, -35, 52, 40, -47, 56, 23, -16, 13, -53, 8, -38, -27, -10, 13, 31, -30, -38, -57, 52, -57, 12, -11, -10, -56, -47, -47, 45, -61, -41, 29, -24, 7, 57, -32, -17, 37, 12, -57, 40, 10, -40, 36, -48, -56, 3, 54, -22, -60, 2, -56, -54, 46, -42, 12, -60, -59, -15, 29, 9, -54, 57, 56, 23, -23, 15, 40, -40, 28, -44, 55, -35, -65, 19, -24, 30, 46, -48, -62, 31, 25, -4, -9, 47, 11, 36, 15, 54, 48, 21, 35, -46, -55, -59, -8, -42, -19, 56, -45, 12, -15, -1, -4, -44, 13, 55, -46, 42, -40, 1, -26, 34, 51, -13, -6, -36, -8, 54}
, {38, -60, -47, -62, 3, 21, -31, -27, -46, 19, 5, -62, 42, -50, -38, -44, 58, -48, -9, 21, 39, -49, -7, 29, 57, -27, -28, 21, -1, 28, 4, 35, 52, 31, -3, -37, -6, -57, -36, -22, -38, 9, -11, -18, 9, -10, 46, 9, 3, -46, 57, 3, 8, 21, 43, 30, 32, -47, -48, 7, 19, -22, 65, 51, 33, 3, 16, 18, -49, -62, -36, 43, 52, 36, 33, -21, -3, -57, -51, 1, 22, -12, -50, -53, 56, -21, 4, 33, 62, 19, 41, -4, 49, 23, 45, -38, 4, -32, -30, 47, -15, -2, 7, -52, -7, 20, 58, 48, -39, -25, 13, -38, -26, 52, -30, -4, 36, -44, 44, 15, 60, 56, -8, 12, 17, 14, 32, -14, 4, 54, -11, 26, -65, -20, 10, -33, -35, -41, 10, 32, 38, 57, 4, 31, 38, 61, 0, -59, 52, -61, -33, -2, 31, 62, -3, 50, 19, 36, 21, 33, 3, -54, 28, -19, 58, 37, -34, -48, 16, -11, -62, 31, 21, -8, -35, 57, -15, -49, -60, -31, -19, -38, 55, 52, -46, -32, -60, 30, -57, 12, 48, -45, -1, -25, 55, 39, 35, 29, 19, 55}
, {45, -21, 5, 10, -50, -30, -21, 27, 2, -17, 22, 25, -38, 5, -40, -34, 0, -20, -2, 12, -19, 23, -48, -52, 0, -16, -61, -2, 6, -25, -10, -47, 54, -1, -58, 46, 21, -30, 41, -18, 49, -38, -40, 52, 22, 25, 3, -49, -25, -28, 24, 55, 1, 39, 2, -44, 48, -47, -57, 16, -57, 24, 53, -58, -58, -42, -31, 34, -19, 5, 53, 23, 21, 35, -31, -65, 55, 48, 59, -50, -23, -27, -48, 14, -18, 20, -38, 13, -29, -4, 1, 3, 25, -30, -46, 32, 64, 33, -35, 19, 49, 48, 48, 40, 53, 41, -48, 32, 3, 3, -39, -59, 70, 22, 12, 22, 6, -14, -16, 18, 14, 41, 6, 46, -58, 33, -40, -23, 2, -5, 5, 34, -57, 41, 52, 45, -29, 43, 10, 44, -49, 49, 20, -8, -14, 23, 39, 15, 0, -26, -14, -23, -45, 53, -21, -35, -52, 62, 44, 1, -26, 46, -50, 20, 43, 47, 16, 44, 65, 59, 16, 50, -59, 8, -48, 58, -25, 43, -36, -1, -18, 57, 15, -17, 31, 19, -54, 35, 24, -23, -20, 32, 51, 56, -12, -49, -56, -47, -23, 33}
, {37, 32, -29, -40, 15, 26, -12, -9, -37, -62, 50, -33, 23, 28, -19, 58, 26, 15, -6, 41, -25, -21, 56, 57, -45, 14, -6, 9, -25, -39, 2, 26, -35, 0, 6, 65, -35, -42, -45, -15, -59, 11, 10, -43, -9, -55, 63, -60, 65, 16, 55, -28, 36, 36, -32, -22, -15, -13, -55, -76, -50, -8, -45, 44, 27, -53, -51, -23, -62, 35, -48, 13, -31, -19, -36, -2, 2, 0, 36, -9, -38, -57, 13, -15, -3, 43, -59, 35, -45, -63, 28, -61, 17, 58, 3, 49, -29, 29, 52, -45, -47, 2, -6, 51, 10, -31, -38, 34, 4, 37, -11, -38, -50, 14, -11, -64, -17, 4, 7, 23, -53, 14, -60, 38, -48, -15, -27, -27, -45, 51, -25, 37, 28, -47, -17, 2, 61, 33, -43, -43, 58, 40, -41, 58, 17, -52, 45, -32, -54, -19, -54, 17, -25, 28, -12, -24, 57, -28, 43, -27, 50, 35, -41, 55, 28, 13, 6, -32, -45, 14, 18, -23, -49, 36, 50, -14, -64, -71, -30, -21, -106, -15, 38, 10, -2, -5, 27, -28, -9, -17, 46, -57, 32, 34, 60, -5, 56, 9, -14, -30}
, {7, -47, 60, -18, -1, 4, -14, 19, 21, 22, 3, -28, 3, -63, -25, -29, -40, 39, 49, -17, 11, 30, -39, 37, -7, 27, 21, 35, 53, -57, 15, 54, -46, 16, 22, -27, 9, 48, -10, 55, -17, 11, 15, 60, 6, -39, 42, 52, 52, 0, -17, -14, -5, 36, -25, 48, -13, -19, 12, 47, 15, -33, -39, 59, -47, -17, 30, 56, 64, 57, -48, 27, 41, 6, -48, -35, -11, 14, -42, 29, -23, 6, -34, 51, -31, 20, 27, 29, -53, -20, -1, 38, -8, 30, 28, 59, 23, 25, -42, 47, -61, 62, 52, 20, 11, -39, -14, -40, -39, -29, 53, 24, 48, 8, 13, -23, -35, -20, -51, 16, 12, 38, -46, 31, 34, 6, 4, 4, 6, -34, -49, 40, 3, 7, 49, -35, -30, -34, -41, -42, -63, -43, -39, -46, -62, -24, -52, -23, -50, 37, 13, -55, 55, 22, 46, 50, 27, -49, 2, 11, -18, -55, 48, -50, 11, 16, 56, -21, 44, 2, -57, -15, 50, -42, 20, 16, -27, 8, 15, 38, -5, -19, 32, 0, 43, 59, 34, 37, 57, 19, 32, 8, -25, -22, 13, 57, 18, -15, -50, -45}
, {-4, 0, 47, -2, 13, 45, 20, 29, 5, 35, 34, -32, 47, -9, -59, -36, -11, -8, -48, -22, -56, 40, -57, -2, -26, 14, -25, 54, 46, -44, 5, -9, -63, -25, -17, -56, 40, -20, -40, -2, 10, -51, -6, -31, -7, 46, -36, -50, 1, -25, 48, -9, 11, 44, 1, -18, -63, -15, 44, -23, 15, 1, -11, 7, 46, 51, 43, -27, -54, 59, -4, -42, -14, -11, -10, 33, 0, 6, 50, -14, 19, -19, 40, -49, -45, 24, -20, -42, 52, 30, 59, -6, 20, -38, 35, 53, 38, 59, -31, -24, 37, -7, -37, 1, 19, -13, -64, 25, -28, -50, -57, 11, 48, -25, 8, -49, -10, 0, -10, 30, -43, 17, 12, 57, 44, -5, 44, -27, -55, -56, -15, -29, -3, 37, -5, 11, -47, 42, -57, 30, 6, -34, -26, 22, -49, -43, -40, -43, -48, -11, 49, -13, 36, -48, -6, -30, -38, 40, -35, -28, 50, 25, -6, 25, 54, -52, 22, 32, -22, -56, -37, -9, -33, 0, -22, 15, -55, 42, -20, -44, -15, -40, 38, 57, -13, -59, 36, 59, -7, 24, 28, 0, 1, 58, 14, -19, 44, -1, 24, -24}
, {38, 45, -26, 14, -16, 55, 4, 50, 50, 36, 10, -39, -34, 25, 1, 7, -35, 14, -13, 43, 20, 13, -62, 6, 54, -39, 18, -56, 42, 35, 65, 55, 8, 41, 5, 38, 27, 10, 10, 12, -39, 11, -61, -8, -7, 20, -49, 36, 24, 58, 2, 8, 25, 26, 22, -14, 19, 45, -27, 73, 12, 12, 66, 59, 31, 45, 31, -23, 30, 44, 41, 52, 66, 28, 57, 35, 18, 41, -23, 31, -41, -44, -25, -61, -40, 8, -54, -22, 25, -15, 24, -6, -11, -59, -13, -15, -52, -34, 17, 0, 34, 37, 1, 37, 40, 42, 47, 58, -50, 43, -16, -48, 23, -32, -15, -4, -32, -58, -24, 15, 20, -44, 35, -37, 40, 55, -33, 12, 44, -11, 14, -60, -13, 30, -28, -21, 41, -52, 53, -56, 3, -37, -11, 21, 17, -27, 33, 5, 25, -58, -38, -25, 29, -28, -67, -26, -3, -18, 12, 49, 27, -6, 55, 43, -12, 58, -29, 7, -15, 3, 19, -25, 19, 42, 13, -24, 26, 52, -10, 28, 41, -17, -55, 58, 38, -43, 23, -41, -48, -9, -18, -60, -54, -48, 29, -38, -2, -24, -49, -53}
, {-48, -28, 32, 33, 49, 18, 60, -39, -10, -21, 7, -6, -53, 16, -15, -52, -48, -5, -30, -20, -24, 0, 25, -62, -25, -37, 9, 31, -27, 17, -37, 56, -55, -17, 40, 25, 2, -56, -17, -30, 26, -16, 10, -16, -13, -47, 19, 34, -63, -34, 58, -48, -23, -38, 35, 12, -53, 37, 60, 80, -18, 15, 54, 23, -49, -47, -19, 32, 5, 1, -19, 47, -8, 62, 29, 15, 49, -62, 20, -38, -70, 44, 38, 27, -72, -58, 49, -58, -3, -14, 39, 21, 38, -11, -17, 25, -13, -50, 52, 44, 4, -45, -25, -23, -6, 51, -1, 1, -8, 53, 20, -57, 45, 44, 17, 18, -19, 43, 20, -32, -36, -55, -44, -32, 63, -33, 45, 69, 42, 42, 37, -13, 56, 58, -30, 38, -51, 48, 24, -33, -33, 36, -65, 47, -27, 44, -33, 19, 46, -33, -35, -53, 41, 0, 12, 45, 8, -4, 37, 9, 4, -45, 3, 59, 46, -43, 4, -17, 47, -50, -20, -30, -39, -37, -26, -11, 19, -20, 14, -2, 104, 40, -45, 36, 44, 47, 30, -48, 3, 36, -42, 6, -41, 23, -3, 13, 2, 50, -37, 51}
, {42, 12, 25, -42, 22, 2, 42, 38, 56, 26, 38, 14, -17, -5, 49, -43, -50, -13, 0, 5, -30, -27, -5, 17, -11, -52, 20, 14, -36, 21, 58, 33, 15, -17, -60, -24, 26, -58, 41, -12, 31, -61, 13, -30, -60, -13, 40, -43, -12, 8, -30, 58, 21, -61, -64, -21, -21, -47, -38, -64, -28, 33, 0, 8, 28, 50, 13, 14, -4, -30, -11, -16, -18, 7, 57, 27, 24, -26, -51, -38, 4, -60, -12, -31, -52, -5, 17, 25, -37, -9, -32, -64, 1, 45, -18, 14, 60, 12, -16, -34, 44, 50, -13, 53, -41, 39, 14, 0, 31, 21, -44, -44, 21, -51, -59, 57, 50, -60, -24, -17, 46, -5, -18, -48, 56, -14, -50, -33, 14, -41, -33, -7, -16, -58, 22, 40, -40, -11, 39, -20, 26, 39, 1, 38, -15, 8, 12, 37, 0, -20, -6, -9, 0, 58, -8, 7, -33, 13, -43, -53, 47, -11, 5, 53, -56, 39, 31, -8, -33, -65, 4, 43, 23, -52, 60, -46, -49, 32, -63, -10, 23, 9, 27, -59, -2, -28, 9, 3, -18, -58, 13, -34, 47, 9, -13, 35, 8, 42, -41, -62}
, {23, 8, 55, 43, -10, -59, -11, 4, 55, 27, 32, 36, -35, -1, -19, 62, 56, -62, -37, -60, 22, -3, -12, 15, 12, 13, 32, 50, 8, -14, -29, 34, -28, 11, -10, -27, -51, 39, -28, 50, -51, -52, 39, -39, 62, -44, -59, 45, -51, 13, 4, 60, 52, -8, -25, 0, 37, -41, 24, 40, 6, -55, -54, -48, -39, -52, -44, 34, -15, 27, 36, 15, -62, -58, 16, 18, -37, 33, -56, -18, -19, 47, -22, -64, -31, 25, 49, -43, -16, -62, -23, 45, 51, 50, 62, -4, 57, 28, 45, 58, 56, 12, -18, 36, 35, 53, 58, -30, -66, 27, -34, 28, -39, 13, 36, -26, 6, 4, -26, -52, 33, -10, -6, 28, 0, 57, 52, 1, -14, 26, 56, -58, 16, -1, -14, 31, 31, 37, 49, -32, -17, 29, 17, 14, 17, -7, -39, -6, 18, 52, 34, -4, 24, -31, 10, -19, 14, -26, -3, 52, 48, -5, -41, -31, 3, -16, -6, -9, -58, 19, 1, 23, -47, 18, 29, -6, -6, -61, 36, 51, 40, 52, 37, 10, -56, -23, 44, 10, -31, 43, 14, -33, 44, 23, 40, 53, -56, -63, 36, -54}
, {-3, -53, 0, -49, 21, -9, -46, 5, 9, 62, -39, -56, 0, 20, 5, 12, 48, 9, 67, 31, -48, 40, -38, 7, -16, 32, 9, -45, 34, -41, 45, -38, -7, 51, 58, -62, -14, -21, -33, -30, -58, -30, 5, -11, -47, 65, 5, 56, 26, -59, -26, 25, -29, -53, -56, 31, -51, 31, -3, -38, -29, 13, -27, 12, -7, 46, 18, 28, -18, -46, -38, 19, 58, 24, 61, 64, 24, 59, 51, -40, 4, -49, -43, -47, -52, 49, -20, 29, -36, 6, -11, 29, -27, -16, 1, 18, 2, 17, 14, -30, -38, 2, 6, -24, 39, -57, -62, 2, 44, -23, 21, 64, -2, 30, 48, 67, 28, 64, 49, 62, -45, 2, 60, -35, 47, 22, -46, 5, 12, 27, 3, -54, 37, -31, -57, 17, -41, -39, 38, 8, 9, -13, 48, 11, 18, -39, 21, 21, 10, 42, -58, 21, 33, 41, 59, 39, -60, 61, -54, -18, 47, 50, -50, 30, -50, 46, 52, 35, 60, -46, -12, -57, -30, 24, 51, -52, 56, 59, 11, -53, -24, -55, -50, -15, 43, -50, 5, 37, -54, 29, 63, 3, 5, 15, 27, -55, 56, -27, -64, 22}
, {-20, -39, 49, -54, -26, -43, -54, -48, 48, -46, 2, -26, -36, -45, -43, -28, 20, 15, 14, 30, -12, 35, 39, -26, 15, 31, -40, -24, -10, 37, -34, 60, -28, -12, 47, -19, 9, 15, 6, -46, 17, -36, -4, 20, 26, -8, 5, 22, -65, -2, -51, 22, -57, -40, 0, 20, 13, -20, 17, 2, -44, -43, 4, 61, -49, 31, 40, 6, 54, 45, -22, -11, -32, 48, 42, -52, -10, 26, 47, -37, -40, 40, 38, 27, 7, -46, 25, -25, -55, 37, -13, -35, -56, 4, 26, 51, -21, -47, -58, 51, 46, -21, 12, -29, 45, 20, 8, -26, -10, -53, 41, 34, -24, 3, 43, -36, -60, 33, -7, -18, -62, 25, -47, 56, -19, -59, -3, 10, 5, -25, -49, -32, 38, -65, -22, 49, 60, 31, -45, 38, 7, -34, -14, -54, -39, 22, -9, -62, 55, 38, -23, -57, -48, -3, 23, -62, 18, 18, -56, 39, 8, 10, -3, 27, 31, -47, -56, 26, -60, -58, -59, -11, -22, -15, 52, -55, -34, 22, -44, -24, 38, 60, -55, -42, 51, 36, 25, -54, 37, -8, 35, -9, -1, -34, 55, 45, -11, 8, -7, -57}
, {-20, -63, -54, -62, -43, -37, -50, 45, 55, 2, -49, 19, 40, -21, 42, 57, -35, -21, 11, 14, -42, 52, -11, 35, -51, -13, -56, -36, -53, -21, -17, -22, 50, 28, 60, -26, 2, 24, -15, -41, -17, -17, -12, 3, 21, 37, 38, 47, 11, -39, -2, 60, 30, 57, 28, -16, 16, -17, -37, -27, -33, 31, -65, -40, 60, -22, 37, -63, -55, 17, 53, -45, -31, -47, 27, -11, -34, -2, -9, 42, 42, 36, 33, 0, 18, -52, 44, 9, -8, 21, -7, -31, 58, -37, -53, -3, 37, -10, -54, -59, -57, -18, 11, 47, 0, -21, 16, -21, -41, -53, -52, 15, 20, -50, -44, 42, -8, 51, 0, -34, 32, 20, 24, 53, -38, 0, -56, -47, 52, 41, -13, -21, 6, 38, 44, 7, -51, 15, 61, -25, -2, 62, 20, 1, -24, -54, -26, -1, -36, 27, -4, -43, -7, 47, 19, -53, -49, 16, -9, 34, 58, 30, 35, 39, 57, 18, -30, 38, 31, 58, -4, -13, 13, 62, -54, 53, -38, -43, 25, 6, -72, 19, 21, -25, 10, 3, 25, 51, 0, -17, -51, 20, -1, 24, 54, 41, -30, 7, -20, 29}
, {11, -9, -62, 38, -24, -33, 32, 13, 40, 8, 39, 57, -15, -36, -19, 44, -36, 50, 10, -15, -12, -53, 38, 2, 15, 2, 42, 27, -1, -29, 53, -62, -43, -36, -55, -54, 24, -30, 30, 25, 51, -4, 31, -26, -28, 29, 53, 48, -43, -18, 30, -48, -4, 56, -53, -61, -27, 17, -58, -2, -13, 9, -50, 54, 20, 34, -14, -59, 43, -18, 47, -19, -52, 55, -55, -60, 40, 46, 45, 35, 58, 10, 23, 20, -54, -61, 42, -53, -24, -24, -2, -19, -12, 18, -22, -59, 13, 43, 48, 44, 47, -13, 10, -10, 32, 47, -46, -58, 24, -27, 22, -11, 42, -30, -31, 5, 32, 35, -9, -48, 28, 21, 34, -13, 7, -19, 28, 2, 12, -32, 28, -61, 40, 6, 8, 3, 45, -55, -19, 23, -10, 16, -8, -6, 24, 3, 19, -14, -1, -19, 53, 22, 21, 25, -45, 61, 53, -30, -19, 52, -32, 35, 8, -25, -4, -13, -30, 10, 46, -34, -48, 21, -54, -46, 23, 56, -45, -17, 21, -24, 51, 11, -24, 51, 46, 21, -23, -37, -52, 45, 22, -36, 50, 18, -50, -51, -16, 59, -25, -29}
, {-34, -32, 10, -6, -62, -58, -19, -30, -9, 15, -52, 16, 53, 2, 55, -28, 63, -18, 52, -21, -54, 39, 1, 36, 54, 6, 22, -24, -44, -2, 18, -30, -3, 42, -19, -2, 30, 59, -3, 4, -57, 3, -52, 5, 30, -25, 20, 30, 5, 36, -30, 17, -43, 4, -52, 3, -53, -51, -8, -11, 57, 38, -31, 42, 19, 55, -15, -39, -57, 37, -52, 15, -18, 35, 47, 39, -32, 63, 36, -34, 37, -12, -59, -1, 59, 40, 38, 37, -15, 6, 49, 17, -34, -29, -22, 8, 38, -1, 11, 2, -50, 17, 48, 17, 12, 35, 10, 21, 45, -14, 38, 33, -22, -41, 60, -2, 12, -52, -4, 24, -10, 38, 56, -31, 46, 5, -55, -13, -20, -49, -12, 27, -30, -7, -23, 24, -18, -4, 14, 29, 15, 35, 1, 28, 30, 28, 54, 5, 29, 12, 33, 13, -52, 35, -39, -17, 57, -20, -9, -52, -45, -45, -23, 47, -31, -33, 25, 53, 38, -46, -5, -16, -42, -54, -39, 19, 39, -50, -10, 50, 27, -14, -50, 55, -36, -4, 2, 40, 12, 40, -56, -49, 17, 34, 0, -4, -26, -1, 17, 25}
, {-27, 11, -9, 37, 58, 29, -27, -46, -26, -38, 57, 38, -15, 31, -44, -43, 51, 27, -36, -38, -21, 33, -13, 26, 53, -58, 51, -49, -26, 8, 0, 9, 20, 0, 24, 50, -43, 21, 19, -26, -44, -22, 54, 7, 62, 3, -31, 23, 68, 46, 7, -41, 0, 30, 40, -31, 17, -52, 15, -18, 0, -13, -25, -22, -33, -35, 27, -26, 6, -21, -20, -9, -18, 4, -42, -45, 56, 35, 18, 54, 68, -51, 37, -40, 17, -45, 60, 3, 27, 29, 43, 3, -31, 20, 35, -35, -49, 66, 53, 1, -42, 42, -47, 6, 37, 21, -38, -49, -7, 35, -9, -61, -20, -5, 3, -45, -22, -18, -19, 11, -52, -54, -28, -12, 62, -8, 26, -18, -62, 1, 9, 45, -22, -43, -9, 58, -44, 47, -35, 54, -21, -51, -22, -41, 19, 57, -44, 44, -30, -6, 10, -32, -27, -17, 0, -39, 20, 16, 23, -7, -9, -56, 41, 59, -18, 51, 13, -52, -42, 55, -9, -4, -43, -62, -7, -37, -17, -7, -56, -20, -8, 59, 57, -52, 29, -24, -2, -2, -25, 20, 14, 33, 59, -7, 39, -7, 53, 58, -13, 61}
, {-21, 25, -61, 16, -48, 13, 62, -18, -29, 13, 49, -6, 9, 21, 3, -37, -8, 17, 17, -4, 21, -36, -20, -11, -26, 23, -38, 27, -74, -8, -25, 21, 51, -10, -58, -21, -20, -27, 34, 9, 55, -24, 50, -12, 32, -29, -41, 57, -73, 2, 21, 42, 42, -47, -10, -47, 62, -58, 29, -20, -49, -49, 22, 15, 45, -50, -46, 32, -33, -10, 64, 42, -33, -27, -24, 28, -23, 48, 18, -9, -45, -36, -53, -15, -44, -21, -31, -44, 18, -39, -53, 43, -9, -50, 28, 28, 11, 38, 40, -48, -32, -75, -8, 6, -24, 61, 5, 26, -16, 6, 40, 13, -54, 2, -47, 19, -11, 48, -67, -18, -57, -52, 57, 63, -43, -32, 57, -32, -22, -36, -52, 8, 14, 14, 22, 22, 32, -54, 12, 15, 27, -36, -56, -57, -3, 1, 8, 55, 51, -5, -33, 50, 53, -51, -34, -40, 6, 61, -11, 39, -26, -44, -38, 0, -34, -32, -47, 12, 43, -3, 0, -11, -22, -41, -41, 13, 19, -23, 51, 31, 66, 27, 9, 60, 48, -9, -55, 19, -48, 44, -35, 48, -42, -61, -36, -45, -21, 54, 46, -16}
, {-19, 11, 28, 56, -36, -27, -3, -11, 46, 25, -3, -50, 51, -47, 23, 41, -32, -59, -60, -43, 66, -8, 13, 36, 16, 14, -40, -30, -42, 40, 42, -50, -7, 0, 48, -44, 2, 52, 25, -23, 52, -31, -23, -36, -9, -33, -8, 51, -28, 5, -3, -15, -19, 36, -59, 52, 0, 1, 33, -38, -22, 46, 25, 40, 14, 55, -50, -47, -37, -57, 24, -50, 34, 14, 14, -33, -16, -25, 12, 59, -25, -44, -61, -55, -1, 29, -37, 41, 53, 55, -44, -10, -20, -19, -40, -29, 38, 15, -54, 47, -31, -21, 3, 17, -35, -48, 38, -42, -27, -20, -21, 9, -9, -43, -52, 43, -14, -42, 33, 35, -18, -1, -13, -47, 43, -2, 53, -29, 22, -21, 60, 15, 52, 2, 12, 61, 56, 15, -4, 40, 22, -11, 57, -25, 45, 19, 59, 47, 13, 28, -37, 58, -51, 49, 37, -49, -11, 43, 29, 18, -8, 34, -18, -31, -58, 50, 52, 16, 6, 42, -20, -34, -24, 56, -51, 44, -48, 19, 26, -57, -42, 20, 4, 5, -34, 15, 3, 39, -1, 24, -15, 6, -33, 26, 44, -54, 40, 0, -9, 1}
, {60, -15, -7, 36, -43, -8, -23, -34, 43, 14, -41, -10, 27, -54, -17, -17, 2, 63, 51, -47, 37, 25, 13, -6, 14, 36, 6, -46, -22, -5, -41, -50, 42, 30, 16, 11, -28, -35, 32, 45, -55, 44, -39, 34, 29, -30, -35, -24, -47, 41, 5, 27, 22, 9, -13, -32, -7, -42, -31, 36, -40, 21, -64, 15, 30, 71, 20, 16, 23, -33, 51, 20, -8, 1, 44, 29, -56, 57, 47, 51, 18, 50, -53, -32, -40, -5, -24, 29, 32, 13, -12, -19, 7, 2, 23, -39, -4, -59, 12, 34, 43, -44, -57, -37, -14, 16, 2, 49, 44, 30, 28, -46, 9, -16, 23, -4, 26, 29, -33, -7, 19, -1, -57, 38, -52, 32, 59, -14, -16, 7, -8, 0, 34, 70, -3, 47, -38, 48, -9, -21, 37, 12, -2, 53, -10, 63, -56, -49, 35, 50, 28, -12, -20, -37, -10, 64, -20, -23, -6, 61, -55, -55, 9, -2, 44, 63, 14, -19, 51, 28, 14, 36, -28, -25, 5, 19, 35, 29, 5, 7, 99, 58, -13, 50, 26, 14, 12, -23, -58, 0, 30, 52, 23, -53, -14, 7, 47, -35, -10, 62}
, {16, 45, 36, 48, -1, -62, -18, -44, 1, -29, 12, -21, -59, 37, -36, -32, 13, -1, 8, 42, 37, 53, -8, 30, -40, 32, -11, 56, 47, -28, -54, -62, 22, -64, 9, 20, 30, 38, -31, -34, -25, -46, -9, -39, 31, -63, 55, -3, 44, -9, -54, 22, -21, -41, -58, 35, -57, -55, -9, -24, 8, -31, -4, -26, 15, 38, 17, -7, 42, 57, -1, 54, 14, 0, -39, -62, 19, 36, -52, -54, 42, -56, -3, -57, -52, -1, -40, -9, 25, 9, 31, -16, -34, -50, 44, -64, -38, -54, -51, 19, 10, -8, 15, -47, 14, -27, -10, -34, -2, 4, 28, -21, -33, 35, -16, -49, -10, 54, -55, 47, 6, -27, 32, -39, -21, -60, 48, -51, -8, 54, 46, -9, -15, -33, 18, 19, -22, -57, -38, 16, 33, 34, 43, 28, 50, -40, -43, -62, -2, -9, -12, -58, -55, -24, -37, 52, -9, -9, 29, 36, 40, -36, -30, 54, -45, 18, -40, -5, -57, 16, -23, -24, 8, 26, -12, 3, 40, -26, 45, 33, -51, -3, 38, -1, -28, 29, -20, -12, 59, 45, 0, -35, 32, 17, 3, 54, 3, 49, 46, -16}
, {-9, -61, 2, -3, -36, -7, -46, -22, 40, 37, -41, 24, -20, -20, 53, -41, 5, 45, 24, -55, 36, 2, 35, 39, 31, 45, -8, 13, -17, -38, -47, -25, 0, -21, 29, 9, 18, 45, -57, -6, 0, -58, 3, 5, 21, -23, -45, -19, 15, 44, -26, 22, 6, -4, -41, -57, -26, 16, 14, -62, 56, -53, 33, -13, 37, 35, -54, 42, 28, 15, -2, -34, -28, 10, 58, -56, 50, -1, 39, -50, 37, 33, 50, -36, 10, 43, -16, 28, 49, -32, 30, 40, -24, -57, -23, -45, -30, -36, 21, -47, 53, 19, -40, 36, -20, -19, 17, -16, 48, 16, 34, -41, -5, -45, 28, 47, 37, -3, -12, 2, -31, -13, -4, 3, -44, 47, -30, -39, 33, -12, -50, 30, 58, 0, -21, -31, 26, 14, -55, 21, 50, -27, 43, 1, 55, -4, -47, 23, -41, 37, 49, 41, -59, 20, -22, 0, 25, -5, -17, 31, -12, 4, 36, -15, 39, -30, 43, 40, 29, -28, -6, 20, 24, -56, -54, 44, 56, 25, -54, -27, 7, 2, 37, -37, 48, -16, 36, 43, -43, -20, -15, 15, 8, 26, 12, 60, 2, 34, -57, -2}
, {58, -57, -20, 67, 17, 59, -18, -55, 3, -30, 76, -1, 15, 14, -38, -26, -44, -8, 35, -12, 8, 34, -28, 58, -58, 28, 38, 19, 36, -44, 11, -9, 56, -22, -52, -13, 37, -19, 27, -12, 48, -48, 26, 24, 30, 54, 38, -17, -8, 5, -26, -31, 49, 33, -11, -25, -64, 26, -2, -25, 2, -24, 32, -44, 28, 57, -21, 26, -51, 56, -42, -46, -14, -3, -47, 58, 25, 27, 7, 13, -19, 28, 23, -56, 30, -57, 27, -54, -25, 15, 2, 12, 58, -15, -4, -41, -2, 16, 9, -28, 17, -70, -44, -46, 51, -35, -27, 8, 37, 43, 30, 9, -43, -32, 66, 4, -54, 63, -34, 12, 38, -39, -58, -25, -44, -4, 8, -45, 7, -52, -36, 13, 25, 40, 51, -52, 26, 62, -31, -10, -31, -8, 37, 2, -48, -34, -3, 59, 0, -38, 63, 44, 52, 9, 20, -16, 36, 4, -45, 37, 43, -4, 59, 2, -61, 42, 68, -32, -4, 36, 46, -5, 18, 6, 5, 35, -6, 77, 10, 24, 44, -21, 13, -42, 61, 55, -53, -14, -19, 54, -21, 0, 38, 22, 21, -15, 49, -23, -17, -25}
, {-41, 27, -37, 39, -29, -61, 59, 3, -6, 42, -61, 26, -6, -25, 2, 60, -12, 18, 45, 25, 26, 53, -36, -56, -48, 50, 53, -62, 49, 9, 53, 37, 45, -42, 56, 56, -49, -2, 0, -17, -55, -51, -44, 34, -48, 5, 52, -22, 37, 18, 2, 27, -38, -22, 3, 43, -31, -50, 18, -14, -42, -2, 1, -39, -57, -11, -42, -42, -38, -21, 24, 56, 55, 55, 0, -1, -7, 47, 7, 51, 35, 2, -14, -58, 40, 29, -15, 12, 64, 51, -34, -9, 18, 14, -35, -50, -64, -20, -46, -2, 38, -2, 49, 27, -40, 16, 46, 35, 46, -52, 21, -33, 0, 45, -49, 8, 55, 34, -39, 16, 27, -7, 5, -46, -29, 6, 31, -49, 1, -54, 9, 36, -17, 4, 47, 15, -42, -22, 40, 40, 28, -67, -61, -58, -58, 3, -68, -29, -47, 41, -9, -40, 21, 17, 64, -13, -20, 26, 7, 52, 17, 11, 41, 7, 50, 26, 3, -25, -10, -9, -19, 17, -30, -9, 27, 40, 29, 35, 9, -35, 43, -11, -45, 55, -39, -1, -2, 22, 38, -28, 58, 46, -52, 51, -40, 8, -3, -3, 5, 38}
, {-6, -7, 3, -24, 53, 9, -53, 37, -41, 5, 29, 27, 1, -26, -34, -44, 53, -1, -5, -50, -56, -28, -46, 9, -17, 1, -12, -19, 5, 18, 1, -58, -35, -5, -45, -60, 0, -4, -41, 42, -38, -55, 8, -40, -40, -49, 1, -2, -19, -43, 62, 10, 7, 23, -3, 14, -49, -37, -35, 24, 24, 2, 15, 5, -37, 35, 43, -22, -5, -14, 50, -44, -40, 1, 5, 18, -32, -12, 44, 59, -2, -24, 8, 20, -60, 27, -37, -37, 54, -1, -51, 0, 61, 5, 48, -5, -11, -38, 3, 43, -38, 48, -5, 35, 1, 55, -46, -58, -57, 19, -38, 0, 25, 25, -18, -14, -44, -2, 40, -30, 5, -20, 24, 41, 12, 8, 56, -10, -40, -47, -41, -21, 38, 54, 17, 55, 3, -20, 53, -51, -26, 47, -36, 24, 42, 48, -61, 9, -10, 58, 6, -7, -24, 29, -54, -37, -21, 26, 23, 0, 3, 12, -34, 44, -38, 1, 34, -50, -40, 50, -26, -41, 53, 59, 2, 0, 30, 19, 41, 61, 62, 43, -50, -59, -40, -31, 40, -49, 39, -51, 53, 52, 15, 45, 1, 58, 44, 7, 10, -7}
, {12, -39, -66, -5, 43, -22, 59, 25, -11, -20, 35, 4, 3, 14, 52, -55, 18, -15, -11, -10, -52, -17, -63, 59, -38, 39, 23, -16, -48, 36, 70, 31, 33, 38, -43, -59, 46, 37, -12, 58, 25, -25, -53, 14, -47, 26, 4, 53, -4, -39, 38, -30, 17, 18, -38, 38, -2, 45, 7, 58, 29, -62, -59, 44, 40, -50, -24, 34, -47, -46, -59, 43, -18, 46, -36, -60, -28, -10, -28, 37, 35, -24, -46, 36, 5, 51, -10, -49, 62, -50, 36, 11, 17, -65, 9, -63, -41, -26, 11, -37, -9, 44, -3, 34, 32, 26, -4, 31, -11, 47, -13, 45, 63, -14, -53, -9, -27, -31, -48, 19, 22, -54, -9, 44, 36, 3, 13, 9, -36, -43, 14, 47, -59, 13, -26, 58, -30, 23, 15, 60, -6, 38, -9, 57, -42, -55, 4, 46, -13, -55, 18, -12, 10, 13, 16, 30, 0, -46, 36, 31, -21, 50, 38, 38, 56, -41, -38, -18, 33, -46, 24, 2, -42, 29, -24, -17, 45, 27, 15, 45, 33, 27, 5, 34, -30, -45, 49, 18, -24, -6, 23, 62, -28, 57, -62, 4, -27, -18, 11, 47}
, {14, -61, 6, 50, -49, -20, -4, 33, 47, -19, 2, 14, 7, 43, 11, 48, 57, -44, -8, 11, 55, -30, 24, -61, 34, 9, 0, 17, 2, 13, -9, 6, 59, 21, 43, 56, 57, -28, -4, -1, 32, 58, 10, -39, 21, 41, -49, 11, -14, -32, 39, 29, -15, 47, -15, -17, 47, -45, 7, -1, -13, 32, -25, 23, -11, 32, -3, 55, -30, 42, -40, 42, 64, -57, -5, -40, -44, -55, 38, 43, -48, 6, 13, 47, 11, -48, -12, -46, -49, 50, 7, -24, 5, 60, -44, 17, 58, 55, -33, 21, 42, -2, -42, -10, 52, 39, -37, 21, 36, -30, 56, 14, 58, -24, -20, 11, -13, 9, -59, -46, 54, -3, -49, -28, 23, -19, 27, 65, -55, -51, -13, 12, 54, 50, -2, 25, -58, -14, -33, -44, 23, -53, -15, 45, 2, 48, 37, -24, -3, -34, -56, -19, -35, -6, 30, -42, -43, -12, 56, -43, -48, 52, 2, 23, -59, 44, 23, 37, 1, -46, -18, 39, -3, -59, -1, 25, 21, 17, 29, -35, 6, -2, 49, -51, -30, 58, -28, -15, -23, 0, -38, -15, -18, -35, -19, -36, 64, -30, -5, 24}
, {47, 15, 54, 19, 27, -28, -26, -20, 23, 0, -59, 31, -59, 39, 10, 10, -12, -64, 25, -2, -26, 11, -63, 6, -49, 14, -36, 43, 5, 55, -10, -50, 57, 35, 45, 9, -37, 2, 15, -42, -36, -17, -25, -6, -20, 42, 25, -27, -10, -31, -57, -39, -17, -6, 5, -16, 35, 58, 18, -10, -25, 41, 17, 31, 45, -51, 21, 32, 7, -45, 21, 32, -14, -57, 41, -38, -64, -46, -39, -55, -49, 0, -39, -2, 61, 55, 24, -19, -39, 25, -38, -29, 50, -53, 45, 14, 15, 4, 25, -35, 46, -9, -10, -13, -33, -40, -57, -22, 37, 0, 37, 8, 59, -79, -5, -27, -26, 7, -29, -42, -11, -17, -40, 22, 22, -17, -49, -60, -26, 14, -28, 3, -59, -37, -47, -41, -48, -54, 35, 64, 3, 29, 30, 47, -46, -66, 15, -28, -26, 35, 30, 43, -7, 12, 4, -63, -53, 49, -13, -42, -13, -61, 10, -25, 13, -35, -35, 26, 10, -49, 10, -34, 25, -29, -15, 36, 47, -47, 43, -9, -8, 3, 56, 31, 17, 1, 49, -2, -49, -34, 13, -51, 4, 34, -3, -13, -59, 3, 42, 40}
, {25, -18, -44, 18, -52, 57, 1, -29, -10, 38, -50, -20, 42, -30, 62, 59, 46, -28, 31, -34, -3, 36, 1, 56, -3, 30, -45, 32, -15, 24, -35, 39, 10, 55, 43, 4, -36, -9, -30, 11, 17, -35, 17, 51, 31, 3, -2, -3, -4, 9, 43, -4, 1, 48, 32, -14, 50, 42, 6, 49, -38, -5, 7, -56, -53, 68, 12, -2, 16, 52, -13, 52, -54, -15, -3, -15, -36, -48, -11, -29, -32, 46, 30, -32, -52, -45, -37, -47, 31, 50, 3, -5, -14, -59, 56, 7, -57, -2, 18, 32, -26, 26, -26, -56, -36, -19, 39, -19, -52, -10, -2, 11, 56, -19, 7, -2, -40, 21, 46, -26, -43, -28, 2, 29, 49, 3, 11, -8, -34, -21, 19, 35, 47, -36, -43, 2, -37, -41, 9, -13, 21, -5, -18, 18, -48, -5, -14, -50, 7, 3, -37, -38, -31, -54, -66, 45, -38, 20, -47, -9, -49, -36, 21, 55, 0, 60, -40, 57, -56, 39, 2, -40, -26, -38, 54, 55, 59, -20, 21, 44, -8, 17, 52, 45, 44, -15, 29, 42, -18, 29, 50, -15, -35, 27, -21, -12, -60, 1, -19, -53}
, {34, -56, -27, 19, -7, 29, 47, -53, -63, 31, 34, -45, 29, 8, -60, -5, -4, 20, -35, -59, 47, -61, -31, 26, -56, -52, 53, 35, -22, -17, -10, -24, -8, -1, 40, 28, -61, 22, 39, 31, 22, -20, -31, 18, -62, -53, -20, 18, 39, 44, 45, 60, -22, -46, -49, 44, 41, -16, -30, 36, 46, -59, 41, -38, 12, 28, 6, 44, 50, -41, -39, 58, 51, -9, -9, -25, 9, 3, 11, -42, -49, 5, 4, 31, -32, 34, 1, -12, 11, -38, 23, -13, -26, 30, 4, -57, 45, 40, -1, -33, -8, 9, -3, 53, -19, 59, -34, 49, 8, -47, -51, -41, -41, -44, -20, 53, 44, 26, -36, 23, -56, 0, -51, 26, -38, 38, 58, -15, 24, -60, -23, -10, -43, 62, 52, -56, -45, 50, -5, -12, -56, 33, -64, -15, 32, 57, -45, 35, -23, 19, 8, 54, -41, -55, -22, -10, -61, -49, 27, -41, 1, 15, 57, 26, -11, -44, -41, 26, -61, -18, -22, 0, -1, -13, -19, 15, -25, -61, 45, 44, -23, -5, 16, -49, -30, 21, -47, 13, 5, 15, 19, 2, 30, -30, 22, -48, -3, -30, -44, -53}
, {-39, 7, -32, -20, -2, -29, -53, 18, -16, 2, -8, -51, -50, -61, -33, 37, -24, 42, 59, 40, -23, -36, 8, -9, -41, -29, -30, -4, 29, -28, 4, 11, 52, 36, 0, 27, -12, -5, -56, -21, -50, 32, -61, -51, 23, 37, -15, -61, -55, 20, -61, -30, 8, 17, -48, -43, 28, 59, 11, -53, 53, -27, 29, -37, 33, -7, 3, 62, 41, -35, -58, -17, -52, -9, 3, 8, 32, 7, -39, 29, 12, -24, 45, -61, 39, 45, 16, 36, -56, 60, -26, -25, 59, 27, 54, -53, 11, -41, 7, 48, 42, 36, -47, -21, -22, -19, 9, 55, -52, 4, 38, 18, -34, 24, -27, 56, 25, 25, -39, -27, 24, 47, -50, 16, 14, -3, 41, -41, 42, 51, -7, 24, -53, -1, 13, -53, 41, 19, 25, -10, -59, 19, 36, -50, -14, 8, -50, -14, 57, 34, 37, -53, -16, -11, 31, 21, 49, -8, 26, 47, -54, 8, 13, -59, -51, 17, 52, -52, 69, -35, -36, -6, 56, -56, -55, -47, -13, 42, -19, -45, -58, -36, 32, -7, 9, -41, 52, -18, 12, -47, 45, 16, -34, -41, -44, -15, -24, -31, 0, -44}
, {-60, -49, -12, -49, 1, 46, 37, -16, -16, -29, 56, 1, -44, -59, 59, 0, -38, 7, -57, -56, 27, -25, -29, -6, -39, -60, -39, -48, 48, 36, 12, -29, -41, 50, -48, 51, -57, -58, 14, -47, -10, -14, -51, -28, 33, 47, -55, -14, -37, 40, -21, -42, -27, -46, -38, -28, -50, 12, -37, 38, 33, 1, 59, -20, -2, -21, -35, -44, -10, -40, 26, -16, 1, 34, 20, -21, 32, -13, 37, -14, -26, 40, -22, -8, -31, 23, 1, 53, 31, 57, 52, 1, 57, -4, -8, 12, -19, 34, 20, 17, 6, -58, 44, -49, 14, -2, 7, -36, -26, -53, -28, 60, 59, -25, 62, 19, 19, -19, -6, 13, 33, -15, 55, 3, 41, 17, 23, -18, 57, -5, -6, -27, 40, -10, 58, -44, -25, -60, 52, 13, 51, 16, 27, -53, -12, 9, -27, 31, 40, -23, -20, 15, -42, 36, 8, -1, -57, 10, -39, 56, 18, 0, 1, -39, -28, 55, -19, 43, 34, 61, -61, 49, 14, 29, 36, -53, -39, 37, 51, -45, -19, 53, -28, -60, 26, -6, 42, 51, 38, -19, -60, -1, -56, -3, -18, -39, 35, 0, 25, -56}
, {-28, -62, 25, 56, 39, -24, -16, -41, -49, 50, 40, 22, 22, 9, -14, 38, 30, 29, 13, -15, 76, -52, 26, 40, -50, -22, 56, -26, -19, -13, 37, 50, 24, -30, -28, 3, 61, -5, 26, 11, 27, 24, -16, -28, 3, -7, 0, 39, -56, 58, 14, -39, 46, -36, -23, -64, 12, -6, 44, -34, -20, 29, 19, -46, 30, 12, 56, 34, 33, -8, -6, 43, 52, -6, 54, 9, -33, 10, 1, 57, 40, -59, 26, 19, 38, 17, -5, 35, 46, -36, -61, -57, -42, 13, 67, 22, 34, 17, -50, 55, 19, -10, -11, 27, 22, 39, -41, 53, -22, 15, 53, -21, -7, 32, -16, 5, -25, -38, 56, -23, -30, -26, -35, -45, 61, 28, 58, -4, -24, -13, 57, -8, 38, -5, -47, 46, -52, 32, -57, 22, -63, -23, -23, 48, -5, -36, 59, -48, -16, -26, 1, 30, 16, 30, 10, -26, 28, 56, -27, 61, 38, -29, 22, 53, 45, 50, 27, 22, 34, 7, -50, -46, 12, 16, 37, 63, -22, -56, -9, -51, 55, -5, 57, -2, -32, 36, -17, -52, 46, -6, -54, 42, 58, -1, 37, 33, 54, -57, 9, -11}
, {23, -13, 46, 5, -2, 23, 12, 59, -71, 37, -9, -40, 29, -40, -58, -61, -17, 23, -34, -25, 70, -25, -38, 19, 23, 19, -15, -54, -56, -61, 110, -57, 56, -5, -15, 44, -27, 60, -23, -2, -14, -14, 15, -1, 10, -61, 54, -49, -69, 34, 21, 28, -59, -43, 21, 29, -3, 20, -30, 67, -65, 55, -6, -24, 44, 38, -55, -32, 11, 18, -4, -4, 33, 7, 32, -35, 60, 17, -54, -23, -51, 48, 0, 40, 14, -49, -59, 42, -52, 42, 43, -22, 25, -31, 7, -43, 0, -49, 60, -22, -42, -30, 26, -22, 30, -50, -44, 26, -13, -14, -37, 14, 20, 71, 37, 49, -26, 8, 38, -35, 21, 26, -20, -3, -24, -8, 14, 54, 35, -20, 46, 0, 61, 35, -55, 60, -62, -66, -30, -16, -51, -8, 10, 13, 29, -1, -39, -5, -45, 43, 46, -23, -37, -14, 12, -6, 56, 62, 53, 29, -6, -13, -3, -47, 25, -5, 59, 34, 34, 18, 11, -48, 27, -21, -39, 38, 47, 52, -57, -59, 191, 8, -42, -15, -24, 42, 0, -50, 46, 27, -5, -57, -36, 8, -39, -33, -38, -29, 22, 0}
, {-4, -63, 7, -52, -25, 24, 46, 2, -15, -14, 26, 49, 16, 0, 22, -36, 7, -27, 49, -45, -57, 50, 33, -49, -16, 23, 26, 38, -63, -11, -24, 50, 39, 6, -46, 49, 45, 25, 56, 1, -26, 39, -7, -1, -5, -58, -46, -24, 12, 51, 53, 39, 40, -2, -41, -26, 40, -15, 18, -54, 26, 30, 52, -3, -44, 30, -41, 3, 52, -35, -49, 45, 23, 60, -19, -54, -15, 20, -36, 52, 5, -47, -48, 54, -39, 29, -44, 8, 16, -1, -2, -60, -7, 53, 43, 50, 28, 43, -21, -28, 19, 55, -25, 36, -7, -49, -3, 25, 40, 12, -15, -48, 30, -42, 14, 6, -19, 14, -3, 33, -27, 35, 43, -59, 26, 12, 33, 18, -16, -59, -47, 6, 28, -56, -11, 8, 25, -43, -11, 45, -4, -39, -50, -59, -28, 46, 40, 5, -67, -42, 37, 1, -23, 0, -36, -61, -1, -30, 21, 30, -66, -25, -44, -58, -11, -10, -53, 46, 60, 15, -22, -19, 11, -53, -58, -23, -16, -12, -41, -15, 34, -9, 45, 25, 32, -36, 29, -20, -20, -43, -20, 8, 7, 21, -43, 0, -20, 8, 56, 15}
, {44, 37, 18, -51, 15, -54, 57, -6, 20, -40, 10, -61, 42, 15, 40, 39, -22, 28, -62, 3, 52, 10, -36, 43, 21, -3, -45, 62, -22, -15, 19, 1, -22, -38, 34, 20, -59, 15, 42, 63, -53, -61, -15, -58, 66, -64, -57, 16, 37, 3, 35, -21, -47, 50, -47, 66, 54, 12, -2, 39, -31, 30, 28, 44, -23, -9, -50, -5, -34, 7, -17, 0, -44, 50, 50, -12, 0, 57, 7, -13, 0, -40, -40, 40, 10, 20, 8, 33, -20, 43, 50, -3, 36, -28, -31, -14, -22, 45, -11, 14, -15, 45, 14, 30, 42, -21, 46, 49, -61, -34, -19, -40, 0, 20, -63, -55, 2, -52, 5, 46, 5, -52, 49, 49, 30, -45, 47, 1, 41, -27, 43, 43, -27, 53, 31, -39, -34, 50, 53, 1, -29, 33, -30, -22, 16, 0, 25, -37, -6, -33, -40, 38, 2, -6, -15, -3, -38, 16, -31, -32, 60, -10, 29, 19, 52, -5, 57, 27, 32, 16, 22, 13, 60, -49, -51, 5, -24, 8, -58, 35, -54, -17, -56, -7, -4, -31, -40, -2, -13, -35, 10, 25, -13, 14, -36, -30, -25, 27, 62, 14}
, {-5, -23, -46, -16, 28, -34, -46, 48, -21, 12, 17, -15, -9, 52, 13, 41, 53, 4, 36, 65, 55, 8, 58, -53, -6, 49, 52, -59, -47, 43, -35, -25, 64, 7, 18, -17, -41, 26, -34, 15, 61, -23, 47, 19, -46, 36, -9, -17, 31, 20, -27, 5, 1, -1, 30, -9, -20, 39, 20, 68, 23, -59, 61, -7, 62, 22, -52, -37, 36, -56, -31, 58, 23, 62, 14, 12, -45, 2, 57, 47, -24, 39, 50, -17, -18, -52, 18, 21, -24, -35, -34, 63, -12, 40, 41, 23, -55, 55, 11, 53, -23, 10, 0, 11, 7, 28, -30, 28, 2, -29, 62, 57, 34, -11, -39, 66, -58, 2, 23, 53, 49, 59, 38, 58, 36, -46, 11, 65, 0, -31, -55, -27, 36, 15, -26, 1, -50, -10, 6, 30, -32, -38, 20, -7, -33, 3, 58, -17, 25, 58, 45, -8, -1, -37, 1, 26, -51, 50, -72, -48, 31, -15, 28, -45, -32, 8, -37, -12, 17, -36, -47, 10, 54, 58, -41, -64, -23, 15, -37, -11, 41, 27, -59, 15, 35, 15, 27, 3, 46, 52, 16, 23, -29, 31, 44, 61, 32, -46, -12, -39}
, {-57, 55, -52, 5, -53, 52, 44, 36, -1, 7, 56, -16, -34, 46, -22, -44, 7, 17, 23, 5, 78, -79, 6, 40, -38, 52, -41, -45, -29, 51, -2, -25, -41, 12, -47, 1, -54, 62, 29, 18, 58, 21, -16, -14, 41, -64, 12, 55, -55, -14, 40, -15, 5, 43, 22, 27, -40, 42, -7, 0, 37, 56, -6, -33, 34, -35, -12, -39, 1, 56, -10, 58, -21, -57, -17, 56, 45, -43, 32, 3, -25, -4, 58, 47, 41, -32, 30, -12, -29, -55, 22, -12, -39, -32, 68, 56, 4, 54, 56, 55, -11, 0, 59, -34, 8, -9, 22, -2, -49, 55, 53, -60, -40, 4, 20, -42, 12, 56, -53, -6, 53, 65, -8, 43, 22, -61, 16, -11, -48, -13, 13, 19, -31, -3, 50, -28, 1, -54, -29, -40, -29, 18, -32, -9, -36, 39, 29, -57, -43, 52, -39, 20, 42, 6, -32, 36, 11, 31, -30, -5, 1, -53, -44, 19, 61, 58, 28, -38, -57, -52, -18, 23, 8, 27, -35, 0, 48, 66, 37, -1, 109, -45, 12, 61, 68, 17, 0, -26, 56, -2, 26, -30, -2, -7, -35, 10, 56, 54, 41, 17}
, {-17, 49, -31, 34, 46, 23, 57, 26, -45, -31, 58, -33, 37, -48, -58, -2, -39, 25, -54, 30, -25, 2, -54, 57, -49, -40, 23, 27, 10, -49, 20, 26, 31, -22, -7, -31, 50, -1, -55, 27, 39, 1, 39, -57, -45, 41, -13, 9, -27, 24, -8, 3, 40, -60, -16, -49, -51, 28, -53, -14, 22, -30, -14, 46, -56, 16, 57, -33, -51, -24, -19, 5, -35, 34, 40, -29, 43, 17, -13, 57, -2, -54, 3, 4, 33, -50, -27, 55, -37, 13, -53, 26, -57, 13, -25, -58, -25, -46, -63, 40, 34, 0, 0, 62, 1, -39, -26, 49, -27, 10, -35, 46, -56, -20, -30, 47, 10, 4, -29, 11, 51, 54, 0, 35, -31, -47, -23, 54, -58, 0, -22, -47, -10, -32, 13, -13, 53, 35, 53, -17, -64, -29, -4, -51, -53, 8, 29, 44, -26, -49, 59, -4, -62, -44, -6, 0, 13, 14, -29, -34, 0, -34, -49, -51, 0, 25, -38, -40, 43, -32, 0, -57, 41, 25, 52, -12, 35, -52, 43, 56, -14, 46, -57, -11, -36, 30, -63, 23, -18, -46, 19, 39, 8, 42, 8, -58, 0, -4, -31, 57}
, {-25, 11, -61, -7, -8, -44, -46, -49, -45, -41, 20, -28, -6, -13, 56, -34, 0, 19, 0, -8, 48, 0, -40, 13, 21, 1, -53, 40, 29, -53, 58, 2, 21, 7, -64, -18, -20, -9, 28, -35, -12, 33, 12, 7, -12, -44, 52, 30, -38, -37, -33, -61, 18, -17, 31, 45, -32, 2, 24, 44, 3, 0, 0, -55, -17, -4, 57, -61, -26, 22, 26, 4, 12, -58, 42, 27, 43, -52, -31, -57, -31, 61, -16, -63, -21, 52, -27, 47, -26, 62, -57, -51, -21, -63, -51, -54, 58, -58, 18, 25, -25, -51, 40, 0, 47, -26, -14, -4, 46, 33, 57, -3, -15, -34, -37, -58, -15, -2, 0, -60, -23, -57, -35, 55, 4, -3, 55, -7, 47, -63, 61, -44, 26, -30, -14, 57, -49, -18, -24, 7, 38, -4, 0, -34, 32, 13, 44, 16, -52, 45, 56, 41, 38, -17, 3, 20, -35, 0, 16, 29, 12, 47, -7, -6, 8, -53, 44, -25, -61, -13, -54, 36, 7, 34, -27, 59, 23, -60, -59, 4, -30, 58, 21, -15, 33, 45, 27, -11, -36, 4, -22, 44, 28, -12, -15, -65, -42, -8, -39, -58}
, {40, -22, -3, 5, 33, -27, -64, 53, -26, -27, -17, -28, 3, -35, 43, -26, 61, -2, -6, 20, 35, -4, 37, 18, 51, -48, 52, 57, 51, -62, -32, 42, -41, -50, 25, -33, -20, 4, -39, -20, 46, 6, 8, -30, 36, 9, -26, -42, 5, 42, 3, -4, 6, -46, 26, -52, 50, -41, 14, 74, 45, 30, -11, -41, 41, 65, -45, 55, 5, -42, -42, -38, -1, -30, -7, -3, 25, 17, -45, 17, -4, -49, -58, -62, -31, 0, 37, -3, 22, 52, -40, -47, 9, -7, 48, -16, 44, -30, -34, 6, -29, 8, 59, 36, -46, -1, 0, -3, -52, 62, 54, -15, 51, 75, 24, -37, -18, 30, 47, 49, 6, -39, -51, -8, -43, 50, 48, 12, -56, -35, 39, 53, -2, -4, -32, -37, 51, -59, 45, 9, -16, -44, 7, 12, 27, -23, -23, -8, 58, 7, -43, 3, -64, -49, -52, 51, 28, -58, 30, 38, -41, -23, 12, 61, -30, 8, -36, 31, 54, 38, -21, 69, 14, 9, 58, -18, 18, 15, -7, -67, 0, 8, 31, 20, 2, -43, -20, 26, -22, 39, -44, -12, 34, 29, 46, -5, -24, -44, 42, 50}
, {-40, 62, 19, 11, 25, 57, 13, 60, -34, 18, 20, 53, -41, -12, 24, -42, -7, 41, 5, 25, 35, 20, -19, -53, 58, -1, -64, 28, -36, -35, -17, 17, 45, 43, 3, -1, -12, 43, -37, 0, -3, -36, -16, 60, 45, 64, 24, -62, -26, -52, -24, -8, -8, -21, 11, 33, -19, -19, 37, -48, -52, -7, -48, 8, 47, 35, 25, 27, 50, -43, -41, 2, -10, 52, 42, 9, -10, 30, 33, -23, 16, -13, -62, 37, -19, -12, -7, -45, 11, 29, 23, -23, 41, -3, -34, -48, 68, 24, -26, -37, 58, 2, -17, -24, -67, -42, -23, -31, 39, -5, -39, -12, -12, -7, -54, 19, 50, 19, 15, -13, 17, -53, 34, -38, 2, 14, 34, -60, 15, -22, 17, -46, 60, -9, 22, -35, 59, -38, 34, 6, -25, -46, 32, 2, 44, 56, -57, 21, 44, 8, 59, -14, 59, 62, -40, -12, -56, -1, -7, -33, 41, 50, -39, -59, -14, -27, -53, -11, -40, -30, 58, -6, 5, 31, 58, -19, 58, 42, 34, 13, 15, -12, 60, -52, -37, 23, 43, -8, 49, -44, 39, -3, -2, -20, 22, -58, 49, 11, 35, -49}
, {22, 12, 47, -24, -3, 0, -1, -18, 49, 23, 1, 53, -19, 15, 7, -21, -57, -48, -50, 58, -27, -37, -52, 25, 26, -9, -10, -42, -46, -49, 58, -48, 50, 0, -56, -13, 22, -3, -1, 12, -58, 5, 27, 5, -3, 40, 22, -33, 35, 59, -60, -3, 37, -61, 4, -50, -24, -18, -11, 15, -23, 26, 38, -50, 3, 22, -3, 17, -46, 46, -2, 23, 28, 54, -43, -21, 40, 42, 20, -39, -48, 25, -15, -1, 32, 62, -43, -45, -35, -57, -29, -39, 59, -40, 41, 6, 33, -55, -54, -30, -52, -31, 51, 40, -25, -29, -57, 17, -46, -39, 38, 7, 48, -52, 40, -11, 27, -46, 20, 15, 16, -59, 0, -24, -28, 45, -19, -32, 52, -35, 12, 42, -56, 7, 11, 4, -53, -53, -2, 30, 54, -54, 11, -26, 16, 36, -16, 22, -57, 24, 3, 49, -24, -29, 34, -46, -30, -42, 45, 43, 16, -21, -51, 37, 10, -43, -43, -39, 13, 34, -15, 60, -55, -27, 47, 44, -24, 58, -37, 9, -1, -24, -22, -31, -27, -60, 46, 0, 51, 42, 36, -46, 8, 50, -22, -38, 20, -44, -62, -42}
, {24, -50, 2, -66, -59, 24, 40, 28, 13, -46, -14, 12, 55, -8, -27, 11, 1, 53, 2, -23, 41, -35, -31, 19, -39, -67, 46, 11, 32, -11, -21, 49, -50, 27, -45, -4, 4, -17, 45, -44, 13, 39, -2, -9, -14, -2, 37, 22, -31, 24, -48, -17, 60, -46, 12, -27, 36, 39, -50, -17, 41, -6, 25, 10, 44, 36, -19, -52, -22, 13, 9, 27, 20, 18, -60, 58, 41, 7, -39, -29, -17, -38, -47, 54, -44, -36, -15, 5, 14, -55, -47, 25, -5, 26, 12, 34, 8, 60, -15, 58, 40, -20, 21, -61, -16, -51, -68, -7, -15, -13, 21, 6, -52, -44, -32, -51, 32, -42, 5, -38, -50, 16, 31, -12, -24, -32, 48, -34, 1, -26, -41, -4, 56, 36, 43, -13, -30, 26, -10, -16, 55, -51, 10, -51, 10, 50, -30, -32, 4, -3, -59, 30, 1, 61, -61, 25, -19, 6, 15, -51, -54, -30, 6, -51, -66, 62, -60, 44, -50, 50, 16, -15, 2, -38, 22, -52, 36, 28, 45, -42, 10, -34, -3, -2, -7, 35, 22, 24, 48, -8, 50, 25, -23, 47, -55, -33, 8, 49, -3, -4}
, {-13, -27, 23, 44, -41, 36, -30, 39, 58, 43, 37, 27, -42, -3, 38, -55, 4, -4, -19, 28, 10, 6, -38, 15, -18, 37, -28, -31, -8, 49, -22, 31, 34, -24, -49, 50, 37, 41, 4, -16, -39, 16, 45, 53, -62, 9, -43, -25, -11, -7, -30, -37, -53, -46, -43, 24, 10, 43, 31, -57, -14, -5, -6, 11, -62, -23, -50, 49, -54, -19, 52, 62, 14, 3, -29, -21, -48, 0, -59, 49, -3, -14, 48, -39, -51, -29, 0, -17, 37, -32, 44, 34, 10, -59, 58, -9, -9, -25, -29, 45, -39, -58, -11, 15, 15, 55, -65, -43, 55, -21, 1, 23, -24, -51, 25, -13, -12, 42, -39, -35, -43, -62, -45, -11, 17, -34, 21, -17, 39, 52, 49, -42, 32, 28, 59, 46, 25, -9, 12, 2, 48, 9, 45, -57, -30, -14, -9, -20, -48, -24, -58, -54, 46, 31, 22, 23, -53, -52, -24, 38, -23, 38, 22, -22, -29, -50, 17, 48, -21, -47, 0, 16, -46, 58, 18, 27, 13, -36, 50, -30, 22, 22, 13, -29, 46, 41, -44, -60, -4, 56, 56, -9, 59, -43, -52, -29, 30, -10, 3, 10}
, {-54, 37, -14, 59, 5, -36, -38, 2, -7, 49, -50, -7, -2, -48, 32, 58, -27, -23, -22, -19, -39, 9, 39, 60, 40, -43, 28, 24, -5, 44, -54, -37, 8, -9, 4, -2, 15, -59, 54, -79, 50, 28, -29, -27, 0, 25, 36, -5, 17, 3, -14, -30, -36, 15, 21, 32, 3, -61, 61, 15, -30, -55, 59, 25, -27, -62, -59, 2, 27, 0, -30, 14, -4, -6, -1, -31, 5, -23, 54, 0, 48, -3, 59, 53, 19, 1, -9, -6, 49, -18, 15, -17, -57, 38, 41, 15, 18, 33, 36, 19, 62, -34, 40, 52, 7, 36, -35, -30, 58, -57, -35, 55, 68, -33, 15, 8, 0, 30, 28, 7, 68, -6, -62, 12, -49, 28, -20, 69, -7, 0, 0, -25, -5, -12, -47, -27, -46, -48, 26, -33, -9, 58, 3, 11, 54, 2, -13, -12, -19, 3, -4, 63, 54, -27, -56, -14, -58, 37, -67, -12, 56, -46, 54, -29, 3, 64, -9, 59, 56, 10, 62, -2, -47, 46, -46, -22, -45, -61, 50, 42, -59, 18, -51, 33, -45, 9, 44, -9, -15, -43, 6, -23, 10, -28, -13, -49, 6, 61, -55, 29}
, {-40, 52, 58, 62, 1, 8, 31, 17, 27, -47, -63, 38, 6, -57, -44, 8, -20, 50, 57, -8, 60, 34, -34, 8, 48, -37, 25, -57, -24, -49, 70, -63, 31, 61, 27, 29, 47, -7, -60, -45, -29, 14, 29, 29, -35, -19, 19, 46, 46, -51, -51, -34, -18, 13, -60, 53, -60, 50, 15, -56, 32, 21, 48, -22, 18, -16, -47, 23, -22, 36, 15, -5, -1, 5, 32, -38, 1, 27, 24, -38, -39, 27, 57, -39, 56, 28, -1, 43, -13, 56, 58, 47, 54, -25, -52, 51, 34, 61, 52, 62, 32, 24, 5, 32, -9, 20, 18, 15, -25, 51, -38, 15, -18, 30, 41, -9, 8, -61, -57, 33, 40, 18, 4, 50, 9, -23, 17, 21, 42, -30, 49, -4, -34, 11, 25, -27, -36, 52, 53, 41, 13, -54, 6, 42, 2, -27, -53, -39, 8, -2, -37, 15, -12, 53, 17, 57, 5, 23, -44, 8, -55, -17, 44, -32, -50, 26, 4, 21, -9, 41, -1, -18, -60, 44, 19, -15, -47, -4, -13, -24, 41, 2, 0, -21, -29, -30, 47, 39, 60, -43, -35, -25, -14, 49, 11, -22, 58, 59, 8, 9}
, {4, -26, -15, 9, -59, -15, 60, -47, -57, -14, -26, 35, -40, 26, -22, -61, 55, 42, -54, 25, -13, 61, 6, 43, 19, -4, -7, -7, 37, -48, 33, 34, -39, -3, 5, -61, 59, -31, 6, -55, 31, 29, 56, -19, -17, 28, 58, 17, -35, 17, 53, 9, -11, 14, -23, -4, -4, 21, -35, 45, 16, -23, 12, 50, 43, 9, 22, 9, -12, 0, 16, -12, -8, 2, -12, 30, 43, -58, 45, 19, 10, 25, 58, -37, -15, 7, 5, 5, -46, 62, 6, -37, -50, -61, -57, -26, -24, -37, -20, 58, -42, 10, 0, 4, 58, 12, 29, 35, -40, 32, 21, -35, -47, 58, -51, 18, 2, -2, 24, -57, -38, 20, -54, -7, -54, 38, 17, -53, -13, 22, 48, -55, -36, 23, -1, -56, 47, 42, 29, -53, 55, -31, 37, 44, 30, -16, 59, -34, -12, -28, -5, -40, -39, 58, 19, -14, -57, 33, 13, -35, 44, -25, -12, -48, 8, 35, 46, -23, -19, -23, 32, 50, 2, -21, 48, 58, 16, 24, -49, 41, -41, -43, 23, -39, 35, 14, -36, -19, -45, -19, -28, -29, -7, -37, 43, -61, 59, 53, 61, -32}
, {8, 33, 24, -38, 56, 60, -58, 59, -57, 56, 20, -3, -48, -35, 8, -8, 38, 8, -12, -19, 11, 49, -27, -37, 29, -1, -59, 15, 17, 42, 109, -57, -17, 42, -53, 10, -37, 11, -4, -32, 59, -58, -51, -25, 56, -27, 42, 31, 40, 0, 45, 35, -18, 45, 53, -56, 28, 6, 18, 38, 48, 13, -29, 7, -46, 36, -16, 47, -56, -1, -52, -13, 48, -16, -14, -32, -29, 40, -12, 62, -19, 20, -17, -37, -41, 22, 21, -23, -48, 68, 44, -12, -2, 55, 24, -33, -53, 64, 30, -58, 50, 20, -19, -32, -56, 24, -4, -53, 32, 35, -55, -52, 50, -25, 18, -7, 58, 21, -41, 36, 17, 6, -35, 21, 28, -2, 1, -49, 23, 6, 2, -21, -4, 47, -8, 54, -25, 11, -51, 27, 7, 21, 0, -63, -18, 44, 40, -10, 38, -9, -43, 8, -48, 22, -32, -43, 4, 7, -39, 11, -29, 15, 53, -51, -14, 45, 2, -3, 56, -30, -13, -24, -34, 39, -51, -20, 55, 17, -22, 43, -13, 54, 39, 32, 47, -59, -35, -47, -43, 6, 40, 21, -61, -5, 24, -20, 9, 45, -22, -25}
, {-27, -63, -22, -43, 33, 24, 48, -64, 14, 18, -23, -53, -44, 17, -44, -14, 54, 63, 4, 11, 10, 52, -27, 57, 14, 52, 56, 45, 41, -57, 33, -46, -22, 58, 44, -16, -60, 50, 16, 56, -46, -36, -6, 6, 16, -54, -25, 19, -20, -27, 53, 24, 29, -54, 28, 49, 6, -23, -10, -11, 47, 47, 25, -14, -34, -52, 47, 18, -30, 44, -63, 39, -19, -45, -53, -42, 54, -38, 54, 8, -58, 40, -44, -31, 20, 59, 49, 18, -52, 40, -53, 22, -61, 48, 47, 21, -6, 13, 4, -43, -22, 41, 32, 44, 30, -25, 1, -65, -61, -47, -20, -4, -46, -34, -38, -24, 18, 12, -35, 48, 1, 61, -43, 36, -18, 51, 7, -37, -62, 56, -6, -2, -30, -44, 31, 25, -50, 44, 61, 41, 43, 11, -62, -27, -3, 1, -47, -32, 13, 28, 28, 56, -21, 43, -17, -43, 36, -4, -35, 30, -34, -53, -41, 9, -3, -5, -36, -39, 39, -43, 16, -19, -60, 27, -60, 23, -64, -55, -25, -17, -11, 23, 7, -17, -10, 43, -43, -6, -16, -37, -17, 10, -5, -22, 58, -43, 63, -25, 35, 23}
, {1, -3, 5, -18, 17, 7, -55, -14, 35, -19, -2, -12, -29, 53, -47, -53, -12, -47, -26, -43, 27, 46, -34, 27, 55, 15, -12, 38, -49, 1, -26, -21, -56, -48, -40, -51, 34, -39, -44, 26, 32, 56, -54, 8, 29, -33, 53, -36, 5, -58, -33, 59, -40, -56, -15, 59, -12, 37, 46, 25, -48, 55, 62, -16, -2, 43, -54, -56, -43, -61, -44, 57, 57, 58, 16, -45, -28, -4, 61, -18, -27, -52, -22, 32, -40, -46, -6, -16, 34, 50, -54, 61, 37, 33, 5, 51, -17, 13, 55, -24, 37, -56, -45, -20, -38, 41, -1, 0, -55, -41, 31, 48, -36, 54, 8, -38, 47, 37, 28, -6, -60, 29, -22, -26, 35, -11, 57, -38, -45, -36, -11, 8, -31, -18, -43, 50, -9, -32, 0, 43, 3, -21, 12, 19, -48, 42, -43, 23, 46, 2, -15, 11, 33, 31, 2, 2, -35, -58, 15, 14, 60, 17, -51, -61, -56, 9, -8, 0, 12, -55, -29, 18, -43, -41, 11, -20, -34, 48, 7, -2, -9, 20, 23, -51, -59, 41, -47, 2, 28, -10, 62, -20, 9, 61, 61, -17, 54, 13, -52, 8}
, {-35, -59, -63, -56, -16, -21, -32, 25, -35, 4, 2, 38, 2, -14, -53, -24, -31, 2, 11, 27, 44, 47, -13, -3, 25, 18, -29, -21, -11, -50, 1, 55, -12, -53, -8, 62, -58, 52, -23, -23, -49, -31, 41, -32, 41, 24, 21, 53, -11, -15, 57, -58, -31, -24, -35, -2, 1, -10, -29, -8, -19, 22, -29, 4, -48, 53, -52, 34, 50, 22, 35, 31, -13, -57, 46, 33, -21, -9, 59, -48, -13, -38, -48, 54, -35, -53, 24, 58, 35, 53, 53, -23, -24, -39, 28, 27, 33, 49, -62, 50, -18, 10, 55, -29, 50, 32, 32, 0, -65, 42, 51, -43, 56, -28, 25, 30, 19, -57, 4, -32, -28, -6, -33, 7, -19, -58, 19, -33, 36, 28, 42, 33, 48, -16, 10, -1, -34, 28, 54, 55, -66, 50, 22, -55, 31, 48, 43, 23, -6, -30, -60, 22, 57, -13, -17, -63, -18, -15, -29, 24, -4, 12, 37, 56, -31, 62, 25, -66, -35, -8, 39, -8, 54, -46, 19, 15, 12, -14, -57, -29, 41, -29, -40, -3, 7, 33, -12, -4, -34, -47, -18, 57, 16, 21, 26, 52, -18, 24, -9, -40}
, {34, 29, 44, -45, -6, -9, -47, -6, 18, 49, -4, -63, 15, 8, -12, -40, -28, -49, -27, 19, -23, 39, 21, 17, 22, -28, 21, 23, 37, 23, 52, 46, -25, 36, 13, -13, 0, -36, -11, 44, 48, 42, 37, -2, -15, -19, -62, -13, -52, 14, 49, -18, 34, 53, 26, -11, -16, 68, -56, 66, 15, -51, -28, 42, 0, -22, -50, -29, 38, -18, -36, -54, -56, -24, -27, 4, 4, -9, -7, 36, 8, -12, 15, 22, 50, 16, 32, 45, 18, -21, -52, 26, -57, 20, -48, 40, 21, -43, 19, -21, 44, -38, 35, -53, -61, -65, 48, -45, 27, -29, 34, 19, -35, -59, -16, 29, 32, -26, 21, -59, -40, 60, 22, 61, 36, -46, 21, 39, 7, -59, 22, 33, 60, 4, 53, 24, 41, -44, 34, 49, 33, 58, -36, 30, 0, 18, 29, -36, -37, -33, 44, -4, 44, 37, -7, 1, 40, 16, -42, 2, 58, -3, 19, -25, -7, -8, 43, -63, 22, -20, 30, 30, 30, -61, -28, 20, -40, -45, -49, -39, -45, -40, -34, -41, -59, -56, -55, -16, -13, -49, 30, -55, -2, -56, -55, 4, -32, 28, -46, 22}
, {-25, -20, 14, 33, 53, 58, 18, -18, -39, 32, -49, 59, 17, 33, -55, -56, 34, -24, 26, -22, 48, 9, 3, -41, 16, 54, -57, 36, 30, -20, -43, -48, 59, -42, -42, -33, 50, 18, 43, 56, 51, 6, -24, 0, -59, 25, -22, 32, 6, 25, 10, -44, -29, 36, 49, -10, 0, 39, 34, 16, -23, 53, 5, -13, -23, -27, 13, -42, 28, -29, 53, -29, -41, -28, 30, -3, 4, -30, 3, 45, 62, -50, 14, 30, 1, 23, -20, 34, -34, 23, -16, -52, 3, 57, -37, 28, 26, -26, -42, 28, -5, -57, -4, 9, -41, -50, -1, 16, -49, 58, 44, 37, -29, 39, -59, -11, 39, -4, -49, 24, 16, 37, -2, -45, 50, -51, 22, 17, 5, 22, 9, -62, -60, 11, 7, -60, 0, 29, -53, -59, -8, -31, 28, 39, -60, -60, 57, -27, 10, -47, -57, 50, -44, 38, -46, 23, 9, -12, -55, 19, -39, -39, -11, 16, 17, 51, 19, -3, 49, 56, -59, 41, -58, -45, -62, -60, -47, -42, -58, 44, 17, 8, -60, -38, 54, 4, -23, 48, -57, -17, -41, -55, 22, -17, -12, -46, 54, -3, -54, -47}
, {-25, 9, 0, -49, -28, 0, -4, -61, 43, -45, 57, -62, -3, 47, -15, 23, 9, 47, -7, 24, 22, 49, -29, -15, -34, 12, 31, -62, -8, 61, -9, 15, 41, -47, -6, 47, 49, -57, 11, 43, 33, 40, 62, -48, 67, 16, 15, 53, 8, 54, 35, -9, -30, 45, -6, -45, -57, 56, 7, -47, -66, 34, -9, -24, -38, 7, 57, 4, -54, 40, 32, 32, 31, 18, -51, 44, -43, -63, -61, 2, 47, -24, -24, -3, 52, 37, -41, -44, 52, -23, 44, 37, 28, -65, 32, 41, -14, -15, -14, 19, -51, 4, 7, -18, -19, -51, 29, -62, 11, -3, -6, -14, 34, -41, -57, -43, -16, 40, 26, 28, -66, 44, -47, -61, -20, -14, 48, 16, 26, 47, -45, 1, 1, -24, 21, -7, 17, 27, -11, 20, -46, -64, 56, -61, -14, -65, -8, 37, 2, -15, 50, -52, 45, -54, -26, -2, 49, 28, 42, -48, 56, -9, 22, -46, -36, -61, 35, 44, 14, -23, -31, -40, 36, -39, -59, 39, -55, 41, -51, 26, -18, -66, -29, -28, -35, 31, -65, 9, -16, 3, 7, -48, 44, 29, -31, 26, 39, 2, -24, 49}
, {-38, 36, -1, 37, 33, -7, 32, 0, 20, 16, 53, 34, 3, -29, -41, -37, -9, 0, -26, -54, 56, -19, -39, -50, 3, 47, -57, 12, 10, 48, 35, -40, -48, 4, -48, 0, -41, -43, -31, 58, 6, -3, -62, 34, 5, -57, -23, -50, -55, -24, -23, -26, -30, 15, -63, 1, 60, 19, -5, 48, -36, 60, -46, -55, -1, 51, 49, 49, -17, -45, 49, -30, 21, -52, 12, -45, 51, -35, 26, 2, 42, -21, -40, -26, 28, 7, 45, 12, -32, -34, 31, -50, 60, -42, 7, -49, -8, -67, 15, 55, -12, 1, 46, -14, -49, 5, 25, -26, 14, 24, 34, 5, -58, 46, 4, 35, -45, 41, -9, 53, 27, -56, 13, -7, -62, -20, -18, -15, 15, -47, 15, 24, -26, -35, 39, -5, -22, -1, -26, 16, -26, 52, -13, -9, 53, 45, -10, 6, 55, -7, 52, 35, -16, 0, -49, 1, -48, 59, -5, 34, -46, 1, 9, -1, 29, 30, -56, -6, 19, -16, -14, 15, -25, -12, -27, 52, 25, 32, -32, -67, -42, 20, 45, -18, -57, -5, -43, 58, -5, 47, 29, 18, 55, -47, -26, -55, 42, 31, 49, -7}
, {-50, 28, -20, 43, -52, -5, 0, 0, -3, -32, 7, 7, 47, 28, -30, 56, -55, -10, -19, -58, -32, -22, -39, 58, -2, -27, 16, -37, -23, -22, 54, -8, -29, 21, 5, -42, 6, -60, -23, -13, 56, 42, 45, -16, -7, -62, 18, -8, -1, -22, -38, 53, -32, -25, 36, 4, 44, -33, 10, 36, 42, -18, -45, -34, -17, 48, 57, -34, 3, -47, -20, -48, -1, -48, -14, 50, -33, 24, -39, -19, -1, -14, -32, -41, -35, -9, -50, -49, -29, -55, 9, -49, 40, -30, 17, 13, 19, -5, -64, -27, -43, -19, 8, 32, -13, 51, 43, -40, 16, 25, 22, -49, -37, 57, 25, 54, 22, -51, -8, 13, -22, -47, 13, -38, 16, -58, -14, 0, 45, -36, -14, -12, -22, 8, 3, 57, 19, 0, 24, -59, 50, -54, -42, 23, 35, -9, 0, -26, -60, -15, 8, -66, 20, -44, -11, -27, 39, -4, 32, 19, 1, -43, 5, -49, 55, 0, 40, 16, 1, 10, -37, -59, -16, -34, -12, -45, 42, -5, 7, 36, -38, 6, -19, -60, 4, -46, -32, 16, -45, 49, 47, -27, -38, 32, 34, 20, -24, 53, -10, 3}
, {-27, -20, 29, 45, 21, 21, 11, -3, -57, -37, -45, 24, -12, 10, 21, -36, 19, 59, 17, -10, 60, 8, -10, 47, 43, -46, -31, 17, -60, -54, -16, -42, 41, 47, 10, -45, -18, -34, -61, -35, -60, 56, 3, -4, -23, 15, -50, -27, -34, 20, 44, 48, 24, 4, 52, 0, -34, 48, 8, 49, -1, -7, 25, 50, -6, -29, 21, 64, -22, 54, -26, 53, 14, -46, 60, -59, 10, 52, -38, 62, -48, 55, 32, -42, -51, 4, -27, 13, -54, -35, -25, 43, 7, -48, 56, 38, 29, -30, 38, -8, 34, -66, 24, 20, 16, -43, -42, 60, 28, 31, -41, -20, 36, -13, 35, 71, 20, -49, -29, 56, 33, 35, 2, 8, -55, 10, 30, 54, -41, 14, 6, 4, 36, 9, -21, -56, 28, -46, 0, -38, 24, 31, 4, 47, -22, 34, 42, -27, 35, 21, -33, 1, 10, -10, -8, -14, -54, -24, 27, -20, 51, -54, 23, -12, 35, 14, -46, -44, -11, 49, -11, 15, 57, 43, 21, -17, -31, 44, 50, -56, 97, 52, 47, 42, 34, 45, 50, 54, -44, 36, -20, -23, 25, 18, -24, -50, -22, -27, 39, 16}
, {-4, -13, 15, 7, 20, -48, 55, 37, -2, 34, -13, -1, 15, -36, -60, -6, 2, -51, 19, -41, -41, 14, 33, 2, -8, 13, -56, -51, -1, -28, 21, 20, 43, -40, 10, -30, -11, -2, -35, -30, -53, -58, -12, -20, -25, -61, 19, 19, -18, 41, 12, 4, -31, 21, -54, -52, 50, 65, 10, 49, 31, -55, 27, -56, 29, -15, -15, -26, 11, 9, -56, 29, 45, -25, -61, -47, -30, 35, -7, -45, -3, 52, -45, 59, 15, 45, 0, 26, 32, -42, -8, -14, 48, 53, -2, 32, -42, 24, 55, 46, -33, -29, 19, 40, -45, 43, -19, -21, -28, 61, 45, 45, 3, -15, -52, 27, -35, 2, -41, -47, -31, -4, -32, 52, 54, 41, 48, -15, -57, -5, 3, -52, 27, -20, 56, -47, -14, -4, 38, -1, 58, -51, 35, 7, 2, -8, -10, 9, -28, -47, -50, 39, 40, 26, -38, -50, -26, 33, 49, -35, -42, 18, -53, -49, 52, -24, -36, 53, 23, -59, -57, 65, -35, 14, 12, 10, 38, 27, 4, 11, 31, -7, -29, 45, -49, -16, 35, -47, -16, 28, 11, 4, -58, 7, 67, -37, 30, -55, -42, 22}
, {48, -46, 45, -49, 31, -14, -1, 43, 1, -1, -14, 56, -48, 16, 16, -21, -35, -48, 20, -1, 45, -13, 18, -56, -9, -9, -55, 62, -19, 20, -46, -55, -2, 39, -43, 32, 11, 41, -17, 56, -58, 41, -55, -30, 44, 13, 6, -32, -11, -17, 20, 21, 36, 8, 52, 18, -50, -9, -19, 26, -30, 19, 52, -42, -12, -27, 56, 30, -31, 56, 13, 42, -51, -24, 5, -33, -61, -36, -60, -47, -19, -25, 10, -45, 43, -13, -56, -36, 38, -42, -9, 10, -45, 60, -21, -7, 15, 59, -7, -25, -44, 58, 52, 31, -15, -23, 46, -44, 1, -44, 36, 25, 55, 9, 31, -6, -43, 26, -57, 0, -1, -1, 15, -42, -17, 51, 35, -13, -55, -9, 58, -39, -36, -62, -4, 35, 57, 30, -32, -8, 0, 9, -1, 26, -43, 25, 8, -33, -52, -56, 2, -45, 33, 3, 18, -57, -26, 43, -19, -31, -20, 26, -57, 12, 4, -23, 29, -32, -52, -31, 55, -15, -26, 62, -38, 54, -44, -3, 56, -54, 3, -35, 16, -3, -44, -26, -10, -44, 9, 44, 31, 53, -9, -50, -54, -21, -54, 22, 54, 21}
, {31, 46, -9, -46, -57, 21, -17, 54, 4, -12, 41, 54, 56, -11, -20, -62, 29, 24, -66, 24, 29, 5, 24, 24, 41, -41, -54, 46, 29, -39, 47, 50, 40, 52, 5, 28, -34, 44, 7, -1, -39, -60, -24, 49, -3, 24, 1, 22, -53, 11, 10, -39, -61, -20, -17, 19, -56, 16, -57, 50, 9, 27, -44, -42, -25, 21, 54, -64, 15, 16, -55, -6, 20, -33, -27, 40, -16, -54, 14, 23, 18, 7, 41, -49, 25, -57, 28, 39, 5, 52, 26, 55, -55, 8, 7, -63, -49, 2, 25, 44, 43, -35, -60, 36, 37, -36, -5, 0, -54, 59, 55, 33, 49, 59, -40, 1, 34, 37, 4, -11, -58, -21, 23, -12, -27, -1, -39, 39, -39, -59, 36, 21, 28, -15, 1, 1, 47, 7, -24, -17, 3, 0, 37, -47, 40, -10, -33, 33, -37, 56, -51, 35, -36, -20, 24, -4, 47, 66, 12, -43, 37, -27, 46, -57, -37, 2, 23, -37, 28, -49, 2, 34, -52, 1, -47, 20, -45, -44, 48, 22, -40, 23, -19, 48, 5, -29, 36, 13, -32, 57, 0, -2, 2, 38, -5, -38, 51, 50, -56, -17}
, {-31, -27, 8, -39, -1, -52, 7, 9, 12, 47, 41, 14, -39, -27, -57, 30, -16, 42, 22, -50, -15, -50, -54, -57, 2, 47, -2, 62, 14, 52, 37, 47, -1, -20, -32, 24, -16, -41, 43, -30, -25, 31, 16, 20, 33, -44, -12, 7, -49, -10, -40, 32, -9, -40, -13, 19, -61, 44, 41, -36, 55, -32, -18, 4, -41, 20, 59, -18, 51, -3, 54, -8, 50, 60, 18, 55, 62, 1, -36, 41, 49, -60, -58, 8, -44, -11, -10, -45, -43, -47, -6, -41, 48, 11, -30, 23, -13, -30, 42, -33, -11, -39, 49, 24, -41, -48, 31, -53, -13, -61, 3, 50, -53, -5, 57, 15, -33, 37, 16, -18, 34, -23, -51, 18, 57, 22, -59, 41, 6, -9, 55, -22, -55, 51, 55, -46, -50, -27, 14, -51, -6, -39, -44, -38, -28, -35, -39, -58, 46, -52, 11, -15, -12, -39, -14, 34, -56, 33, 49, 24, 58, -18, -16, -30, -62, 25, -44, 7, -32, 37, 25, 49, -53, -4, -4, -18, -25, 54, -27, 46, -6, -55, -56, 35, -13, 25, -56, -60, -37, -9, 0, -5, -47, 23, -55, 14, -37, -54, -54, 20}
, {0, -47, 15, 48, 62, 32, 56, 0, -50, 35, -21, 3, 19, -49, -39, 41, -26, -28, 30, 44, -43, -12, 34, -62, 20, -52, 33, 61, -52, 50, 47, 45, 37, -20, 51, -64, 33, 8, -62, -3, -52, -35, 54, -40, -65, 39, -55, 3, 53, -34, 60, 56, -52, 42, -6, -45, 19, -26, -1, -2, -23, 42, 22, -56, 35, 47, -36, 6, 3, 24, -18, -47, 64, -52, -42, 7, -52, 33, -31, 20, -66, -50, 13, 19, 21, -58, -39, -55, 34, 20, -38, -17, -59, -48, -12, -60, 13, -48, -29, 35, -59, 17, 52, -42, -57, 4, 20, 10, -16, 22, 51, -40, 48, -8, -5, 27, 26, -20, 47, 52, 35, -17, 15, -57, -33, 5, -27, 49, 7, -13, -46, 23, -55, 18, 55, 49, -42, -10, 62, -42, -25, 32, 26, -1, 53, 54, 10, -41, 16, -62, -8, 40, 1, -12, -46, -49, 15, 36, 58, -29, -1, 29, 40, 10, 23, 16, 37, 1, -54, 41, 43, -21, 49, -22, 2, -59, -11, 39, 28, 25, 92, -12, -22, 21, 30, -10, 25, 30, 43, -25, 10, 4, -41, -51, 31, 47, 6, 26, 26, 53}
, {16, -50, -31, 26, 47, -16, -11, 1, 13, 12, -38, 30, -30, -27, 3, -9, 48, -24, 6, -24, 47, -53, -42, -26, 58, 41, 42, 21, 12, -43, -32, 30, 35, -33, 53, 45, -54, -5, -51, 88, 30, -14, 3, -25, 7, -27, -29, 43, -57, 35, 5, -41, -51, -5, 29, 49, -7, 5, -54, 36, -54, -29, 17, 55, -6, 65, -49, 19, 5, 34, 12, -60, -33, 51, -16, -8, 36, -66, -3, 64, 22, -46, -20, 52, 51, 55, 66, 59, -39, -4, -21, -56, 13, 1, 21, -61, 30, 40, 34, -3, -52, 37, -28, 2, 41, 32, 29, 5, -1, 44, 45, -8, 3, 51, 62, -38, -1, 18, 36, 58, -58, -1, 16, 23, 38, -52, -37, 58, 35, -54, 52, 38, -28, 22, -8, 42, -23, -51, -32, 2, -40, 40, -39, -50, 5, -50, 6, -17, 14, -25, -64, -61, 59, -2, -24, -23, 19, -35, -11, 2, 25, -22, -7, -40, 49, 41, 7, -6, -23, 57, -51, -22, -11, -14, 56, -64, -25, 45, -5, 47, 17, 50, 16, -39, 14, 32, 42, -54, 28, -19, -37, 22, 55, 36, 5, -10, 50, 21, 13, 25}
, {-8, -16, 21, -31, -53, -31, 35, 21, -11, -44, -38, -47, -37, 26, -56, 41, -4, -19, -6, 29, -3, -9, 28, -8, 32, -2, -32, 0, -62, -1, 0, -50, 15, 27, 0, 3, -30, 33, -25, 15, 59, 45, 26, 25, -40, 31, -1, 45, -42, 44, 34, -18, 14, -5, -1, 38, -11, -5, 18, -46, 13, 17, -7, 35, 13, 2, -10, 46, -5, -54, -36, -37, -13, 10, -1, -28, 39, -23, -23, 20, 11, 17, -34, -8, 31, 3, 10, 22, 38, -40, 44, -22, -13, -31, 43, 41, 39, 21, -27, 53, 8, 0, -49, -61, 51, -50, 24, 16, -9, 12, -51, 18, -38, -32, 8, -28, 12, -59, 49, 38, 32, -6, -49, 10, 18, 26, 2, -7, 21, -54, 45, -61, -6, -9, 58, 15, -4, -16, -29, -31, -54, -21, -25, -30, 36, -13, 32, -30, 11, 18, -55, -51, 20, 39, 4, -13, -2, -45, 9, -20, 20, 52, -27, 30, 1, -18, -21, -17, 36, -46, 7, 17, 53, -24, 0, 7, 22, -25, 21, -60, 53, 28, -39, -12, 16, -61, -35, 42, 29, -30, 7, -22, -15, 22, -5, 60, -36, 28, -47, -51}
, {58, 27, -29, 36, 33, 0, -6, -19, 10, -47, 9, -26, 17, -29, -60, 61, -21, 44, -9, -16, 56, 2, -21, -37, 31, 18, 60, 3, 32, -28, -53, 3, 23, 28, -53, 30, -1, 45, -15, 21, 59, 41, -46, 7, -31, -49, -18, -43, -9, 28, -45, -21, -34, -26, 13, -5, 39, 54, 34, 34, 4, 6, 44, -32, 41, 24, -18, 41, -15, 55, -57, 54, 41, -45, 8, -27, 30, -64, 55, 3, 11, -50, -56, 16, 8, 10, -7, -8, -61, -57, -6, 3, -34, -42, -40, -34, 32, 4, 21, 54, 34, -8, 24, -11, -18, -28, -42, -2, 17, -38, -4, -36, 31, 4, 12, 45, 5, 0, 35, -30, 32, 11, 54, -10, -9, 55, -21, 29, 11, 10, -52, -16, 52, -64, 42, -58, 48, -53, -51, 57, -5, -56, -33, 23, -14, 34, 10, 52, 18, 52, 6, -9, 41, -27, -6, -58, 19, -51, -31, -1, -33, -45, -3, -6, -30, -47, -24, 38, 5, -15, -5, -28, -30, -7, -1, 17, 55, 17, 59, -1, -49, 41, -53, 52, 41, 54, -56, -10, -15, 11, -4, -4, -20, -65, 49, 47, -6, -4, 49, 13}
, {-3, 22, -13, -38, 29, -19, 2, -4, 50, -18, 2, -35, 8, 24, -49, 25, -55, 45, -28, 40, -52, -49, -58, 4, 62, -26, -33, 12, -9, 0, -29, 14, 23, -46, 19, -50, 30, 20, 32, -51, 52, 1, 49, 42, -50, 23, 27, 48, 55, -19, 17, 32, 42, -45, -52, -50, -59, 53, 25, 18, 59, -19, 53, 52, -42, -22, -44, 23, 45, -55, 37, -62, 39, -5, -64, -24, 31, -34, -45, -9, 19, 53, -19, -58, 8, -35, -43, 54, 52, 0, 30, 37, 41, 22, -16, 3, -1, 38, -9, 8, -8, -24, -33, 32, -57, -39, -62, -40, -18, 32, 39, 58, -22, -4, 17, -55, -5, 27, 6, -26, 36, 26, -53, 15, -56, -54, 50, 2, 49, -64, 51, -52, -15, -10, -28, -62, 56, -40, -29, -6, 42, 19, -59, -56, 25, 21, 41, 23, 24, -19, 0, -28, -1, 37, 52, 50, -7, -29, 30, 29, -45, -3, 48, -22, -35, -3, -11, -3, 34, 34, -6, -15, 31, 28, 15, -25, -36, 43, -53, -38, 65, -43, 22, -42, -50, -14, 28, 8, -2, -64, -31, 35, -26, -28, 27, -25, 4, -1, 18, 18}
, {15, -58, 1, -51, 17, -10, -17, 22, 38, -41, 46, -69, 45, 39, -5, 4, 28, 57, 17, -16, 23, -35, 0, -5, -32, -8, 49, -58, 23, -26, 32, 36, 43, -5, -14, 55, 5, 23, -55, 18, -3, 48, 60, -44, -56, 12, 21, -23, -52, -34, -41, -51, -19, -50, -27, 20, 15, 21, -20, 58, 0, 38, -53, 17, 30, 46, 58, -25, -29, -21, 41, -47, -3, 61, 58, -3, -10, -47, -8, 0, 26, 7, 55, -63, 47, 9, -42, -36, -52, -56, 30, -3, 6, 55, 47, -29, -10, 30, -48, -12, 10, -3, -4, 53, 43, -36, 12, -28, 6, -2, -55, 37, 11, 67, -24, 12, 39, -48, -46, -15, 33, 24, -27, -26, 29, -23, -33, 35, -47, 45, 48, -62, 16, -34, 41, 34, 37, -26, 25, 42, 49, 14, 43, 51, -36, -59, -30, -28, -28, -28, 12, 45, 0, 0, 44, 51, 33, -57, 67, 56, -17, 38, -6, 50, 19, 19, 56, 47, -60, -23, 16, 23, -57, 43, -60, 51, 35, -56, -40, -25, -1, -52, 38, -31, 17, 34, -61, -28, 50, 14, -39, 0, 17, -39, 16, -35, 21, 50, -32, 54}
, {22, 22, 65, -19, -30, -33, -40, 31, -29, -55, -3, 26, -61, 0, -14, 56, -12, 61, 50, 24, 34, -43, -19, -35, 58, 45, -54, -31, -37, 20, -34, 44, -18, -20, -62, 44, 54, -5, 52, 60, 38, -31, -24, -17, 28, -9, 57, -58, -47, -8, -48, 37, 48, 16, -20, 50, -51, 0, -3, -42, -54, 4, -36, 23, -27, 32, 38, -47, -58, 60, 42, -4, 20, 21, -3, -45, 15, -46, 36, 43, -49, -29, 37, -20, -60, 2, 58, 14, 58, 36, 58, -19, 0, -35, -22, 29, -26, -45, -35, 56, -3, -20, 0, 34, -64, -11, 0, 28, -40, 53, 66, -42, 6, 30, -29, -55, 9, 60, 55, -17, 20, -22, -18, -52, -3, -15, -35, -3, 44, 28, 13, -4, 58, 21, -25, 20, 35, -44, -1, -47, 33, 38, 56, 24, -54, -51, -22, 5, -32, 38, 47, -48, 31, -39, -25, 30, -48, 28, -35, 20, 37, -55, -59, -5, 1, -39, 26, 1, 48, 54, 36, 43, 43, 20, 7, -63, -14, -3, 19, 9, 19, -27, -33, -52, 64, 32, -32, -1, -4, -7, -48, -7, 63, 39, -55, 18, -28, 12, -34, 47}
